#pragma once
#include "../../global_settings.h"
#include "../conv2d_settings.h"
#include "../../mpool2d/data/maxpool2d_0.h"

#ifndef CONV2D_2_H
#define CONV2D_2_H

#define C2D_2__RAW_IN_LINES     MP2D_0__RAW_OUT_LINES
#define C2D_2__RAW_IN_COLS      MP2D_0__RAW_OUT_COLS
#define C2D_2__RAW_OUT_LINES    C2D_2__RAW_IN_LINES
#define C2D_2__RAW_OUT_COLS     C2D_2__RAW_IN_COLS

#define C2D_2__IN_LINES         (C2D_2__RAW_IN_LINES + PADDING)
#define C2D_2__IN_COLS          (C2D_2__RAW_IN_COLS + PADDING)

#define C2D_2__OUT_LINES        C2D_2__IN_LINES
#define C2D_2__OUT_COLS         C2D_2__IN_COLS


/**
 * @brief This was taken from "model_json/dump_weights_bias.json". (Channels first)
*/
const conv_t kernel_2[FILTERS][CHANNELS][C2D_KERNEL_LINES][C2D_KERNEL_COLS] = {
    {
        {
            {
                0.0026581177953630686,
                0.0015217342879623175,
                0.0012216015020385385
            },
            {
                -0.0007584441336803138,
                -0.004095324780791998,
                -0.0029054097831249237
            },
            {
                -0.001754051074385643,
                -0.005415949504822493,
                -0.004070692230015993
            }
        },
        {
            {
                -0.0004530836595222354,
                -0.0026828907430171967,
                -0.008964755572378635
            },
            {
                0.003116463776677847,
                -0.003335838671773672,
                -0.014531917870044708
            },
            {
                0.00856209546327591,
                -0.0039693512953817844,
                -0.017205694690346718
            }
        },
        {
            {
                0.00247413432225585,
                -0.0017144604353234172,
                0.0028837628196924925
            },
            {
                0.005400758236646652,
                0.002353009534999728,
                0.006693083792924881
            },
            {
                0.007023022975772619,
                0.0021179572213441133,
                0.0038169787731021643
            }
        },
        {
            {
                0.0008022278780117631,
                0.003108730772510171,
                0.0037443016190081835
            },
            {
                0.003994904924184084,
                0.005314844194799662,
                0.007059880066663027
            },
            {
                0.0034485363867133856,
                0.006116567179560661,
                0.0075240652076900005
            }
        },
        {
            {
                0.002097363118082285,
                -0.0020263399928808212,
                -0.001982821384444833
            },
            {
                0.0003723601112142205,
                -0.000822763831820339,
                -0.0029920635279268026
            },
            {
                0.0024258983321487904,
                -0.0005036027869209647,
                -0.003387373173609376
            }
        },
        {
            {
                -0.004784522112458944,
                -0.003463961649686098,
                -0.002017766935750842
            },
            {
                0.0002742444339673966,
                0.0007840119651518762,
                0.0003216469194740057
            },
            {
                0.002008791547268629,
                0.00151581852696836,
                -0.0042016287334263325
            }
        },
        {
            {
                -0.002433489542454481,
                0.0001941367518156767,
                0.001564036007039249
            },
            {
                -0.005019934382289648,
                0.0020167625043541193,
                0.0017657309072092175
            },
            {
                -0.004407286643981934,
                0.008176951669156551,
                0.007837317883968353
            }
        },
        {
            {
                0.00014754696167074144,
                -0.0047302343882620335,
                0.00044456665636971593
            },
            {
                -0.000619111058767885,
                -0.0021466596517711878,
                0.0010463971411809325
            },
            {
                -0.00201905588619411,
                -0.0015168428653851151,
                0.0015453759115189314
            }
        },
        {
            {
                0.003126452909782529,
                -0.00566872488707304,
                -0.005693701095879078
            },
            {
                0.005163281224668026,
                -0.0070200213231146336,
                -0.010247394442558289
            },
            {
                0.009789804928004742,
                -0.005686415359377861,
                -0.012518506497144699
            }
        },
        {
            {
                -0.007097830530256033,
                -0.003556046402081847,
                -0.002903843531385064
            },
            {
                -0.0027374622877687216,
                0.0018854127265512943,
                -0.0012123313499614596
            },
            {
                -0.001536793657578528,
                -0.001226684544235468,
                -0.004526840522885323
            }
        },
        {
            {
                0.0011344444938004017,
                -0.0019720345735549927,
                -0.00527488999068737
            },
            {
                0.004902433604001999,
                0.0029968975577503443,
                -0.0014120853738859296
            },
            {
                0.00815877877175808,
                0.0039679910987615585,
                -0.0026738890446722507
            }
        },
        {
            {
                -0.0003062527975998819,
                0.006301794666796923,
                0.003854094073176384
            },
            {
                0.00333988550119102,
                0.007689519319683313,
                0.004485345911234617
            },
            {
                -0.0007240073755383492,
                0.006165698636323214,
                0.0015276288613677025
            }
        },
        {
            {
                -0.0013970441650599241,
                -0.0001574402704136446,
                0.0004045152454636991
            },
            {
                0.002319464460015297,
                0.003097743261605501,
                0.0038064236287027597
            },
            {
                0.0029178771656006575,
                0.0009949333034455776,
                0.00023689772933721542
            }
        },
        {
            {
                0.0028624434489756823,
                -0.004036744590848684,
                0.0017776241293177009
            },
            {
                0.001565092010423541,
                -0.001908757840283215,
                -3.17805347549438e-06
            },
            {
                8.679574966663495e-05,
                -0.0039067561738193035,
                -0.0027667954564094543
            }
        },
        {
            {
                0.0037698482628911734,
                -0.0025450685061514378,
                -0.008244290016591549
            },
            {
                0.006483504083007574,
                0.0020962751004844904,
                -0.004898683167994022
            },
            {
                0.010361638851463795,
                0.006883580703288317,
                -0.004504870623350143
            }
        },
        {
            {
                0.0007997010834515095,
                -0.002256554551422596,
                -0.007862458936870098
            },
            {
                0.003939282149076462,
                -0.0058073485270142555,
                -0.015959184616804123
            },
            {
                0.006748484913259745,
                -0.0061246720142662525,
                -0.017719415947794914
            }
        },
        {
            {
                -0.004513879306614399,
                -0.002343172440305352,
                0.001498992322012782
            },
            {
                0.0001559811644256115,
                0.00295962393283844,
                0.005982310511171818
            },
            {
                0.0015491272788494825,
                0.0035545355640351772,
                0.00664259260520339
            }
        },
        {
            {
                -0.001578683964908123,
                0.0019285624148324132,
                -0.009834487922489643
            },
            {
                -0.00011121463467134163,
                0.004718843847513199,
                -0.01660248637199402
            },
            {
                0.0010549663566052914,
                -0.0008167328778654337,
                -0.021440744400024414
            }
        },
        {
            {
                0.0032652532681822777,
                -0.003416583640500903,
                0.001979998778551817
            },
            {
                -0.0006297797081060708,
                -0.00381558109074831,
                0.00029396609170362353
            },
            {
                -0.0014200471341609955,
                -0.003313543973490596,
                -0.001937779481522739
            }
        },
        {
            {
                0.0020658632274717093,
                0.005552666261792183,
                0.004889624193310738
            },
            {
                -0.0048382761888206005,
                -0.0005497609963640571,
                0.007668082136660814
            },
            {
                -0.0036462785210460424,
                0.00792140606790781,
                0.010795517824590206
            }
        },
        {
            {
                0.0005617027054540813,
                -0.0037314763758331537,
                -0.0016419098246842623
            },
            {
                -0.0007494319579564035,
                -0.0027675735764205456,
                0.0038635896053165197
            },
            {
                0.0022349453065544367,
                -0.0016731413779780269,
                0.005793746095150709
            }
        },
        {
            {
                -0.002007565228268504,
                -0.0048884740099310875,
                -0.006240160204470158
            },
            {
                0.00031985799432732165,
                -0.0014377102488651872,
                -0.003733058227226138
            },
            {
                0.00116645114030689,
                -0.0008293080027215183,
                -0.005586066748946905
            }
        },
        {
            {
                0.0030963020399212837,
                -0.0003131966514047235,
                -0.0014128783950582147
            },
            {
                0.005682018119841814,
                -0.0005397131317295134,
                -0.006599952466785908
            },
            {
                0.007074821274727583,
                -0.005530822556465864,
                -0.004721775185316801
            }
        },
        {
            {
                -0.004376026801764965,
                0.00551490718498826,
                -0.004225532524287701
            },
            {
                -0.0020386353135108948,
                -0.007067512720823288,
                -0.005374154541641474
            },
            {
                0.0033797298092395067,
                -0.008186045102775097,
                -0.006633292883634567
            }
        },
        {
            {
                -0.001474011573009193,
                -0.004143757279962301,
                -0.002648737747222185
            },
            {
                0.0032368856482207775,
                0.0009560445905663073,
                -0.0005214526900090277
            },
            {
                0.00330232921987772,
                0.0010460726916790009,
                -0.0017997195245698094
            }
        },
        {
            {
                0.0017327646492049098,
                -0.0014093781355768442,
                0.0014158020494505763
            },
            {
                0.0024943144526332617,
                -0.0020515667274594307,
                0.0011013621697202325
            },
            {
                -0.000638230936601758,
                -0.0025966118555516005,
                -0.0003520915925037116
            }
        },
        {
            {
                -0.0020231781527400017,
                -0.0011215213453397155,
                -0.0004955735057592392
            },
            {
                0.0026927022263407707,
                -0.00018306025594938546,
                1.185965447803028e-05
            },
            {
                0.0018704186659306288,
                0.0004650285409297794,
                0.0013083316152915359
            }
        },
        {
            {
                0.004676287528127432,
                -0.0009229463757947087,
                -0.0022418745793402195
            },
            {
                0.005469630006700754,
                -0.0016839539166539907,
                -0.0016425753710791469
            },
            {
                0.0032579866237938404,
                -0.0026697672437876463,
                -0.0014629751676693559
            }
        },
        {
            {
                0.0002551028155721724,
                -0.0016196288634091616,
                -0.0005666312063112855
            },
            {
                0.0016896240413188934,
                -0.0008802780648693442,
                -0.0016727237962186337
            },
            {
                -0.00022311773500405252,
                -0.004625518340617418,
                -0.004156809765845537
            }
        },
        {
            {
                0.0035591707564890385,
                -0.003437846666201949,
                -0.0025358519051223993
            },
            {
                0.004070454277098179,
                -0.0009944726480171084,
                0.00101064785849303
            },
            {
                0.0043312120251357555,
                -0.0019495896995067596,
                0.002104158978909254
            }
        },
        {
            {
                0.001478123478591442,
                0.0020396870095282793,
                -0.001021300326101482
            },
            {
                0.0029529924504458904,
                0.0049852244555950165,
                -2.042488267761655e-05
            },
            {
                0.004380069673061371,
                0.006116966716945171,
                0.0013951228465884924
            }
        },
        {
            {
                0.0025155183393508196,
                -0.00048130270442925394,
                0.009753309190273285
            },
            {
                -0.0006485741469077766,
                -0.0029224965255707502,
                0.008157392032444477
            },
            {
                -0.0016509745037183166,
                -0.0053902920335531235,
                0.005929801147431135
            }
        },
        {
            {
                -0.003953563515096903,
                -0.006497064605355263,
                -0.004240313544869423
            },
            {
                0.0009276738273911178,
                -0.002359845442697406,
                -0.0037725106813013554
            },
            {
                0.0014155310345813632,
                -0.0020961107220500708,
                -0.006467565428465605
            }
        },
        {
            {
                0.0034178439527750015,
                0.0012814532965421677,
                0.00042934922385029495
            },
            {
                0.0005585315520875156,
                -0.0003250890877097845,
                -0.0045253438875079155
            },
            {
                0.002539761597290635,
                0.0018662384245544672,
                -0.0023020736407488585
            }
        },
        {
            {
                -0.002513728803023696,
                -0.003790413262322545,
                -0.002935129450634122
            },
            {
                -0.0002410752495052293,
                -0.0011734083527699113,
                -0.0026700960006564856
            },
            {
                0.0012684805551543832,
                -0.0012703213142231107,
                -0.005820998921990395
            }
        },
        {
            {
                -0.00047999536036513746,
                0.0021239558700472116,
                -0.006878578569740057
            },
            {
                -0.0016683578724041581,
                0.0027250892017036676,
                -0.01075347326695919
            },
            {
                -0.001064704149030149,
                0.0028102556243538857,
                -0.008331980556249619
            }
        },
        {
            {
                -0.0011639203876256943,
                -0.0027878324035555124,
                0.0035855763126164675
            },
            {
                0.0015808299649506807,
                0.0003675614425446838,
                0.008960827253758907
            },
            {
                0.0003063620824832469,
                0.0004886984825134277,
                0.007101959083229303
            }
        },
        {
            {
                -0.0010261402931064367,
                0.0017990259220823646,
                0.0038103628903627396
            },
            {
                0.0011478887172415853,
                0.0009761819965206087,
                0.0017602965235710144
            },
            {
                0.0011345705715939403,
                0.0032783192582428455,
                0.004069770220667124
            }
        },
        {
            {
                -0.002455627080053091,
                -0.00037408043863251805,
                -0.0005853493930771947
            },
            {
                -0.001009410247206688,
                0.00013066979590803385,
                6.316885264823213e-05
            },
            {
                -0.0008511390187777579,
                0.0005093024228699505,
                0.00060299999313429
            }
        },
        {
            {
                -0.0013106943806633353,
                -0.0033262635115534067,
                -0.005063365679234266
            },
            {
                -0.0004503604141063988,
                -0.0004430610279086977,
                -0.0025372086092829704
            },
            {
                0.0005389336729422212,
                0.001646295073442161,
                -0.002257429761812091
            }
        },
        {
            {
                0.0005740404012612998,
                -0.0032770377583801746,
                -0.0022352361120283604
            },
            {
                -0.002111010253429413,
                -0.0020098122768104076,
                0.004139256663620472
            },
            {
                0.002248503966256976,
                0.0006380956619977951,
                0.005272023379802704
            }
        },
        {
            {
                -0.0054305605590343475,
                -0.000723299162928015,
                0.0011771087301895022
            },
            {
                -0.002958059310913086,
                8.269606769317761e-05,
                0.0038398029282689095
            },
            {
                -0.0024007216561585665,
                -0.0009057379211299121,
                0.003446240909397602
            }
        },
        {
            {
                0.006351518910378218,
                0.00022752500080969185,
                -3.0858256650390103e-05
            },
            {
                0.0025350572541356087,
                -0.0019553075544536114,
                -0.0017150819767266512
            },
            {
                0.001926411292515695,
                0.0014455773634836078,
                -0.00033148526563309133
            }
        },
        {
            {
                0.0006557309534400702,
                0.0015634995652362704,
                0.0029511824250221252
            },
            {
                0.002332364208996296,
                0.004315448459237814,
                0.004420306999236345
            },
            {
                0.0032752344850450754,
                0.0013232430210337043,
                0.006040789652615786
            }
        },
        {
            {
                -0.0024855334777384996,
                -0.007702552247792482,
                -0.0006004348397254944
            },
            {
                -0.003035508329048753,
                -0.007337543182075024,
                -0.006133703514933586
            },
            {
                0.003989308141171932,
                -0.0056393882259726524,
                -0.008996238932013512
            }
        },
        {
            {
                0.005383224226534367,
                0.005618117284029722,
                0.0035463999956846237
            },
            {
                0.004122973419725895,
                0.003755557117983699,
                -0.0011077045928686857
            },
            {
                0.0025813167449086905,
                0.007354754954576492,
                0.0032111078035086393
            }
        },
        {
            {
                0.003234557341784239,
                -0.004420287441462278,
                -0.0003782781714107841
            },
            {
                0.0022245519794523716,
                -0.0016996527556329966,
                0.0011499110842123628
            },
            {
                0.003683053655549884,
                8.32657897262834e-05,
                0.0007081633084453642
            }
        },
        {
            {
                0.004338436294347048,
                0.0028213965706527233,
                0.002203281270340085
            },
            {
                0.0017115898663178086,
                -0.0013243777211755514,
                0.004336729180067778
            },
            {
                -0.00127131724730134,
                0.002666493644937873,
                0.00432945042848587
            }
        },
        {
            {
                -0.007270429283380508,
                0.0038552505429834127,
                0.006201685406267643
            },
            {
                -0.005865077488124371,
                -0.0002284591319039464,
                0.00661387899890542
            },
            {
                -0.007334625348448753,
                0.0069457911886274815,
                0.014310261234641075
            }
        },
        {
            {
                0.001436161226592958,
                -0.00011193678801646456,
                -0.004570385441184044
            },
            {
                0.0024839150719344616,
                0.0027615861035883427,
                -0.0022367145866155624
            },
            {
                0.004046272020787001,
                0.004725858569145203,
                -0.0005814235773868859
            }
        },
        {
            {
                -0.0023474867921322584,
                -0.004441339988261461,
                -0.008046329021453857
            },
            {
                0.0038199599366635084,
                -0.0015314791817218065,
                -0.012887924909591675
            },
            {
                0.007767599541693926,
                0.002727833343669772,
                -0.011568884365260601
            }
        },
        {
            {
                -0.0017479915404692292,
                0.0002266303781652823,
                0.003975780680775642
            },
            {
                -0.002162168500944972,
                -0.0003122248162981123,
                0.004093907307833433
            },
            {
                0.0028856685385107994,
                0.001102625741623342,
                0.0028121648356318474
            }
        },
        {
            {
                0.0005352476728148758,
                -0.000488987541757524,
                -0.0009586820378899574
            },
            {
                0.0023717181757092476,
                0.0022159612271934748,
                0.00011016135977115482
            },
            {
                0.002102098660543561,
                0.0009898216230794787,
                -0.0023696969728916883
            }
        },
        {
            {
                -0.0030889171175658703,
                0.0008080231491476297,
                0.0003851874207612127
            },
            {
                -0.0027112041134387255,
                -0.00021357779041863978,
                -0.0003472267708275467
            },
            {
                -0.0020581409335136414,
                0.0009309465531259775,
                -0.0015731309540569782
            }
        },
        {
            {
                0.004099866840988398,
                0.000886024790816009,
                0.004307860974222422
            },
            {
                0.005523331928998232,
                0.0028672802727669477,
                0.005772246979176998
            },
            {
                0.0035270124208182096,
                -3.469987859716639e-05,
                0.006678889971226454
            }
        },
        {
            {
                -0.006674726493656635,
                -6.261360249482095e-05,
                0.0009791662450879812
            },
            {
                -0.004160015843808651,
                0.0009855240350589156,
                0.002147682709619403
            },
            {
                -0.0023766483645886183,
                0.0031490318942815065,
                0.003502828534692526
            }
        },
        {
            {
                -0.0033112820237874985,
                -0.0037473111879080534,
                -0.002734800335019827
            },
            {
                -0.001641810405999422,
                -0.002254531253129244,
                -0.002018711296841502
            },
            {
                -0.00023378050536848605,
                -0.0020846882835030556,
                -0.005863512400537729
            }
        },
        {
            {
                0.0023682189639657736,
                -0.0016560674412176013,
                0.001968241762369871
            },
            {
                -0.0007399899768643081,
                -9.355125803267583e-05,
                -0.00026997976237908006
            },
            {
                0.0016363774193450809,
                0.0007242044666782022,
                -0.0014406266855075955
            }
        },
        {
            {
                -0.005477406084537506,
                -0.0006938420701771975,
                -0.00046360891428776085
            },
            {
                -0.0035059077199548483,
                0.0011588126653805375,
                0.0024700092617422342
            },
            {
                -0.0054489001631736755,
                -0.000506238138768822,
                0.002159173134714365
            }
        },
        {
            {
                0.0009432180086150765,
                -2.5118361008935608e-05,
                -0.006332135293632746
            },
            {
                0.005224358290433884,
                0.003200946841388941,
                -0.0010310382349416614
            },
            {
                0.0032428393606096506,
                -0.0006941813626326621,
                -0.007573078386485577
            }
        },
        {
            {
                0.0012593765277415514,
                0.004021486267447472,
                0.0016869900282472372
            },
            {
                0.002987181767821312,
                0.005293302237987518,
                0.0018617979949340224
            },
            {
                0.0028518016915768385,
                0.006636304315179586,
                0.0016539109637960792
            }
        },
        {
            {
                0.0013596941716969013,
                4.5964359742356464e-05,
                0.0015627389075234532
            },
            {
                0.0028627165593206882,
                0.002952710259705782,
                0.004878828767687082
            },
            {
                0.0036961189471185207,
                0.0023733116686344147,
                0.0025688365567475557
            }
        },
        {
            {
                -0.00039207213558256626,
                0.00015441370487678796,
                0.0016308482736349106
            },
            {
                0.002805024851113558,
                0.002986201783642173,
                0.004751267842948437
            },
            {
                0.0031218735966831446,
                0.0024803064297884703,
                0.0029989401809871197
            }
        },
        {
            {
                0.00018003534933086485,
                -0.0005406587151810527,
                -0.005597924347966909
            },
            {
                0.0026631818618625402,
                0.0001081402733689174,
                -0.007202331908047199
            },
            {
                0.0046264054253697395,
                0.0014187932247295976,
                -0.006208836100995541
            }
        }
    },
    {
        {
            {
                -0.000952357251662761,
                -0.0072022657841444016,
                -0.00500217592343688
            },
            {
                -0.0006209645071066916,
                -0.006598292384296656,
                -0.004331259988248348
            },
            {
                0.00030691298888996243,
                -0.005199972540140152,
                -0.004139735363423824
            }
        },
        {
            {
                0.0032542115077376366,
                -0.00042398221557959914,
                -0.0061181350611150265
            },
            {
                0.008328092284500599,
                0.0023383540101349354,
                -0.0005503109423443675
            },
            {
                0.006167142651975155,
                -0.004389252047985792,
                -0.0075739845633506775
            }
        },
        {
            {
                0.00023693866387475282,
                0.00020141519780736417,
                -0.0012867205077782273
            },
            {
                -0.003089176258072257,
                -0.0018530790694057941,
                -0.0020694490522146225
            },
            {
                -0.0027687842957675457,
                -0.00044975843047723174,
                0.001758590224198997
            }
        },
        {
            {
                -0.0013712496729567647,
                -0.0008156500407494605,
                -7.382365311059402e-06
            },
            {
                -0.005801192484796047,
                -0.0010823059128597379,
                -0.0008452570764347911
            },
            {
                -0.00548819825053215,
                -0.0012074216501787305,
                -0.0003990427649114281
            }
        },
        {
            {
                0.01177108846604824,
                0.0075770155526697636,
                0.00043283114791847765
            },
            {
                0.012354012578725815,
                0.008282802999019623,
                0.005434344056993723
            },
            {
                0.011430134065449238,
                0.01042556669563055,
                0.007501313462853432
            }
        },
        {
            {
                0.0011575128883123398,
                0.00264405133202672,
                -0.002891051582992077
            },
            {
                0.002956342650577426,
                -0.0018703482346609235,
                -0.003228035056963563
            },
            {
                0.005319575313478708,
                0.0005293213180266321,
                0.002081367652863264
            }
        },
        {
            {
                0.003462522756308317,
                0.01575472392141819,
                0.01374485157430172
            },
            {
                -0.0027135824784636497,
                0.007545918691903353,
                0.0046732365153729916
            },
            {
                -0.008861229754984379,
                -0.0008623680914752185,
                -0.0012655374594032764
            }
        },
        {
            {
                -0.0021970930974930525,
                -0.0022900900803506374,
                0.0021943473257124424
            },
            {
                0.0003117289743386209,
                -0.0009377641836181283,
                0.004831517115235329
            },
            {
                0.00308054662309587,
                0.004811837803572416,
                0.007714550010859966
            }
        },
        {
            {
                0.010395249351859093,
                0.002123675076290965,
                -0.0033932235091924667
            },
            {
                0.015298007987439632,
                -0.0021955298725515604,
                -0.0028640676755458117
            },
            {
                0.006727696396410465,
                -0.00969941820949316,
                -0.009176742285490036
            }
        },
        {
            {
                0.0005246477667242289,
                -0.00568578252568841,
                -0.002980165183544159
            },
            {
                -0.002351928036659956,
                -0.001274503068998456,
                -0.00011295117292320356
            },
            {
                0.0016080420464277267,
                0.005881013348698616,
                0.00213998113758862
            }
        },
        {
            {
                0.006137044634670019,
                0.0016031197737902403,
                -0.008006136864423752
            },
            {
                0.0020256326533854008,
                0.002956315642222762,
                -0.0058942451141774654
            },
            {
                0.0008339508203789592,
                0.0039988732896745205,
                -0.0034309779293835163
            }
        },
        {
            {
                -0.004371621645987034,
                0.007626930717378855,
                0.01040040422230959
            },
            {
                -0.009814065881073475,
                0.0063064489513635635,
                0.009033934213221073
            },
            {
                -0.002236252650618553,
                0.012133043259382248,
                0.014986507594585419
            }
        },
        {
            {
                -0.00043448558426462114,
                0.0009935528505593538,
                -0.0022795924451202154
            },
            {
                -0.0044213333167135715,
                -0.00024250625574495643,
                -0.003546284046024084
            },
            {
                -0.00582220871001482,
                7.596018986077979e-05,
                -0.0013889842666685581
            }
        },
        {
            {
                -0.00295412540435791,
                0.0005679026944562793,
                -0.002480815164744854
            },
            {
                0.007440325804054737,
                0.005400744266808033,
                0.006492734886705875
            },
            {
                0.012179723009467125,
                0.009844859130680561,
                0.013976548798382282
            }
        },
        {
            {
                0.004259939771145582,
                0.0068121436052024364,
                -0.001220629084855318
            },
            {
                0.0070498124696314335,
                0.006453437265008688,
                -0.0015789716271683574
            },
            {
                0.00795641727745533,
                0.005665229633450508,
                -3.9409536839229986e-05
            }
        },
        {
            {
                -0.00024330226005986333,
                -0.0012651544529944658,
                -0.007634843699634075
            },
            {
                0.007866963744163513,
                0.005041021853685379,
                -0.0010225861333310604
            },
            {
                0.005099998787045479,
                -0.002490298356860876,
                -0.0077491444535553455
            }
        },
        {
            {
                -0.0031606596894562244,
                0.0014653794933110476,
                -0.0026052931789308786
            },
            {
                -0.009883427992463112,
                -0.0003439199645072222,
                -0.003034719033166766
            },
            {
                -0.009713781997561455,
                0.00021351563918869942,
                -0.00036015029763802886
            }
        },
        {
            {
                -0.0027324343100190163,
                0.002818044973537326,
                -0.008264267817139626
            },
            {
                0.0058731697499752045,
                0.01319510955363512,
                -0.002705405931919813
            },
            {
                0.01159576140344143,
                0.012886034324765205,
                -0.008660533465445042
            }
        },
        {
            {
                -0.007402298506349325,
                0.0007706127944402397,
                -0.0019392292015254498
            },
            {
                0.005729505326598883,
                0.0062017543241381645,
                0.006145767401903868
            },
            {
                0.009358992800116539,
                0.009583317674696445,
                0.015478106215596199
            }
        },
        {
            {
                -0.00917968712747097,
                0.010149982757866383,
                0.01167254988104105
            },
            {
                -0.00848541222512722,
                0.010493963025510311,
                0.011436822824180126
            },
            {
                -0.011667044833302498,
                0.0038542647380381823,
                0.007792000658810139
            }
        },
        {
            {
                0.006178370211273432,
                -0.0015916614793241024,
                -0.004009496886283159
            },
            {
                0.004174519330263138,
                -0.0020297656301409006,
                -0.0053549520671367645
            },
            {
                0.00146284990478307,
                -0.0003212116425856948,
                -0.0022873319685459137
            }
        },
        {
            {
                -0.00016888699610717595,
                0.0015257596969604492,
                -0.006063084118068218
            },
            {
                -0.002052975818514824,
                0.001224452629685402,
                -0.0057889665476977825
            },
            {
                -0.001979161286726594,
                0.004270507954061031,
                -0.0029449956491589546
            }
        },
        {
            {
                -0.002190538914874196,
                -0.0024137794971466064,
                -0.003024499164894223
            },
            {
                0.006028907373547554,
                0.002532385056838393,
                0.006658014375716448
            },
            {
                0.012761767953634262,
                0.005625557154417038,
                0.0019455516012385488
            }
        },
        {
            {
                -0.002173033310100436,
                0.015841016545891762,
                0.02488121949136257
            },
            {
                0.0027930426876991987,
                0.006923238281160593,
                0.01020093448460102
            },
            {
                -0.0026509498711675406,
                0.006296256091445684,
                0.0195475984364748
            }
        },
        {
            {
                0.0012961752945557237,
                0.0016645906725898385,
                -0.0031829793006181717
            },
            {
                -0.002830271143466234,
                0.0008286262163892388,
                -0.0037658722139894962
            },
            {
                -0.0029321396723389626,
                0.0013667537132278085,
                -0.0022565703839063644
            }
        },
        {
            {
                -0.0035674364771693945,
                -0.0002733195142354816,
                -0.0011882911203429103
            },
            {
                -0.0022415765561163425,
                0.0004543709510471672,
                0.00026010602596215904
            },
            {
                0.001337408204562962,
                -0.0011226534843444824,
                0.0026368401013314724
            }
        },
        {
            {
                0.0037519820034503937,
                0.0012672948651015759,
                -0.0018484580796211958
            },
            {
                0.0009020353900268674,
                0.0012656059116125107,
                -0.001156258280389011
            },
            {
                0.0001734736142680049,
                0.0007784759509377182,
                -0.0026494499761611223
            }
        },
        {
            {
                0.0035048529971390963,
                -0.0041143400594592094,
                -0.00204566796310246
            },
            {
                0.00011192396050319076,
                -0.007568357978016138,
                -0.004303682595491409
            },
            {
                0.0022935953456908464,
                -0.006319377571344376,
                -0.0013779340079054236
            }
        },
        {
            {
                0.0009937526192516088,
                -0.0014826253755018115,
                -0.005672498140484095
            },
            {
                -0.0002572766097728163,
                -0.0025760375428944826,
                -0.0051444219425320625
            },
            {
                0.0007070431020110846,
                -0.0005980317364446819,
                -0.0033597431611269712
            }
        },
        {
            {
                0.010316712781786919,
                0.0008000776288099587,
                0.002887271810323
            },
            {
                0.00707519194111228,
                -0.00407706294208765,
                3.268575164838694e-05
            },
            {
                0.0016214586794376373,
                -0.006268091965466738,
                -4.9898666475201026e-05
            }
        },
        {
            {
                0.0008103915024548769,
                0.0013304464519023895,
                0.002225966192781925
            },
            {
                0.0024602108169347048,
                0.0012038960121572018,
                0.0006466888589784503
            },
            {
                0.004128367640078068,
                0.0012772420886904001,
                0.000998205621726811
            }
        },
        {
            {
                -0.005021568387746811,
                -0.010443232953548431,
                -0.002744997153058648
            },
            {
                -0.0026834646705538034,
                -0.005101509392261505,
                -0.0013464853400364518
            },
            {
                -0.007758594583719969,
                -0.009300215169787407,
                -0.00420459546148777
            }
        },
        {
            {
                -0.000530929071828723,
                -8.49383432068862e-05,
                -0.005475040525197983
            },
            {
                -0.0020989535842090845,
                -0.00048283502110280097,
                -0.005434141494333744
            },
            {
                -0.0016497931210324168,
                0.0016203761333599687,
                -0.003943963907659054
            }
        },
        {
            {
                0.0028422577306628227,
                0.003200062084943056,
                -0.002818696666508913
            },
            {
                0.0018957126885652542,
                0.0004251084174029529,
                -0.0032969217281788588
            },
            {
                -0.004032409284263849,
                -0.0018740176456049085,
                -0.004705438390374184
            }
        },
        {
            {
                -0.0009331920300610363,
                -0.00011639863805612549,
                -0.005941787734627724
            },
            {
                -0.0006581259658560157,
                -0.0003388116310816258,
                -0.005508115515112877
            },
            {
                0.000251717894570902,
                0.002370866946876049,
                -0.0037639900110661983
            }
        },
        {
            {
                -0.001361421192996204,
                0.004551881458610296,
                0.0009649500716477633
            },
            {
                0.00817015115171671,
                0.012906044721603394,
                0.002184951212257147
            },
            {
                0.008196434937417507,
                0.009232591837644577,
                -0.004137588199228048
            }
        },
        {
            {
                -0.006254209671169519,
                -0.006352308206260204,
                0.0043940613977611065
            },
            {
                -0.01270122267305851,
                -0.008928750641644001,
                0.00479726679623127
            },
            {
                -0.01113841962069273,
                -0.003982400055974722,
                0.007760370150208473
            }
        },
        {
            {
                -0.009862280450761318,
                -0.0029589752666652203,
                0.0037795118987560272
            },
            {
                -0.013166571035981178,
                0.0005336212343536317,
                0.007155304774641991
            },
            {
                -0.0063371481373906136,
                0.0023679935839027166,
                0.01238594762980938
            }
        },
        {
            {
                0.0028323191218078136,
                0.0020063479896634817,
                -0.0019433292327448726
            },
            {
                0.001896725851111114,
                0.0025774238165467978,
                -0.0002160447183996439
            },
            {
                0.0016548276180401444,
                0.003199889324605465,
                0.00018706386617850512
            }
        },
        {
            {
                -0.0033951778896152973,
                0.0003666304983198643,
                -0.004251174628734589
            },
            {
                -0.002566908486187458,
                0.0024076870176941156,
                -0.004221456125378609
            },
            {
                -0.004236557055264711,
                0.0031207483261823654,
                -0.0017235029954463243
            }
        },
        {
            {
                0.006822177208960056,
                1.3024692634644452e-05,
                -0.0021140549797564745
            },
            {
                0.00484050577506423,
                -0.00034743957803584635,
                -0.002999534597620368
            },
            {
                -0.00023403647355735302,
                0.0019335516262799501,
                0.0018728264840319753
            }
        },
        {
            {
                -0.00021119190205354244,
                0.003300454467535019,
                0.0014166146283969283
            },
            {
                -0.0036180359311401844,
                0.0003245339321438223,
                0.002902590436860919
            },
            {
                -0.004769058898091316,
                0.00035147450398653746,
                0.003285708837211132
            }
        },
        {
            {
                -0.010347702540457249,
                0.004401558078825474,
                -0.0003412360674701631
            },
            {
                0.0027989803347736597,
                0.00926054548472166,
                0.007305063307285309
            },
            {
                0.005906630773097277,
                0.00874007772654295,
                0.011712429113686085
            }
        },
        {
            {
                0.00037285900907590985,
                -0.0027706471737474203,
                0.01291546318680048
            },
            {
                -0.0012163948267698288,
                -0.0009994886349886656,
                0.008411266840994358
            },
            {
                0.007052593398839235,
                0.0037950819823890924,
                0.016856711357831955
            }
        },
        {
            {
                0.02090613916516304,
                0.01388629898428917,
                0.012296436354517937
            },
            {
                0.0263016689568758,
                0.00508780125528574,
                0.007484429515898228
            },
            {
                0.01838066056370735,
                -0.0025772666558623314,
                0.005644668824970722
            }
        },
        {
            {
                -0.014323665760457516,
                0.0034162572119385004,
                0.0032120842952281237
            },
            {
                -0.008925147354602814,
                0.006872452795505524,
                0.004903255496174097
            },
            {
                0.0009849334601312876,
                0.010728434659540653,
                0.010267606936395168
            }
        },
        {
            {
                0.00486966734752059,
                0.001797746168449521,
                -0.0006935521378181875
            },
            {
                0.0027713614981621504,
                -0.00044944335240870714,
                0.0009805074660107493
            },
            {
                0.001730416901409626,
                0.0029398545157164335,
                0.004874770063906908
            }
        },
        {
            {
                -0.010598743334412575,
                0.00523410364985466,
                0.008078621700406075
            },
            {
                -0.0057299877516925335,
                0.014104566536843777,
                0.01108927559107542
            },
            {
                0.004308584611862898,
                0.014250963926315308,
                0.01666070520877838
            }
        },
        {
            {
                -0.0034017220605164766,
                0.018101099878549576,
                0.02532009407877922
            },
            {
                -0.009872517548501492,
                0.008154361508786678,
                0.01454786118119955
            },
            {
                -0.013945813290774822,
                -0.00025364503380842507,
                0.005428996868431568
            }
        },
        {
            {
                0.006666256580501795,
                0.006205414421856403,
                0.0039012543857097626
            },
            {
                0.006935682613402605,
                0.004821901675313711,
                0.0015642043435946107
            },
            {
                0.005528020206838846,
                0.0034288023598492146,
                -0.0006575860315933824
            }
        },
        {
            {
                0.0008237198344431818,
                -0.0023305423092097044,
                -0.012947244569659233
            },
            {
                -0.0010866114171221852,
                -0.007958277128636837,
                -0.011166111566126347
            },
            {
                -0.005540365818887949,
                -0.011973445303738117,
                -0.015476391650736332
            }
        },
        {
            {
                0.008805372752249241,
                0.006644044071435928,
                0.00020130028133280575
            },
            {
                0.004192053806036711,
                0.0004925070097669959,
                0.0006309975287877023
            },
            {
                -0.005087297409772873,
                -0.001283768331632018,
                0.0009330131579190493
            }
        },
        {
            {
                -0.0005320901982486248,
                -0.002140796510502696,
                -0.005293181631714106
            },
            {
                -0.0035312005784362555,
                -0.004073926713317633,
                -0.005295618902891874
            },
            {
                -0.0035767953377217054,
                -0.0028718383982777596,
                -0.0038878729101270437
            }
        },
        {
            {
                -5.78036269871518e-05,
                0.002874656580388546,
                -0.0008886658470146358
            },
            {
                -0.0002467047015670687,
                0.0035241148434579372,
                0.00011121728311991319
            },
            {
                -0.0014910163590684533,
                0.002473038388416171,
                0.00036341967643238604
            }
        },
        {
            {
                0.006370279937982559,
                -0.00464194780215621,
                0.0004533924802672118
            },
            {
                -3.171652497258037e-05,
                -0.0075592705979943275,
                -0.002563794609159231
            },
            {
                -0.0013668693136423826,
                -0.0058016045950353146,
                -0.004173332825303078
            }
        },
        {
            {
                0.0018446545582264662,
                0.0031919002067297697,
                0.0004907430266030133
            },
            {
                -0.001669942052103579,
                0.0008574926177971065,
                0.0020604871679097414
            },
            {
                -0.0036689552944153547,
                0.0009258001227863133,
                0.001456291414797306
            }
        },
        {
            {
                -0.0003291679313406348,
                0.0007931014988571405,
                -0.0055454326793551445
            },
            {
                0.0019411372486501932,
                0.0025175537448376417,
                -0.004064875189214945
            },
            {
                0.0041178264655172825,
                0.005609396379441023,
                -0.0016314785461872816
            }
        },
        {
            {
                0.009325079619884491,
                0.005004832986742258,
                0.0007969569996930659
            },
            {
                0.015430357307195663,
                0.008737589232623577,
                0.00921803992241621
            },
            {
                0.016826247796416283,
                0.013515216298401356,
                0.015849437564611435
            }
        },
        {
            {
                -0.004543886054307222,
                0.0029081034008413553,
                0.0008678943268023431
            },
            {
                -0.007499802857637405,
                -0.00020416223560459912,
                0.0008694151183590293
            },
            {
                -0.007193370722234249,
                -3.488766378723085e-05,
                0.0012522218748927116
            }
        },
        {
            {
                -0.008283562026917934,
                0.0026930568274110556,
                -0.0028841074090451
            },
            {
                0.0006628491100855172,
                -0.002711211796849966,
                -0.008768877945840359
            },
            {
                0.010132968425750732,
                0.001194191281683743,
                -0.0010553584434092045
            }
        },
        {
            {
                0.0011378771159797907,
                0.004664729814976454,
                0.0008259565802291036
            },
            {
                -0.001508270506747067,
                0.00423106225207448,
                0.0015595013974234462
            },
            {
                -0.002151611726731062,
                0.003499913029372692,
                0.0021438640542328358
            }
        },
        {
            {
                0.0010971101000905037,
                0.0024400956463068724,
                -0.0013592442264780402
            },
            {
                -0.0021876306273043156,
                0.0007828242378309369,
                -0.002576167695224285
            },
            {
                -0.0030639099422842264,
                0.0015081510646268725,
                0.0001430374541087076
            }
        },
        {
            {
                -0.0009599128970876336,
                0.0006614573067054152,
                0.0010005362564697862
            },
            {
                -0.005153417121618986,
                -0.0011924111749976873,
                6.37053744867444e-05
            },
            {
                -0.004744253121316433,
                -0.0015591729898005724,
                0.0015532795805484056
            }
        },
        {
            {
                0.004025173373520374,
                -0.0008425620035268366,
                -0.002792053623124957
            },
            {
                0.0024698423221707344,
                0.0002417367068119347,
                -0.004216162487864494
            },
            {
                0.0012515352573245764,
                -0.004147500265389681,
                -0.008305324241518974
            }
        }
    },
    {
        {
            {
                0.00849952269345522,
                0.004819218069314957,
                0.0015487557975575328
            },
            {
                0.0002427556610200554,
                0.001393871963955462,
                -0.0006812203209847212
            },
            {
                0.002657069358974695,
                0.0002788084384519607,
                0.001721119973808527
            }
        },
        {
            {
                -0.036441512405872345,
                0.0005445505958050489,
                0.03428242355585098
            },
            {
                -0.024288181215524673,
                0.027148069813847542,
                0.045831240713596344
            },
            {
                -0.01050535961985588,
                0.03741017356514931,
                0.024663595482707024
            }
        },
        {
            {
                -0.0071951341815292835,
                0.0037132035940885544,
                -0.009994798339903355
            },
            {
                -0.012903494760394096,
                0.002800083952024579,
                -0.006651532370597124
            },
            {
                -0.016147183254361153,
                0.002678994555026293,
                -0.008140016347169876
            }
        },
        {
            {
                -0.0032389953266829252,
                0.0075523145496845245,
                -0.0023538076784461737
            },
            {
                -0.0029953080229461193,
                0.00994155090302229,
                -0.002197220688685775
            },
            {
                -0.006622427608817816,
                0.003632165724411607,
                -0.0015699721407145262
            }
        },
        {
            {
                -0.02671213634312153,
                -0.025432946160435677,
                -0.02691715769469738
            },
            {
                -0.028741654008626938,
                -0.016680333763360977,
                -0.011982097290456295
            },
            {
                -0.017538897693157196,
                -0.019950376823544502,
                -0.017601843923330307
            }
        },
        {
            {
                -0.010429692454636097,
                0.0020559465046972036,
                0.021855447441339493
            },
            {
                0.006546595133841038,
                0.017969073727726936,
                0.030497437343001366
            },
            {
                -0.022346433252096176,
                0.013285339809954166,
                0.012657558545470238
            }
        },
        {
            {
                0.060571711510419846,
                -0.01578485034406185,
                -0.03190245106816292
            },
            {
                0.0427311472594738,
                -0.020968537777662277,
                -0.020184116438031197
            },
            {
                0.04999624192714691,
                -0.006278650835156441,
                -0.007789209485054016
            }
        },
        {
            {
                -0.048115286976099014,
                -0.042303044348955154,
                -0.03261575102806091
            },
            {
                -0.051494162529706955,
                -0.035447727888822556,
                -0.023705309256911278
            },
            {
                -0.0452895313501358,
                -0.03364543244242668,
                -0.03231753036379814
            }
        },
        {
            {
                -0.020428655669093132,
                0.016399703919887543,
                0.04697742685675621
            },
            {
                -0.003024372970685363,
                0.04081490635871887,
                0.03728866949677467
            },
            {
                0.011737770400941372,
                0.051070686429739,
                0.043003227561712265
            }
        },
        {
            {
                -0.028293244540691376,
                0.0009274572366848588,
                0.003401220543310046
            },
            {
                -0.031449321657419205,
                0.000832674908451736,
                0.009584060870110989
            },
            {
                -0.018542734906077385,
                0.005239187739789486,
                0.02170431613922119
            }
        },
        {
            {
                -0.017734715715050697,
                -0.006912093609571457,
                -0.005684548988938332
            },
            {
                -0.015365579165518284,
                -0.00428032735362649,
                0.008604743517935276
            },
            {
                -0.02501257136464119,
                -4.497336340136826e-05,
                0.014459077268838882
            }
        },
        {
            {
                0.040992625057697296,
                0.05594334006309509,
                -0.018045969307422638
            },
            {
                0.06806497275829315,
                0.030996469780802727,
                -0.009130571037530899
            },
            {
                0.0590524822473526,
                -0.011580221354961395,
                -0.010454305447638035
            }
        },
        {
            {
                -0.011433137580752373,
                -0.005123321898281574,
                -0.01091784704476595
            },
            {
                -0.01099417731165886,
                -0.000482058385387063,
                -0.003657472087070346
            },
            {
                -0.01654473878443241,
                -0.004002167843282223,
                -0.003992232959717512
            }
        },
        {
            {
                0.01305410172790289,
                -0.020418554544448853,
                -0.012095417827367783
            },
            {
                -0.018744736909866333,
                -0.03341279551386833,
                -0.022083016112446785
            },
            {
                -0.0342533178627491,
                -0.018651505932211876,
                -0.024323951452970505
            }
        },
        {
            {
                -0.011014430783689022,
                -0.013042403385043144,
                0.009866161271929741
            },
            {
                -0.018102498725056648,
                -0.004148091189563274,
                0.019889192655682564
            },
            {
                -0.020091397687792778,
                0.013937980867922306,
                0.01654433272778988
            }
        },
        {
            {
                -0.028538579121232033,
                0.002181636169552803,
                0.027902984991669655
            },
            {
                -0.022626057267189026,
                0.027823537588119507,
                0.039699114859104156
            },
            {
                -0.016484564170241356,
                0.034315887838602066,
                0.03780750557780266
            }
        },
        {
            {
                -0.012858610600233078,
                0.004798686131834984,
                -0.00978839211165905
            },
            {
                -0.010849899612367153,
                0.01348230242729187,
                -0.003867274848744273
            },
            {
                -0.01602165959775448,
                0.006662121042609215,
                -0.005924555007368326
            }
        },
        {
            {
                -0.012836027890443802,
                -0.02149217575788498,
                0.014438782818615437
            },
            {
                -0.03557834029197693,
                -0.018571028485894203,
                0.028632255271077156
            },
            {
                -0.011374030262231827,
                0.012598622590303421,
                0.021599451079964638
            }
        },
        {
            {
                0.02891119197010994,
                -0.02001485601067543,
                -0.018093721941113472
            },
            {
                -0.014662140980362892,
                -0.0308645311743021,
                -0.019448354840278625
            },
            {
                -0.03342025354504585,
                -0.01922452449798584,
                -0.01910492219030857
            }
        },
        {
            {
                0.08427131921052933,
                -0.00221577612683177,
                -0.03343459591269493
            },
            {
                0.07211049646139145,
                -0.024805579334497452,
                -0.0030821957625448704
            },
            {
                0.06998290866613388,
                -0.02127649076282978,
                -0.000991179491393268
            }
        },
        {
            {
                -0.013800229877233505,
                -0.0028773259837180376,
                -0.009199341759085655
            },
            {
                -0.016915468499064445,
                -0.012050692923367023,
                -0.010878131724894047
            },
            {
                -0.00985734723508358,
                -0.00865232665091753,
                -0.0019546793773770332
            }
        },
        {
            {
                0.006318871863186359,
                -0.003465624526143074,
                0.008468951098620892
            },
            {
                -0.0004792538529727608,
                -0.00938153825700283,
                0.0056715612299740314
            },
            {
                -0.004472432192414999,
                -0.006292231380939484,
                0.002023802138864994
            }
        },
        {
            {
                -0.022742360830307007,
                -0.007951992563903332,
                0.01907237246632576
            },
            {
                -0.026141390204429626,
                -0.0051779900677502155,
                0.002885388443246484
            },
            {
                -0.01217255275696516,
                0.010239457711577415,
                -0.0017500176327303052
            }
        },
        {
            {
                0.07217319309711456,
                0.08255616575479507,
                -0.044408176094293594
            },
            {
                0.0476740263402462,
                0.031232571229338646,
                -0.019079409539699554
            },
            {
                0.07102619856595993,
                0.03545411303639412,
                -0.006191467400640249
            }
        },
        {
            {
                -0.0053718360140919685,
                0.004955447278916836,
                -0.009042345918715
            },
            {
                -0.006635990925133228,
                0.005148072261363268,
                -0.005892273038625717
            },
            {
                -0.01134916115552187,
                0.0016184429405257106,
                0.001077649649232626
            }
        },
        {
            {
                0.022112784907221794,
                0.0012484461767598987,
                -0.010997067205607891
            },
            {
                0.024007035419344902,
                -0.013185937888920307,
                -0.007309397216886282
            },
            {
                0.016417579725384712,
                -0.0061090909875929356,
                -0.012254083529114723
            }
        },
        {
            {
                -0.004847079981118441,
                0.002107074949890375,
                0.0004977681091986597
            },
            {
                -0.0026377697940915823,
                0.0003550110850483179,
                0.002069848822429776
            },
            {
                -0.0051600453443825245,
                0.00016988290008157492,
                0.003416702151298523
            }
        },
        {
            {
                -0.004904177505522966,
                -0.008778028190135956,
                0.013743750751018524
            },
            {
                -0.0021818841341882944,
                -0.007977521978318691,
                0.014957360923290253
            },
            {
                -0.006292085163295269,
                -6.88000800437294e-05,
                0.015360360965132713
            }
        },
        {
            {
                -0.007296277210116386,
                -0.007258350495249033,
                -0.004157354589551687
            },
            {
                -0.00739696342498064,
                -0.009838808327913284,
                -0.00477371271699667
            },
            {
                0.001112382742576301,
                -0.012335870414972305,
                -0.0029858883935958147
            }
        },
        {
            {
                -0.017167184501886368,
                -0.006853570230305195,
                0.009289555251598358
            },
            {
                -0.015340635553002357,
                0.009612977504730225,
                0.020020565018057823
            },
            {
                -0.008187933824956417,
                0.020546086132526398,
                0.01097275409847498
            }
        },
        {
            {
                -0.018399875611066818,
                -0.002408717293292284,
                0.003373814281076193
            },
            {
                -0.01867845468223095,
                0.0038502905517816544,
                0.01509107369929552
            },
            {
                -0.014900881797075272,
                0.01671917550265789,
                0.019302820786833763
            }
        },
        {
            {
                -0.0168132521212101,
                -0.00694210734218359,
                0.0006582948262803257
            },
            {
                -0.02508731186389923,
                -0.009882010519504547,
                -0.0015845990274101496
            },
            {
                -0.022433027625083923,
                -0.0019327558111399412,
                0.013751314021646976
            }
        },
        {
            {
                -0.002281891880556941,
                0.0043067471124231815,
                0.002111775102093816
            },
            {
                -0.0006861400324851274,
                0.004253453109413385,
                0.0039651356637477875
            },
            {
                -0.00032158123212866485,
                0.0007589716115035117,
                0.000470649974886328
            }
        },
        {
            {
                0.019308630377054214,
                -0.010236144997179508,
                -0.010969999246299267
            },
            {
                0.03250531107187271,
                -0.007639727089554071,
                -0.008399486541748047
            },
            {
                0.04106726497411728,
                0.008960342966020107,
                0.004965519532561302
            }
        },
        {
            {
                -0.008512729778885841,
                0.005056485533714294,
                0.007515417877584696
            },
            {
                -0.008156768046319485,
                0.0030615031719207764,
                0.007047145161777735
            },
            {
                -0.004525186028331518,
                0.002909159054979682,
                -3.416085019125603e-05
            }
        },
        {
            {
                -0.004778510890901089,
                -0.018099335953593254,
                -0.02282092534005642
            },
            {
                -0.017443904653191566,
                -0.012100927531719208,
                0.0025029657408595085
            },
            {
                -0.00974719226360321,
                0.015449430793523788,
                0.0286736898124218
            }
        },
        {
            {
                -0.02021050825715065,
                -0.008964738808572292,
                -0.03146441653370857
            },
            {
                -0.01120840385556221,
                -0.01661074534058571,
                -0.034848492592573166
            },
            {
                -0.016734197735786438,
                -0.016053559258580208,
                -0.032902512699365616
            }
        },
        {
            {
                0.007867217995226383,
                0.02972698025405407,
                -0.001971473917365074
            },
            {
                0.01817438006401062,
                0.012892833910882473,
                -0.008000069297850132
            },
            {
                0.0234626904129982,
                -0.0016454674769192934,
                -0.009428215213119984
            }
        },
        {
            {
                -0.0045266784727573395,
                0.003203545929864049,
                -0.000585309520829469
            },
            {
                -0.003739473642781377,
                0.003351588500663638,
                -0.0009073250694200397
            },
            {
                -0.005136100109666586,
                0.0011717742308974266,
                -0.0012579519534483552
            }
        },
        {
            {
                0.02405748888850212,
                0.0028435031417757273,
                0.002722320146858692
            },
            {
                0.018215805292129517,
                -0.0011146898614242673,
                0.009188453666865826
            },
            {
                0.004746748134493828,
                -0.004129020031541586,
                0.0025138065684586763
            }
        },
        {
            {
                -0.004492936190217733,
                -0.013993536122143269,
                -0.010049691423773766
            },
            {
                -0.009683266282081604,
                -0.013053128495812416,
                -0.015524812042713165
            },
            {
                0.0018924428150057793,
                -0.010778279043734074,
                -0.008174136281013489
            }
        },
        {
            {
                -0.008674842305481434,
                0.0008892289479263127,
                0.004373959731310606
            },
            {
                -0.003608439117670059,
                -0.0012281002709642053,
                0.002053294563665986
            },
            {
                -0.002129447879269719,
                -0.008020514622330666,
                0.0006671551382169127
            }
        },
        {
            {
                0.027724996209144592,
                0.004552771337330341,
                -0.02006135880947113
            },
            {
                0.016095511615276337,
                -0.027957754209637642,
                -0.02219933271408081
            },
            {
                0.00035907377605326474,
                -0.009706929326057434,
                -0.007360701449215412
            }
        },
        {
            {
                0.006767744198441505,
                0.04483574628829956,
                0.02278975211083889
            },
            {
                0.007618581410497427,
                0.04595508426427841,
                0.006681735161691904
            },
            {
                0.004142468795180321,
                0.01259693969041109,
                0.011456266976892948
            }
        },
        {
            {
                -0.027615400031208992,
                0.0022050596307963133,
                0.04844732582569122
            },
            {
                -0.008512022905051708,
                0.03508588299155235,
                0.03323878347873688
            },
            {
                0.007317714858800173,
                0.10109779983758926,
                0.055523209273815155
            }
        },
        {
            {
                0.056522734463214874,
                0.014289791695773602,
                -0.007397632114589214
            },
            {
                0.0416673868894577,
                -0.02093171328306198,
                -0.01418969128280878
            },
            {
                0.015164083801209927,
                -0.015179821290075779,
                -0.015363517217338085
            }
        },
        {
            {
                -0.018635978922247887,
                -0.02184552513062954,
                -0.012802510522305965
            },
            {
                -0.030205577611923218,
                -0.020419981330633163,
                -0.01747702993452549
            },
            {
                -0.005775929428637028,
                -0.021126199513673782,
                -0.01050073467195034
            }
        },
        {
            {
                0.04584328830242157,
                0.04046139121055603,
                -0.003349250415340066
            },
            {
                0.04719061404466629,
                -0.016814732924103737,
                -0.006918611470609903
            },
            {
                0.028175823390483856,
                -0.012833678163588047,
                -0.019000845029950142
            }
        },
        {
            {
                0.041553277522325516,
                -0.02402593195438385,
                -0.03448188677430153
            },
            {
                0.05260239169001579,
                -0.027910571545362473,
                -0.033397775143384933
            },
            {
                0.05668570101261139,
                -0.00437330873683095,
                -0.017795981839299202
            }
        },
        {
            {
                -0.013407740741968155,
                -0.008940283209085464,
                -0.013825035654008389
            },
            {
                -0.014988519251346588,
                -0.0012644300004467368,
                0.004052812233567238
            },
            {
                -0.008975619450211525,
                0.00861738808453083,
                0.009870975278317928
            }
        },
        {
            {
                -0.005285356193780899,
                0.03079966828227043,
                0.026677338406443596
            },
            {
                0.0014133965596556664,
                0.043046724051237106,
                0.019300980493426323
            },
            {
                -0.004099664278328419,
                0.036281026899814606,
                0.030875157564878464
            }
        },
        {
            {
                -0.012824290432035923,
                0.002632798394188285,
                0.0014240723103284836
            },
            {
                -0.0012350266333669424,
                0.0012018757406622171,
                0.003966694697737694
            },
            {
                0.016412990167737007,
                0.0002515552914701402,
                0.004462151788175106
            }
        },
        {
            {
                -0.004534168168902397,
                0.0005798194324597716,
                -0.002239009365439415
            },
            {
                -0.00921343732625246,
                0.007522033993154764,
                -0.0023527753073722124
            },
            {
                -0.012398206628859043,
                0.008298663422465324,
                -0.0028568310663104057
            }
        },
        {
            {
                -0.0012497991556301713,
                -0.0016325730830430984,
                -0.0029404363594949245
            },
            {
                -0.0002786164986900985,
                -0.0018617938039824367,
                -0.00527758477255702
            },
            {
                -0.0024631430860608816,
                0.0004685251333285123,
                -0.0046983202919363976
            }
        },
        {
            {
                -0.0072331298142671585,
                -0.006878876592963934,
                -0.014165697619318962
            },
            {
                0.004986911080777645,
                -0.0006363236461766064,
                -0.017581874504685402
            },
            {
                0.020075326785445213,
                0.008541724644601345,
                -0.01160639151930809
            }
        },
        {
            {
                -0.0017150257481262088,
                0.0004916500183753669,
                0.004598468076437712
            },
            {
                0.0026167905889451504,
                0.0009738965891301632,
                0.0022886088117957115
            },
            {
                0.002106162253767252,
                0.00031323989969678223,
                0.004219773691147566
            }
        },
        {
            {
                -0.0056706927716732025,
                0.005636236630380154,
                0.009519189596176147
            },
            {
                -0.003342477837577462,
                0.010978140868246555,
                0.013254905119538307
            },
            {
                -0.0024634599685668945,
                0.008480127900838852,
                0.004595387261360884
            }
        },
        {
            {
                -0.029599692672491074,
                -0.02956610918045044,
                -0.03051375225186348
            },
            {
                -0.03940439224243164,
                -0.03019595891237259,
                -0.019254079088568687
            },
            {
                -0.034054018557071686,
                -0.025891143828630447,
                -0.02339458093047142
            }
        },
        {
            {
                -0.008975574746727943,
                -0.008546940051019192,
                -0.008325755596160889
            },
            {
                -0.008120066486299038,
                -0.0090333241969347,
                -0.0035565083380788565
            },
            {
                -0.008303329348564148,
                -0.013037534430623055,
                -0.004056540783494711
            }
        },
        {
            {
                -0.016399895772337914,
                -0.010348781011998653,
                0.056023113429546356
            },
            {
                0.0022382079623639584,
                0.025420967489480972,
                0.05239178612828255
            },
            {
                -0.03117716871201992,
                0.019519023597240448,
                0.045928988605737686
            }
        },
        {
            {
                0.0008493305649608374,
                0.006507301237434149,
                -0.0037499957252293825
            },
            {
                0.0017005918780341744,
                0.008707256987690926,
                -0.001146288006566465
            },
            {
                -0.00636577233672142,
                0.008990886621177197,
                -0.0074460869655013084
            }
        },
        {
            {
                -0.004862611647695303,
                0.0036244725342839956,
                -0.009838186204433441
            },
            {
                -0.004179372917860746,
                0.007413041312247515,
                -0.0036213318817317486
            },
            {
                -0.009100377559661865,
                0.005650193430483341,
                -0.004039490129798651
            }
        },
        {
            {
                -0.005520499777048826,
                0.0006212081061676145,
                -0.00682071503251791
            },
            {
                -0.008303402923047543,
                0.00458431476727128,
                -0.0021115727722644806
            },
            {
                -0.014419916085898876,
                0.0021951445378363132,
                -0.0028610178269445896
            }
        },
        {
            {
                -0.010458040051162243,
                -0.008278846740722656,
                -0.016526129096746445
            },
            {
                -0.0140618234872818,
                -0.009142888709902763,
                0.0007197561208158731
            },
            {
                -0.009584716521203518,
                0.006141971796751022,
                0.015516380779445171
            }
        }
    },
    {
        {
            {
                -0.006453426089137793,
                -0.0029938018415123224,
                0.004894278012216091
            },
            {
                -0.0073897019028663635,
                -0.01035728957504034,
                0.00011705816723406315
            },
            {
                -0.0068794009275734425,
                -0.008207586593925953,
                0.007848337292671204
            }
        },
        {
            {
                0.010572581551969051,
                0.009101458825170994,
                0.010859962552785873
            },
            {
                -0.00014674752310384065,
                -0.008379927836358547,
                -0.004150894936174154
            },
            {
                -0.008437206037342548,
                -0.017642389982938766,
                0.003532952629029751
            }
        },
        {
            {
                -0.001157009624876082,
                -0.0005630964878946543,
                -0.0075790295377373695
            },
            {
                0.003949928097426891,
                0.006145710591226816,
                -0.0010114501928910613
            },
            {
                0.0077133988961577415,
                0.010669609531760216,
                -0.005085645709186792
            }
        },
        {
            {
                -0.005157420411705971,
                0.004229885526001453,
                0.0010074563324451447
            },
            {
                0.002021949039772153,
                0.010223498567938805,
                0.0017557539977133274
            },
            {
                0.005293038673698902,
                0.018105480819940567,
                0.002883056178689003
            }
        },
        {
            {
                -0.0021751492749899626,
                0.00977396685630083,
                0.006466207560151815
            },
            {
                -0.021426673978567123,
                -0.000694150454364717,
                -0.00537779601290822
            },
            {
                -0.01783616468310356,
                0.0007589341257698834,
                -0.007930060848593712
            }
        },
        {
            {
                -0.00025332922814413905,
                -0.0016126299742609262,
                -0.01056092232465744
            },
            {
                0.011440910398960114,
                0.015500014647841454,
                -0.011709708720445633
            },
            {
                -0.00861161109060049,
                0.005142463371157646,
                -0.029349109157919884
            }
        },
        {
            {
                -0.0137909771874547,
                -0.019335739314556122,
                -0.013179704546928406
            },
            {
                -0.016665782779455185,
                -0.01685008406639099,
                -0.016723209992051125
            },
            {
                -0.030849050730466843,
                0.002586058108136058,
                -0.005706071387976408
            }
        },
        {
            {
                0.0019013629062101245,
                -0.00021166769147384912,
                0.01302617508918047
            },
            {
                0.0032196214888244867,
                0.011130458675324917,
                0.022035395726561546
            },
            {
                -0.0013276557438075542,
                0.00819309987127781,
                0.016743561252951622
            }
        },
        {
            {
                -0.0003677142667584121,
                0.006334709469228983,
                0.009662316180765629
            },
            {
                -0.01235450804233551,
                -0.014439848251640797,
                -0.020274022594094276
            },
            {
                -0.012139358557760715,
                -0.013400583527982235,
                -0.01874491386115551
            }
        },
        {
            {
                0.003136617597192526,
                0.016074327751994133,
                0.01494951918721199
            },
            {
                0.0034654124174267054,
                0.004661770537495613,
                0.0011160250287503004
            },
            {
                0.006269766483455896,
                -0.005059455521404743,
                -0.0009152009151875973
            }
        },
        {
            {
                -0.009605329483747482,
                -0.004640497732907534,
                0.016734469681978226
            },
            {
                -0.0035154884681105614,
                -0.011296247132122517,
                -0.0026122850831598043
            },
            {
                0.0008781334618106484,
                -0.010417462326586246,
                -0.004778871312737465
            }
        },
        {
            {
                0.020600249990820885,
                0.00031804462196305394,
                0.007133416831493378
            },
            {
                0.014321955852210522,
                -0.00450514629483223,
                0.023568464443087578
            },
            {
                -0.00022463538334704936,
                -0.0180839691311121,
                -0.005631997715681791
            }
        },
        {
            {
                -0.0004995717899873853,
                -0.0014784913510084152,
                -0.003783137071877718
            },
            {
                0.005644168239086866,
                0.008090448565781116,
                0.0009510082891210914
            },
            {
                0.007989036850631237,
                0.011616328731179237,
                -0.002639160491526127
            }
        },
        {
            {
                0.019240044057369232,
                0.009255901910364628,
                0.006769445259124041
            },
            {
                -0.007360075134783983,
                -0.004609250463545322,
                -0.013724333606660366
            },
            {
                -0.024166608229279518,
                -0.01257463451474905,
                -0.023096971213817596
            }
        },
        {
            {
                -0.0026408208068460226,
                0.00454361829906702,
                0.016785623505711555
            },
            {
                -0.007203175686299801,
                -0.0024985794443637133,
                0.008294356055557728
            },
            {
                -0.008815423585474491,
                -0.008772526867687702,
                -0.004917618818581104
            }
        },
        {
            {
                0.012480325996875763,
                0.009076864458620548,
                0.01318411622196436
            },
            {
                -0.001960890833288431,
                -0.011870315298438072,
                -0.0021795700304210186
            },
            {
                -0.008464631624519825,
                -0.021634474396705627,
                -0.01075797900557518
            }
        },
        {
            {
                -0.009909878484904766,
                0.00044033993617631495,
                0.0024470542557537556
            },
            {
                -0.0026873403694480658,
                0.005671300925314426,
                0.0011752903228625655
            },
            {
                0.0014627357013523579,
                0.012657569721341133,
                0.0016681369161233306
            }
        },
        {
            {
                0.006390321999788284,
                0.014843513257801533,
                0.02188826911151409
            },
            {
                -0.010983780026435852,
                -0.006932524964213371,
                0.01905752532184124
            },
            {
                -0.016638081520795822,
                -0.02361823432147503,
                -0.00949915125966072
            }
        },
        {
            {
                0.03446038439869881,
                0.002420302014797926,
                0.004303780384361744
            },
            {
                -0.004296496044844389,
                -0.010338978841900826,
                -0.013424218632280827
            },
            {
                -0.02156432904303074,
                -0.007665134966373444,
                -0.024660993367433548
            }
        },
        {
            {
                0.004085565451532602,
                -0.013271213509142399,
                -0.016002655029296875
            },
            {
                -0.010064424015581608,
                -0.018962042406201363,
                -0.02028835378587246
            },
            {
                -0.03195196017622948,
                -0.004130175802856684,
                -0.022643782198429108
            }
        },
        {
            {
                -0.0033532660454511642,
                0.0016963056987151504,
                0.009023976512253284
            },
            {
                -0.009454604238271713,
                -0.0037563019432127476,
                0.008965259417891502
            },
            {
                -0.005350677762180567,
                -0.006642211694270372,
                0.0027082636952400208
            }
        },
        {
            {
                0.001317876041866839,
                0.00460386648774147,
                -0.006181453820317984
            },
            {
                -0.0022975753527134657,
                0.004467688500881195,
                -0.009813987649977207
            },
            {
                -0.0032990912441164255,
                0.008406834676861763,
                -0.013003433123230934
            }
        },
        {
            {
                0.023124465718865395,
                0.023564590141177177,
                0.010202880017459393
            },
            {
                -0.004447049926966429,
                0.0035062425304204226,
                -0.013462196104228497
            },
            {
                -0.006973722483962774,
                -0.00621386431157589,
                -0.011454629711806774
            }
        },
        {
            {
                0.008050828240811825,
                -0.022902632132172585,
                -0.021938733756542206
            },
            {
                0.041657716035842896,
                -0.03949232026934624,
                -0.010054729878902435
            },
            {
                0.009316639974713326,
                -0.015506993047893047,
                0.0041252863593399525
            }
        },
        {
            {
                -4.4505544792627916e-05,
                0.0006254836334846914,
                -0.009133362211287022
            },
            {
                0.004351292736828327,
                0.006027022376656532,
                -0.009027237072587013
            },
            {
                0.004206276033073664,
                0.011685401201248169,
                -0.009012334980070591
            }
        },
        {
            {
                0.0031477001029998064,
                -0.004835244733840227,
                -0.0009699041256681085
            },
            {
                0.007387868594378233,
                0.0010015247389674187,
                0.012196323834359646
            },
            {
                -0.008747308515012264,
                -0.009302361868321896,
                -0.0059731281362473965
            }
        },
        {
            {
                -0.008781218901276588,
                -0.0035140265244990587,
                0.0014535519294440746
            },
            {
                -0.002587912604212761,
                9.126508666668087e-05,
                0.007780959364026785
            },
            {
                -0.00199515582062304,
