#pragma once

#ifndef CONV2D_3_H
#define CONV2D_3_H

#include "../../global_settings.h"
#include "../conv2d_settings.h"
#include "../../bnorm/data/bnorm_2.h"

#define C2D_3__RAW_IN_LINES     BNORM_2__RAW_OUT_LINES
#define C2D_3__RAW_IN_COLS      BNORM_2__RAW_OUT_COLS
#define C2D_3__RAW_OUT_LINES    C2D_3__RAW_IN_LINES
#define C2D_3__RAW_OUT_COLS     C2D_3__RAW_IN_COLS

#define C2D_3__IN_LINES         (C2D_3__RAW_IN_LINES + PADDING)
#define C2D_3__IN_COLS          (C2D_3__RAW_IN_COLS + PADDING)

#define C2D_3__OUT_LINES        C2D_3__IN_LINES
#define C2D_3__OUT_COLS         C2D_3__IN_COLS


/**
 * @brief This was taken from "model_json/dump_weights_bias.json". (Channels first)
*/
const conv_t kernel_3[FILTERS][CHANNELS][C2D_KERNEL_LINES][C2D_KERNEL_COLS] = {
    {
        {
            {
                0.00909047108143568,
                0.0009838758269324899,
                0.0007199238170869648
            },
            {
                0.008980274200439453,
                0.0018414715304970741,
                0.0014297080924734473
            },
            {
                0.009660331532359123,
                0.0033016365487128496,
                0.0020445494446903467
            }
        },
        {
            {
                0.003107522614300251,
                0.002324218861758709,
                0.002528525423258543
            },
            {
                0.003268901025876403,
                0.0025553859304636717,
                0.0021345943678170443
            },
            {
                0.003464496461674571,
                0.0029696424026042223,
                0.001944659510627389
            }
        },
        {
            {
                -0.004630365874618292,
                -0.007852818816900253,
                -0.0004297516425140202
            },
            {
                -0.003570211585611105,
                -0.008341687731444836,
                -0.0005846262210980058
            },
            {
                -0.005020698998123407,
                -0.009445133619010448,
                0.0006749862222932279
            }
        },
        {
            {
                -0.001142940018326044,
                -0.0009638023329898715,
                -0.006732462905347347
            },
            {
                -0.00013398310693446547,
                -0.001054619438946247,
                -0.005373365245759487
            },
            {
                -7.339749572565779e-06,
                -0.0008607092313468456,
                -0.0025882385671138763
            }
        },
        {
            {
                -0.004508153069764376,
                -0.0014614940155297518,
                -0.009382698684930801
            },
            {
                -0.0021703485399484634,
                -0.008254310116171837,
                -0.007985640317201614
            },
            {
                -0.006978116929531097,
                -0.010616723448038101,
                -0.0077558099292218685
            }
        },
        {
            {
                -0.01751977950334549,
                -0.0033752135932445526,
                2.1162211396585917e-06
            },
            {
                -0.014272858388721943,
                -0.006291615776717663,
                -0.0005794737953692675
            },
            {
                -0.018054720014333725,
                -0.00858241319656372,
                0.00259758485481143
            }
        },
        {
            {
                -0.0049523115158081055,
                -0.0031663505360484123,
                -0.0005632237298414111
            },
            {
                -0.006827638950198889,
                -0.004448424559086561,
                0.0026940726675093174
            },
            {
                -0.009561366401612759,
                -0.004771011415868998,
                0.0008127851178869605
            }
        },
        {
            {
                0.0030679262708872557,
                0.0034548467956483364,
                0.002774655120447278
            },
            {
                0.003166767070069909,
                0.003237601602450013,
                0.0025509975384920835
            },
            {
                0.0028793509118258953,
                0.0029804205987602472,
                0.0019108055857941508
            }
        },
        {
            {
                -0.01675480790436268,
                -0.0023086760193109512,
                0.027475254610180855
            },
            {
                -0.01967729814350605,
                -0.007998013868927956,
                0.02239428646862507
            },
            {
                -0.019617434591054916,
                -0.0035869916900992393,
                0.021898826584219933
            }
        },
        {
            {
                0.00063884980045259,
                0.002664153929799795,
                0.0013008968671783805
            },
            {
                0.0014131879433989525,
                0.0015995533904060721,
                -4.9184138333657756e-05
            },
            {
                0.0012978730956092477,
                0.001037970301695168,
                0.00030445505399256945
            }
        },
        {
            {
                0.0028812892269343138,
                -0.0010784849291667342,
                0.0021602660417556763
            },
            {
                0.003271989058703184,
                -0.0018532421672716737,
                0.0017350830603390932
            },
            {
                0.0033209859393537045,
                -0.0020217704586684704,
                0.00039072890649549663
            }
        },
        {
            {
                -0.0018867594189941883,
                0.0023947188165038824,
                -0.004681312944740057
            },
            {
                -0.0004084708634763956,
                0.0022193894255906343,
                -0.004729366861283779
            },
            {
                0.0002544316230341792,
                0.0007774911355227232,
                -0.006016073748469353
            }
        },
        {
            {
                0.003383788513019681,
                0.0036434370558708906,
                0.005239856895059347
            },
            {
                0.0021954153198748827,
                0.0030734078027307987,
                0.00546869495883584
            },
            {
                0.0014722433406859636,
                0.0018026587786152959,
                0.004493068438023329
            }
        },
        {
            {
                -0.0020640792790800333,
                -0.001450480311177671,
                0.0008973031071946025
            },
            {
                0.00061613175785169,
                -0.0026390710845589638,
                -0.0020713976118713617
            },
            {
                0.005137413274496794,
                -0.0011356971226632595,
                -0.003355950815603137
            }
        },
        {
            {
                0.004000823479145765,
                0.010690173134207726,
                0.010753074660897255
            },
            {
                0.0025765597820281982,
                0.01166429091244936,
                0.00817768182605505
            },
            {
                0.0022318430710583925,
                0.012134120799601078,
                0.006123325787484646
            }
        },
        {
            {
                0.006518414244055748,
                0.01540426630526781,
                0.0007664714357815683
            },
            {
                0.001795505522750318,
                0.015433279797434807,
                0.00028974938322789967
            },
            {
                0.003434485290199518,
                0.01541588082909584,
                0.0005737347528338432
            }
        },
        {
            {
                0.005048079881817102,
                0.002504102187231183,
                0.002007561968639493
            },
            {
                0.004832809790968895,
                0.0029745372012257576,
                0.002187528181821108
            },
            {
                0.004468351136893034,
                0.0025661587715148926,
                0.000973550952039659
            }
        },
        {
            {
                0.0007104219985194504,
                0.005887093022465706,
                0.0021965254563838243
            },
            {
                -0.0001020877534756437,
                0.0070663741789758205,
                0.0030262733343988657
            },
            {
                -0.0007039618212729692,
                0.006255239248275757,
                0.0027855474036186934
            }
        },
        {
            {
                -0.003227453911677003,
                0.0032538531813770533,
                0.007612178102135658
            },
            {
                -0.005343986675143242,
                0.00231889053247869,
                0.00940718688070774
            },
            {
                -0.00461227260529995,
                -0.003245071740821004,
                0.004462353885173798
            }
        },
        {
            {
                -0.018095150589942932,
                -0.039250895380973816,
                -0.027907250449061394
            },
            {
                -0.012723661959171295,
                -0.032148994505405426,
                -0.021615752950310707
            },
            {
                -0.015489683486521244,
                -0.022081706672906876,
                -0.014875042252242565
            }
        },
        {
            {
                -0.0169841181486845,
                0.010510643012821674,
                0.012815931811928749
            },
            {
                -0.016463888809084892,
                0.00969967432320118,
                0.012397904880344868
            },
            {
                -0.016996188089251518,
                0.008387777954339981,
                0.011792726814746857
            }
        },
        {
            {
                -0.0015552027616649866,
                0.0055819242261350155,
                -0.010658224113285542
            },
            {
                0.0033319827634841204,
                0.00351978768594563,
                -0.011756503954529762
            },
            {
                0.0018677853513509035,
                0.002994768088683486,
                -0.009820559062063694
            }
        },
        {
            {
                0.008199289441108704,
                0.002056871075183153,
                0.006604510825127363
            },
            {
                0.007920403964817524,
                0.0003957616863772273,
                0.0022604346740990877
            },
            {
                0.007203659974038601,
                -0.0009080119198188186,
                0.001408879761584103
            }
        },
        {
            {
                0.003327572951093316,
                0.0024309889413416386,
                0.0029094968922436237
            },
            {
                0.0050458540208637714,
                0.0009948746301233768,
                0.001364866504445672
            },
            {
                0.005113810766488314,
                0.0008879814413376153,
                0.0012142317136749625
            }
        },
        {
            {
                0.00391523540019989,
                0.0062156361527740955,
                0.00042045023292303085
            },
            {
                0.004484659526497126,
                0.005914926528930664,
                0.0011457809014245868
            },
            {
                0.005186679773032665,
                0.0045541697181761265,
                0.0010426400694996119
            }
        },
        {
            {
                -0.00031116290483623743,
                -0.006021277513355017,
                -0.0037933920975774527
            },
            {
                0.0006900703301653266,
                0.00010916098108282313,
                -0.00020161336578894407
            },
            {
                0.0022068768739700317,
                -0.0011192868696525693,
                0.0004778812872245908
            }
        },
        {
            {
                -0.00741007924079895,
                -0.005329117178916931,
                0.005845931358635426
            },
            {
                -0.006499771494418383,
                -0.0033304912503808737,
                0.0045873611234128475
            },
            {
                -0.007143176626414061,
                -0.0026030833832919598,
                0.0022266441956162453
            }
        },
        {
            {
                0.0036405737046152353,
                0.0002987906336784363,
                0.0038389116525650024
            },
            {
                0.002532951533794403,
                0.00018721343076322228,
                0.00520057138055563
            },
            {
                0.002581268083304167,
                -8.141274156514555e-05,
                0.005338544491678476
            }
        },
        {
            {
                -0.001999948173761368,
                0.0005337439361028373,
                -0.0032852066215127707
            },
            {
                -0.002066459972411394,
                0.0018126630457118154,
                -0.003871448338031769
            },
            {
                0.0021140226162970066,
                0.002641403814777732,
                -0.0033082531299442053
            }
        },
        {
            {
                0.003138016676530242,
                0.006345237139612436,
                -0.003839617595076561
            },
            {
                0.002732213819399476,
                0.004687401931732893,
                -0.004150375723838806
            },
            {
                0.0006882126326672733,
                0.004086598753929138,
                -0.0026205522008240223
            }
        },
        {
            {
                0.004232349339872599,
                -0.0012006284669041634,
                -0.001273632631637156
            },
            {
                0.004165164660662413,
                0.002086867578327656,
                0.0007202360429801047
            },
            {
                0.0032832552678883076,
                0.004385375417768955,
                0.0003340817929711193
            }
        },
        {
            {
                0.00285877357237041,
                0.000861411273945123,
                0.0020483050029724836
            },
            {
                0.0017928152810782194,
                -0.001415135688148439,
                -0.00013956766633782536
            },
            {
                0.0009616083698347211,
                -0.0029576376546174288,
                -0.001541848760098219
            }
        },
        {
            {
                0.0006822467548772693,
                0.016291465610265732,
                0.018710805103182793
            },
            {
                -0.0033315694890916348,
                0.013085752725601196,
                0.011378785595297813
            },
            {
                0.005370255094021559,
                0.007273200899362564,
                0.01205008290708065
            }
        },
        {
            {
                0.0005849695298820734,
                0.013923265971243382,
                -0.00041023094672709703
            },
            {
                -0.003108022268861532,
                0.013439826667308807,
                0.00010586453572614118
            },
            {
                -0.0054605077020823956,
                0.014698396436870098,
                0.003906183410435915
            }
        },
        {
            {
                0.0037013208493590355,
                0.009781405329704285,
                0.012737766839563847
            },
            {
                0.0054746815003454685,
                0.0057068513706326485,
                0.010115671902894974
            },
            {
                0.005059662740677595,
                0.002876767423003912,
                0.010853245854377747
            }
        },
        {
            {
                -0.010245708748698235,
                -0.0009260040824301541,
                0.00020849522843491286
            },
            {
                -0.006677343510091305,
                -0.003730227006599307,
                -0.0006991937989369035
            },
            {
                -0.0048773279413580894,
                -0.002231441205367446,
                0.0018967260839417577
            }
        },
        {
            {
                0.00015836057718843222,
                0.011359204538166523,
                0.008651266805827618
            },
            {
                0.0006072786636650562,
                0.008299649693071842,
                0.00980964582413435
            },
            {
                0.0002647805376909673,
                0.005742426495999098,
                0.013770272955298424
            }
        },
        {
            {
                -0.0004666781460400671,
                -0.014813990332186222,
                0.0076565914787352085
            },
            {
                -0.0006595294107683003,
                -0.01606801152229309,
                0.01906103454530239
            },
            {
                -0.004992700647562742,
                -0.009552394039928913,
                0.004618055187165737
            }
        },
        {
            {
                -0.0055051278322935104,
                0.005666372831910849,
                -0.001278126030229032
            },
            {
                5.3927244152873755e-05,
                0.005017670802772045,
                -0.0035671202931553125
            },
            {
                0.002889335388317704,
                0.00457632215693593,
                -0.0032589356414973736
            }
        },
        {
            {
                0.007353791501373053,
                -0.022413797676563263,
                -0.006211512256413698
            },
            {
                0.008603488095104694,
                -0.014473702758550644,
                -0.0031784898601472378
            },
            {
                0.00553324306383729,
                -0.017606252804398537,
                -0.003178466111421585
            }
        },
        {
            {
                0.006922360975295305,
                0.0028327293694019318,
                0.025248732417821884
            },
            {
                0.003332400694489479,
                0.0021902616135776043,
                0.023956891149282455
            },
            {
                0.0005350176361389458,
                0.005450841970741749,
                0.025443797931075096
            }
        },
        {
            {
                0.00042518245754763484,
                0.0022646652068942785,
                0.00716661149635911
            },
            {
                0.0005196688580326736,
                0.0019675912335515022,
                0.007069849409162998
            },
            {
                0.00139228580519557,
                0.0015247911214828491,
                0.006661036517471075
            }
        },
        {
            {
                -0.004789196886122227,
                -0.003656191285699606,
                -0.009272702969610691
            },
            {
                -0.004782660864293575,
                -0.0051109339110553265,
                -0.004841678310185671
            },
            {
                -0.008699865080416203,
                -0.0055589452385902405,
                -0.0010762327583506703
            }
        },
        {
            {
                0.002335980301722884,
                0.008128954097628593,
                -0.00997570063918829
            },
            {
                0.0017793237930163741,
                0.004872464574873447,
                -0.012491356581449509
            },
            {
                0.0018553606932982802,
                0.00400210777297616,
                -0.013831067830324173
            }
        },
        {
            {
                -0.01564854197204113,
                0.001925699063576758,
                0.01682402566075325
            },
            {
                -0.01374067459255457,
                0.004236623644828796,
                0.010560271330177784
            },
            {
                -0.01659715361893177,
                0.003248748369514942,
                0.0186203271150589
            }
        },
        {
            {
                -0.005088631063699722,
                0.0022350430954247713,
                0.002300322288647294
            },
            {
                -0.005238945130258799,
                0.0038863609079271555,
                0.002578114392235875
            },
            {
                -0.007207783870398998,
                0.0034895383287221193,
                0.002233654959127307
            }
        },
        {
            {
                -0.0013690125197172165,
                -0.0007536491611972451,
                0.0056336140260100365
            },
            {
                0.00544587429612875,
                -0.004945761524140835,
                -0.0034132020082324743
            },
            {
                0.01283677201718092,
                -0.0017619566060602665,
                -0.005100916605442762
            }
        },
        {
            {
                -0.0027399302925914526,
                -0.0033187230583280325,
                -0.0003649179998319596
            },
            {
                -0.0014766753884032369,
                -0.001558065414428711,
                -0.0016740772407501936
            },
            {
                0.00037964823422953486,
                0.0005101563292555511,
                -0.0015467449557036161
            }
        },
        {
            {
                -0.012244204990565777,
                -0.010047880001366138,
                -0.0094980513677001
            },
            {
                -0.00846438854932785,
                -0.008601397275924683,
                -0.004079580772668123
            },
            {
                -0.010422785766422749,
                -0.003577312920242548,
                -0.006578925531357527
            }
        },
        {
            {
                -0.0009578655590303242,
                0.006801502779126167,
                0.021413113921880722
            },
            {
                -0.004494180902838707,
                0.010472681373357773,
                0.026587849482893944
            },
            {
                -0.0058585889637470245,
                0.015333418734371662,
                0.02598743699491024
            }
        },
        {
            {
                0.0030735707841813564,
                0.0006397896213456988,
                0.0038980464451014996
            },
            {
                0.0020707950461655855,
                -0.000515341351274401,
                0.0037903119809925556
            },
            {
                0.0007666472811251879,
                -0.0009013225208036602,
                0.0037885059136897326
            }
        },
        {
            {
                -0.011903349310159683,
                0.01309412345290184,
                0.0341351144015789
            },
            {
                -0.020908286795020103,
                0.0025926167145371437,
                0.03077237866818905
            },
            {
                -0.023118946701288223,
                0.00406089099124074,
                0.026101356372237206
            }
        },
        {
            {
                0.003528638044372201,
                0.0016572738531976938,
                0.0018193324794992805
            },
            {
                0.0031963589135557413,
                0.0006530432146973908,
                0.0011701623443514109
            },
            {
                0.0031622014939785004,
                0.00037957727909088135,
                0.0003840736171696335
            }
        },
        {
            {
                -0.007291633170098066,
                0.013437489978969097,
                0.007252659648656845
            },
            {
                -0.007671320345252752,
                0.015322260558605194,
                0.005997378844767809
            },
            {
                -0.007976328022778034,
                0.016067959368228912,
                0.0033586290664970875
            }
        },
        {
            {
                0.005509780254215002,
                0.0055516804568469524,
                0.007190638221800327
            },
            {
                0.006231979466974735,
                0.004463070537894964,
                0.005248830653727055
            },
            {
                0.006144877523183823,
                0.003933495841920376,
                0.005608892999589443
            }
        },
        {
            {
                -0.016324372962117195,
                -0.010977874509990215,
                0.011680534109473228
            },
            {
                -0.015259616076946259,
                -0.013206680305302143,
                0.009500185027718544
            },
            {
                -0.014032099395990372,
                -0.00984893087297678,
                0.012555569410324097
            }
        },
        {
            {
                0.006128301378339529,
                0.006354175973683596,
                0.004212608095258474
            },
            {
                0.004900450352579355,
                0.0016938616754487157,
                0.005894976202398539
            },
            {
                0.003656576154753566,
                0.0008666135836392641,
                0.009624394588172436
            }
        },
        {
            {
                -0.0022619040682911873,
                -0.00019347765191923827,
                -0.00646132230758667
            },
            {
                -0.00142086879350245,
                0.0003962251648772508,
                -0.006731013301759958
            },
            {
                -0.0018676766194403172,
                -0.0019799929577857256,
                -0.006434861104935408
            }
        },
        {
            {
                0.005817655008286238,
                0.0011033207410946488,
                0.0006837687105871737
            },
            {
                0.0048857745714485645,
                0.0006267830030992627,
                -0.0013629175955429673
            },
            {
                0.004605300258845091,
                0.00024225837842095643,
                -0.002537964377552271
            }
        },
        {
            {
                0.0023798118345439434,
                -0.0065589603036642075,
                -0.007616629358381033
            },
            {
                0.0009273172472603619,
                -0.005433393642306328,
                -0.0057207997888326645
            },
            {
                -0.0017569595947861671,
                -0.0044828150421381,
                -0.005255012772977352
            }
        },
        {
            {
                -0.011972424574196339,
                0.005411143414676189,
                0.0039246343076229095
            },
            {
                -0.011894776485860348,
                0.005850743968039751,
                0.002654388779774308
            },
            {
                -0.01427631638944149,
                0.004316355567425489,
                0.0033623059280216694
            }
        },
        {
            {
                0.007312450557947159,
                -0.0010278369300067425,
                0.0035170288756489754
            },
            {
                0.00690722418949008,
                0.0006562296766787767,
                0.0010616061044856906
            },
            {
                0.006529632955789566,
                -0.0041519696824252605,
                0.0008588137570768595
            }
        },
        {
            {
                -0.01410171389579773,
                0.007847179658710957,
                0.006421966943889856
            },
            {
                -0.016872206702828407,
                0.0030842379201203585,
                0.006400127429515123
            },
            {
                -0.015485713258385658,
                -0.001412849291227758,
                0.02038305066525936
            }
        },
        {
            {
                -0.00798692088574171,
                -0.005390533711761236,
                0.008657308295369148
            },
            {
                -0.0063790990971028805,
                -0.0036338302306830883,
                0.006901837419718504
            },
            {
                -0.006293704733252525,
                -0.0015475088730454445,
                0.005476480349898338
            }
        }
    },
    {
        {
            {
                0.008936123922467232,
                -0.013204488903284073,
                0.0025877042207866907
            },
            {
                0.009302182123064995,
                -0.010593483224511147,
                0.0034984073136001825
            },
            {
                0.010221123695373535,
                -0.008812707848846912,
                0.003547451924532652
            }
        },
        {
            {
                -0.002250534947961569,
                -0.0025794347748160362,
                0.0016160974046215415
            },
            {
                -0.005242714658379555,
                -0.0015204737428575754,
                -0.0006273891194723547
            },
            {
                -0.007038184441626072,
                0.0006130640977062285,
                -0.001198821235448122
            }
        },
        {
            {
                -0.011243806220591068,
                -0.013204765506088734,
                0.00012179544864920899
            },
            {
                -0.00996384210884571,
                -0.011959917843341827,
                -0.00044444113154895604
            },
            {
                -0.005879014264792204,
                -0.009436553344130516,
                0.007750750984996557
            }
        },
        {
            {
                -0.01405670028179884,
                -0.004841924179345369,
                -0.01255100965499878
            },
            {
                -0.011476784944534302,
                -0.011120135895907879,
                -0.0051805549301207066
            },
            {
                -0.014632869511842728,
                -0.012677536346018314,
                0.0037551401183009148
            }
        },
        {
            {
                0.02333463728427887,
                -0.004362780600786209,
                -0.01965991035103798
            },
            {
                -0.0006448610220104456,
                -0.012671723030507565,
                0.0014395987382158637
            },
            {
                -0.02462286874651909,
                0.001139019732363522,
                0.01817808672785759
            }
        },
        {
            {
                -0.021637441590428352,
                0.009395692497491837,
                -0.007792474236339331
            },
            {
                -0.021467402577400208,
                0.009389398619532585,
                -0.0076819537207484245
            },
            {
                -0.021917594596743584,
                -0.0033530525397509336,
                -0.009690978564321995
            }
        },
        {
            {
                -0.008444058708846569,
                -0.006666118279099464,
                -0.00018207101675216109
            },
            {
                -0.0038656541146337986,
                -0.009804286062717438,
                0.003921999130398035
            },
            {
                -0.004505464807152748,
                -0.0055747609585523605,
                0.012428141199052334
            }
        },
        {
            {
                -0.001494509051553905,
                7.135121450119186e-06,
                -5.988231714582071e-05
            },
            {
                -0.004009514581412077,
                -0.0010620648972690105,
                -0.0003760916006285697
            },
            {
                -0.007171778939664364,
                0.0005138534470461309,
                -0.0002889847382903099
            }
        },
        {
            {
                -0.02671463042497635,
                -0.015113569796085358,
                0.021674655377864838
            },
            {
                -0.0236172117292881,
                -0.005143485032021999,
                0.03488137200474739
            },
            {
                -0.03647297993302345,
                0.0005260374746285379,
                0.02794598788022995
            }
        },
        {
            {
                0.00893251784145832,
                -0.0019197858637198806,
                -0.00617012707516551
            },
            {
                0.007485599722713232,
                -0.0011941056000068784,
                -0.008074691519141197
            },
            {
                0.007464596536010504,
                -0.0006616072496399283,
                -0.008756538853049278
            }
        },
        {
            {
                0.00753503292798996,
                0.005162007175385952,
                0.00024023689911700785
            },
            {
                0.006358232349157333,
                0.003276830306276679,
                -0.003831929760053754
            },
            {
                0.0034114543814212084,
                0.0050526633858680725,
                -0.00475370092317462
            }
        },
        {
            {
                -0.002922258572652936,
                -0.0022678738459944725,
                -0.006509389262646437
            },
            {
                -0.0012596116866916418,
                -0.0040569729171693325,
                -0.0071550942957401276
            },
            {
                -0.0035483641549944878,
                -0.005905547644942999,
                -0.006721029989421368
            }
        },
        {
            {
                -0.003667442826554179,
                -0.000820014625787735,
                0.002624005079269409
            },
            {
                -0.00459324149414897,
                -0.0011633526301011443,
                0.0022619948722422123
            },
            {
                -0.003380031092092395,
                -0.002233354141935706,
                -0.0007989804144017398
            }
        },
        {
            {
                -0.005162475164979696,
                0.001205611857585609,
                -0.006958360783755779
            },
            {
                0.003992749378085136,
                -0.0014388860436156392,
                -0.007435663603246212
            },
            {
                0.006157520227134228,
                -0.002997891278937459,
                -0.007265138905495405
            }
        },
        {
            {
                0.004497318994253874,
                0.011642063036561012,
                -0.010362546890974045
            },
            {
                -1.8768716472550295e-05,
                0.008994214236736298,
                -0.010825414210557938
            },
            {
                -0.005894398782402277,
                0.007009107153862715,
                -0.008402355946600437
            }
        },
        {
            {
                -0.0221135001629591,
                0.020409151911735535,
                -0.03169955685734749
            },
            {
                -0.025924192741513252,
                0.015562916174530983,
                -0.027749333530664444
            },
            {
                -0.026725690811872482,
                0.014361433684825897,
                -0.027602504938840866
            }
        },
        {
            {
                -0.004363688174635172,
                -0.0007710139034315944,
                -0.004626416601240635
            },
            {
                -0.006798487156629562,
                0.0021856133826076984,
                -0.0064902231097221375
            },
            {
                -0.007999815046787262,
                0.0038958308286964893,
                -0.00802694447338581
            }
        },
        {
            {
                -0.007425135932862759,
                0.007098691072314978,
                0.0012047468917444348
            },
            {
                -0.006911419797688723,
                0.005541545804589987,
                0.00024498513084836304
            },
            {
                -0.01013579498976469,
                0.0023556563537567854,
                0.001071006408892572
            }
        },
        {
            {
                0.009127533063292503,
                0.009760144166648388,
                -0.010578332468867302
            },
            {
                -0.0011805712711066008,
                0.010057360865175724,
                -0.006747852545231581
            },
            {
                -0.010246961377561092,
                0.00322598684579134,
                -0.006435350514948368
            }
        },
        {
            {
                -0.027948131784796715,
                -0.009601750411093235,
                0.025328561663627625
            },
            {
                -0.007366521749645472,
                0.014047759585082531,
                0.010396866127848625
            },
            {
                0.029218297451734543,
                0.023221012204885483,
                -0.003328074235469103
            }
        },
        {
            {
                -0.006439574528485537,
                0.02661401964724064,
                0.006759976036846638
            },
            {
                -0.004044290632009506,
                0.02278463914990425,
                0.008555471897125244
            },
            {
                -0.008938643150031567,
                0.013939511962234974,
                0.014377904124557972
            }
        },
        {
            {
                0.02656916156411171,
                0.0007491594878956676,
                -0.020948093384504318
            },
            {
                0.01954994909465313,
                0.000740351271815598,
                -0.020654622465372086
            },
            {
                0.015844659879803658,
                0.0017562470166012645,
                -0.024009792134165764
            }
        },
        {
            {
                0.007494019344449043,
                0.008839449845254421,
                0.010492438450455666
            },
            {
                0.0035374409053474665,
                0.007447419222444296,
                -0.00035411753924563527
            },
            {
                -0.00039812427712604403,
                0.009412856772542,
                -0.0048134783282876015
            }
        },
        {
            {
                0.0092405304312706,
                0.005821951664984226,
                -0.004005732014775276
            },
            {
                0.006402616389095783,
                0.0050062257796525955,
                -0.006433366797864437
            },
            {
                0.0029933974146842957,
                0.008039391599595547,
                -0.007254122290760279
            }
        },
        {
            {
                -0.003095529740676284,
                -0.004069527145475149,
                -0.014310046099126339
            },
            {
                -0.003952743951231241,
                -0.00787278451025486,
                -0.01630968414247036
            },
            {
                -0.004683997016400099,
                -0.009821384213864803,
                -0.01684693433344364
            }
        },
        {
            {
                -0.012426991015672684,
                0.006991218775510788,
                0.026987608522176743
            },
            {
                -0.015287285670638084,
                0.017455214634537697,
                0.01225215196609497
            },
            {
                -0.012956077232956886,
                0.02423180639743805,
                0.013075919821858406
            }
        },
        {
            {
                -0.007288961671292782,
                0.006657641846686602,
                0.004288030788302422
            },
            {
                -0.0019170715240761638,
                0.007502073887735605,
                -0.0005212809192016721
            },
            {
                -0.0022213708143681288,
                0.002378840232267976,
                0.0001839981705415994
            }
        },
        {
            {
                -0.004349692724645138,
                -0.0062689147889614105,
                0.004224421922117472
            },
            {
                -0.00317259319126606,
                -0.0043966867960989475,
                0.005518746562302113
            },
            {
                0.0012474630493670702,
                -0.0064559923484921455,
                0.006727539002895355
            }
        },
        {
            {
                -0.014824017882347107,
                0.006616256199777126,
                -0.003632144769653678
            },
            {
                -0.015011288225650787,
                0.01437405589967966,
                -0.002298651961609721
            },
            {
                -0.006461836863309145,
                0.01655249297618866,
                -0.0024431394413113594
            }
        },
        {
            {
                0.012250416912138462,
                0.0007044245721772313,
                -0.014510744251310825
            },
            {
                0.009278434328734875,
                -0.0012848140904679894,
                -0.01109001599252224
            },
            {
                0.006268354598432779,
                -8.033221820369363e-05,
                -0.011220221407711506
            }
        },
        {
            {
                -0.007072329055517912,
                -0.008836508728563786,
                -0.002084015402942896
            },
            {
                -0.009981468319892883,
                -0.0101005332544446,
                -0.005734818987548351
            },
            {
                -0.010745757259428501,
                -0.007126495707780123,
                -0.008356887847185135
            }
        },
        {
            {
                -0.0016245853621512651,
                -0.01262375432997942,
                -0.002878079656511545
            },
            {
                -0.0014862640528008342,
                -0.01185738667845726,
                -0.001996022881940007
            },
            {
                -0.0019492815481498837,
                -0.005357840098440647,
                0.00035217503318563104
            }
        },
        {
            {
                0.032611094415187836,
                0.01364197488874197,
                -0.011098743416368961
            },
            {
                0.029847709462046623,
                0.012530110776424408,
                -0.010872469283640385
            },
            {
                0.011291618458926678,
                0.01706605590879917,
                -0.01787448860704899
            }
        },
        {
            {
                -0.0017577713588252664,
                -0.005072630476206541,
                -0.006588279269635677
            },
            {
                -0.001715878606773913,
                -0.0036148931831121445,
                -0.001201228005811572
            },
            {
                -0.00486485380679369,
                -0.0003975796280428767,
                0.000892877287697047
            }
        },
        {
            {
                0.011578946374356747,
                0.02866334281861782,
                -0.0019386943895369768
            },
            {
                0.009346801787614822,
                0.019768239930272102,
                -0.007773708552122116
            },
            {
                0.004782240837812424,
                0.016970045864582062,
                -0.0036077555269002914
            }
        },
        {
            {
                -0.00909373164176941,
                -0.001596580259501934,
                -0.0018405652372166514
            },
            {
                -0.008373421616852283,
                0.007780109997838736,
                -0.001253799069672823
            },
            {
                -0.0214083231985569,
                -0.001495230128057301,
                -0.01131298579275608
            }
        },
        {
            {
                -0.006527183577418327,
                -0.0026647348422557116,
                -0.017860423773527145
            },
            {
                -0.015522299334406853,
                -0.0040302216075360775,
                -0.016347328200936317
            },
            {
                -0.02298327535390854,
                -0.011981073766946793,
                -0.018377605825662613
            }
        },
        {
            {
                -0.021056080237030983,
                -0.025292765349149704,
                0.027943499386310577
            },
            {
                -0.029432406648993492,
                -0.0162830650806427,
                0.02079162560403347
            },
            {
                -0.038616303354501724,
                -0.008863217197358608,
                0.02174588106572628
            }
        },
        {
            {
                0.007869599387049675,
                0.011138292029500008,
                -0.01281224936246872
            },
            {
                0.021684985607862473,
                0.007517608813941479,
                -0.010731765069067478
            },
            {
                0.01723008044064045,
                0.004900936037302017,
                -0.014848188497126102
            }
        },
        {
            {
                -0.030571168288588524,
                -0.011739921756088734,
                0.02822786010801792
            },
            {
                -0.03997713327407837,
                0.0009100285242311656,
                0.04134079068899155
            },
            {
                -0.042651645839214325,
                0.021899430081248283,
                0.02803638018667698
            }
        },
        {
            {
                0.00947651918977499,
                -0.014984570443630219,
                0.0171713475137949
            },
            {
                0.007514627650380135,
                -0.012800976634025574,
                0.013451488688588142
            },
            {
                0.0046545532532036304,
                -0.013720286078751087,
                0.013416090980172157
            }
        },
        {
            {
                0.0004576561914291233,
                0.0004282571899238974,
                0.0023786788806319237
            },
            {
                -0.00018210679991170764,
                -0.0007092788582667708,
                0.0018045417964458466
            },
            {
                -0.0005157768027856946,
                -0.004603131674230099,
                0.0018172451527789235
            }
        },
        {
            {
                -0.014463438652455807,
                -0.012960925698280334,
                -0.009169762954115868
            },
            {
                -0.013062046840786934,
                -0.017150532454252243,
                -0.0053935665637254715
            },
            {
                -0.008621823973953724,
                -0.01705591380596161,
                0.004769317340105772
            }
        },
        {
            {
                -0.008623874746263027,
                0.0016328336205333471,
                -0.00690902303904295
            },
            {
                -0.006617868319153786,
                -0.0031365423928946257,
                -0.005671139340847731
            },
            {
                -0.007467205170542002,
                -0.004939985927194357,
                -0.007495671045035124
            }
        },
        {
            {
                -0.014608695171773434,
                0.011272989213466644,
                0.007673718500882387
            },
            {
                -0.015272172167897224,
                0.012192713096737862,
                0.0028893379494547844
            },
            {
                -0.022026805207133293,
                0.005559023469686508,
                0.007474344223737717
            }
        },
        {
            {
                -0.0020068525336682796,
                0.005192212760448456,
                -0.0018457620171830058
            },
            {
                0.0009412185754626989,
                0.0066655599512159824,
                -0.0003736091312021017
            },
            {
                -0.004546287003904581,
                -0.0007997701759450138,
                0.002893148921430111
            }
        },
        {
            {
                0.012190637178719044,
                0.006662564352154732,
                -0.013353833928704262
            },
            {
                0.02690982259809971,
                0.0017870108131319284,
                -0.017019586637616158
            },
            {
                0.03566599637269974,
                0.0006343038403429091,
                -0.02419610321521759
            }
        },
        {
            {
                -0.010966979898512363,
                0.009979628957808018,
                0.006022857502102852
            },
            {
                -0.009711443446576595,
                0.012761522084474564,
                0.00661550322547555
            },
            {
                -0.010049153119325638,
                0.013986535370349884,
                0.0121221374720335
            }
        },
        {
            {
                -0.008190357126295567,
                0.013594241812825203,
                0.014957019127905369
            },
            {
                -0.014263544231653214,
                0.017786450684070587,
                0.01690860651433468
            },
            {
                -0.02519095130264759,
                0.019690893590450287,
                0.012711172923445702
            }
        },
        {
            {
                -0.013889717869460583,
                -0.016030456870794296,
                -0.0007386749493889511
            },
            {
                -0.013888220302760601,
                -0.009478592313826084,
                0.003382171969860792
            },
            {
                -0.019958626478910446,
                -0.012797841802239418,
                0.004573368467390537
            }
        },
        {
            {
                -0.00883683655411005,
                -0.007024033460766077,
                0.00165224215015769
            },
            {
                -0.010295095853507519,
                -0.005615620408207178,
                0.002003135858103633
            },
            {
                -0.007949327118694782,
                -0.0024629265535622835,
                0.004825817421078682
            }
        },
        {
            {
                -0.02165360003709793,
                -0.0012265521800145507,
                0.003067691344767809
            },
            {
                -0.019216880202293396,
                0.0061745792627334595,
                0.026160163804888725
            },
            {
                -0.026638180017471313,
                -0.0011652703396975994,
                0.032680612057447433
            }
        },
        {
            {
                0.005256732925772667,
                -0.003246730426326394,
                -0.0026144387666136026
            },
            {
                -0.00020374736050143838,
                -0.0035068148281425238,
                -0.004393675830215216
            },
            {
                -0.0073282127268612385,
                0.00020161668362561613,
                -0.006712175905704498
            }
        },
        {
            {
                -0.010094497352838516,
                0.019741009920835495,
                -0.007518414873629808
            },
            {
                -0.013445788063108921,
                0.015558398328721523,
                -0.006509124301373959
            },
            {
                -0.020129408687353134,
                0.009604073129594326,
                -0.00428534671664238
            }
        },
        {
            {
                0.005276264622807503,
                0.0014879069058224559,
                -0.0003788821632042527
            },
            {
                -0.0004487098194658756,
                -0.00043463282054290175,
                -0.006669946014881134
            },
            {
                -0.003948432393372059,
                0.0042391009628772736,
                -0.0039881756529212
            }
        },
        {
            {
                -0.014584934338927269,
                -0.011054467409849167,
                -0.004263916052877903
            },
            {
                -0.01248339656740427,
                -0.008028391748666763,
                0.022137492895126343
            },
            {
                -0.02266211435198784,
                -0.005986296571791172,
                0.01564837247133255
            }
        },
        {
            {
                0.019177090376615524,
                0.019507763907313347,
                -0.0073460726998746395
            },
            {
                0.008745911531150341,
                0.009842205792665482,
                -0.0036250746343284845
            },
            {
                0.0015888528432697058,
                0.01969001814723015,
                -0.005669320933520794
            }
        },
        {
            {
                -0.011537891812622547,
                0.0075239152647554874,
                -0.0017443749820813537
            },
            {
                -0.011219802312552929,
                0.002168934792280197,
                0.00032480183290317655
            },
            {
                -0.012057755142450333,
                -0.004798540845513344,
                0.003451660042628646
            }
        },
        {
            {
                0.0004979304503649473,
                0.004654829856008291,
                -0.0032194415107369423
            },
            {
                -0.0031811771914362907,
                0.006271854974329472,
                -0.0048907240852713585
            },
            {
                -0.00712990527972579,
                0.008751926943659782,
                -0.00469935592263937
            }
        },
        {
            {
                -0.00955598708242178,
                -0.012959892861545086,
                -0.003443043678998947
            },
            {
                -0.006968719884753227,
                -0.015426467172801495,
                -0.004189846571534872
            },
            {
                -0.00556593295186758,
                -0.010828985832631588,
                -0.00036461054696701467
            }
        },
        {
            {
                -0.0012210137210786343,
                0.02795322798192501,
                0.004328487440943718
            },
            {
                -0.00033421479747630656,
                0.018972937017679214,
                0.002625062596052885
            },
            {
                -0.013669305481016636,
                0.007764037232846022,
                0.007808429654687643
            }
        },
        {
            {
                0.0050782919861376286,
                0.009199712425470352,
                0.009258037433028221
            },
            {
                0.004133319482207298,
                0.00907108373939991,
                0.0018064345931634307
            },
            {
                0.0003270097076892853,
                0.010351328179240227,
                0.005402009468525648
            }
        },
        {
            {
                -0.010767915286123753,
                -0.0018687843112275004,
                -0.011077345348894596
            },
            {
                -0.02075039967894554,
                -0.00045148786739446223,
                -0.007413867861032486
            },
            {
                -0.025415850803256035,
                -0.01619981974363327,
                -0.010157580487430096
            }
        },
        {
            {
                -0.009538905695080757,
                0.010271419771015644,
                0.005087813828140497
            },
            {
                -0.009190925396978855,
                0.014901936985552311,
                0.00735074607655406
            },
            {
                -0.012715262360870838,
                0.015933183953166008,
                0.010815825313329697
            }
        }
    },
    {
        {
            {
                -0.006583499722182751,
                -0.0001761869789334014,
                -0.004462813958525658
            },
            {
                -0.00567709282040596,
                -0.0007278991979546845,
                -0.0054569244384765625
            },
            {
                -0.005833943374454975,
                -0.000751596235204488,
                -0.006260863039642572
            }
        },
        {
            {
                -0.0004835852305404842,
                0.004553979262709618,
                0.005584509577602148
            },
            {
                -0.0003962099435739219,
                0.004250874277204275,
                0.0067434161901474
            },
            {
                -0.001160750281997025,
                0.0047634500078856945,
                0.006165951024740934
            }
        },
        {
            {
                -0.0047820499166846275,
                -0.00041235145181417465,
                0.003725449088960886
            },
            {
                -0.005465863272547722,
                -0.001770964008755982,
                0.004567628260701895
            },
            {
                -0.007364645600318909,
                -0.0017375773750245571,
                0.004103364888578653
            }
        },
        {
            {
                -0.00278386939316988,
                0.0010355784324929118,
                -0.004553324077278376
            },
            {
                -0.004456091206520796,
                -0.0017305538058280945,
                -0.004942589905112982
            },
            {
                -0.004861687775701284,
                -0.0023574428632855415,
                -0.005266844294965267
            }
        },
        {
            {
                -0.008255848661065102,
                -0.013233642093837261,
                -0.00359240360558033
            },
            {
                -0.0061567844823002815,
                -0.007585566025227308,
                -0.0013409362873062491
            },
            {
                -0.006641983985900879,
                -0.007658015936613083,
                -0.009042748250067234
            }
        },
        {
            {
                -0.025983711704611778,
                -0.010653235018253326,
                -0.004972474183887243
            },
            {
                -0.019069472327828407,
                -0.0075347041711211205,
                -0.0055937874130904675
            },
            {
                -0.02163633704185486,
                -0.007851885631680489,
                -0.006499853916466236
            }
        },
        {
            {
                -0.004067137837409973,
                0.005103084724396467,
                0.0021836399100720882
            },
            {
                -0.004625083412975073,
                -0.000580809370148927,
                0.0008497192757204175
            },
            {
                -0.0075350431725382805,
                -0.0007948335260152817,
                0.0023388289846479893
            }
        },
        {
            {
                -0.0012629120610654354,
                -0.0008186828927136958,
                0.0013466817326843739
            },
            {
                -0.0014662061585113406,
                -0.0007403905037790537,
                0.0025654409546405077
            },
            {
                -0.002190246246755123,
                -0.00021343838307075202,
                0.0024687780532985926
            }
        },
        {
            {
                -0.02135106734931469,
                -0.008086574263870716,
                0.003941659815609455
            },
            {
                -0.024411410093307495,
                -0.0010637033265084028,
                0.006476206239312887
            },
            {
                -0.02043827995657921,
                -0.00031846578349359334,
                0.002861945889890194
            }
        },
        {
            {
                -0.002526202704757452,
                -0.0016417879378423095,
                -0.004162751138210297
            },
            {
                -0.0014405455440282822,
                -0.0011600636644288898,
                -0.002572406083345413
            },
            {
                -0.0029080526437610388,
                -0.002264510840177536,
                -0.0016641808906570077
            }
        },
        {
            {
                0.000577513943426311,
                0.0016607161378487945,
                0.007037722505629063
            },
            {
                0.0005105115124024451,
                0.0019842928741127253,
                0.00669176084920764
            },
            {
                -0.0001060666618286632,
                0.0030915432143956423,
                0.007003608625382185
            }
        },
        {
            {
                -0.00289232493378222,
                -0.0011370066786184907,
                -0.001588006503880024
            },
            {
                -0.0020091913174837828,
                -0.0003091658290941268,
                -0.000498303328640759
            },
            {
                0.00030856262310408056,
                0.0011615717085078359,
                0.0007736763800494373
            }
        },
        {
            {
                0.004573490470647812,
                0.002919056685641408,
                -0.004751396365463734
            },
            {
                0.005704651121050119,
                0.003911028616130352,
                -0.006206530146300793
            },
            {
                0.006376038771122694,
                0.0036174829583615065,
                -0.008019785396754742
            }
        },
        {
            {
                -0.015539989806711674,
                -0.00999000109732151,
                -0.006469266023486853
            },
            {
                -0.014406099915504456,
                -0.0109096709638834,
                -0.004711739718914032
            },
            {
                -0.014800453558564186,
                -0.009226562455296516,
                -0.003720917971804738
            }
        },
        {
            {
                0.0035266736522316933,
                -0.00621058838441968,
                -0.00608934136107564
            },
            {
                0.006754017435014248,
                -0.006400772370398045,
                -0.005970073863863945
            },
            {
                0.00651058554649353,
                -0.007354110945016146,
                -0.006578320171684027
            }
        },
        {
            {
                0.004882906563580036,
                0.0031794048845767975,
                -0.0016687986208125949
            },
            {
                0.005067664664238691,
                0.0018180615734308958,
                -0.00257854419760406
            },
            {
                0.0034522926434874535,
                0.0004967352142557502,
                -0.0012106501962989569
            }
        },
        {
            {
                0.00803279411047697,
                -0.003808928420767188,
                0.0074940943159163
            },
            {
                0.009946251288056374,
                -0.004169495310634375,
                0.007712727878242731
            },
            {
                0.009470077231526375,
                -0.004674310330301523,
                0.008996047079563141
            }
        },
        {
            {
                0.008657647296786308,
                0.003188168164342642,
                -0.007751093711704016
            },
            {
                0.01011466421186924,
                0.0005274746799841523,
                -0.008419168181717396
            },
            {
                0.01229886431246996,
                -0.0006362276617437601,
                -0.01080471370369196
            }
        },
        {
            {
                -0.006713234353810549,
                -0.004891708493232727,
                -0.001567336730659008
            },
            {
                -0.0048197186551988125,
                -0.006946617737412453,
                -0.012972008436918259
            },
            {
                -0.010080964304506779,
                0.000246044946834445,
                0.008274680934846401
            }
        },
        {
            {
                -0.010661488398909569,
                -0.0002445273275952786,
                -0.019412312656641006
            },
            {
                0.00444158585742116,
                0.00565686309710145,
                -0.014806052669882774
            },
            {
                -0.014275303110480309,
                -0.011490309610962868,
                -0.01374355610460043
            }
        },
        {
            {
                -0.0011703375494107604,
                0.002446151338517666,
                0.0028286664746701717
            },
            {
                -0.0018372362246736884,
                0.0023355637677013874,
                0.0026842926163226366
            },
            {
                -0.005240948870778084,
                0.0011816079495474696,
                0.0018564893398433924
            }
        },
        {
            {
                -0.01762513630092144,
                -0.006818212568759918,
                0.0004848672542721033
            },
            {
                -0.013795035891234875,
                -0.004175412468612194,
                0.0016825390048325062
            },
            {
                -0.01611413061618805,
                -0.0035929535515606403,
                0.0019491282291710377
            }
        },
        {
            {
                0.0012428122572600842,
                0.006045462563633919,
                0.011435866355895996
            },
            {
                0.0017911227187141776,
                0.006535064894706011,
                0.01489495299756527
            },
            {
                0.0011451555183157325,
                0.009644674137234688,
                0.013284220360219479
            }
        },
        {
            {
                -7.406380609609187e-05,
                4.27180748374667e-05,
                -7.741906301816925e-05
            },
            {
                -0.00107417197432369,
                0.000188088757568039,
                0.0012724044499918818
            },
            {
                7.424903742503375e-05,
                -0.0003570362750906497,
                0.002546576550230384
            }
        },
        {
            {
                -0.005168830510228872,
                0.0003302451514173299,
                0.0038560794200748205
            },
            {
                -0.004989396780729294,
                0.0007415676955133677,
                0.004591880366206169
            },
            {
                -0.0028906657826155424,
                0.0013250643387436867,
                0.004560728557407856
            }
        },
        {
            {
                0.0037711334880441427,
                0.006230899598449469,
                -0.0060221608728170395
            },
            {
                0.0005527001922018826,
                0.0016927049728110433,
                -0.006528443656861782
            },
            {
                -0.0006442712037824094,
                -0.0006726211868226528,
                -0.0014507916057482362
            }
        },
        {
            {
                -0.005266864318400621,
                0.00032296054996550083,
                -0.0020801713690161705
            },
            {
                -0.004738646559417248,
                -0.00043271880713291466,
                -0.0025424303021281958
            },
            {
                -0.004337704740464687,
                -0.0009394501685164869,
                -0.0027664455119520426
            }
        },
        {
            {
                -0.004907575435936451,
                0.002127600135281682,
                -0.007354141678661108
            },
            {
                -0.0009394746157340705,
                0.0021330020390450954,
                -0.0077233752235770226
            },
            {
                -0.0018653450533747673,
                0.0023852793965488672,
                -0.008882630616426468
            }
        },
        {
            {
                0.01911276951432228,
                -0.013107825070619583,
                -0.006970336195081472
            },
            {
                0.011252213269472122,
                -0.013297001831233501,
                -0.007004925049841404
            },
            {
                0.01465791929513216,
                -0.012732063420116901,
                -0.007593201473355293
            }
        },
        {
            {
                -0.00780634256079793,
                -0.0031476467847824097,
                -0.003298400668427348
            },
            {
                -0.007170851808041334,
                -0.0011965788435190916,
                -0.0026688389480113983
            },
            {
                -0.008870785124599934,
                -0.002142067067325115,
                -0.0030809317249804735
            }
        },
        {
            {
                0.0038532691542059183,
                -0.0007753065438009799,
                5.026676080888137e-05
            },
            {
                0.0026994398795068264,
                -0.0014093013014644384,
                -0.0005133681115694344
            },
            {
                0.002421454293653369,
                -0.0006649357965216041,
                -8.469727617921308e-05
            }
        },
        {
            {
                -0.00207658507861197,
                0.001264746766537428,
                -0.0010148577857762575
            },
            {
                -0.002469465136528015,
                0.0010391285177320242,
                0.0005152479279786348
            },
            {
                -0.0032533789053559303,
                0.0001347572251688689,
                0.0011758230393752456
            }
        },
        {
            {
                -0.005086360964924097,
                -0.009040464647114277,
                -0.0037135116290301085
            },
            {
                -0.00941902119666338,
                -0.008093682117760181,
                -0.007286636158823967
            },
            {
                -0.0127018503844738,
                -0.0010933659505099058,
                -0.009073754772543907
            }
        },
        {
            {
                -0.003913062158972025,
                -0.004060708452016115,
                -0.0030579366721212864
            },
            {
                -0.005155013874173164,
                -0.004822154063731432,
                -0.0022303618025034666
            },
            {
                -0.0044357990846037865,
                -0.004701869562268257,
                -0.0027608496602624655
            }
        },
        {
            {
                0.0021305065602064133,
                -0.0020318038295954466,
                0.000765374512411654
            },
            {
                0.0029348444659262896,
                0.00026858324417844415,
                0.0014579625567421317
            },
            {
                0.003481962252408266,
                0.0014618869172409177,
                0.0015220482600852847
            }
        },
        {
            {
                -0.01187712699174881,
                -0.0074540069326758385,
                -0.004665686748921871
            },
            {
                -0.015680989250540733,
                -0.006567244417965412,
                -0.006270484067499638
            },
            {
                -0.006393333896994591,
                -0.0024414765648543835,
                -0.005543033592402935
            }
        },
        {
            {
                -0.009869256988167763,
                -0.004103571176528931,
                -0.0028620318043977022
            },
            {
                -0.008281135931611061,
                -0.0019300671992823482,
                -0.0034037278965115547
            },
            {
                -0.00722979661077261,
                -0.00013248747563920915,
                -0.0019152113236486912
            }
        },
        {
            {
                -0.014646181836724281,
                -0.0009125793003477156,
                -0.005022463854402304
            },
            {
                -0.015631111338734627,
                -0.0018567732768133283,
                -0.008761546574532986
            },
            {
                -0.018300989642739296,
                -0.0018841420533135533,
                -0.011925152502954006
            }
        },
        {
            {
                -0.01915227249264717,
                -0.009718283079564571,
                -0.00507323257625103
            },
            {
                -0.014504303224384785,
                -0.007355062756687403,
                -0.003767138347029686
            },
            {
                -0.014904509298503399,
                -0.009864198975265026,
                -0.004282366018742323
            }
        },
        {
            {
                -0.004209746140986681,
                -0.0015336588257923722,
                -0.006207588128745556
            },
            {
                -0.008187204599380493,
                0.001192354247905314,
                -0.003389909863471985
            },
            {
                -0.010466953739523888,
                -0.00912727601826191,
                -0.012299638241529465
            }
        },
        {
            {
                0.0002571541990619153,
                -0.0012263698736205697,
                0.00321990717202425
            },
            {
                0.003780754515901208,
                -0.0001338611909886822,
                0.00022543268278241158
            },
            {
                0.0009398523834533989,
                0.00027205736842006445,
                0.0007526673143729568
            }
        },
        {
            {
                -0.001307524275034666,
                -0.00022321980213746428,
                -0.00020841769583057612
            },
            {
                -0.00015067610365804285,
                0.0002912733471021056,
                -0.0001544056722195819
            },
            {
                0.00024351074534934014,
                0.00033775847987271845,
                -0.0005334532470442355
            }
        },
        {
            {
                -0.003969317302107811,
                0.007825767621397972,
                0.0016744369640946388
            },
            {
                -0.007901264354586601,
                0.008145124651491642,
                0.00016119024076033384
            },
            {
                -0.007911759428679943,
                0.008247455582022667,
                0.0002088409528369084
            }
        },
        {
            {
                -0.003456912701949477,
                -0.003924815449863672,
                -0.0013490674318745732
            },
            {
                -0.002010017866268754,
                -0.004128904081881046,
                0.0004347381473053247
            },
            {
                -0.0017284215427935123,
                -0.004425327759236097,
                0.0017200843431055546
            }
        },
        {
            {
                -0.005153296049684286,
                0.0034541371278464794,
                0.0019467724487185478
            },
            {
                -0.008672192692756653,
                0.0033412068150937557,
                0.00400983402505517
            },
            {
                -0.007061408832669258,
                0.0025957643520087004,
                0.0030317462515085936
            }
        },
        {
            {
                -0.00035164100700058043,
                -0.0005003961268812418,
                -0.0033967033959925175
            },
            {
                -0.0014743374194949865,
                -0.0008565082098357379,
                -0.003131274366751313
            },
            {
                -0.002248430624604225,
                -0.0011475681094452739,
                -0.0027898591943085194
            }
        },
        {
            {
                -0.02642408385872841,
                -0.007893218658864498,
                -0.013982453383505344
            },
            {
                -0.02001674845814705,
                -0.005387458950281143,
                -0.0062644705176353455
            },
            {
                -0.02848411165177822,
                -0.008033919148147106,
                -0.01267972495406866
            }
        },
        {
            {
                0.007431172765791416,
                -0.003300293581560254,
                0.005086103454232216
            },
            {
                0.01662687584757805,
                -0.004683563020080328,
                0.004737206269055605
            },
            {
                0.01710517704486847,
                -0.004874108824878931,
                0.005723491311073303
            }
        },
        {
            {
                -0.005452020559459925,
                0.0053953686729073524,
                -0.004268406890332699
            },
            {
                -0.005357713438570499,
                0.005456849001348019,
                -0.005738852545619011
            },
            {
                -0.003168437397107482,
                0.0022147330455482006,
                -0.005768062546849251
            }
        },
        {
            {
                -0.004285345319658518,
                -0.002721760654821992,
                -0.0020952329505234957
            },
            {
                -0.003378566587343812,
                -0.001554790767841041,
                -0.0011375445174053311
            },
            {
                -0.0074249813333153725,
                -0.0020602960139513016,
                -0.003547404194250703
            }
        },
        {
            {
                0.0002555034589022398,
                0.003760748542845249,
                -6.230576400412247e-05
            },
            {
                0.0005741710192523897,
                0.0032542524859309196,
                -0.0004140757955610752
            },
            {
                0.0008286696975119412,
                0.003558797761797905,
                -0.0010492223082110286
            }
        },
        {
            {
                -0.009578216820955276,
                -0.0021928446367383003,
                0.008019877597689629
            },
            {
                -0.026336563751101494,
                -0.003718498395755887,
                0.01496388204395771
            },
            {
                -0.03774891793727875,
                -0.001543752965517342,
                0.005232578609138727
            }
        },
        {
            {
                6.294972990872338e-05,
                -0.0012632866855710745,
                0.0046833534725010395
            },
            {
                -0.0002426074497634545,
                -0.001312985667027533,
                0.0057946378365159035
            },
            {
                -0.001645524869672954,
                -0.0006181091303005815,
                0.006759124342352152
            }
        },
        {
            {
                0.00217484962195158,
                0.0021531376987695694,
                -0.0006310574826784432
            },
            {
                0.0015236677136272192,
                0.0014729950344190001,
                0.001315595000050962
            },
            {
                7.296044350368902e-05,
                -0.00023980053083505481,
                0.0016057323664426804
            }
        },
        {
            {
                -0.0025391881354153156,
                0.004137865733355284,
                0.009460397996008396
            },
            {
                -0.0023850416764616966,
                0.0038331763353198767,
                0.010553203523159027
            },
            {
                -0.002971760230138898,
                0.0067765614949166775,
                0.010809198021888733
            }
        },
        {
            {
                -0.011933371424674988,
                0.0012981360778212547,
                -0.015339115634560585
            },
            {
                -0.01640400104224682,
                0.007541627623140812,
                -0.009185432456433773
            },
            {
                -0.01232756208628416,
                0.009913172572851181,
                -0.009884552098810673
            }
        },
        {
            {
                -0.0022339709103107452,
                0.0011029924498870969,
                0.003111861879006028
            },
            {
                -0.0010453324066475034,
                0.0015668014530092478,
                0.003542400198057294
            },
            {
                -0.000563188164960593,
                0.0039344364777207375,
                0.003456162055954337
            }
        },
        {
            {
                0.0003077393921557814,
                -0.0005692194681614637,
                -0.0017261801986023784
            },
            {
                0.0010320324217900634,
                -0.0009162254864349961,
                -0.0006340843392536044
            },
            {
                0.0013487923424690962,
                -0.0012185984523966908,
                0.0005499974940903485
            }
        },
        {
            {
                0.008042506873607635,
                -0.005287504754960537,
                0.007009055465459824
            },
            {
                0.009206634946167469,
                -0.0051459865644574165,
                0.008035331033170223
            },
            {
                0.00998960342258215,
                -0.004749532323330641,
                0.008974048309028149
            }
        },
        {
            {
                -0.00531025230884552,
                0.0044735693372786045,
                0.00025729771004989743
            },
            {
                -0.004951683804392815,
                0.0032002346124500036,
                -0.0008726150845177472
            },
            {
                -0.006692876573652029,
                0.0029506657738238573,
                -0.0016885659424588084
            }
        },
        {
            {
                -0.00450365012511611,
                0.0032922974787652493,
                0.0005688093369826674
            },
            {
                -0.006347284652292728,
                0.002682791091501713,
                0.0006311172619462013
            },
            {
                -0.0077813719399273396,
                0.000516270927619189,
                6.092726471251808e-05
            }
        },
        {
            {
                -0.005312780849635601,
                0.010571111924946308,
                0.012597775086760521
            },
            {
                -0.0027124914340674877,
                0.0035396364983171225,
                0.013944664970040321
            },
            {
                -0.0017335155280306935,
                0.006693969946354628,
                0.014046123251318932
            }
        },
        {
            {
                -0.013459639623761177,
                -0.009061104618012905,
                -0.004443002864718437
            },
            {
                -0.017229026183485985,
                -0.010156597942113876,
                -0.004495593253523111
            },
            {
                -0.022823164239525795,
                -0.009350167587399483,
                -0.00792910996824503
            }
        },
        {
            {
                -0.007808138616383076,
                -0.0010344882030040026,
                -0.003987012431025505
            },
            {
                -0.008467420004308224,
                -0.002385202795267105,
                -0.004086279310286045
            },
            {
                -0.007630172651261091,
                -0.0017775987507775426,
                -0.0042212302796542645
            }
        }
    },
    {
        {
            {
                -0.0030375102069228888,
                -0.005604938603937626,
                -0.0072049289010465145
            },
            {
                -0.0027700825594365597,
                -0.006134644150733948,
                -0.005423904862254858
            },
            {
                -0.0025908967945724726,
                -0.006208696402609348,
                -0.005169519688934088
            }
        },
        {
            {
                0.0013249897165223956,
                0.001515466719865799,
                -0.0009780334075912833
            },
            {
                0.0014460767852142453,
                0.0030439025722444057,
                -0.0005896843504160643
            },
            {
                0.000301997410133481,
                0.0037035837303847075,
                -0.001317001529969275
            }
        },
        {
            {
                -0.002039772691205144,
                -0.0021008166950196028,
                0.004824166651815176
            },
            {
                -0.0022249191533774137,
                -0.003207448171451688,
                0.006579314358532429
            },
            {
                -0.0030773989856243134,
                -0.0045402939431369305,
                0.00653767678886652
            }
        },
        {
            {
                -0.0027942215092480183,
                -0.0032182284630835056,
                -0.0030270859133452177
            },
            {
                -0.003816323820501566,
                -0.003592859487980604,
                -0.003215768840163946
            },
            {
                -0.004726126324385405,
                -0.0053412881679832935,
                -0.005617049988359213
            }
        },
        {
            {
                -0.004769564606249332,
                -0.002116996794939041,
                -0.004304772708564997
            },
            {
                -0.005368543788790703,
                -0.004381109029054642,
                -0.0037380619905889034
            },
            {
                -0.008181612938642502,
                6.876781117171049e-05,
                -0.0035428227856755257
            }
        },
        {
            {
                -0.013586564920842648,
                -0.003771084127947688,
                0.003516435157507658
            },
            {
                -0.014834021218121052,
                -0.00020512152696028352,
                0.003390234662219882
            },
            {
                -0.012730501592159271,
                0.0018898176494985819,
                0.0036698158364742994
            }
        },
        {
            {
                -0.004233861342072487,
                0.0016757530393078923,
                -0.0026592896319925785
            },
            {
                -0.0012255124747753143,
                0.0016161868115887046,
                -0.002183539094403386
            },
            {
                -0.0016462728381156921,
                0.0007775732665322721,
                -0.0025224073324352503
            }
        },
        {
            {
                -0.0022539261262863874,
                -0.0015719718066975474,
                0.000761880655772984
            },
            {
                -0.0022000798489898443,
                -0.0007153667393140495,
                0.0018851403146982193
            },
            {
                -0.0018391640624031425,
                0.000270270393230021,
                0.0027727081906050444
            }
        },
        {
            {
                -0.003828704124316573,
                -0.001511736074462533,
                0.0020229853689670563
            },
            {
                -0.0013988002901896834,
                0.0002018244849750772,
                0.0020995978266000748
            },
            {
                0.001048026024363935,
                0.002030188450589776,
                -0.003079142887145281
            }
        },
        {
            {
                -0.0024121429305523634,
                -0.005655499640852213,
                -0.0007816780125722289
            },
            {
                -0.002423677360638976,
                -0.004523760173469782,
                0.0009558515739627182
            },
            {
                -0.003469205927103758,
                -0.003973256330937147,
                0.0019809105433523655
            }
        },
        {
            {
                0.004364748019725084,
                2.5891411496559158e-05,
                0.002167108003050089
            },
            {
                0.004819985944777727,
                0.0019292255165055394,
                0.0029395530000329018
            },
            {
                0.004989003762602806,
                0.0037425821647047997,
                0.002471083076670766
            }
        },
        {
            {
                -0.0009864188032224774,
                -0.002883586334064603,
                -0.0030062440782785416
            },
            {
                -0.00016868981765583158,
                -0.0028725862503051758,
                -0.0027350052259862423
            },
            {
                0.00196678563952446,
                -0.0021160547621548176,
                -0.0019476579036563635
            }
        },
        {
            {
                0.0066078174859285355,
                -0.0030239620245993137,
                -0.0069763860665261745
            },
            {
                0.007386292330920696,
                -0.0029372400604188442,
                -0.00938558578491211
            },
            {
                0.008491861633956432,
                -0.002693267073482275,
                -0.011372704058885574
            }
        },
        {
            {
                -0.0034151317086070776,
                -0.010583092458546162,
                0.0007704285671934485
            },
            {
                -0.003233274444937706,
                -0.010750221088528633,
                0.0026280630845576525
            },
            {
                -0.007458142004907131,
                -0.00928360316902399,
                0.004051249008625746
            }
        },
        {
            {
                -0.0003642259689513594,
                -0.008721275255084038,
                -0.006950330920517445
            },
            {
                0.001662484835833311,
                -0.009391692467033863,
                -0.00582240242511034
            },
            {
                0.0024926632177084684,
                -0.009847578592598438,
                -0.006350246258080006
            }
        },
        {
            {
                0.0026991688646376133,
                -0.0026098163798451424,
                0.00478374632075429
            },
            {
                0.0042962320148944855,
                -0.003628746373578906,
                0.004646770190447569
            },
            {
                0.0024257011245936155,
                -0.004014024510979652,
                0.004794448614120483
            }
        },
        {
            {
                -0.0007610020693391562,
                0.0012951596872881055,
                -1.3916586794948671e-05
            },
            {
                -0.0008070277399383485,
                0.0022260495461523533,
                -0.00014468145673163235
            },
            {
                -0.00034683896228671074,
                0.0031833809334784746,
                -0.00037437581340782344
            }
        },
        {
            {
                0.0026204867754131556,
                -0.0033921436406672,
                -0.010617919266223907
            },
            {
                0.005291370674967766,
                -0.004639334976673126,
                -0.013341506943106651
            },
            {
                0.007191170938313007,
                -0.0040938518941402435,
                -0.015130328014492989
            }
        },
        {
            {
                -0.002485338132828474,
                -0.003110998310148716,
                0.007257112301886082
            },
            {
                0.0017184620955958962,
                -0.0048173097893595695,
                0.009282869286835194
            },
            {
                -0.004168924875557423,
                -0.0024782053660601377,
                0.005704397335648537
            }
        },
        {
            {
                0.004762561991810799,
                -0.0028866350185126066,
                0.00143106107134372
            },
            {
                0.0001519282377557829,
                -0.01599367894232273,
                -0.006169402506202459
            },
            {
                -0.009760710410773754,
                -0.015637937933206558,
                -0.001489565591327846
            }
        },
        {
            {
                0.0025683827698230743,
                0.0035585493315011263,
                0.007423793897032738
            },
            {
                0.003047770354896784,
                0.002820004476234317,
                0.008385835215449333
            },
            {
                0.002757301554083824,
                0.001937094726599753,
                0.008808945305645466
            }
        },
        {
            {
                -0.0066022127866744995,
                -0.008330930955708027,
                -0.005484495311975479
            },
            {
                -0.0035383617505431175,
                -0.005984130781143904,
                -0.005748887080699205
            },
            {
                -0.007365887053310871,
                -0.004933995194733143,
                -0.00584359560161829
            }
        },
        {
            {
                -0.000369554094504565,
                0.0033629760146141052,
                0.006046468857675791
            },
            {
                0.00022620039817411453,
                0.005137360654771328,
                0.006915895733982325
            },
            {
                0.0005646855570375919,
                0.006799850147217512,
                0.006431288085877895
            }
        },
        {
            {
                -0.0006442654994316399,
                -0.0020202898886054754,
                0.000809619901701808
            },
            {
                0.00036455204826779664,
                -0.0018868246115744114,
                0.0022379455622285604
            },
            {
                0.00018978011212311685,
                -0.0016444295179098845,
                0.003208879614248872
            }
        },
        {
            {
                -0.006028500385582447,
                0.00017528794705867767,
                0.004840016830712557
            },
            {
                -0.005415503866970539,
                0.0008510482730343938,
                0.00510348379611969
            },
            {
                -0.003001444973051548,
                0.0014023949624970555,
                0.004903137683868408
            }
        },
        {
            {
                0.001093752682209015,
                -0.0011195866391062737,
                0.0038139650132507086
            },
            {
                0.0010402939515188336,
                -0.001307042664848268,
                0.0021183888893574476
            },
            {
                0.002376110525801778,
                -0.006032849662005901,
                0.00305875763297081
            }
        },
        {
            {
                0.0026939541567116976,
                -0.0005397534114308655,
                0.007148082368075848
            },
            {
                0.001200346159748733,
                -0.0009642700897529721,
                0.007403973489999771
            },
            {
