#pragma once

#ifndef CONV2D_4_H
#define CONV2D_4_H

#include "../../global_settings.h"
#include "../conv2d_settings.h"
#include "../../mpool2d/data/maxpool2d_1.h"

#define C2D_4__RAW_IN_LINES     MP2D_1__RAW_OUT_LINES
#define C2D_4__RAW_IN_COLS      MP2D_1__RAW_OUT_COLS
#define C2D_4__RAW_OUT_LINES    C2D_4__RAW_IN_LINES
#define C2D_4__RAW_OUT_COLS     C2D_4__RAW_IN_COLS

#define C2D_4__IN_LINES         (C2D_4__RAW_IN_LINES + PADDING)
#define C2D_4__IN_COLS          (C2D_4__RAW_IN_COLS + PADDING)

#define C2D_4__OUT_LINES        C2D_4__IN_LINES
#define C2D_4__OUT_COLS         C2D_4__IN_COLS


/**
 * @brief This was taken from "model_json/dump_weights_bias.json". (Channels first)
*/
const conv_t kernel_4[FILTERS][CHANNELS][C2D_KERNEL_LINES][C2D_KERNEL_COLS] = {
    {
        {
            {
                -0.011782645247876644,
                -0.006877232808619738,
                0.0036281661596149206
            },
            {
                -0.010980832390487194,
                -0.006153819616883993,
                0.005088143050670624
            },
            {
                -0.012098753824830055,
                -0.006870835088193417,
                0.0053894370794296265
            }
        },
        {
            {
                -0.000516558822710067,
                0.006288772448897362,
                0.0016084047965705395
            },
            {
                -0.002588629489764571,
                0.005515113938599825,
                0.003283677389845252
            },
            {
                -0.0013033226132392883,
                0.003421636763960123,
                0.001734439516440034
            }
        },
        {
            {
                0.014789705164730549,
                0.004527205601334572,
                0.0015796520747244358
            },
            {
                0.02050030790269375,
                0.005550466477870941,
                -0.0018512787064537406
            },
            {
                0.022370871156454086,
                0.008334137499332428,
                0.0024425536394119263
            }
        },
        {
            {
                -0.00809407513588667,
                0.0017674867995083332,
                -0.0005879571544937789
            },
            {
                -0.006518842186778784,
                -0.00010238584218313918,
                -0.0011118307011201978
            },
            {
                -0.007389080245047808,
                -0.0023700199089944363,
                -0.0002836398780345917
            }
        },
        {
            {
                -0.001371958409436047,
                0.00024096822016872466,
                0.002671630587428808
            },
            {
                0.0027091042138636112,
                -0.0026204304303973913,
                0.002861723769456148
            },
            {
                -0.0034072347916662693,
                -0.004185989499092102,
                0.0013140611117705703
            }
        },
        {
            {
                0.01755981706082821,
                -0.0008431508904322982,
                0.0078113023191690445
            },
            {
                0.004666625987738371,
                -0.009956048801541328,
                0.008320599794387817
            },
            {
                0.03304946422576904,
                -0.0011173408711329103,
                0.008825873956084251
            }
        },
        {
            {
                0.02556401863694191,
                0.00629266444593668,
                0.0018426773604005575
            },
            {
                0.0122831454500556,
                0.006833409424871206,
                0.0014801196521148086
            },
            {
                0.006936417426913977,
                0.0069029005244374275,
                0.0019579031504690647
            }
        },
        {
            {
                -0.006805620156228542,
                0.004827442113310099,
                -0.003331016283482313
            },
            {
                -0.0011403398821130395,
                0.0016147030983120203,
                0.000667256535962224
            },
            {
                0.0005198526196181774,
                0.0009127016528509557,
                0.007009298074990511
            }
        },
        {
            {
                -0.004162722732871771,
                0.0011732830898836255,
                -0.0013932021101936698
            },
            {
                -0.0046112448908388615,
                -0.0011829267023131251,
                -0.003453429089859128
            },
            {
                -0.004054207354784012,
                -0.004421148914843798,
                -0.003895350033417344
            }
        },
        {
            {
                -0.0010775947012007236,
                4.5321481593418866e-05,
                -0.004435244016349316
            },
            {
                0.0006102896295487881,
                0.0008244614000432193,
                -0.0026825424283742905
            },
            {
                0.002403330523520708,
                0.0015815743245184422,
                -0.0010492642177268863
            }
        },
        {
            {
                -0.00387758482247591,
                0.00124049698933959,
                0.002330744406208396
            },
            {
                -0.003631877712905407,
                -0.0023093302734196186,
                0.0027467680629342794
            },
            {
                -0.0014177635312080383,
                0.004794779699295759,
                0.004677859600633383
            }
        },
        {
            {
                0.005771795753389597,
                -0.0013077391777187586,
                0.0015857408288866282
            },
            {
                0.003162095323204994,
                -0.001992926001548767,
                0.0025924781803041697
            },
            {
                0.0006907165516167879,
                -0.0034493461716920137,
                0.0019122337689623237
            }
        },
        {
            {
                0.002569285687059164,
                0.0021782165858894587,
                0.003864486236125231
            },
            {
                0.004424602724611759,
                0.001832878217101097,
                0.005314070265740156
            },
            {
                -0.002462791046127677,
                0.011121020652353764,
                0.006922154221683741
            }
        },
        {
            {
                -0.012820787727832794,
                -0.0007052174769341946,
                0.006018460262566805
            },
            {
                -0.011331126093864441,
                -0.004618914797902107,
                0.003799176076427102
            },
            {
                -0.009450272656977177,
                -0.006551635451614857,
                0.004876569379121065
            }
        },
        {
            {
                0.002281991532072425,
                -0.004503781441599131,
                -0.001430210191756487
            },
            {
                0.004210948012769222,
                -0.004329195711761713,
                -0.0049241287633776665
            },
            {
                0.0042244731448590755,
                -0.0052262768149375916,
                -0.008852615021169186
            }
        },
        {
            {
                -0.007250229828059673,
                2.1259538698359393e-05,
                -0.0031569520942866802
            },
            {
                -0.00489849504083395,
                0.00012603661161847413,
                -0.001931064878590405
            },
            {
                -0.004070429131388664,
                -0.0009303165134042501,
                -0.0016410796670243144
            }
        },
        {
            {
                0.008604578673839569,
                -0.004683840554207563,
                0.005901006981730461
            },
            {
                0.015918955206871033,
                -0.0022955534514039755,
                0.00416833721101284
            },
            {
                0.014880994334816933,
                -0.0028085189405828714,
                0.0010218026582151651
            }
        },
        {
            {
                -0.01977415382862091,
                -0.0003733386693056673,
                5.563051672652364e-05
            },
            {
                -0.015256674960255623,
                -0.0003079358139075339,
                0.0008331384160555899
            },
            {
                -0.0183250792324543,
                -0.0007310307119041681,
                -0.000683387101162225
            }
        },
        {
            {
                0.002568908967077732,
                0.005114023573696613,
                0.010977739468216896
            },
            {
                -0.002338193356990814,
                0.0007504302775487304,
                0.005843049846589565
            },
            {
                0.00021305015252437443,
                -0.008371185511350632,
                0.002724102698266506
            }
        },
        {
            {
                0.0017090466571971774,
                0.011707214638590813,
                -0.009929549880325794
            },
            {
                -0.0007181621040217578,
                0.008959788829088211,
                -0.008745208382606506
            },
            {
                -0.0031985901296138763,
                0.008593150414526463,
                -0.009179453365504742
            }
        },
        {
            {
                -0.0003642344381660223,
                0.01210305467247963,
                0.0038787336088716984
            },
            {
                0.004200464114546776,
                0.005913479719310999,
                0.0045469063334167
            },
            {
                -0.001316032954491675,
                0.004544985946267843,
                0.0068478635512292385
            }
        },
        {
            {
                0.011614415794610977,
                0.004868290387094021,
                0.003985704388469458
            },
            {
                0.015589984133839607,
                0.006546167656779289,
                0.0046589570119977
            },
            {
                0.01812952198088169,
                0.0039184181950986385,
                0.005581888370215893
            }
        },
        {
            {
                -0.002315214602276683,
                -0.0013158349320292473,
                -0.00247934740036726
            },
            {
                -0.004398595076054335,
                -0.0004114488256163895,
                -0.0016461178893223405
            },
            {
                -0.012385716661810875,
                -0.000669434666633606,
                0.0003143282956443727
            }
        },
        {
            {
                0.011358866468071938,
                0.006199569907039404,
                0.002685817424207926
            },
            {
                0.008322469890117645,
                0.009842772968113422,
                0.002646114444360137
            },
            {
                0.010497530922293663,
                0.011287711560726166,
                0.0024173418059945107
            }
        },
        {
            {
                -0.0052826665341854095,
                0.008820394054055214,
                0.0023534654174000025
            },
            {
                -0.0025310558266937733,
                0.009268476627767086,
                0.003950164653360844
            },
            {
                -0.0010680875275284052,
                0.011822096072137356,
                0.004926578141748905
            }
        },
        {
            {
                -0.014344229362905025,
                0.0014548631152138114,
                0.0038792050909250975
            },
            {
                -0.02011728659272194,
                -0.00424617575481534,
                -0.0020707163494080305
            },
            {
                -0.02064485475420952,
                -0.004319135565310717,
                -0.0007918988121673465
            }
        },
        {
            {
                -0.009966306388378143,
                0.024454662576317787,
                0.00024770834716036916
            },
            {
                -0.009490393102169037,
                0.025820594280958176,
                -0.001260915887542069
            },
            {
                -0.00795738771557808,
                0.009165060706436634,
                -0.002344235312193632
            }
        },
        {
            {
                0.0004587379517033696,
                -0.0002553706581238657,
                0.004746581893414259
            },
            {
                -0.0005477339145727456,
                -0.003562950063496828,
                0.005321514792740345
            },
            {
                0.00041598317329771817,
                -0.006406561005860567,
                0.003137820167466998
            }
        },
        {
            {
                -0.0021827416494488716,
                0.01342378742992878,
                0.003127198200672865
            },
            {
                -0.0024736549239605665,
                0.012603397481143475,
                0.003861489938572049
            },
            {
                -0.0027440215926617384,
                0.016753757372498512,
                0.003523904597386718
            }
        },
        {
            {
                -0.005529055371880531,
                -0.004723676014691591,
                -0.004962791223078966
            },
            {
                -0.006447201129049063,
                -0.00860994216054678,
                -0.004474487155675888
            },
            {
                -0.0066951788030564785,
                -0.009624635800719261,
                -0.0025379820726811886
            }
        },
        {
            {
                -0.011093441396951675,
                0.0088235754519701,
                -0.0010734883835539222
            },
            {
                0.0037693462800234556,
                0.0010490509448572993,
                -0.0034177617635577917
            },
            {
                -0.013700186274945736,
                0.0024313090834766626,
                -0.003633243730291724
            }
        },
        {
            {
                0.024823131039738655,
                -0.00023230940860230476,
                0.0034371467772871256
            },
            {
                -6.948339432710782e-06,
                0.0005156861152499914,
                0.001755938632413745
            },
            {
                0.008873067796230316,
                -0.00022894085850566626,
                0.00025241743423976004
            }
        },
        {
            {
                -0.009478094056248665,
                -0.0012484240578487515,
                -0.00046046788338571787
            },
            {
                -0.011046618223190308,
                -0.0051986961625516415,
                -0.0031862922478467226
            },
            {
                -0.010508721694350243,
                -0.006709187291562557,
                -0.0072080036625266075
            }
        },
        {
            {
                -0.010873698629438877,
                -0.0019159630173817277,
                0.008871360681951046
            },
            {
                -0.00196362123824656,
                -0.005699448753148317,
                0.01032282505184412
            },
            {
                -0.012728111818432808,
                0.0035639978013932705,
                0.010722505860030651
            }
        },
        {
            {
                -0.0016492927679792047,
                -0.0003161362838000059,
                -0.009062960743904114
            },
            {
                -0.001644665957428515,
                -0.0005317800096236169,
                -0.007469892501831055
            },
            {
                -0.001702084206044674,
                -0.0012665630783885717,
                -0.006686383858323097
            }
        },
        {
            {
                -0.0025219775270670652,
                0.007398604415357113,
                0.005623333156108856
            },
            {
                -0.00263911671936512,
                0.011231213808059692,
                0.005452190525829792
            },
            {
                -0.0019492800347507,
                0.014402124099433422,
                0.005213677417486906
            }
        },
        {
            {
                0.0005087961326353252,
                0.0006133124115876853,
                -0.013534268364310265
            },
            {
                -0.0012354223290458322,
                0.0007726509356871247,
                -0.011652190238237381
            },
            {
                -0.0028805017936974764,
                0.001456292811781168,
                -0.012292335741221905
            }
        },
        {
            {
                -0.0007145626004785299,
                0.005391388200223446,
                0.004568280652165413
            },
            {
                -0.0013797457795590162,
                0.00570273632183671,
                0.005282742436975241
            },
            {
                0.002908573253080249,
                0.005974601022899151,
                0.0057138740085065365
            }
        },
        {
            {
                -0.0037171985022723675,
                -0.006819268688559532,
                0.009362602606415749
            },
            {
                -0.002166562248021364,
                -0.001611524960026145,
                0.005110842175781727
            },
            {
                0.010617753490805626,
                -0.010030203498899937,
                0.000909936788957566
            }
        },
        {
            {
                -0.015239009633660316,
                0.0052344040013849735,
                0.0037708538584411144
            },
            {
                -0.012054450809955597,
                0.002258690306916833,
                -0.002638933015987277
            },
            {
                -0.016087057068943977,
                -0.0034339968115091324,
                -0.0008772682049311697
            }
        },
        {
            {
                0.004593835677951574,
                0.0014818666968494654,
                -0.0026137654203921556
            },
            {
                0.006122727878391743,
                0.001507445820607245,
                -0.0028527723625302315
            },
            {
                0.01149603072553873,
                0.005797837860882282,
                -0.002306255279108882
            }
        },
        {
            {
                -0.005990961566567421,
                -6.052324897609651e-05,
                0.0021651741117239
            },
            {
                -0.006128259003162384,
                -0.008994773961603642,
                0.0004373691917862743
            },
            {
                -0.008799320086836815,
                -0.0005514185759238899,
                -0.0012162773637101054
            }
        },
        {
            {
                0.007996189408004284,
                0.0020693684928119183,
                -0.0026121782138943672
            },
            {
                0.01943245157599449,
                0.002377238357439637,
                -0.004203238990157843
            },
            {
                0.012729162350296974,
                -0.00026605292805470526,
                -0.0030796246137470007
            }
        },
        {
            {
                0.006321871653199196,
                -0.006197941955178976,
                -0.008999591693282127
            },
            {
                0.004862068686634302,
                -0.005120305810123682,
                -0.011602433398365974
            },
            {
                0.005256621167063713,
                -0.0045967805199325085,
                -0.012991762720048428
            }
        },
        {
            {
                0.009244397282600403,
                -0.006062728818506002,
                0.0018621353665366769
            },
            {
                0.015500642359256744,
                -0.020108120515942574,
                0.0008920814725570381
            },
            {
                0.01497233472764492,
                -0.02085256762802601,
                0.0015374779468402267
            }
        },
        {
            {
                0.009819282218813896,
                0.00929141417145729,
                -0.005076353903859854
            },
            {
                0.006874393206089735,
                0.007763238623738289,
                -0.0025555184110999107
            },
            {
                0.003255904186517,
                0.0062855882570147514,
                -0.0023898219224065542
            }
        },
        {
            {
                -0.006655913777649403,
                -0.008525780402123928,
                0.007152549456804991
            },
            {
                -0.009833615273237228,
                -0.00980585627257824,
                0.00614579813554883
            },
            {
                -0.010511369444429874,
                -0.007789960131049156,
                0.0061728460714221
            }
        },
        {
            {
                -0.011116165667772293,
                -0.0033137768041342497,
                0.001147478586062789
            },
            {
                -0.012150016613304615,
                -0.0039378078654408455,
                -0.0006717182695865631
            },
            {
                -0.01334307063370943,
                -0.005538075231015682,
                -0.0017865643603727221
            }
        },
        {
            {
                0.003521169302985072,
                0.004768818151205778,
                -0.0076605393551290035
            },
            {
                0.00019924216030631214,
                0.001356699736788869,
                -0.0063902633264660835
            },
            {
                -0.0012793337227776647,
                0.005172862205654383,
                -0.0064720637165009975
            }
        },
        {
            {
                -0.010703417472541332,
                -0.003199409693479538,
                0.0022590337321162224
            },
            {
                -0.00967123918235302,
                -0.0074511244893074036,
                -0.0010459038894623518
            },
            {
                -0.00808678101748228,
                -0.008016720414161682,
                -0.0033470734488219023
            }
        },
        {
            {
                -0.010180216282606125,
                -0.005297745577991009,
                0.0026023746468126774
            },
            {
                -0.009651072323322296,
                -0.007412015926092863,
                0.003376428969204426
            },
            {
                -0.00999945867806673,
                -0.008398894220590591,
                0.004462624900043011
            }
        },
        {
            {
                -0.016456719487905502,
                0.001536014606244862,
                0.005909672472625971
            },
            {
                -0.016790181398391724,
                -0.0044571403414011,
                0.0036803719121962786
            },
            {
                -0.016776185482740402,
                -0.0066226390190422535,
                0.00028972531436011195
            }
        },
        {
            {
                0.01334016490727663,
                0.005481203086674213,
                0.002195983426645398
            },
            {
                0.008793790824711323,
                0.003908315673470497,
                0.0020562398713082075
            },
            {
                0.022677449509501457,
                -0.018043840304017067,
                0.004769344348460436
            }
        },
        {
            {
                -0.0022263540886342525,
                0.010079877451062202,
                -0.004672983195632696
            },
            {
                -0.012661347165703773,
                0.006566593423485756,
                -0.003755024401471019
            },
            {
                0.0033358901273459196,
                0.007856043986976147,
                -0.003272528061643243
            }
        },
        {
            {
                0.022823607549071312,
                -0.0005938178510405123,
                -0.0009468163480050862
            },
            {
                0.020617438480257988,
                -0.004229834768921137,
                -0.0035118022933602333
            },
            {
                0.020667606964707375,
                -0.0037659851368516684,
                -0.003948718775063753
            }
        },
        {
            {
                0.003369936952367425,
                -0.0008525183657184243,
                -0.004827159456908703
            },
            {
                -9.503046021563932e-05,
                -0.004501625429838896,
                -0.004782114643603563
            },
            {
                0.0007038863841444254,
                -0.005222064908593893,
                -0.0038369735702872276
            }
        },
        {
            {
                -0.0036552308592945337,
                -4.080259895999916e-05,
                0.006156018003821373
            },
            {
                0.004033122211694717,
                -0.01033360231667757,
                0.0032742300536483526
            },
            {
                -0.005845159757882357,
                -0.008677130565047264,
                0.001366273034363985
            }
        },
        {
            {
                -0.0016103880479931831,
                -0.003308786079287529,
                0.0006341824773699045
            },
            {
                -0.000577263068407774,
                -0.005217221565544605,
                -0.0008051660843193531
            },
            {
                0.00593915581703186,
                0.0008342703804373741,
                -0.001180696184746921
            }
        },
        {
            {
                -0.017614714801311493,
                -0.0021215807646512985,
                0.005015354137867689
            },
            {
                -0.01532458420842886,
                -0.0026848996058106422,
                0.004070784896612167
            },
            {
                -0.014880304224789143,
                -0.0038811222184449434,
                0.003122672438621521
            }
        },
        {
            {
                -0.004083096049726009,
                -0.001465699984692037,
                -0.0006461656303144991
            },
            {
                -0.003763500601053238,
                -0.0031998930498957634,
                -0.0021002907305955887
            },
            {
                -0.0037434943951666355,
                -0.005078962538391352,
                -0.0015379446558654308
            }
        },
        {
            {
                -0.011779178865253925,
                -0.0076846410520374775,
                0.0030109244398772717
            },
            {
                -0.013220745138823986,
                -0.007707229349762201,
                0.004246129188686609
            },
            {
                -0.013482917100191116,
                -0.006441784091293812,
                0.0056751384399831295
            }
        },
        {
            {
                -0.0009185358067043126,
                -0.0035072704777121544,
                0.0030646962113678455
            },
            {
                -0.000336688244715333,
                -0.009637274779379368,
                0.0012443659361451864
            },
            {
                -0.004129937384277582,
                -0.020742079243063927,
                3.655191176221706e-05
            }
        },
        {
            {
                -0.0025484419893473387,
                0.0011727935634553432,
                -0.001298239454627037
            },
            {
                -0.004156317096203566,
                0.0002643202606122941,
                -0.002038569189608097
            },
            {
                -0.0035644955933094025,
                -0.00021032178483437747,
                -0.0036073061637580395
            }
        },
        {
            {
                -0.009167568758130074,
                -0.009029471315443516,
                0.0015935212140902877
            },
            {
                -0.010305330157279968,
                -0.009581093676388264,
                0.0006504279444925487
            },
            {
                -0.010776928626000881,
                -0.01594366505742073,
                0.001165009685792029
            }
        }
    },
    {
        {
            {
                -0.006147898267954588,
                -0.0030089293140918016,
                -0.005810466594994068
            },
            {
                -0.005195417907088995,
                -0.003115248866379261,
                -0.005933733191341162
            },
            {
                -0.0037184825632721186,
                -0.0034403379540890455,
                -0.0058680870570242405
            }
        },
        {
            {
                -0.0013374610571190715,
                -0.0038857252802699804,
                -0.0003488268703222275
            },
            {
                -6.76305644446984e-05,
                -0.003224626649171114,
                -0.0007117773639038205
            },
            {
                0.0007752476376481354,
                -0.0021670644637197256,
                -0.0013002236373722553
            }
        },
        {
            {
                0.006232777144759893,
                0.0017528774915263057,
                0.008564045652747154
            },
            {
                0.004484832752496004,
                0.004384331870824099,
                0.014067668467760086
            },
            {
                0.0036768594291061163,
                0.002788098994642496,
                0.009252817369997501
            }
        },
        {
            {
                -0.009175975807011127,
                0.0016982476226985455,
                0.005621790420264006
            },
            {
                -0.007794386241585016,
                -0.000702702789567411,
                0.003139631589874625
            },
            {
                -0.006989439949393272,
                -0.0014262563781812787,
                0.0016207026783376932
            }
        },
        {
            {
                -0.007051880471408367,
                -0.0017868942813947797,
                -0.0013786460040137172
            },
            {
                0.001183689571917057,
                -0.0014128502225503325,
                -0.002332180505618453
            },
            {
                0.0027280128560960293,
                -0.001583599834702909,
                -0.0025825982447713614
            }
        },
        {
            {
                -0.004988307598978281,
                -0.004789305385202169,
                -0.0026231706142425537
            },
            {
                -0.016585413366556168,
                -0.0052550737746059895,
                -0.001235444680787623
            },
            {
                0.015394293703138828,
                0.003185102716088295,
                9.293949551647529e-05
            }
        },
        {
            {
                -0.003948408644646406,
                0.004285607021301985,
                0.0019144052639603615
            },
            {
                0.007894092239439487,
                0.007446445524692535,
                0.0016733105294406414
            },
            {
                0.013252900913357735,
                0.009924174286425114,
                0.001027213642373681
            }
        },
        {
            {
                -0.008409743197262287,
                0.00047771676327101886,
                -0.005158461630344391
            },
            {
                -0.011181331239640713,
                0.004548446740955114,
                -0.003848291700705886
            },
            {
                -0.0018315366469323635,
                0.0041252789087593555,
                -0.0029313298873603344
            }
        },
        {
            {
                0.0012387329479679465,
                -0.0011921587865799665,
                0.00245198467746377
            },
            {
                0.0007057752227410674,
                -0.004623686894774437,
                0.004269023425877094
            },
            {
                0.0007427269010804594,
                -0.006969974376261234,
                0.0039064353331923485
            }
        },
        {
            {
                0.0034640359226614237,
                -0.0005906171863898635,
                0.0007749563083052635
            },
            {
                0.004251864273101091,
                -0.00047152594197541475,
                0.0018447937909513712
            },
            {
                0.0036761893425136805,
                -0.0007065612589940429,
                0.002157981274649501
            }
        },
        {
            {
                -0.011816805228590965,
                -0.009383159689605236,
                -0.0075650401413440704
            },
            {
                -0.0032559281680732965,
                0.004375220742076635,
                -0.0073321424424648285
            },
            {
                0.002819009590893984,
                0.006253543309867382,
                -0.006403302773833275
            }
        },
        {
            {
                -0.0015253130113705993,
                0.00195552920922637,
                -0.00553425308316946
            },
            {
                -0.0005458892555907369,
                0.002215873682871461,
                -0.0045395586639642715
            },
            {
                -0.0007828858215361834,
                0.0005364635144360363,
                -0.0033343248069286346
            }
        },
        {
            {
                0.005420233588665724,
                0.012559833936393261,
                0.009811409749090672
            },
            {
                0.0022852113470435143,
                0.012615755200386047,
                0.008668242022395134
            },
            {
                0.0023929208982735872,
                0.011431077495217323,
                0.006676163524389267
            }
        },
        {
            {
                -0.00061224983073771,
                -0.0017448951257392764,
                -0.0036106386687606573
            },
            {
                0.0006136014708317816,
                -0.0036289701238274574,
                -0.005364751908928156
            },
            {
                0.001921985880471766,
                -0.0036288215778768063,
                -0.006634165998548269
            }
        },
        {
            {
                0.00020408292766660452,
                -0.0013881759950891137,
                -0.0003321905096527189
            },
            {
                -0.0012414457742124796,
                -0.0019688045140355825,
                -0.00118279829621315
            },
            {
                -0.00035221187863498926,
                -0.0025045140646398067,
                -0.0015056098345667124
            }
        },
        {
            {
                -0.005483713001012802,
                0.0010564452968537807,
                -0.009508682414889336
            },
            {
                -0.0029329536482691765,
                0.00039056609966792166,
                -0.009533615782856941
            },
            {
                -0.0028764938469976187,
                -8.137794065987691e-05,
                -0.010124058462679386
            }
        },
        {
            {
                -0.0070265233516693115,
                -0.005045447964221239,
                -0.010099059902131557
            },
            {
                0.0015543190529569983,
                -0.005387687589973211,
                -0.008822075091302395
            },
            {
                0.0033163425978273153,
                -0.003931923303753138,
                -0.008580505847930908
            }
        },
        {
            {
                -0.0062918043695390224,
                -0.0054593393579125404,
                -0.006545091979205608
            },
            {
                -0.007320243865251541,
                -0.008972624316811562,
                -0.004722374025732279
            },
            {
                -0.009591891430318356,
                -0.0074907829985022545,
                -0.007172279991209507
            }
        },
        {
            {
                -0.00852123461663723,
                -0.00268268003128469,
                0.0032478703651577234
            },
            {
                -0.0046511064283549786,
                -0.005034890025854111,
                0.0024015300441533327
            },
            {
                -0.006340805906802416,
                -0.005726904608309269,
                0.0018729319563135505
            }
        },
        {
            {
                -0.00020239342120476067,
                -0.0014394262107089162,
                -0.00534305814653635
            },
            {
                0.0008665182394906878,
                -0.0005749251577071846,
                -0.004812086466699839
            },
            {
                0.001163642038591206,
                -0.001714018639177084,
                -0.005583790130913258
            }
        },
        {
            {
                0.010368044488132,
                0.010795731097459793,
                0.004614975303411484
            },
            {
                0.004030666779726744,
                0.010827562771737576,
                0.005864850711077452
            },
            {
                0.0030694876331835985,
                0.01113866362720728,
                0.006648923736065626
            }
        },
        {
            {
                0.012266363948583603,
                0.009193644858896732,
                0.0009861924918368459
            },
            {
                0.0020944734569638968,
                0.009841321967542171,
                0.0002984137972816825
            },
            {
                0.0076826829463243484,
                0.009783649817109108,
                -0.00042062997817993164
            }
        },
        {
            {
                -0.007008073385804892,
                -0.0005361512885428965,
                0.007614766713231802
            },
            {
                -0.0016973861493170261,
                -0.0003289279411546886,
                0.009645458310842514
            },
            {
                -0.008169380016624928,
                -0.0007126250420697033,
                0.009951885789632797
            }
        },
        {
            {
                0.010949814692139626,
                0.006093798670917749,
                0.00591758918017149
            },
            {
                0.009909885935485363,
                0.009461574256420135,
                0.0036473730579018593
            },
            {
                0.010333661921322346,
                0.008470145985484123,
                0.002269792603328824
            }
        },
        {
            {
                0.00418708985671401,
                0.010854395106434822,
                -0.0018430413911119103
            },
            {
                0.005829697009176016,
                0.011381633579730988,
                -0.001615223241969943
            },
            {
                0.002796886721625924,
                0.010163619183003902,
                -0.0011575034586712718
            }
        },
        {
            {
                -0.0063829487189650536,
                -0.003254201728850603,
                -0.004766531754285097
            },
            {
                -0.007537920027971268,
                -0.007154199294745922,
                -0.005163157824426889
            },
            {
                -0.0070401025004684925,
                -0.003690078854560852,
                -0.011564378626644611
            }
        },
        {
            {
                -0.007284732535481453,
                -0.00012972994591109455,
                -0.0003937107394449413
            },
            {
                -0.00810872670263052,
                0.00999103020876646,
                -0.0006817944231443107
            },
            {
                -0.008116334676742554,
                0.01215430535376072,
                0.001341159106232226
            }
        },
        {
            {
                -0.0022239035461097956,
                -0.0026768117677420378,
                -0.007106416393071413
            },
            {
                -0.00269851041957736,
                -0.003647236153483391,
                -0.007482824847102165
            },
            {
                -0.0024041233118623495,
                -0.003933137748390436,
                -0.007676668930798769
            }
        },
        {
            {
                -0.005406610202044249,
                0.007107223849743605,
                -0.004227260127663612
            },
            {
                -0.005387451965361834,
                0.00894104689359665,
                -0.0062415520660579205
            },
            {
                -0.0055464175529778,
                0.009052605368196964,
                -0.007133944891393185
            }
        },
        {
            {
                -0.003937041386961937,
                -0.0008893092162907124,
                -0.0036359173245728016
            },
            {
                -0.00334278610534966,
                -0.0016666685696691275,
                -0.004825465381145477
            },
            {
                -0.00229025655426085,
                -0.0016620376845821738,
                -0.005900247022509575
            }
        },
        {
            {
                -0.006053667049854994,
                -0.0026347043458372355,
                -0.007941734977066517
            },
            {
                -0.008551797829568386,
                -0.0003419752756599337,
                -0.0068870289251208305
            },
            {
                -0.0017552254721522331,
                0.0031280964612960815,
                -0.005843690130859613
            }
        },
        {
            {
                0.0028501481283456087,
                -0.004789627622812986,
                -0.005100779701024294
            },
            {
                0.020792677998542786,
                -0.0029878171626478434,
                -0.004124019760638475
            },
            {
                0.014221781864762306,
                -0.0055623734369874,
                -0.004004454705864191
            }
        },
        {
            {
                0.00074749905616045,
                0.0024723834358155727,
                -0.0009439754649065435
            },
            {
                1.7979589756578207e-05,
                -0.0010339196305721998,
                0.00026466697454452515
            },
            {
                0.00045053966459818184,
                -0.0034841271117329597,
                -6.387138273566961e-05
            }
        },
        {
            {
                -0.00039817384094931185,
                0.01018628478050232,
                0.012462688609957695
            },
            {
                0.007803499232977629,
                0.007447413634508848,
                0.010563381947577
            },
            {
                0.006284909322857857,
                0.007364995311945677,
                0.00915779359638691
            }
        },
        {
            {
                0.0004095563490409404,
                0.0011539187980815768,
                -0.004337946884334087
            },
            {
                0.00017677093273960054,
                0.0015009308699518442,
                -0.004473137203603983
            },
            {
                0.0008968674810603261,
                0.001319380127824843,
                -0.004129357170313597
            }
        },
        {
            {
                -0.0017328121466562152,
                0.009160014800727367,
                -0.002593624871224165
            },
            {
                -0.0020992360077798367,
                0.010895988903939724,
                -0.005221196450293064
            },
            {
                -0.00249897176399827,
                0.01062366459518671,
                -0.005930712912231684
            }
        },
        {
            {
                -0.0058545940555632114,
                0.0005435410421341658,
                -0.0015352738555520773
            },
            {
                -0.005349994171410799,
                0.0004901392967440188,
                -0.001832211739383638
            },
            {
                -0.005030091851949692,
                -0.0002557491243351251,
                -0.0030500348657369614
            }
        },
        {
            {
                0.006264463998377323,
                -0.004112564958631992,
                -0.004885056521743536
            },
            {
                0.005311763379722834,
                -0.0020097221713513136,
                -0.004515825770795345
            },
            {
                0.005362706258893013,
                -0.0011215123813599348,
                -0.004671966191381216
            }
        },
        {
            {
                -0.010780380107462406,
                -0.006820112932473421,
                0.010845434851944447
            },
            {
                0.0009280883241444826,
                -0.00832896213978529,
                0.011772762052714825
            },
            {
                -0.010812565684318542,
                -0.0026131626218557358,
                0.012664128094911575
            }
        },
        {
            {
                -0.006484746467322111,
                0.0027120120357722044,
                -0.006025699432939291
            },
            {
                -0.007080179639160633,
                -0.0028656283393502235,
                0.0018064073519781232
            },
            {
                -0.009913481771945953,
                -0.0050578732043504715,
                0.0006892791134305298
            }
        },
        {
            {
                0.013667668215930462,
                -0.00040858527063392103,
                -0.0026827133260667324
            },
            {
                0.008162949234247208,
                -0.001889989711344242,
                -0.0013446231605485082
            },
            {
                0.006075564306229353,
                -0.0020290124230086803,
                0.0003666980192065239
            }
        },
        {
            {
                -0.0034161696676164865,
                -0.0069817351177334785,
                -0.004142271354794502
            },
            {
                -0.004091641400009394,
                -0.00979622732847929,
                -0.004427436273545027
            },
            {
                -0.003563269041478634,
                -0.007838746532797813,
                -0.003975268919020891
            }
        },
        {
            {
                0.006141189951449633,
                -0.009350663982331753,
                0.005142821930348873
            },
            {
                0.01261111069470644,
                -0.0056855506263673306,
                0.006189245730638504
            },
            {
                0.012108189053833485,
                -0.00969154667109251,
                0.0056152185425162315
            }
        },
        {
            {
                -0.0006035277619957924,
                -0.006438030395656824,
                0.0028466489166021347
            },
            {
                -0.00021390750771388412,
                -0.00674206530675292,
                0.0037171647418290377
            },
            {
                0.0015749632148072124,
                -0.006931572686880827,
                0.00458101462572813
            }
        },
        {
            {
                -0.004336939658969641,
                -0.018527526408433914,
                -0.00856658723205328
            },
            {
                9.365951700601727e-05,
                -0.0187962856143713,
                -0.008334300480782986
            },
            {
                0.005229564383625984,
                -0.0235541220754385,
                -0.007817327044904232
            }
        },
        {
            {
                0.005067713558673859,
                0.005080296657979488,
                -0.007842214778065681
            },
            {
                0.004562844522297382,
                0.005211871583014727,
                -0.007534842938184738
            },
            {
                0.006065077614039183,
                0.004099028185009956,
                -0.007398644462227821
            }
        },
        {
            {
                -1.6120697182486765e-05,
                -0.002829963341355324,
                -0.006195863243192434
            },
            {
                0.0006347584421746433,
                -0.0028056723531335592,
                -0.007392330095171928
            },
            {
                -0.0011543805012479424,
                -0.0019532085862010717,
                -0.007671106606721878
            }
        },
        {
            {
                -0.005621186923235655,
                -0.0008973122457973659,
                -0.006884238217025995
            },
            {
                -0.0038916124030947685,
                -0.004082729108631611,
                -0.007185247726738453
            },
            {
                -0.0026227703783661127,
                -0.004234197549521923,
                -0.007068865932524204
            }
        },
        {
            {
                -0.005318156909197569,
                0.003428962081670761,
                -0.0040964302606880665
            },
            {
                -0.005943004973232746,
                0.0016962700756266713,
                -0.0030908791813999414
            },
            {
                -0.006682035978883505,
                -0.0010775646660476923,
                -0.003742821281775832
            }
        },
        {
            {
                0.00010868987737921998,
                6.395796390279429e-07,
                -0.0016202572733163834
            },
            {
                0.00034324295120313764,
                -0.003780009923502803,
                -0.0008675925782881677
            },
            {
                0.0013022392522543669,
                -0.005144732538610697,
                -0.003721322165802121
            }
        },
        {
            {
                -0.0014092816272750497,
                -0.002521123504266143,
                -0.00372425839304924
            },
            {
                -0.0005256118020042777,
                -0.0036322069354355335,
                -0.003913315944373608
            },
            {
                -0.00080160703510046,
                -0.004385819658637047,
                -0.004054713528603315
            }
        },
        {
            {
                -0.004809918813407421,
                -0.003381387097761035,
                -0.007269593887031078
            },
            {
                -0.00466853566467762,
                -0.004769461695104837,
                -0.007547052577137947
            },
            {
                -0.004654248710721731,
                -0.008821695111691952,
                -0.011344632133841515
            }
        },
        {
            {
                0.0012609150726348162,
                -0.008649156428873539,
                -0.005703546106815338
            },
            {
                -0.008634369820356369,
                -0.006520134396851063,
                -0.006172709632664919
            },
            {
                -0.015540838241577148,
                -0.0028056353330612183,
                -0.003929566591978073
            }
        },
        {
            {
                -0.008572653867304325,
                -0.0021259088534861803,
                0.0019370876252651215
            },
            {
                0.00032734728301875293,
                -0.0013318281853571534,
                0.003442734945565462
            },
            {
                -0.0037658014334738255,
                0.0008722267812117934,
                0.003976129926741123
            }
        },
        {
            {
                0.011262069456279278,
                -0.01113111525774002,
                -0.002450349275022745
            },
            {
                0.015128148719668388,
                -0.010957211256027222,
                -0.003157301340252161
            },
            {
                0.0076643130742013454,
                -0.01130285207182169,
                -0.0017621682491153479
            }
        },
        {
            {
                -0.0019034147262573242,
                0.0012973275734111667,
                -0.0052491785027086735
            },
            {
                -0.001872998895123601,
                0.00023188818886410445,
                -0.0034626228734850883
            },
            {
                -0.0016531464643776417,
                -0.001526489038951695,
                -0.003085681004449725
            }
        },
        {
            {
                -0.008141135796904564,
                -0.006329556927084923,
                0.0023408459965139627
            },
            {
                -0.0035233991220593452,
                0.001912845065817237,
                0.005804872140288353
            },
            {
                -0.010388917289674282,
                -0.006398041266947985,
                0.00556282140314579
            }
        },
        {
            {
                -0.00521811842918396,
                -0.004938699305057526,
                -0.006859382148832083
            },
            {
                -0.0031228361185640097,
                -0.0038892931770533323,
                -0.007328621111810207
            },
            {
                -0.0010221516713500023,
                -0.007617063354700804,
                -0.007226824760437012
            }
        },
        {
            {
                -0.0038179373368620872,
                -0.0033829244785010815,
                -0.008620042353868484
            },
            {
                -0.0032144789583981037,
                -0.005445977672934532,
                -0.009745143353939056
            },
            {
                -0.0027451675850898027,
                -0.00805022194981575,
                -0.011512544937431812
            }
        },
        {
            {
                0.00037916729343123734,
                0.0029659068677574396,
                0.001733823330141604
            },
            {
                -0.0001681471330812201,
                0.0011142046423628926,
                0.003365415846928954
            },
            {
                -0.00036167612415738404,
                -0.00046576050226576626,
                0.0026200071442872286
            }
        },
        {
            {
                -0.005022553261369467,
                -0.004391099791973829,
                -0.004984490107744932
            },
            {
                -0.00457998551428318,
                -0.005375639535486698,
                -0.0053377714939415455
            },
            {
                -0.0037487056106328964,
                -0.005876990966498852,
                -0.005537380930036306
            }
        },
        {
            {
                -0.008798852562904358,
                -0.008602449670433998,
                -0.005111196078360081
            },
            {
                -0.014500582590699196,
                -0.007891269400715828,
                -0.00585614750161767
            },
            {
                -0.014358537271618843,
                -0.008185925893485546,
                -0.005017467308789492
            }
        },
        {
            {
                -0.0014139171689748764,
                -0.0036218378227204084,
                0.0042207734659314156
            },
            {
                -0.0005046551232226193,
                -0.00367563939653337,
                0.003657439723610878
            },
            {
                0.0004431271518114954,
                -0.002693824004381895,
                0.0038720748852938414
            }
        },
        {
            {
                -0.0038876570761203766,
                0.00018169665418099612,
                -0.0050386060029268265
            },
            {
                -0.003758949926123023,
                -0.004210497718304396,
                -0.006543005350977182
            },
            {
                -0.004948546644300222,
                -0.001125193084590137,
                -0.007823146879673004
            }
        }
    },
    {
        {
            {
                -0.0006195731111802161,
                0.0005942322895862162,
                -0.0012027597986161709
            },
            {
                0.001675498322583735,
                -0.00016439284081570804,
                0.0036318982020020485
            },
            {
                -0.0014073404017835855,
                -0.0017051637405529618,
                0.0046073454432189465
            }
        },
        {
            {
                0.018048960715532303,
                -0.0032409962732344866,
                -0.020122382789850235
            },
            {
                0.011198654770851135,
                0.002287332434207201,
                -0.017611034214496613
            },
            {
                0.0174980778247118,
                0.0037237510550767183,
                -0.015509852208197117
            }
        },
        {
            {
                -0.00599674554541707,
                -0.002637731609866023,
                0.006214404013007879
            },
            {
                0.0032467853743582964,
                0.003484815824776888,
                0.012599891982972622
            },
            {
                0.006977452896535397,
                0.0012420263374224305,
                0.010872279293835163
            }
        },
        {
            {
                0.0049611651338636875,
                0.016099838539958,
                0.009992620907723904
            },
            {
                0.0014129597693681717,
                0.011519141495227814,
                0.0020333905704319477
            },
            {
                -0.0030073041561990976,
                0.0006841091671958566,
                -0.0075079393573105335
            }
        },
        {
            {
                0.0038444919046014547,
                0.008103867061436176,
                0.002526867901906371
            },
            {
                -0.003978794906288385,
                -0.0013341665035113692,
                -0.004199042450636625
            },
            {
                0.0016438268357887864,
                -0.0050702570006251335,
                -0.009761562570929527
            }
        },
        {
            {
                -0.014741695486009121,
                0.003851667046546936,
                0.0281980000436306
            },
            {
                -0.019170453771948814,
                0.008699462749063969,
                0.02969411574304104
            },
            {
                0.004022500943392515,
                -0.0031762246508151293,
                0.03152337670326233
            }
        },
        {
            {
                -0.006939949933439493,
                0.0018862865399569273,
                0.008300302550196648
            },
            {
                0.007248364854604006,
                0.01255836058408022,
                0.010994288139045238
            },
            {
                0.003810736583545804,
                0.011963066644966602,
                0.012128732167184353
            }
        },
        {
            {
                -0.014904571697115898,
                -0.004945490974932909,
                -0.006257145665585995
            },
            {
                -0.003561104414984584,
                0.0009316302021034062,
                0.00532344076782465
            },
            {
                0.01022014394402504,
                0.010367186740040779,
                0.01140496227890253
            }
        },
        {
            {
                0.01023067720234394,
                0.00012574069842230529,
                0.002412554807960987
            },
            {
                0.00023278621665667742,
                -0.0049894400872290134,
                0.0006111139664426446
            },
            {
                -0.006973971147090197,
                -0.008809166960418224,
                -0.006728703621774912
            }
        },
        {
            {
                -0.007509440649300814,
                0.0014872625470161438,
                -0.01625276915729046
            },
            {
                -0.008726021274924278,
                0.002984489779919386,
                -0.009492850862443447
            },
            {
                -0.009290101006627083,
                0.00741578871384263,
                -0.002478027017787099
            }
        },
        {
            {
                -0.012273568660020828,
                -0.01621832139790058,
                -0.02059994824230671
            },
            {
                -0.005263283383101225,
                -0.01630677469074726,
                -0.008759730495512486
            },
            {
                -0.017104070633649826,
                -0.0028839735314249992,
                -0.00820334255695343
            }
        },
        {
            {
                -5.363867967389524e-05,
                0.0038889767602086067,
                0.007403569761663675
            },
            {
                0.00013380723248701543,
                0.0014409818686544895,
                0.004238249268382788
            },
            {
                -0.0037193342577666044,
                -0.005910237319767475,
                -0.0011309272376820445
            }
        },
        {
            {
                -0.006598510313779116,
                0.010937264189124107,
                0.02784723788499832
            },
            {
                -0.004930514842271805,
                0.009297015145421028,
                0.017170177772641182
            },
            {
                -0.007188891526311636,
                0.0025771488435566425,
                0.016835983842611313
            }
        },
        {
            {
                -0.008459875360131264,
                0.005017848685383797,
                -0.004704462829977274
            },
            {
                -0.011323909275233746,
                0.001937291119247675,
                -0.007626802660524845
            },
            {
                -0.013208656571805477,
                0.0032146633602678776,
                -0.00436511542648077
            }
        },
        {
            {
                -0.005372061859816313,
                -0.00783408060669899,
                -0.004338841885328293
            },
            {
                -0.0038888067938387394,
                -0.007585223764181137,
                -0.007449807599186897
            },
            {
                -0.0022318486589938402,
                -0.00824220385402441,
                -0.012846607714891434
            }
        },
        {
            {
                -0.010987117886543274,
                -0.015209059230983257,
                -0.005443506874144077
            },
            {
                -0.012447095476090908,
                -0.009264810010790825,
                -0.004001274239271879
            },
            {
                -0.005976770538836718,
                -0.00981076993048191,
                -0.009383821859955788
            }
        },
        {
            {
                -0.014968679286539555,
                -0.01793585903942585,
                -0.014934169128537178
            },
            {
                -0.007821234874427319,
                -0.019173143431544304,
                -0.015670837834477425
            },
            {
                -0.005515038035809994,
                -0.019671762362122536,
                -0.018721027299761772
            }
        },
        {
            {
                -0.004863328766077757,
                0.004350780509412289,
                0.0008577480330131948
            },
            {
                -0.00813625194132328,
                0.005183074623346329,
                0.004525130148977041
            },
            {
                -0.01508324034512043,
                0.008202876895666122,
                0.009136408567428589
            }
        },
        {
            {
                -0.013103279285132885,
                -0.004434157162904739,
                0.01541227102279663
            },
            {
                -0.010372186079621315,
                -0.007858389988541603,
                0.016690213233232498
            },
            {
                -0.012296590022742748,
                -0.007022922392934561,
                0.00027076812693849206
            }
        },
        {
            {
                0.01493686530739069,
                -0.007278503384441137,
                -0.00796937569975853
            },
            {
                0.016352485865354538,
                -0.005144513677805662,
                -0.0076543171890079975
            },
            {
                0.018897753208875656,
                -0.006001664791256189,
                -0.012248247861862183
            }
        },
        {
            {
                -0.010808577761054039,
                0.004132935311645269,
                0.019504744559526443
            },
            {
                -0.014316229149699211,
                -0.0042641195468604565,
                0.014018849469721317
            },
            {
                -0.012951002456247807,
                -0.01061757281422615,
                0.010078545659780502
            }
        },
        {
            {
                -0.003478827653452754,
                0.01027759537100792,
                0.01893806643784046
            },
            {
                -0.0031658669468015432,
                0.011069546453654766,
                0.01654251106083393
            },
            {
                -0.000567859795410186,
                0.008754920214414597,
                0.010032813996076584
            }
        },
        {
            {
                0.014154928736388683,
                0.004344847984611988,
                -0.0007247720495797694
            },
            {
                0.001665545511059463,
                0.0020776335150003433,
                -0.0014020161470398307
            },
            {
                -0.011768977157771587,
                0.00766000896692276,
                0.00099885871168226
            }
        },
        {
            {
                -0.009805938228964806,
                0.0009296333300881088,
                0.015588645823299885
            },
            {
                -0.003682524198666215,
                0.002363197272643447,
                0.017026299610733986
            },
            {
                0.0025136307813227177,
                0.005544336512684822,
                0.006210661493241787
            }
        },
        {
            {
                0.0005731192650273442,
                0.005975398235023022,
                0.015633778646588326
            },
            {
                -0.003643874078989029,
                0.0048105972819030285,
                0.016011709347367287
            },
            {
                -0.005069741513580084,
                0.0016050828853622079,
                0.009974553249776363
            }
        },
        {
            {
                -0.013452569954097271,
                0.000518633343745023,
                0.024435166269540787
            },
            {
                -0.021684546023607254,
                -0.011270812712609768,
                0.014665103517472744
            },
            {
                -0.030248796567320824,
                -0.020275570452213287,
                -0.008294174447655678
            }
        },
        {
            {
                -0.010072728618979454,
                -0.006309099029749632,
                -0.0029206345789134502
            },
            {
                -0.010046049021184444,
                -0.004893274512141943,
                0.0004924177774228156
            },
            {
                -0.005476128775626421,
                -0.002460943069308996,
                0.004266468808054924
            }
        },
        {
            {
                2.140465767297428e-05,
                0.005798743572086096,
                0.010063971392810345
            },
            {
                -0.0011896921787410975,
                0.004936586134135723,
                0.010339152999222279
            },
            {
                -0.0045266058295965195,
                -0.0011498823296278715,
                0.003612733678892255
            }
        },
        {
            {
                -0.0015358437085524201,
                -0.005587650462985039,
                -0.009016098454594612
            },
            {
                -0.0014386569382622838,
                -0.002179275033995509,
                -0.0026338633615523577
            },
            {
                -0.00484885647892952,
                -0.0025405758060514927,
                -0.0019201806280761957
            }
        },
        {
            {
                0.0039434959180653095,
                0.005365148652344942,
                0.005580484867095947
            },
            {
                -0.005628602113574743,
                -0.0049599832855165005,
                0.001529648550786078
            },
            {
                -0.007424138952046633,
                -0.007153614889830351,
                0.00022175669437274337
            }
        },
        {
            {
                0.006626770365983248,
                -0.010649515315890312,
                0.0012179978657513857
            },
            {
                -0.0007762541645206511,
                -0.005338126793503761,
                -0.0029620390851050615
            },
            {
                0.0022320947609841824,
                -0.005344842094928026,
                -0.00765436002984643
            }
        },
        {
            {
                -0.007402520161122084,
                -0.022624067962169647,
                -0.03133165091276169
            },
            {
                -0.0011439872905611992,
                -0.016288043931126595,
                -0.0354006327688694
            },
            {
                0.011327250860631466,
                -0.006911108270287514,
                -0.03618559241294861
            }
        },
        {
            {
                0.008696956560015678,
                0.003009462496265769,
                0.0096158217638731
            },
            {
                -0.0030461999122053385,
                -0.005128035321831703,
                0.003269353648647666
            },
            {
                -0.01563308946788311,
                -0.013769512064754963,
                -0.009194261394441128
            }
        },
        {
            {
                -0.010287674143910408,
                0.009685458615422249,
                0.022280750796198845
            },
            {
                -0.006544889882206917,
                0.0093850027769804,
                0.02050268091261387
            },
            {
                -0.008167954161763191,
                0.0008972870418801904,
                0.008501068688929081
            }
        },
        {
            {
                0.012120010331273079,
                0.004016998689621687,
                -0.009043365716934204
            },
            {
                0.006141049787402153,
                0.00010991380258928984,
                -0.010609528049826622
            },
            {
                0.006840592250227928,
                -0.0006904332549311221,
                -0.010030549950897694
            }
        },
        {
            {
                -0.004321726504713297,
                -0.005840240977704525,
                -0.007075953762978315
            },
            {
                -0.004991369321942329,
                -0.0023279846645891666,
                0.002506580902263522
            },
            {
                -0.005694548133760691,
                0.0025263645220547915,
                0.006754510570317507
            }
        },
        {
            {
                0.005700561683624983,
                -0.008588340133428574,
                -0.01265083160251379
            },
            {
                0.010973753407597542,
                -0.003267039777711034,
                -0.013327276334166527
            },
            {
                0.01654008775949478,
                -0.0030225375667214394,
                -0.015748629346489906
            }
        },
        {
            {
                -0.003267881227657199,
                0.010474427603185177,
                -0.012713565491139889
            },
            {
                0.0028611423913389444,
                0.016318831592798233,
                -0.010123531334102154
            },
            {
                0.007767867296934128,
                0.019789911806583405,
                -0.0042063104920089245
            }
        },
        {
            {
                -0.013729271478950977,
                -0.0028795029502362013,
                0.01993710733950138
            },
            {
                -0.010657346807420254,
                -0.009688747115433216,
                0.00836523063480854
            },
            {
                -0.005369777325540781,
                0.006760244723409414,
                0.018722381442785263
            }
        },
        {
            {
                -0.011632516980171204,
                0.0020109699107706547,
                0.019814470782876015
            },
            {
                -0.016279099509119987,
                -0.003816816955804825,
                -0.0037746841553598642
            },
            {
                -0.024862416088581085,
                -0.00935526192188263,
                -0.013344591483473778
            }
        },
        {
            {
                0.010041867382824421,
                0.0004084584361407906,
                -0.027828726917505264
            },
            {
                0.008965321816504002,
                0.004264124669134617,
                -0.019254183396697044
            },
            {
                0.0025701511185616255,
                0.015140611678361893,
                -0.01658199541270733
            }
        },
        {
            {
                -0.004452594555914402,
                0.0010503100929781795,
                0.012384753674268723
            },
            {
                -0.008600986562669277,
                0.006327131297439337,
                0.01706298254430294
            },
            {
                -0.012285084463655949,
                0.004041477106511593,
                0.014169150032103062
            }
        },
        {
            {
                -0.010730404406785965,
                -0.01060550194233656,
                0.00031745704472996294
            },
            {
                -0.004647971596568823,
                0.0035546347498893738,
                0.002112139482051134
            },
            {
                -0.003977666608989239,
                -0.005647706333547831,
                0.00435396796092391
            }
        },
        {
            {
                -0.00037629040889441967,
                -0.011026403866708279,
                -0.005718359723687172
            },
            {
                0.003736149752512574,
                -0.007200787775218487,
                -0.006431243848055601
            },
            {
                0.012233239598572254,
                0.002146465005353093,
                -0.000982625992037356
            }
        },
        {
            {
                -0.0007929669809527695,
                -0.019689321517944336,
                0.0038230756763368845
            },
            {
                -0.009181756526231766,
                -0.0050185853615403175,
                -0.007045801728963852
            },
            {
                -0.0038589807227253914,
                -0.026042569428682327,
                0.004849485121667385
            }
        },
        {
            {
                0.004793114960193634,
                0.001542533515021205,
                -0.009400064125657082
            },
            {
                0.006967202760279179,
                0.002769019454717636,
                -0.009877174161374569
            },
            {
                0.013245916925370693,
                0.00017655733972787857,
                -0.015487455762922764
            }
        },
        {
            {
                0.00014572103100363165,
                0.005033081863075495,
                0.00437791645526886
            },
            {
                -0.004473819397389889,
                -0.004135423339903355,
                0.005362241994589567
            },
            {
                -0.006272458005696535,
                -0.008765357546508312,
                0.008036081679165363
            }
        },
        {
            {
                0.008676595985889435,
                0.007853666320443153,
                0.010192463174462318
            },
            {
                0.0011402301024645567,
                -0.0006276332424022257,
                0.004636804573237896
            },
            {
                -0.011093773879110813,
                -0.015164842829108238,
                8.920133404899389e-05
            }
        },
        {
            {
                0.005719570908695459,
                -0.006206706166267395,
                -0.013483469374477863
            },
            {
                0.007706461939960718,
                -0.004345162771642208,
                -0.009679487906396389
            },
            {
                0.012334335595369339,
                0.005472330376505852,
                -0.01148549560457468
            }
        },
        {
            {
                0.011576486751437187,
                -0.0035572878550738096,
                0.004090758040547371
            },
            {
                -0.0007446270319633186,
                -0.009837673045694828,
                -0.0007842743652872741
            },
            {
                -0.008291536942124367,
                -0.012156649492681026,
                -0.011007461696863174
            }
        },
        {
            {
                -0.0022910297848284245,
                -0.0006011376390233636,
                -0.004137927666306496
            },
            {
                0.0009801401756703854,
                -0.0012753056362271309,
                0.00044412625720724463
            },
            {
                -0.005067251157015562,
                -0.005184333771467209,
                0.0015423698350787163
            }
        },
        {
            {
                -0.005006886553019285,
                0.0009172628633677959,
                0.015123842284083366
            },
            {
                -0.013360251672565937,
                -0.0055269841104745865,
                0.001743763918057084
            },
            {
                -0.021030854433774948,
                -0.020032493397593498,
                0.0008357763290405273
            }
        },
        {
            {
                -0.01303939614444971,
                -0.018469858914613724,
                -0.001861506374552846
            },
            {
                -0.009941299445927143,
                -0.008498519659042358,
                -0.012111133895814419
            },
            {
                -0.006957479286938906,
                -0.01720649190247059,
                -0.01416691392660141
            }
        },
        {
            {
                0.006394723895937204,
                -0.015724672004580498,
                -0.00772187439724803
            },
            {
                0.02425798960030079,
                0.0021396270021796227,
                -0.005884378217160702
            },
            {
                0.031188420951366425,
                0.009064050391316414,
                0.0022917529568076134
            }
        },
        {
            {
                -0.004393888171762228,
                -0.003882682416588068,
                0.00531938998028636
            },
            {
                3.32047748088371e-05,
                0.0006489278166554868,
                0.005691024474799633
            },
            {
                -0.0009964901255443692,
                -0.004577907267957926,
                0.012216516770422459
            }
        },
        {
            {
                -0.0040182629600167274,
                -0.00401770044118166,
                -0.001298102899454534
            },
            {
                -0.0002514332009013742,
                -0.0050818948075175285,
                -0.004569555167108774
            },
            {
                0.00723495427519083,
                0.0013894283911213279,
                0.0011827603448182344
            }
        },
        {
            {
                -0.008793172426521778,
                0.012554571032524109,
                0.04306449741125107
            },
            {
                -0.0033887336030602455,
                0.0008902227273210883,
                0.025389203801751137
            },
            {
                0.006490377709269524,
                0.007565756794065237,
                0.007712294813245535
            }
        },
        {
            {
                -0.004996716044843197,
                -0.009001092053949833,
                -0.0008396257180720568
            },
            {
                -0.003995515871793032,
                -0.007784494664520025,
                -0.0009957121219485998
            },
            {
                -0.006549064069986343,
                -0.005014910362660885,
                0.00267285224981606
            }
        },
        {
            {
                -0.005417535547167063,
                -0.010243895463645458,
                -0.0003232171293348074
            },
            {
                -0.008840919472277164,
                -0.010892427526414394,
                0.0028426325879991055
            },
            {
                -0.018011050298810005,
                -0.01583006978034973,
                0.0022180904634296894
            }
        },
        {
            {
                0.008982574567198753,
                -0.004751540720462799,
                -0.0019552784506231546
            },
            {
                0.0020506333094090223,
                -0.00870419479906559,
                -0.004508302081376314
            },
            {
                -0.0002205713972216472,
                -0.008657895028591156,
                -0.0036881843116134405
            }
        },
        {
            {
                -0.002238103887066245,
                0.001774115371517837,
                -0.0024426693562418222
            },
            {
                -0.002169059356674552,
                -0.0031474921852350235,
                0.0016020517796278
            },
            {
                -0.004408206325024366,
                -0.005878420080989599,
                0.005776107776910067
            }
        },
        {
            {
                -0.011888373643159866,
                0.003674207953736186,
                0.0181426964700222
            },
            {
                -0.008975682780146599,
                0.0005409492296166718,
                0.011236842721700668
            },
            {
                -0.01145684439688921,
                -0.00984923541545868,
                5.862392208655365e-05
            }
        },
        {
            {
                0.008640089072287083,
                -0.0026075777132064104,
                -0.016745125874876976
            },
            {
                0.0027228742837905884,
                -0.0074872663244605064,
                -0.01578414812684059
            },
            {
                0.0015126275829970837,
                -0.0019945732783526182,
                -0.013699650764465332
            }
        },
        {
            {
                -0.003796051489189267,
                0.004965817090123892,
                0.009648283943533897
            },
            {
                -0.008297719061374664,
                -0.0018669364508241415,
                -0.0005323964287526906
            },
            {
                -0.009895686991512775,
                -0.003524186322465539,
                -0.001438560546375811
            }
        }
    },
    {
        {
            {
                -0.0005649107042700052,
                0.0028470580000430346,
                0.0021690765861421824
            },
            {
                8.360750143765472e-06,
                0.0017187795601785183,
                0.003747412469238043
            },
            {
                -0.0022040237672626972,
                5.321093340171501e-05,
                0.006254273001104593
            }
        },
        {
            {
                0.007078081369400024,
                0.002425150480121374,
                -0.00587250804528594
            },
            {
                0.0075547825545072556,
                0.004410515073686838,
                -0.006985484156757593
            },
            {
                0.007270732894539833,
                0.004873531870543957,
                -0.004679298959672451
            }
        },
        {
            {
                -0.011981788091361523,
                -0.0010943312663584948,
                0.007623694371432066
            },
            {
                -0.009270631708204746,
                0.00031397640123032033,
                0.006611516699194908
            },
            {
                -0.0033241319470107555,
                0.002388022607192397,
                0.003754945006221533
            }
        },
        {
            {
                -0.0036129148211330175,
                0.007257239427417517,
                0.0141306072473526
            },
            {
                -0.003749790135771036,
                0.006585609167814255,
                0.012059004046022892
            },
            {
                -0.008442786522209644,
                0.005856853909790516,
                0.004826503340154886
            }
        },
        {
            {
                0.0068033616989851,
                0.007105105556547642,
                0.0013719969429075718
            },
            {
                0.005926798097789288,
                0.0042120288126170635,
                0.0017747663659974933
            },
            {
                -0.0003430963843129575,
                0.001463609398342669,
                0.0021297545172274113
            }
        },
        {
            {
                -0.005508867558091879,
                0.00021644440130330622,
                0.01305786706507206
            },
            {
                0.013438410125672817,
                0.007512361276894808,
                0.01712602563202381
            },
            {
                0.01838698238134384,
                0.002969634486362338,
                0.02325424924492836
            }
        },
        {
            {
                -0.006631023716181517,
                0.0008723964565433562,
                0.004371997434645891
            },
            {
                -0.0028696712106466293,
                0.003256024094298482,
                0.006052038166671991
            },
            {
                0.0018018940463662148,
                0.006791052874177694,
                0.0075945439748466015
            }
        },
        {
            {
                -0.005566726438701153,
                -0.00020858673087786883,
                -0.003388984827324748
            },
            {
                -0.0025553577579557896,
                0.001904174336232245,
                -0.008260487578809261
            },
            {
                0.0012903788592666388,
                0.005628359969705343,
                -0.004797589033842087
            }
        },
        {
            {
                0.004866719711571932,
                0.009756405837833881,
                0.011318950913846493
            },
            {
                0.0013164158444851637,
                0.007443918380886316,
                0.005245745647698641
            },
            {
                -0.0059263259172439575,
                0.0019440941978245974,
                -0.000811756937764585
            }
        },
        {
            {
                -0.011130481958389282,
                -0.00826863944530487,
                -0.012452108785510063
            },
            {
                -0.009221475571393967,
                -0.011005817912518978,
                -0.011470542289316654
            },
            {
                -0.006613797042518854,
                -0.009224026463925838,
                -0.005080771166831255
            }
        },
        {
            {
                0.004068281501531601,
                0.001279120217077434,
                -0.0027479936834424734
            },
            {
                0.008158830925822258,
                0.0022818921133875847,
                -0.007126992102712393
            },
            {
                0.007505273446440697,
                0.0031112763099372387,
                -0.006889302283525467
            }
        },
        {
            {
                0.0016135056503117085,
                -0.005169730167835951,
                -0.002758406801149249
            },
            {
                0.0002456088550388813,
                -0.006134314928203821,
                -0.0043575093150138855
            },
            {
                -0.0037403737660497427,
                -0.009991692379117012,
                -0.005248278379440308
            }
        },
        {
            {
                -0.0003716536157298833,
                0.008072336204349995,
                0.01151196751743555
            },
            {
                0.0016865873476490378,
                0.011109493672847748,
                0.01287983637303114
            },
            {
                0.00262783607468009,
                0.01319880597293377,
                0.012345553375780582
            }
        },
        {
            {
                0.0024167171213775873,
                0.009975150227546692,
                0.014004870317876339
            },
            {
                0.003712034784257412,
                0.012013494968414307,
                0.017242399975657463
            },
            {
                -0.0006440824363380671,
                0.013898937031626701,
                0.019482841715216637
            }
        },
        {
            {
                0.0008402297389693558,
                -0.003379784757271409,
                -0.0056181675754487514
            },
            {
                -0.003582755569368601,
                -0.0050995019264519215,
                -0.0075798784382641315
            },
            {
                -0.005594325717538595,
                -0.005835008807480335,
                -0.010394331999123096
            }
        },
        {
            {
                0.007252954412251711,
                -0.005702834110707045,
                0.005931200925260782
            },
            {
                0.004703718703240156,
                -0.004716024734079838,
                0.007840639911592007
            },
            {
                0.0019909192342311144,
                -0.001746235997416079,
                0.006402992643415928
            }
        },
        {
            {
                -0.0020570808555930853,
                -0.01246437057852745,
                -0.009205646812915802
            },
            {
                -0.0029038868378847837,
                -0.012348145246505737,
                -0.006982713006436825
            },
            {
                -0.003478460246697068,
                -0.01272949855774641,
                -0.008337276987731457
            }
        },
        {
            {
                -0.006476727779954672,
                -0.0028749541379511356,
                -0.004064403008669615
            },
            {
                -0.0037979662884026766,
                0.00010287002078257501,
                -0.0032992325723171234
            },
            {
                -0.00452848244458437,
                0.0025308949407190084,
                -0.007397295441478491
            }
        },
        {
            {
                0.009238858707249165,
                0.005234023556113243,
                0.009085595607757568
            },
            {
                0.004579875152558088,
                0.010799101553857327,
                0.013128294609487057
            },
            {
                -0.00420945743098855,
                0.0034020699094980955,
                0.005991049576550722
            }
        },
        {
            {
                0.02120300382375717,
                0.012775370851159096,
                -0.0006587078678421676
            },
            {
                0.020429588854312897,
                0.01460166834294796,
                -0.0014628522330895066
            },
            {
                0.020186925306916237,
                0.013988452963531017,
                -0.0003521527978591621
            }
        },
        {
            {
                0.002499678870663047,
                0.009155451320111752,
                0.018292108550667763
            },
            {
                0.0021438891999423504,
                0.01257789321243763,
                0.01928756758570671
            },
            {
                -4.873561192653142e-05,
                0.014504432678222656,
                0.017894823104143143
            }
        },
        {
            {
                0.0007154882769100368,
                0.006741756573319435,
                0.008527633734047413
            },
            {
                0.00389742199331522,
                0.007576690521091223,
                0.010974996723234653
            },
            {
                0.003379321191459894,
                0.008669081144034863,
                0.012976753525435925
            }
        },
        {
            {
                0.0003486434288788587,
                0.011231780052185059,
                0.008469229564070702
            },
            {
                -0.0024165785871446133,
                0.009227990172803402,
                0.009401259943842888
            },
            {
                -0.005432767327874899,
                0.009515680372714996,
                0.0078060380183160305
            }
        },
        {
            {
                -0.0021731930319219828,
                0.0065314555540680885,
                0.01259415689855814
            },
            {
                -0.0019143351819366217,
                0.007762340363115072,
                0.013770019635558128
            },
            {
                -0.0004189513565506786,
                0.010290522128343582,
                0.0129426009953022
            }
        },
        {
            {
                -0.0016487932298332453,
                0.004772641230374575,
                0.011306044645607471
            },
            {
                -0.0011695724679157138,
                0.007560783997178078,
                0.013829205185174942
            },
            {
                -0.002636595629155636,
                0.00845187995582819,
                0.01604367606341839
            }
        },
        {
            {
                0.0025334993842989206,
                0.0012442282168194652,
                0.008023054338991642
            },
            {
                -0.00269838678650558,
                0.005092905834317207,
                0.0100014079362154
            },
            {
                -0.006474609952419996,
                0.005743793211877346,
                0.008621950633823872
            }
        },
        {
            {
                -0.005219406448304653,
                0.004313757177442312,
                0.005374502390623093
            },
            {
                -0.0052059185691177845,
                0.006811704486608505,
                0.005090411752462387
            },
            {
                -0.00544718187302351,
