const float q_bidirectional_gru_forward_bias_recurrent[64][3] = {
    {
        0.06289296597242355,
        0.06480865925550461,
        -0.03573756292462349,
    },
    {
        0.06180126592516899,
        -0.01067989133298397,
        -0.018469491973519325,
    },
    {
        0.10160551965236664,
        -0.04912707209587097,
        -0.014952571131289005,
    },
    {
        0.09039940685033798,
        -0.04639318957924843,
        -0.016414497047662735,
    },
    {
        0.12047883123159409,
        -0.037112046033144,
        0.036121562123298645,
    },
    {
        0.12255367636680603,
        -0.04045610502362251,
        0.007933693937957287,
    },
    {
        0.08265700936317444,
        -0.00816079881042242,
        0.007528483867645264,
    },
    {
        0.08895596116781235,
        -0.004929275251924992,
        0.07508736848831177,
    },
    {
        0.1317046582698822,
        0.004932263866066933,
        -0.0025394491385668516,
    },
    {
        0.10556352883577347,
        -0.023647861555218697,
        0.0012957293074578047,
    },
    {
        0.12537342309951782,
        -0.0072434465400874615,
        0.015578003600239754,
    },
    {
        0.12775801122188568,
        0.03296683356165886,
        -0.03413451835513115,
    },
    {
        0.07754059880971909,
        -0.010061370208859444,
        -0.006734516471624374,
    },
    {
        0.08604221045970917,
        -0.04449808597564697,
        0.01871916837990284,
    },
    {
        0.09320737421512604,
        -0.035798799246549606,
        0.008122559636831284,
    },
    {
        0.06213536858558655,
        -0.03481239452958107,
        0.03515755757689476,
    },
    {
        0.0826449990272522,
        -0.010985438711941242,
        0.0024149634409695864,
    },
    {
        0.06501148641109467,
        0.032482173293828964,
        -0.018801428377628326,
    },
    {
        0.07761568576097488,
        0.04123774915933609,
        -0.0029885347466915846,
    },
    {
        0.10329419374465942,
        -0.031599197536706924,
        0.03510824590921402,
    },
    {
        0.11337903141975403,
        -0.05580711364746094,
        -0.0075994571670889854,
    },
    {
        0.08563821017742157,
        -0.018682699650526047,
        -0.00453487504273653,
    },
    {
        0.11106099933385849,
        -0.012665451504290104,
        0.020452160388231277,
    },
    {
        0.04928869009017944,
        -0.03336092829704285,
        -0.004263102076947689,
    },
    {
        0.10258302092552185,
        0.0161438025534153,
        -0.04788100719451904,
    },
    {
        0.09479830414056778,
        0.006144818849861622,
        -0.03250180557370186,
    },
    {
        0.11387428641319275,
        0.003202766412869096,
        0.034251950681209564,
    },
    {
        0.13160620629787445,
        -0.01974881999194622,
        0.027971429750323296,
    },
    {
        0.11975482106208801,
        0.019991718232631683,
        0.018149321898818016,
    },
    {
        0.1272478550672531,
        -0.01832479238510132,
        -0.016926154494285583,
    },
    {
        0.10351208597421646,
        0.051507558673620224,
        -0.001153034158051014,
    },
    {
        0.11377798765897751,
        -0.0345841608941555,
        -0.041196249425411224,
    },
    {
        0.1315990537405014,
        -0.009153767488896847,
        -0.01626240834593773,
    },
    {
        0.09325237572193146,
        -0.03395283222198486,
        0.020011061802506447,
    },
    {
        0.07621271163225174,
        0.0036387622822076082,
        0.0004355824494268745,
    },
    {
        0.091366708278656,
        -0.0055906930938363075,
        0.01551160030066967,
    },
    {
        0.03752141073346138,
        -0.04954448342323303,
        0.04088843613862991,
    },
    {
        0.10086939483880997,
        0.03033427894115448,
        -0.021935448050498962,
    },
    {
        0.08425895869731903,
        -0.048561204224824905,
        0.002191780135035515,
    },
    {
        0.09111570566892624,
        0.03695913404226303,
        0.03325435146689415,
    },
    {
        0.10027482360601425,
        0.0057619730941951275,
        0.026453053578734398,
    },
    {
        0.056478794664144516,
        -0.01746896654367447,
        -0.03158029541373253,
    },
    {
        0.13449212908744812,
        -0.03200965374708176,
        0.026086488738656044,
    },
    {
        0.0863289162516594,
        0.022944355383515358,
        -0.020961089059710503,
    },
    {
        0.08554034680128098,
        0.02707047201693058,
        -0.02210995927453041,
    },
    {
        0.09090014547109604,
        -0.01775399222970009,
        -0.031905487179756165,
    },
    {
        0.11980291455984116,
        -0.06312256306409836,
        0.0029521433170884848,
    },
    {
        0.0672307163476944,
        -0.04830235615372658,
        0.0457351990044117,
    },
    {
        0.07400016486644745,
        0.04554890841245651,
        0.008993555791676044,
    },
    {
        0.10064518451690674,
        -0.019408680498600006,
        0.011405006051063538,
    },
    {
        0.07566208392381668,
        -0.003946574404835701,
        -0.02480521984398365,
    },
    {
        0.059018708765506744,
        0.05546904727816582,
        0.009841352701187134,
    },
    {
        0.10931810736656189,
        -0.022687740623950958,
        0.04646839201450348,
    },
    {
        0.12521377205848694,
        0.03937873989343643,
        0.04182659462094307,
    },
    {
        0.09444393962621689,
        -0.03602595627307892,
        -0.028377428650856018,
    },
    {
        0.13158224523067474,
        0.01299809105694294,
        0.00461749779060483,
    },
    {
        0.11070616543292999,
        0.004473621491342783,
        0.03602801635861397,
    },
    {
        0.0943477600812912,
        -0.029805507510900497,
        -0.0005569467321038246,
    },
    {
        0.1136179193854332,
        0.024708526208996773,
        -0.02666202373802662,
    },
    {
        0.1330050230026245,
        -0.03213686868548393,
        -0.014019505120813847,
    },
    {
        0.10000653564929962,
        -0.007289563771337271,
        -0.030644385144114494,
    },
    {
        0.041395802050828934,
        -0.02433212287724018,
        0.00396337453275919,
    },
    {
        0.10495670139789581,
        -0.042811743915081024,
        -0.022696824744343758,
    },
    {
        0.10867089033126831,
        -0.0439387746155262,
        0.007696161046624184,
    },
};
