const float q_bidirectional_1_gru_forward_recurrent_kernel[64][3][64] = {
    {
        {
            0.12743660807609558,
            0.2186346799135208,
            0.04552493244409561,
            -0.006519930902868509,
            0.008987543173134327,
            -0.1600920408964157,
            0.046848852187395096,
            -0.05719368904829025,
            0.022479195147752762,
            0.26274290680885315,
            -0.04151814430952072,
            -0.12209215760231018,
            -0.12648500502109528,
            0.030627192929387093,
            -0.005593222565948963,
            0.036782193928956985,
            -0.13725297152996063,
            -0.11193887144327164,
            -0.04987768456339836,
            -0.11164242029190063,
            -0.029816994443535805,
            0.08587361872196198,
            0.1023382842540741,
            -0.012478192336857319,
            -0.01726900413632393,
            0.027880456298589706,
            0.02959907427430153,
            -0.03444920852780342,
            -0.09640274941921234,
            -0.13652873039245605,
            0.16229332983493805,
            -0.20437465608119965,
            -0.0551762580871582,
            0.05559530109167099,
            0.02088284306228161,
            0.02135135978460312,
            -0.06412547826766968,
            -0.013282697647809982,
            0.11949891597032547,
            -0.06640918552875519,
            0.10070155560970306,
            0.09509725868701935,
            0.013418336398899555,
            0.0645991712808609,
            0.03593582287430763,
            -0.15571123361587524,
            0.1016373559832573,
            -0.09322754293680191,
            -0.19462814927101135,
            0.06226111203432083,
            0.07789593189954758,
            -0.09674627333879471,
            0.03243189677596092,
            -0.10280979424715042,
            -0.014401876367628574,
            -0.014975754544138908,
            -0.27264729142189026,
            -0.09908415377140045,
            0.05899105966091156,
            -0.019109118729829788,
            0.03270377963781357,
            -0.024554457515478134,
            0.03461916372179985,
            -0.12319179624319077,
        },
        {
            0.058852419257164,
            0.11060208082199097,
            0.03567993640899658,
            -0.05154508724808693,
            -0.01964990794658661,
            0.037910740822553635,
            -0.07716219872236252,
            -0.028408294543623924,
            0.027049090713262558,
            -0.06605833023786545,
            0.009668202139437199,
            0.04990725219249725,
            0.08094228804111481,
            0.10900351405143738,
            0.1997300535440445,
            -0.15565656125545502,
            0.1619083136320114,
            -0.02357659488916397,
            0.07588335126638412,
            -0.07080413401126862,
            0.07695011049509048,
            0.03822530433535576,
            0.02727610617876053,
            0.15794426202774048,
            0.08166617900133133,
            0.062131673097610474,
            -0.15804743766784668,
            0.04489923641085625,
            0.0011444671545177698,
            0.03324607014656067,
            -0.12986759841442108,
            -0.012572870589792728,
            0.09185337275266647,
            0.11261299252510071,
            0.008544503711163998,
            -0.043220244348049164,
            0.13283559679985046,
            0.0030632249545305967,
            -0.12573003768920898,
            -0.03857797384262085,
            -0.11379599571228027,
            0.1446896493434906,
            0.007245984859764576,
            0.14084753394126892,
            0.0003703624533955008,
            -0.01992984674870968,
            0.14550144970417023,
            -0.011890224181115627,
            -0.05925862491130829,
            0.11627322435379028,
            -0.09433898329734802,
            -0.0461776927113533,
            -0.07076351344585419,
            -0.014394263736903667,
            -0.06329463422298431,
            -0.018900066614151,
            0.027787690982222557,
            -0.010609685443341732,
            -0.02044845186173916,
            -0.057509154081344604,
            0.06395471096038818,
            -0.10524129867553711,
            0.13587523996829987,
            -0.06554281711578369,
        },
        {
            -0.02344486117362976,
            0.04580723121762276,
            0.040082063525915146,
            -0.07959017902612686,
            0.17134422063827515,
            -0.10837963223457336,
            -0.045571763068437576,
            -0.2676176428794861,
            0.10476318746805191,
            0.01185295544564724,
            0.04844522103667259,
            -0.0009645865065976977,
            -0.07465382665395737,
            -0.00493368785828352,
            0.0742500051856041,
            -1.3986011254019104e-05,
            -0.09291476756334305,
            -0.04030362889170647,
            -0.13192351162433624,
            0.07253596186637878,
            0.04804714396595955,
            0.23153343796730042,
            0.0547674223780632,
            -0.06799282133579254,
            -0.13773681223392487,
            0.0726921334862709,
            -0.013266821391880512,
            -0.07857311517000198,
            -0.030032722279429436,
            -0.011636724695563316,
            0.023937132209539413,
            0.03868097811937332,
            0.015663521364331245,
            -0.06787483394145966,
            -0.18500162661075592,
            0.07419896870851517,
            0.044679004698991776,
            -0.009286496788263321,
            0.1041918694972992,
            -0.01811649650335312,
            -0.032931722700595856,
            -0.10902238637208939,
            0.040259599685668945,
            0.055911723524332047,
            -0.020274924114346504,
            -0.16563495993614197,
            0.01530036237090826,
            -0.03311297297477722,
            -0.06825924664735794,
            -0.007223742548376322,
            -0.023589858785271645,
            -0.05499298498034477,
            0.05840875580906868,
            -0.0745825245976448,
            -0.04986204206943512,
            -0.001261019497178495,
            -0.18038123846054077,
            -0.02067108079791069,
            -0.0684923380613327,
            -0.11502918601036072,
            0.02771531045436859,
            -0.14924325048923492,
            0.09596295654773712,
            -0.003709840588271618,
        },
    },
    {
        {
            0.014464464038610458,
            0.1770879328250885,
            -0.20480342209339142,
            0.032403137534856796,
            0.06554426997900009,
            -0.07386483997106552,
            -0.03697536885738373,
            -0.12034715712070465,
            0.14392057061195374,
            0.19081833958625793,
            0.09061530232429504,
            0.013493881560862064,
            0.1259702742099762,
            0.06934802234172821,
            -0.06417058408260345,
            0.10443444550037384,
            -0.07132177799940109,
            -0.04224615916609764,
            0.09781710058450699,
            -0.07388094067573547,
            0.2525038421154022,
            0.0782809630036354,
            0.05297518149018288,
            0.13082124292850494,
            -0.12751120328903198,
            -0.03259127587080002,
            -0.010249307379126549,
            -0.07047867029905319,
            0.0834241583943367,
            0.007445374969393015,
            0.00575983664020896,
            0.03230150789022446,
            0.08309085667133331,
            0.22739261388778687,
            -0.27273550629615784,
            0.1209540069103241,
            -0.09236634522676468,
            0.036423616111278534,
            0.08943909406661987,
            -0.25217685103416443,
            0.11390833556652069,
            0.012558588758111,
            0.04770977795124054,
            -0.15709428489208221,
            -0.011139878071844578,
            0.02370498515665531,
            0.12455349415540695,
            -0.014911697246134281,
            -0.1303139477968216,
            0.16064006090164185,
            0.12033297121524811,
            0.027782786637544632,
            0.19474761188030243,
            -0.11930055171251297,
            0.2268994301557541,
            -0.03382996469736099,
            0.007979527115821838,
            -0.0767015740275383,
            -0.0774010419845581,
            -0.129121795296669,
            -0.03455457091331482,
            0.01152533758431673,
            0.0168817900121212,
            -0.09418672323226929,
        },
        {
            0.007042123936116695,
            0.10035530477762222,
            -0.20503659546375275,
            -0.1093837320804596,
            0.005201132968068123,
            -0.20468515157699585,
            -0.06812837719917297,
            -0.000513511011376977,
            0.0758814886212349,
            0.062315672636032104,
            0.1765369027853012,
            -0.05256909132003784,
            -0.2226034551858902,
            -0.03478281944990158,
            0.19699911773204803,
            0.02217111550271511,
            -0.09159456938505173,
            -0.026149064302444458,
            -0.11872789263725281,
            -0.061807624995708466,
            0.19451144337654114,
            0.09233793616294861,
            -0.04469630867242813,
            0.061228398233652115,
            -0.11202222108840942,
            0.05233927071094513,
            -0.10479152947664261,
            -0.10061769932508469,
            -0.055008664727211,
            -0.1305496096611023,
            0.09047075361013412,
            -0.29238876700401306,
            -0.08452437818050385,
            -0.035691920667886734,
            -0.011050336062908173,
            0.2570701539516449,
            0.04586897790431976,
            -0.1175699234008789,
            0.13567940890789032,
            -0.044001951813697815,
            -0.0187891386449337,
            0.24614523351192474,
            -0.0018824032740667462,
            0.05559513345360756,
            -0.04312262311577797,
            -0.16102945804595947,
            0.040655434131622314,
            -0.0761561170220375,
            -0.17057181894779205,
            0.06297023594379425,
            0.06295786798000336,
            0.002095271600410342,
            -0.055347274988889694,
            -0.08436844497919083,
            -0.06299193203449249,
            0.05091872438788414,
            -0.04354051500558853,
            0.01735633984208107,
            0.0030539489816874266,
            0.016290878877043724,
            0.017632566392421722,
            0.05042668804526329,
            0.04583291336894035,
            -0.10401062667369843,
        },
        {
            -0.007688594050705433,
            0.13045190274715424,
            -0.010567774996161461,
            -0.22559639811515808,
            0.056626781821250916,
            0.023971525952219963,
            -0.13829122483730316,
            0.02673492021858692,
            0.09384077787399292,
            0.12103254348039627,
            0.12972332537174225,
            -0.04002557694911957,
            0.07333076000213623,
            0.00983892660588026,
            0.11901400238275528,
            -0.036917489022016525,
            -0.08695332705974579,
            0.06568828970193863,
            -0.10805705189704895,
            0.07643473893404007,
            0.05594548210501671,
            0.16638854146003723,
            -0.07345633208751678,
            -0.10364466905593872,
            0.007070647552609444,
            0.06384846568107605,
            -0.05426893010735512,
            -0.08165231347084045,
            0.027164697647094727,
            -0.031575337052345276,
            0.11392668634653091,
            0.09377092868089676,
            -0.20258565247058868,
            -0.2029547244310379,
            -0.059871967881917953,
            -0.008262714371085167,
            0.08869104832410812,
            -0.1004033237695694,
            -0.08557026088237762,
            -0.14284050464630127,
            -0.10482670366764069,
            0.008969154208898544,
            -0.0348799005150795,
            -0.03982612118124962,
            -0.06711775064468384,
            -0.11005861312150955,
            0.20938986539840698,
            0.10010543465614319,
            -0.18988759815692902,
            0.10239919275045395,
            0.014284270815551281,
            -0.10124824196100235,
            -0.08375394344329834,
            0.050282686948776245,
            0.019793927669525146,
            -0.004076537676155567,
            -0.11845110356807709,
            -0.05272817984223366,
            0.07478833943605423,
            -0.17934802174568176,
            0.06304144859313965,
            -0.10642556101083755,
            0.05913493037223816,
            -0.05108276382088661,
        },
    },
    {
        {
            0.10010553151369095,
            0.12439222633838654,
            -0.08373382687568665,
            -0.18693985044956207,
            -0.02822168730199337,
            -0.016512082889676094,
            -0.06868525594472885,
            -0.14695686101913452,
            0.021619226783514023,
            0.06815464049577713,
            0.06201063096523285,
            -0.06622236222028732,
            -0.004905069246888161,
            0.02354774996638298,
            0.027032310143113136,
            0.075659841299057,
            -0.07751940190792084,
            -0.12561364471912384,
            -0.06620731204748154,
            0.005270668771117926,
            0.08561742305755615,
            0.11889151483774185,
            -0.1397935450077057,
            0.10421661287546158,
            -0.026742303743958473,
            0.15571855008602142,
            0.013248261064291,
            -0.04954175278544426,
            -0.008790837600827217,
            -0.13460874557495117,
            0.08262306451797485,
            0.11493106931447983,
            -0.06934298574924469,
            -0.022736266255378723,
            -0.13490581512451172,
            0.0224993284791708,
            0.039447441697120667,
            -0.11348237842321396,
            -0.005951030179858208,
            -0.13776588439941406,
            0.0032575957011431456,
            0.042395833879709244,
            0.08131831139326096,
            -0.008568611927330494,
            0.06696895509958267,
            -0.08166481554508209,
            0.07827305048704147,
            -0.04837457090616226,
            0.08157584071159363,
            0.06868651509284973,
            0.05528835207223892,
            -0.02573489025235176,
            0.014030550606548786,
            -0.12765419483184814,
            0.1330125480890274,
            0.0796164870262146,
            0.04165906831622124,
            -0.09240300208330154,
            0.08522961288690567,
            -0.046898581087589264,
            0.04119376093149185,
            0.0037865221966058016,
            0.16509434580802917,
            -0.06272336095571518,
        },
        {
            0.022783784195780754,
            -0.012629061006009579,
            -0.009843602776527405,
            -0.1017783060669899,
            0.09746646136045456,
            0.11634323745965958,
            -0.014939112588763237,
            0.056250736117362976,
            0.05782029405236244,
            -0.0016737270634621382,
            0.1190519779920578,
            -0.03369627147912979,
            -0.006835579872131348,
            -0.0005784217501059175,
            0.06804265081882477,
            -0.07893173396587372,
            -0.011571116745471954,
            -0.1068408340215683,
            0.05445166304707527,
            0.04436168074607849,
            0.0484841987490654,
            0.09726183861494064,
            -0.006211882457137108,
            0.15989136695861816,
            0.052248477935791016,
            -0.10221624374389648,
            0.0017867088317871094,
            -0.030794352293014526,
            -0.0511249303817749,
            -0.047487664967775345,
            0.039286963641643524,
            0.024221207946538925,
            -0.08117764443159103,
            0.0036773979663848877,
            0.07908748090267181,
            0.06861814111471176,
            0.06866038590669632,
            0.0328991562128067,
            0.014350357465445995,
            -0.11794453859329224,
            0.042559731751680374,
            0.17688755691051483,
            -0.0057282401248812675,
            0.07600738108158112,
            0.05300990119576454,
            0.009045879356563091,
            -0.05095653980970383,
            0.1294751763343811,
            -0.13764140009880066,
            0.028311695903539658,
            0.05288001522421837,
            0.010118459351360798,
            -0.003371683182194829,
            -0.08567751944065094,
            0.09796614199876785,
            0.13107992708683014,
            0.00015130957763176411,
            -0.04883091151714325,
            0.06225021928548813,
            -0.05566539615392685,
            0.08729895949363708,
            -0.10359969735145569,
            -0.09950286895036697,
            -0.1606881320476532,
        },
        {
            -0.021188147366046906,
            0.12132752686738968,
            0.011632416397333145,
            0.052172113209962845,
            -0.10551343113183975,
            0.03746824711561203,
            0.03907926008105278,
            0.17602279782295227,
            0.047186776995658875,
            -0.03988278657197952,
            -0.025598391890525818,
            0.0813995972275734,
            0.09850189089775085,
            -0.15422166883945465,
            -0.02847450226545334,
            -0.0680256336927414,
            -0.02532975934445858,
            0.12893739342689514,
            0.007969978265464306,
            -0.1737445890903473,
            0.01753106713294983,
            -0.07471545785665512,
            0.046394143253564835,
            0.06100519746541977,
            0.02554621919989586,
            0.035535573959350586,
            -0.08497593551874161,
            -0.10345327854156494,
            0.06702528148889542,
            -0.02474120445549488,
            -0.0387873537838459,
            -0.03575835004448891,
            0.16240721940994263,
            -0.07401145249605179,
            0.10707776993513107,
            -0.06615186482667923,
            -0.1284947544336319,
            0.1135706976056099,
            0.016938313841819763,
            0.11926113069057465,
            -0.007776389829814434,
            -0.17005284130573273,
            0.001338494592346251,
            -0.029321640729904175,
            0.05026627704501152,
            0.15065337717533112,
            -0.00032595868106000125,
            0.0011626052437350154,
            0.08738016337156296,
            -0.1270788460969925,
            -0.08673064410686493,
            0.06647349148988724,
            0.038258861750364304,
            0.03810613974928856,
            -0.12065364420413971,
            0.03096732869744301,
            0.021296875551342964,
            -0.021959932520985603,
            0.07241763919591904,
            0.024905124679207802,
            -0.12173188477754593,
            0.11324619501829147,
            -0.043911270797252655,
            -0.007315338589251041,
        },
    },
    {
        {
            -0.0022533931769430637,
            0.009649151936173439,
            0.08806750178337097,
            0.15421254932880402,
            0.0005768474075011909,
            -0.029000170528888702,
            0.08426620066165924,
            0.02502250298857689,
            -0.14598272740840912,
            0.057780671864748,
            -0.08026821166276932,
            0.03125951439142227,
            0.0071998098865151405,
            0.019484929740428925,
            0.017596160992980003,
            0.043410416692495346,
            -0.05420686677098274,
            -0.14872418344020844,
            0.042747464030981064,
            -0.08219781517982483,
            -0.05078134313225746,
            -0.06291396915912628,
            0.03244888409972191,
            -0.06868112832307816,
            0.027676811441779137,
            -0.07531027495861053,
            0.03838777169585228,
            -0.061080072075128555,
            0.19550101459026337,
            -0.11156612634658813,
            -0.05642859637737274,
            0.07151661068201065,
            -0.05144950747489929,
            0.1055411770939827,
            0.1426619291305542,
            -0.01828528381884098,
            -0.07765836268663406,
            -0.045560676604509354,
            -0.021879488602280617,
            0.10695184022188187,
            0.0021457031834870577,
            -0.20798228681087494,
            -0.004163175355643034,
            -0.13201378285884857,
            -0.10699410736560822,
            0.12247561663389206,
            -0.06549908220767975,
            0.05041784048080444,
            0.1413230001926422,
            0.03895837441086769,
            -0.06225116550922394,
            0.05232293903827667,
            -0.07286598533391953,
            0.11948206275701523,
            -0.014728055335581303,
            0.008369865827262402,
            -0.05767477676272392,
            0.10646519064903259,
            0.020369108766317368,
            -0.01459982804954052,
            -0.06791945546865463,
            -0.1042444184422493,
            0.023765336722135544,
            -7.55596993258223e-05,
        },
        {
            0.16219204664230347,
            -0.00949134398251772,
            -0.12065265327692032,
            0.11671986430883408,
            0.06391642987728119,
            -0.16198551654815674,
            -0.06846123188734055,
            -0.1325172781944275,
            0.14069487154483795,
            0.06438557058572769,
            -0.074331134557724,
            0.045597534626722336,
            0.020628442987799644,
            0.07795055955648422,
            0.12412600219249725,
            0.12344089150428772,
            -0.10490827262401581,
            0.028003167361021042,
            -0.00720953568816185,
            -0.09928680956363678,
            0.10525552928447723,
            0.10612454265356064,
            -0.04922988638281822,
            0.07811688631772995,
            0.11559925228357315,
            0.10715717077255249,
            -0.08763188868761063,
            -0.14621815085411072,
            -0.010077575221657753,
            -0.09211987257003784,
            0.11538603156805038,
            0.024283934384584427,
            0.04017738252878189,
            0.056947011500597,
            0.03972235694527626,
            0.030839456245303154,
            0.10237216204404831,
            -0.01526355929672718,
            0.12827345728874207,
            -0.27891474962234497,
            0.03169459104537964,
            0.02072279155254364,
            -0.0022374915424734354,
            0.09980779141187668,
            -0.08638137578964233,
            -0.049384377896785736,
            0.0028270012699067593,
            -0.0653662383556366,
            -0.04797409102320671,
            0.14738981425762177,
            0.043590985238552094,
            -0.17999568581581116,
            -0.02444547973573208,
            0.03199651837348938,
            -0.04836369305849075,
            0.10298658907413483,
            -0.020856797695159912,
            -0.08209925889968872,
            0.05324471369385719,
            -0.09511896222829819,
            0.17921003699302673,
            -0.007385637145489454,
            0.041933175176382065,
            0.04982063174247742,
        },
        {
            0.05918765813112259,
            -0.11427394300699234,
            0.07144590467214584,
            0.027452997863292694,
            -0.06487920880317688,
            0.008107785135507584,
            -0.0038562752306461334,
            0.043284643441438675,
            -0.14060142636299133,
            -0.07524371892213821,
            0.018181193619966507,
            0.04447551071643829,
            -0.10671135038137436,
            -0.05112585052847862,
            -0.03916437551379204,
            -0.11439836025238037,
            -0.024233434349298477,
            0.12862902879714966,
            0.12646973133087158,
            -0.09271534532308578,
            0.05339185521006584,
            -0.1537904590368271,
            -0.01725975051522255,
            0.017380956560373306,
            0.01923484541475773,
            -0.17655576765537262,
            -0.08300185948610306,
            0.08258985728025436,
            -0.00022839190205559134,
            -0.026291457936167717,
            -0.12742148339748383,
            0.034705400466918945,
            0.2909024655818939,
            0.037598371505737305,
            0.04350246116518974,
            -0.013644590973854065,
            -0.05165873095393181,
            -0.016513261944055557,
            0.1222749575972557,
            0.1966894268989563,
            0.1292552947998047,
            -0.025841547176241875,
            -0.12582650780677795,
            -0.14318731427192688,
            0.04532516002655029,
            0.09838078916072845,
            -0.05027681961655617,
            0.022045183926820755,
            -0.04340760037302971,
            -0.00016275998495984823,
            -0.04107247665524483,
            0.04895535856485367,
            -0.07256521284580231,
            0.07134658098220825,
            0.004536774009466171,
            0.005896574351936579,
            0.10465990006923676,
            0.035576172173023224,
            -0.0870874673128128,
            0.07800082862377167,
            -0.12877188622951508,
            0.06289404630661011,
            0.06377691775560379,
            0.03660814091563225,
        },
    },
    {
        {
            0.11898031830787659,
            0.22987110912799835,
            -0.22339662909507751,
            0.10623437166213989,
            0.09643910825252533,
            -0.22997748851776123,
            -0.10430774837732315,
            0.018328970298171043,
            0.1764371693134308,
            0.062362439930438995,
            0.10176583379507065,
            -0.058042194694280624,
            0.1740015745162964,
            0.017367590218782425,
            0.19190427660942078,
            0.16267038881778717,
            0.09206530451774597,
            -0.05340911075472832,
            -0.014742963947355747,
            -0.11940276622772217,
            0.11421612650156021,
            0.10669172555208206,
            0.03871375694870949,
            -0.05466664209961891,
            -0.10780345648527145,
            -0.003910335712134838,
            -0.1346389353275299,
            -0.23407913744449615,
            -0.09048102051019669,
            0.046554792672395706,
            0.09154141694307327,
            0.061585426330566406,
            0.001043599215336144,
            0.16572792828083038,
            -0.08163339644670486,
            0.0711745023727417,
            -0.09278599172830582,
            -0.035802800208330154,
            0.09915519505739212,
            0.08951812982559204,
            -0.0038063477259129286,
            0.17661906778812408,
            0.020266756415367126,
            0.04111329838633537,
            0.10333225876092911,
            0.03307627886533737,
            0.014203698374330997,
            -0.1565263569355011,
            -0.13529673218727112,
            -0.008528277277946472,
            0.10884600877761841,
            -0.0865771695971489,
            -0.0399538055062294,
            -0.009524684399366379,
            0.11409179121255875,
            -0.06346020102500916,
            -0.20388680696487427,
            -0.1071159616112709,
            -0.10251224786043167,
            0.009757459163665771,
            0.15381604433059692,
            -0.07373372465372086,
            0.0036296541802585125,
            -0.09851478040218353,
        },
        {
            0.23188020288944244,
            0.15640442073345184,
            -0.15280789136886597,
            -0.12357420474290848,
            0.17498205602169037,
            -0.1082557886838913,
            -0.15024922788143158,
            -0.07582154870033264,
            0.2996414303779602,
            0.0072999331168830395,
            0.10732106119394302,
            0.021551067009568214,
            -0.1946062594652176,
            0.10822433978319168,
            0.16856057941913605,
            0.20194965600967407,
            -0.02696257270872593,
            -0.04347175359725952,
            -0.09214309602975845,
            -0.007110064383596182,
            0.23005972802639008,
            0.10847271233797073,
            -0.021129010245203972,
            -0.05237787961959839,
            0.009145587682723999,
            0.17027465999126434,
            -0.018218841403722763,
            -0.08264081180095673,
            -0.10847830027341843,
            -0.12051213532686234,
            0.06672096252441406,
            -0.1553967297077179,
            -0.15065522491931915,
            0.002810521749779582,
            -0.041730061173439026,
            0.03953230753540993,
            -0.06222747266292572,
            -0.013806203380227089,
            -0.02723836898803711,
            0.03943533077836037,
            0.06331437081098557,
            0.08025725185871124,
            0.051728539168834686,
            0.08120553195476532,
            0.08341208845376968,
            -0.09550967067480087,
            0.1501058042049408,
            -0.08817886561155319,
            -0.15362559258937836,
            0.18645939230918884,
            0.009447668679058552,
            -0.15285100042819977,
            -0.006349506322294474,
            -0.11727581173181534,
            0.1074799969792366,
            0.0694783553481102,
            -0.16778802871704102,
            -0.012135193683207035,
            0.17598514258861542,
            -0.16020983457565308,
            0.0678272396326065,
            -0.02058194950222969,
            0.1499980390071869,
            -0.13545112311840057,
        },
        {
            -0.0932847186923027,
            0.01386943832039833,
            0.08665139973163605,
            -0.15812967717647552,
            -0.09962005168199539,
            0.05457104369997978,
            -0.07805154472589493,
            0.10498560965061188,
            0.012378742918372154,
            0.0068840510211884975,
            0.20321646332740784,
            0.197074294090271,
            -0.19676154851913452,
            0.031646646559238434,
            0.13230890035629272,
            0.005389982368797064,
            0.001391284167766571,
            -0.01880657859146595,
            0.03729334473609924,
            0.12320095300674438,
            -0.0006524697528220713,
            0.057417161762714386,
            -0.058360256254673004,
            0.05806058272719383,
            0.13878357410430908,
            0.07294956594705582,
            -0.06568123400211334,
            -0.13250435888767242,
            -0.0071284472942352295,
            -0.09169992804527283,
            0.1692531257867813,
            0.0014013099716976285,
            -0.11443062871694565,
            0.004217816982418299,
            -0.07455485314130783,
            -0.08473014831542969,
            0.022963620722293854,
            -0.06080165505409241,
            -0.05485914647579193,
            -0.07005254179239273,
            0.021423697471618652,
            0.06318064779043198,
            0.08315667510032654,
            0.020790638402104378,
            -0.001819503027945757,
            -0.11820866167545319,
            0.052504755556583405,
            -0.017133349552750587,
            -0.13057027757167816,
            0.09971436113119125,
            0.025948764756321907,
            -0.13747230172157288,
            -0.01947386935353279,
            0.05643278360366821,
            -0.004846662748605013,
            0.12100688368082047,
            -0.026381149888038635,
            -0.07369806617498398,
            -0.11040034145116806,
            -0.08670602738857269,
            -0.0061183711513876915,
            -0.02096330001950264,
            0.016315964981913567,
            -0.05761386826634407,
        },
    },
    {
        {
            -0.023104092106223106,
            0.05922399088740349,
            0.010614034719765186,
            -0.008553407154977322,
            0.0810902938246727,
            -0.0009292415343225002,
            0.06804732978343964,
            -0.29812535643577576,
            0.043417029082775116,
            0.058059271425008774,
            -0.008822443895041943,
            -0.14137977361679077,
            -0.047766365110874176,
            0.10742012411355972,
            0.1548995077610016,
            0.07396945357322693,
            -0.25483450293540955,
            -0.1273880898952484,
            -0.1555939018726349,
            -0.09351414442062378,
            0.08183914422988892,
            0.023824024945497513,
            0.16334648430347443,
            -0.06729602068662643,
            -0.28507646918296814,
            -0.043717607855796814,
            0.0014977446990087628,
            -0.025418711826205254,
            0.05330163612961769,
            0.03587785363197327,
            0.13191381096839905,
            -0.16302795708179474,
            -0.11803113669157028,
            0.14315049350261688,
            -0.12122701853513718,
            0.031004922464489937,
            -0.05470779165625572,
            -0.06360146403312683,
            0.10237709432840347,
            -0.12824563682079315,
            0.15007996559143066,
            -0.09960314631462097,
            -0.05770251527428627,
            0.09226410835981369,
            0.0018953133840113878,
            -0.25762036442756653,
            0.10238523781299591,
            -0.07369363307952881,
            -0.13241145014762878,
            0.015111749060451984,
            0.22068104147911072,
            0.013872927986085415,
            0.11698633432388306,
            -0.05438687652349472,
            0.060123853385448456,
            0.06004461646080017,
            -0.0059278542175889015,
            -0.04043080285191536,
            -0.035240091383457184,
            -0.17344306409358978,
            0.02255382388830185,
            -0.09488403797149658,
            0.2247292697429657,
            -0.14998529851436615,
        },
        {
            0.1056026816368103,
            0.18641893565654755,
            -0.014755433425307274,
            -0.021331043913960457,
            0.03555167466402054,
            -0.10310205072164536,
            -0.10905152559280396,
            -0.056472111493349075,
            0.15940101444721222,
            0.13877363502979279,
            0.11177545040845871,
            -0.16471682488918304,
            -0.17074233293533325,
            0.012602198868989944,
            0.14332255721092224,
            0.19812043011188507,
            -0.11796177923679352,
            0.019534127786755562,
            -0.0740869864821434,
            -0.02944004349410534,
            -0.06642472743988037,
            0.16857756674289703,
            0.04569045081734657,
            0.08514886349439621,
            -0.09077106416225433,
            0.07214950025081635,
            -0.10152282565832138,
            -0.07225947082042694,
            -0.1523832529783249,
            -0.1658744364976883,
            0.03674539923667908,
            -0.05877973139286041,
            -0.007384891621768475,
            0.010472533293068409,
            -0.10921096801757812,
            0.20451830327510834,
            0.04897528886795044,
            0.041977424174547195,
            -0.050114262849092484,
            0.014932818710803986,
            0.04639579728245735,
            0.05665794014930725,
            -0.0175000187009573,
            0.24266445636749268,
            0.087804414331913,
            0.011544369161128998,
            -0.0036774633917957544,
            0.027441781014204025,
            -0.1307687610387802,
            0.08625829219818115,
            0.11632297188043594,
            -0.03731183707714081,
            0.15164896845817566,
            -0.16639761626720428,
            0.03243265673518181,
            0.040298160165548325,
            -0.07416936010122299,
            -0.001375856576487422,
            0.20437952876091003,
            -0.07472959905862808,
            0.1415623277425766,
            -0.10691987723112106,
            0.06173497065901756,
            -0.05504530295729637,
        },
        {
            -0.07743369042873383,
            0.08557336777448654,
            -0.03739204257726669,
            0.06427077949047089,
            -0.024321522563695908,
            0.05633944272994995,
            0.10524892061948776,
            0.00118955597281456,
            -0.021203558892011642,
            -0.056466758251190186,
            -0.11064688116312027,
            -0.06845521926879883,
            0.045127227902412415,
            -0.04947333037853241,
            -0.07136314362287521,
            -0.019866405054926872,
            -0.01815495826303959,
            -0.10801954567432404,
            0.1606680005788803,
            0.03635600209236145,
            0.01002312172204256,
            -0.10530322045087814,
            0.07326467335224152,
            0.01768476329743862,
            -0.07272494584321976,
            -0.06376729160547256,
            -0.005022743716835976,
            -0.04217667132616043,
            0.05581040307879448,
            0.06415809690952301,
            -0.06656702607870102,
            0.11223552376031876,
            0.20119436085224152,
            0.022861985489726067,
            0.1137031689286232,
            -0.008996112272143364,
            -0.041745252907276154,
            0.0372517928481102,
            -0.0041805533692240715,
            0.11073289811611176,
            -0.009262599982321262,
            -0.1064472645521164,
            -0.15362775325775146,
            0.038136452436447144,
            0.1299138218164444,
            0.0805627629160881,
            -0.13144530355930328,
            0.02758478745818138,
            0.05120748654007912,
            0.07604561746120453,
            -0.0963122695684433,
            0.11416878551244736,
            -0.0944325178861618,
            -0.005615442059934139,
            0.1052134558558464,
            0.006988943088799715,
            0.09340900182723999,
            0.13698728382587433,
            -0.06336832046508789,
            -0.07499615103006363,
            -0.1287386268377304,
            0.04515077546238899,
            -0.03770419955253601,
            0.1633351445198059,
        },
    },
    {
        {
            -0.08276182413101196,
            -0.08602756261825562,
            0.11004602909088135,
            0.051739003509283066,
            0.028931261971592903,
            0.039132654666900635,
            0.0824446827173233,
            -0.05424804612994194,
            -0.16724584996700287,
            -0.07154504209756851,
            -0.14745357632637024,
            0.058320898562669754,
            0.04598867520689964,
            0.028392307460308075,
            0.01897733472287655,
            0.07942327111959457,
            0.0069611892104148865,
            -0.08955671638250351,
            0.016356533393263817,
            -0.0005565354367718101,
            -0.10730118304491043,
            -0.0912444144487381,
            0.006552973296493292,
            0.09459472447633743,
            -0.035959113389253616,
            0.008176998235285282,
            0.0964142382144928,
            0.057654038071632385,
            0.07958625257015228,
            0.23622775077819824,
            0.10999231040477753,
            -0.040117815136909485,
            -0.10974806547164917,
            0.0838378295302391,
            0.04359878599643707,
            -0.10751733183860779,
            -0.0641225129365921,
            0.13739517331123352,
            0.11222472786903381,
            0.030844273045659065,
            -0.07161843776702881,
            -0.07675338536500931,
            0.07511214911937714,
            0.021440299227833748,
            -0.03408311679959297,
            0.10785049945116043,
            -0.016525188460946083,
            -0.11951455473899841,
            -0.029449816793203354,
            -0.04987379536032677,
            0.01138568390160799,
            0.027911340817809105,
            0.020881695672869682,
            0.03100688010454178,
            0.007583758793771267,
            0.1372784972190857,
            0.11482696980237961,
            0.08399718254804611,
            0.010530716739594936,
            -0.14288641512393951,
            -0.0012487780768424273,
            -0.07609456777572632,
            0.05073603242635727,
            -0.04256825894117355,
        },
        {
            -0.009527985006570816,
            -0.030533039942383766,
            0.08456704020500183,
            0.09036213904619217,
            0.0852046087384224,
            0.09163057059049606,
            -0.008175700902938843,
            0.07334991544485092,
            -0.00010528057464398444,
            0.1818883866071701,
            -0.024909092113375664,
            0.07378210872411728,
            -0.14407743513584137,
            -0.06759341806173325,
            0.09473211318254471,
            -0.002142420271411538,
            0.0772860050201416,
            0.20113401114940643,
            -0.07176461815834045,
            0.103425033390522,
            -0.15163451433181763,
            0.045707348734140396,
            -0.011011161841452122,
            0.0322149284183979,
            -0.0694730207324028,
            0.023868288844823837,
            0.09570133686065674,
            -0.06798005104064941,
            0.03567853942513466,
            -0.07192179560661316,
            0.01073088962584734,
            0.01110852975398302,
            -0.04038413241505623,
            0.06257079541683197,
            -0.023087821900844574,
            0.035340696573257446,
            0.04593558609485626,
            -0.0012372004566714168,
            -0.03427565470337868,
            -0.016670040786266327,
            -0.2278335988521576,
            -0.08457280695438385,
            -0.0872434750199318,
            -0.1242443397641182,
            -0.043998003005981445,
            -0.0952685996890068,
            -0.02017229236662388,
            -0.025811756029725075,
            0.009762659668922424,
            0.10079941898584366,
            0.012567315250635147,
            -0.08937357366085052,
            -0.046236202120780945,
            -0.14995074272155762,
            -0.000975255505181849,
            0.0028397543355822563,
            0.01136163342744112,
            0.12531116604804993,
            0.04055313393473625,
            0.039788104593753815,
            0.049029238522052765,
            -0.10494998097419739,
            0.0157238207757473,
            0.027492163702845573,
        },
        {
            -0.10998036712408066,
            -0.04062099754810333,
            0.11155126988887787,
            -0.038681015372276306,
            -0.040124136954545975,
            0.010850458405911922,
            0.04709605127573013,
            0.04623357579112053,
            0.015872318297624588,
            0.07441076636314392,
            -0.01803068071603775,
            -0.08872050791978836,
            -0.007471262011677027,
            0.005701325833797455,
            -0.06886651366949081,
            0.08766969293355942,
            0.008970561437308788,
            -0.002846067538484931,
            0.019474005326628685,
            -0.02532428689301014,
            0.17966344952583313,
            -0.20874811708927155,
            0.030627628788352013,
            -0.04896404221653938,
            -0.014405216090381145,
            -0.01005952712148428,
            0.02092638611793518,
            0.03662599250674248,
            0.11372881382703781,
            0.02974887378513813,
            -0.16591864824295044,
            -0.030756764113903046,
            0.14933739602565765,
            0.07953105866909027,
            0.07187838107347488,
            -0.15125586092472076,
            -0.16149118542671204,
            0.010004738345742226,
            0.10126376897096634,
            0.04241913929581642,
            -0.11476831883192062,
            -0.09445548057556152,
            -0.030837858095765114,
            -0.007096640765666962,
            0.003653876716271043,
            0.03331293538212776,
            -0.08343570679426193,
            -0.01595414988696575,
            -0.001175240962766111,
            -0.012798243202269077,
            0.10771503299474716,
            -0.04990450292825699,
            -0.07499996572732925,
            -0.044830322265625,
            0.03724062815308571,
            -0.022319551557302475,
            0.05996441841125488,
            0.0332590714097023,
            -0.035594649612903595,
            0.024811722338199615,
            -0.07098794728517532,
            -0.013984112069010735,
            -0.01868405193090439,
            0.03809209167957306,
        },
    },
    {
        {
            0.17362713813781738,
            0.030527334660291672,
            -0.09877432137727737,
            0.1685134321451187,
            0.1122913509607315,
            -0.2606375217437744,
            0.07662633806467056,
            0.07463641464710236,
            0.26287737488746643,
            0.22821751236915588,
            0.05688915401697159,
            -0.06786296516656876,
            -0.0766879990696907,
            -0.15549103915691376,
            -0.00014624894538428634,
            0.04971173778176308,
            -0.16666090488433838,
            -0.11092120409011841,
            -0.10381703078746796,
            -0.13914628326892853,
            0.11416220664978027,
            -0.03458773344755173,
            0.18302951753139496,
            0.05355476215481758,
            -0.12563449144363403,
            -0.2004842311143875,
            -0.11329039931297302,
            -0.13989855349063873,
            0.01337412092834711,
            0.05246187746524811,
            0.13536491990089417,
            -0.22616693377494812,
            0.16078132390975952,
            0.233631432056427,
            -0.10395695269107819,
            0.03957800939679146,
            -0.10366303473711014,
            -0.044639572501182556,
            0.12334790080785751,
            -0.08685476332902908,
            0.1776922345161438,
            -0.0014401200460270047,
            -0.10723654180765152,
            -0.0452030710875988,
            0.1461603343486786,
            -0.24916914105415344,
            0.219577357172966,
            -0.1602262407541275,
            -0.16519509255886078,
            0.13321742415428162,
            0.1679898500442505,
            0.01107801590114832,
            -0.05272892862558365,
            -0.09858722239732742,
            0.19333843886852264,
            -0.06575283408164978,
            -0.18978306651115417,
            -0.16105753183364868,
            0.08728277683258057,
            -0.1654425710439682,
            0.2471514344215393,
            0.234082892537117,
            0.042666397988796234,
            -0.1276879459619522,
        },
        {
            0.1280745267868042,
            0.022581851109862328,
            0.014941062778234482,
            -0.10084909200668335,
            -0.008283537812530994,
            0.04951924830675125,
            0.06591559946537018,
            -0.02174903079867363,
            0.07603002339601517,
            -0.01284752320498228,
            0.203507199883461,
            0.06910409778356552,
            0.04978732392191887,
            0.07501328736543655,
            -0.07892102748155594,
            0.0012602716451510787,
            -0.06616043299436569,
            0.10317575931549072,
            0.01243540644645691,
            -0.07084876298904419,
            0.0036483164876699448,
            -0.0642554759979248,
            -0.0369226336479187,
            0.20786403119564056,
            0.0659058466553688,
            0.14321671426296234,
            -0.1582259237766266,
            -0.13070076704025269,
            0.06525162607431412,
            0.03671109303832054,
            0.03271022439002991,
            0.07410456240177155,
            -0.15697818994522095,
            0.03611503913998604,
            -0.11559659987688065,
            -0.021604912355542183,
            0.2860912084579468,
            -0.12709151208400726,
            0.0866774320602417,
            -0.03683847934007645,
            0.015548117458820343,
            0.07696903496980667,
            -0.023095406591892242,
            0.13066034018993378,
            0.09032085537910461,
            -0.11062996089458466,
            0.014593861997127533,
            -0.013343652710318565,
            0.018741589039564133,
            -0.010179120115935802,
            0.04162883386015892,
            0.0027760176453739405,
            0.05513272434473038,
            0.014037808403372765,
            -0.07547783851623535,
            -0.021288925781846046,
            0.04523761570453644,
            -0.029375001788139343,
            0.13516907393932343,
            0.015329031273722649,
            -0.05274112895131111,
            -0.01802702620625496,
            -0.017877310514450073,
            -0.020202232524752617,
        },
        {
            0.00488183181732893,
            -0.013015130534768105,
            0.027326731011271477,
            0.150288388133049,
            -0.058326736092567444,
            0.08620264381170273,
            0.04289759323000908,
            0.14924275875091553,
            -0.15860788524150848,
            0.01531777624040842,
            -0.12277510017156601,
            -0.041708819568157196,
            -0.028141558170318604,
            -0.1552717536687851,
            -0.05479082092642784,
            -0.035120874643325806,
            -0.008575696498155594,
            -0.02151658944785595,
            0.15606150031089783,
            0.03180330991744995,
            -0.1427876502275467,
            -0.08208736777305603,
            -0.0388779453933239,
            -0.08971666544675827,
            0.02609352022409439,
            -0.10809362679719925,
            -0.03795050084590912,
            -0.010967221111059189,
            0.09432356059551239,
            -0.0011406578123569489,
            -0.18097496032714844,
            0.04072760418057442,
            0.011626155115664005,
            0.02835010178387165,
            0.2904743552207947,
            0.06833953410387039,
            -0.013219731859862804,
            0.15213057398796082,
            0.058960575610399246,
            0.09524325281381607,
            -0.0009168885881081223,
            -0.07324743270874023,
            0.0006432824302464724,
            0.13961324095726013,
            0.15165933966636658,
            0.0668027475476265,
            0.0022768047638237476,
            -0.0987083911895752,
            -0.010693574324250221,
            -0.055496059358119965,
            0.062066271901130676,
            0.09602729231119156,
            -0.1898500770330429,
            0.1385442018508911,
            -0.08010821789503098,
            -0.07105816900730133,
            0.09412232041358948,
            0.03612631559371948,
            0.06159498915076256,
            0.1179230734705925,
            -0.03403289616107941,
            -0.02476738579571247,
            -0.04354025796055794,
            0.012421783059835434,
        },
    },
    {
        {
            -0.13606251776218414,
            -0.03179972991347313,
            -0.08333384990692139,
            -0.09022629261016846,
            0.03535696864128113,
            0.0455690361559391,
            0.07538167387247086,
            -0.1267612725496292,
            0.008292187005281448,
            0.010518922470510006,
            0.14692318439483643,
            -0.09596395492553711,
            -0.09963786602020264,
            0.05002729594707489,
            0.19811883568763733,
            0.11240725964307785,
            0.01881556399166584,
            -0.009733904153108597,
            0.04264884814620018,
            0.06372586637735367,
            0.14634956419467926,
            0.073947973549366,
            -0.06788111478090286,
            0.07187570631504059,
            -0.040912505239248276,
            0.09971024841070175,
            -0.18604035675525665,
            -0.028301002457737923,
            -0.01776788756251335,
            0.010429278947412968,
            0.04440667852759361,
            0.02338007278740406,
            -0.09140348434448242,
            -0.13632570207118988,
            -0.12519893050193787,
            0.138564333319664,
            0.10414834320545197,
            -0.10783825069665909,
            -0.08333035558462143,
            -0.2281670868396759,
            -0.08545327186584473,
            -0.04375234618782997,
            0.16292552649974823,
            -0.005071017425507307,
            0.0017305320361629128,
            -0.0044984663836658,
            -0.022199038416147232,
            0.025050511583685875,
            -0.03401533514261246,
            0.011325799860060215,
            0.04953093081712723,
            -0.12394872307777405,
            0.04075120761990547,
            -0.052816446870565414,
            -0.008879810571670532,
            -0.012888099066913128,
            -0.08146011829376221,
            0.10965507477521896,
            -0.02586488611996174,
            -0.10385056585073471,
            0.0895337238907814,
            0.0065305898897349834,
            0.08981053531169891,
            -0.07257668673992157,
        },
        {
            0.10780493915081024,
            0.16499195992946625,
            0.06606732308864594,
            -0.16518475115299225,
            -0.06511443853378296,
            0.0635647252202034,
            -0.09980276226997375,
            -0.051528654992580414,
            0.08116447180509567,
            0.08275029063224792,
            -0.022571256384253502,
            -0.02607373334467411,
            -0.15355321764945984,
            0.033394720405340195,
            -0.05838317796587944,
            0.1268012970685959,
            -0.05763271450996399,
            -0.030548976734280586,
            -0.20388048887252808,
            -0.1519496887922287,
            0.1109335720539093,
            -0.05413036048412323,
            0.0014688738156110048,
            0.008167549036443233,
            -0.060229308903217316,
            0.08216570317745209,
            -0.0574633926153183,
            -0.1325707584619522,
            0.06313616782426834,
            0.04075327888131142,
            -0.013259400613605976,
            0.06032677739858627,
            -0.028631459921598434,
            0.0663067176938057,
            -0.16104254126548767,
            0.04395965486764908,
            0.10598156601190567,
            -0.04466552659869194,
            0.050235405564308167,
            -0.11208096146583557,
            0.052548848092556,
            0.15631654858589172,
            0.12062247097492218,
            0.16239380836486816,
            -0.039448317140340805,
            -0.01842082478106022,
            -0.05878210440278053,
            -0.14871779084205627,
            -0.04973779246211052,
            0.029873298481106758,
            0.1197241023182869,
            0.002109213499352336,
            0.026914648711681366,
            0.053602609783411026,
            -0.07348369061946869,
            0.0724148154258728,
            -0.0961911678314209,
            -0.11060727387666702,
            0.09037014096975327,
            -0.09280969947576523,
            0.0812513530254364,
            -0.06368734687566757,
            0.0702766552567482,
            -0.09826689213514328,
        },
        {
            -0.07513970881700516,
            0.28340694308280945,
            -0.012227430008351803,
            -0.1124122217297554,
            0.09307164698839188,
            -0.0374763198196888,
            -0.01126459613442421,
            -0.048600804060697556,
            0.07279674708843231,
            -0.12210208177566528,
            0.04108089953660965,
            -0.010390431620180607,
            -0.11647702008485794,
            0.05438782274723053,
            0.03227762505412102,
            -0.003314391942694783,
            -0.05193951353430748,
            0.1474352329969406,
            -0.03988856077194214,
            -0.0158477034419775,
            0.08858155459165573,
            0.1413290649652481,
            0.03150719031691551,
            0.13105306029319763,
            -0.06501931697130203,
            0.023705478757619858,
            -0.027530154213309288,
            -0.07883688062429428,
            -0.08495274931192398,
            -0.11669076979160309,
            0.1581152081489563,
            -0.0020690488163381815,
            -0.0715332180261612,
            -0.132819265127182,
            -0.10853462666273117,
            0.05248194560408592,
            0.03705767169594765,
            -0.2811889052391052,
            0.05042235553264618,
            -0.2147274613380432,
            0.10674410313367844,
            0.12158723920583725,
            0.02090151235461235,
            0.06533321738243103,
            0.04804975539445877,
            -0.08731383085250854,
            0.06527849286794662,
            0.047082025557756424,
            -0.10443215072154999,
            0.09668891876935959,
            0.044265519827604294,
            -0.17784138023853302,
            -0.09925644844770432,
            -0.08916176855564117,
            0.09229061007499695,
            0.14311525225639343,
            -0.23103155195713043,
            -0.11239206790924072,
            -0.01307052094489336,
            -0.04829711839556694,
            0.1944880336523056,
            -0.055019304156303406,
            0.04891015589237213,
            0.06468790024518967,
        },
    },
    {
        {
            0.18377685546875,
            -0.04672608524560928,
            0.02062254212796688,
            0.1818682998418808,
            0.14536172151565552,
            -0.16199855506420135,
            0.01338160503655672,
            -0.11160861700773239,
            0.0823805183172226,
            0.08672448247671127,
            0.11823469400405884,
            -0.09284190833568573,
            0.0049788327887654305,
            0.1321105808019638,
            0.07949262112379074,
            -0.010958491824567318,
            -0.15018212795257568,
            -0.1560264527797699,
            -0.24916693568229675,
            -0.09472887217998505,
            0.053493160754442215,
            -0.0688558965921402,
            0.06370910257101059,
            0.03196585550904274,
            -0.22412365674972534,
            0.00025901044136844575,
            -0.07560650259256363,
            -0.12756632268428802,
            -0.14497119188308716,
            -0.05778517574071884,
            -0.0073268478736281395,
            -0.14903835952281952,
            0.10683436691761017,
            0.033111535012722015,
            -0.05180872976779938,
            0.023783018812537193,
            -0.1250615417957306,
            -0.020584003999829292,
            0.18776372075080872,
            -0.1892377883195877,
            0.055932190269231796,
            0.03355487808585167,
            -0.048472803086042404,
            0.11667325347661972,
            0.06080489233136177,
            -0.09457840770483017,
            -0.029793934896588326,
            -0.20877273380756378,
            -0.11520643532276154,
            0.053529705852270126,
            0.03362644463777542,
            -0.11882369220256805,
            0.12276630103588104,
            -0.10207123309373856,
            0.15002375841140747,
            0.10619811713695526,
            -0.14223749935626984,
            -0.10145124793052673,
            -0.0017627228517085314,
            -0.15274785459041595,
            -0.09859521687030792,
            0.024947574362158775,
            0.10184052586555481,
            -0.08027589321136475,
        },
        {
            0.005853619892150164,
            0.08108057826757431,
            0.0328863225877285,
            -0.04159821569919586,
            0.21109972894191742,
            -0.1752655953168869,
            -0.05616714060306549,
            -0.19351588189601898,
            0.06081118434667587,
            0.09801081568002701,
            0.1592598408460617,
            -0.11761923879384995,
            0.042528752237558365,
            -0.019715646281838417,
            0.001997564220800996,
            -0.06108089163899422,
            -0.1511346697807312,
            -0.02802465111017227,
            -0.10363341867923737,
            -0.0225401408970356,
            -0.043959107249975204,
            0.07891032844781876,
            0.06371625512838364,
            0.1292637288570404,
            -0.025842316448688507,
            0.02994445152580738,
            -0.007530377712100744,
            -0.04927720129489899,
            -0.05643651634454727,
            0.024134336039423943,
            0.18320238590240479,
            -0.06209927424788475,
            -0.10542681068181992,
            -0.12275926768779755,
            -0.14941327273845673,
            0.022722497582435608,
            0.06751498579978943,
            -0.13371172547340393,
            0.019083315506577492,
            -0.14048807322978973,
            0.09740759432315826,
            0.16811363399028778,
            -0.013910900801420212,
            0.08398842811584473,
            -0.11343653500080109,
            -0.11329923570156097,
            0.020946456119418144,
            -0.12665657699108124,
            0.03019094094634056,
            0.06204305589199066,
            0.15105561912059784,
            -0.08093765377998352,
            0.28858229517936707,
            -0.0878148153424263,
            0.019538534805178642,
            0.07097344100475311,
            -0.15373444557189941,
            -0.12478157877922058,
            -0.027276545763015747,
            -0.06847526878118515,
            -0.026388069614768028,
            -0.25402235984802246,
            0.1930721253156662,
            -0.15026237070560455,
        },
        {
            -0.1096322312951088,
            -0.10245256125926971,
            -0.044396672397851944,
            -0.07176332920789719,
            0.04077759385108948,
            -0.052113983780145645,
            -0.08826041966676712,
            0.004806166514754295,
            -0.05413440242409706,
            0.011329920962452888,
            -0.007268029730767012,
            -0.1342288851737976,
            0.05934526026248932,
            0.03877871483564377,
            -0.037056878209114075,
            -0.040715061128139496,
            -0.08578595519065857,
            -0.06018581986427307,
            -0.01632031798362732,
            -0.11932708323001862,
            -0.07995519042015076,
            0.05882985517382622,
            -0.06389240175485611,
            -0.04018876329064369,
            -0.2510869801044464,
            0.32420700788497925,
            -0.04831751435995102,
            0.07494344562292099,
            0.019555997103452682,
            -0.07065048068761826,
            0.12568585574626923,
            0.01826661266386509,
            -0.15220986306667328,
            -0.004691041074693203,
            -0.1602594256401062,
            -0.14292868971824646,
            0.18617740273475647,
            -0.15177203714847565,
            -0.073787622153759,
            -0.12909789383411407,
            0.07596402615308762,
            0.0740082710981369,
            0.10515512526035309,
            -0.0408162847161293,
            -0.10988010466098785,
            -0.09725534170866013,
            -0.0007220482220873237,
            0.021351579576730728,
            -0.0443369559943676,
            -0.016535243019461632,
            0.014532405883073807,
            -0.038517944514751434,
            0.005639490205794573,
            0.03182436153292656,
            -0.0903940200805664,
            0.08118479698896408,
            0.01416752114892006,
            0.027726780623197556,
            0.07427126169204712,
            -0.16758942604064941,
            0.06157992035150528,
            -0.14805521070957184,
            0.01949526183307171,
            0.017935775220394135,
        },
    },
    {
        {
            0.008156153373420238,
            -0.0008208664949052036,
            -0.03680194541811943,
            -0.05664994940161705,
            0.14194892346858978,
            -0.19918325543403625,
            -0.049149442464113235,
            -0.03928696736693382,
            0.0028014814015477896,
            0.040577176958322525,
            0.019932640716433525,
            -0.02967023476958275,
            -0.07444855570793152,
            -0.038675837218761444,
            0.002854877384379506,
            0.14534097909927368,
            0.029471823945641518,
            -0.03068995289504528,
            -0.10250835865736008,
            -0.24643366038799286,
            0.11501888185739517,
            0.10054266452789307,
            0.1158025860786438,
            0.062069524079561234,
            -0.08838500827550888,
            -0.047687895596027374,
            -0.1416865438222885,
            -0.05497419089078903,
            0.07108565419912338,
            -0.09012852609157562,
            0.03735648840665817,
            0.11214941740036011,
            0.06951962411403656,
            0.009912459179759026,
            -0.037419747561216354,
            0.15384499728679657,
            -0.09521975368261337,
            0.010344129987061024,
            0.08045888692140579,
            -0.042844027280807495,
            -0.016710486263036728,
            0.2181701362133026,
            0.18084625899791718,
            0.02622881904244423,
            0.03768709674477577,
            -0.011477265506982803,
            0.12969236075878143,
            -0.09262347966432571,
            -0.2650897800922394,
            0.07129084318876266,
            0.11482293903827667,
            0.011682840064167976,
            0.09894988685846329,
            -0.15155012905597687,
            0.03723861649632454,
            0.026496127247810364,
            -0.21965940296649933,
            0.016391674056649208,
            0.10027287155389786,
            0.03173650801181793,
            -0.052852459251880646,
            -0.18260706961154938,
            0.05224905535578728,
            -0.08557692915201187,
        },
        {
            0.19069845974445343,
            0.1067797988653183,
            -0.07493720203638077,
            -0.1243741512298584,
            0.0006486622150987387,
            -0.08118850737810135,
            -0.18059256672859192,
            -0.15276575088500977,
            -0.03421555459499359,
            0.06770884990692139,
            0.09401816129684448,
            0.05957997590303421,
            -0.07454650849103928,
            0.042906951159238815,
            0.16561146080493927,
            0.02525107003748417,
            -0.04138444364070892,
            0.12309114634990692,
            -0.04370115324854851,
            -0.044646043330430984,
            0.13893325626850128,
            0.14328718185424805,
            -0.07241129130125046,
            -0.02212669886648655,
            -0.03769317641854286,
            0.0032014944590628147,
            -0.11041060835123062,
            -0.14088505506515503,
            -0.2532201409339905,
            -0.26314038038253784,
            0.08297069370746613,
            -0.0527186244726181,
            -0.09725608676671982,
            -0.0756225436925888,
            -0.1542448103427887,
            -0.007623730227351189,
            0.11906813085079193,
            -0.0872078686952591,
            0.04994644224643707,
            -0.17252866923809052,
            0.04746782407164574,
            0.1225510910153389,
            0.04776627570390701,
            0.11029082536697388,
            0.034257955849170685,
            -0.18133854866027832,
            0.17589561641216278,
            -0.05266297236084938,
            -0.1470833420753479,
            0.07106281071901321,
            0.09679820388555527,
            -0.05546219274401665,
            0.23814937472343445,
            -0.20101651549339294,
            0.003989581950008869,
            -0.10694468021392822,
            -0.07176937162876129,
            -0.15433074533939362,
            0.11823171377182007,
            -0.10774090141057968,
            0.05903107672929764,
            -0.0655663013458252,
            0.0180323775857687,
            -0.17083899676799774,
        },
        {
            -0.010684467852115631,
            -0.07406672090291977,
            0.07153267413377762,
            -0.05094711109995842,
            0.16878773272037506,
            -0.0761830285191536,
            -0.1919616162776947,
            -0.04472427815198898,
            0.06664423644542694,
            0.1187172532081604,
            0.026333028450608253,
            0.11524064838886261,
            0.0459928996860981,
            0.19326892495155334,
            0.0857418105006218,
            0.029537849128246307,
            -0.03791014850139618,
            -0.07666339725255966,
            -0.04288819059729576,
            -0.03996514156460762,
            -0.06180598586797714,
            0.18954406678676605,
            -0.09470535814762115,
            0.0947832390666008,
            -0.09956219047307968,
            0.24553164839744568,
            0.026675712317228317,
            0.05793706327676773,
            -0.049302440136671066,
            0.018147161230444908,
            0.2358984500169754,
            -0.05345355346798897,
            -0.03196459636092186,
            -0.1453675627708435,
            -0.11509831994771957,
            0.09878187626600266,
            0.03954177349805832,
            -0.20231014490127563,
            0.01942460797727108,
            0.014937362633645535,
            -0.0020346709061414003,
            0.15758393704891205,
            0.08404531329870224,
            0.127394899725914,
            -0.06622397154569626,
            -0.06957580149173737,
            0.15219075977802277,
            -0.0311936903744936,
            -0.10743213444948196,
            -0.05228076130151749,
            0.015669401735067368,
            -0.01720861904323101,
            0.003852731781080365,
            0.028650378808379173,
            -0.06553752720355988,
            0.0017717172158882022,
            -0.009924660436809063,
            0.03943786397576332,
            -0.12430217862129211,
            -0.1142352893948555,
            0.09655554592609406,
            -0.12514033913612366,
            -0.08351241052150726,
            0.02684156410396099,
        },
    },
    {
        {
            0.08157668262720108,
            0.029401088133454323,
            -0.22606545686721802,
            -0.040775757282972336,
            -0.0551411435008049,
            0.0143657885491848,
            0.06878242641687393,
            0.048703454434871674,
            0.26213517785072327,
            0.006555161438882351,
            0.06871220469474792,
            0.037752196192741394,
            0.036977194249629974,
            -0.025957724079489708,
            0.10278894007205963,
            0.09791432321071625,
            0.07014736533164978,
            0.051426831632852554,
            -0.09849685430526733,
            -0.08882937580347061,
            0.08403963595628738,
            0.1301693469285965,
            0.03828095272183418,
            0.08668224513530731,
            -0.06806883960962296,
            -0.1426270604133606,
            -0.18865835666656494,
            -0.19965003430843353,
            -0.1334628164768219,
            -0.02335028350353241,
            0.12543857097625732,
            -0.020807938650250435,
            0.1375807374715805,
            0.0561281219124794,
            0.03435193747282028,
            0.13745658099651337,
            -0.009120038710534573,
            0.07755984365940094,
            0.16175955533981323,
            -0.08508171141147614,
            0.06845838576555252,
            0.059827711433172226,
            0.09204627573490143,
            -0.025037778541445732,
            0.13065370917320251,
            -0.02250239998102188,
            0.17254647612571716,
            -0.13455042243003845,
            0.0923621654510498,
            0.1401401162147522,
            0.1568610966205597,
            0.04349372535943985,
            -0.11782911419868469,
            -0.06126847490668297,
            0.10188150405883789,
            -0.07090309262275696,
            -0.014706116169691086,
            -0.13536901772022247,
            0.11885379254817963,
            0.025392770767211914,
            0.06427107751369476,
            0.04928154498338699,
            0.11234856396913528,
            -0.14797340333461761,
        },
        {
            -0.010857531800866127,
            -0.017919806763529778,
            -0.0825611874461174,
            0.13854891061782837,
            -0.043934665620326996,
            -0.06694655865430832,
            0.0069131143391132355,
            -0.056181441992521286,
            0.012016014195978642,
            0.13699135184288025,
            -0.030614761635661125,
            0.013538961298763752,
            0.013339966535568237,
            0.1073034256696701,
            -0.04200442135334015,
            -0.058640312403440475,
            -0.10567882657051086,
            -0.14516279101371765,
            0.03145132586359978,
            -0.0005478681996464729,
            0.06859283894300461,
            -0.0793960690498352,
            0.10533059388399124,
            0.06462188810110092,
            -0.03518618270754814,
            -0.045515693724155426,
            -0.0016026364173740149,
            -0.0825108215212822,
            0.03876122087240219,
            0.05898959934711456,
            -0.020242370665073395,
            0.11794018000364304,
            0.1414119452238083,
            0.0693427100777626,
            -0.007874692790210247,
            0.04144325852394104,
            -0.11543212085962296,
            0.033473528921604156,
            0.085220567882061,
            0.058337289839982986,
            0.0605735220015049,
            -0.05776377022266388,
            0.04950438067317009,
            0.03139583393931389,
            0.08514489233493805,
            0.0411430262029171,
            -0.033409591764211655,
            -0.03594893962144852,
            -0.03479539230465889,
            -0.039195556193590164,
            0.20007282495498657,
            -0.08025794476270676,
            -0.027201661840081215,
            -0.022249557077884674,
            0.12188446521759033,
            -0.1271803081035614,
            -0.10447902977466583,
            -0.14995454251766205,
            0.07411405444145203,
            -0.1115875318646431,
            0.04535644128918648,
            -0.10661886632442474,
            0.01207118108868599,
            0.04466531053185463,
        },
        {
            0.22504743933677673,
            0.11014571785926819,
            0.06954547017812729,
            0.04997583478689194,
            0.045390669256448746,
            0.006576601881533861,
            -0.08312909305095673,
            0.026159172877669334,
            -0.054360371083021164,
            -0.001945773488841951,
            0.007380287628620863,
            -0.02343622036278248,
            0.1106322780251503,
            -0.010854638181626797,
            -0.02910340204834938,
            0.09961146116256714,
            0.024579452350735664,
            0.08273348212242126,
            0.0677182525396347,
            0.03712010011076927,
            0.10679355263710022,
            -0.14858098328113556,
            -0.1494685560464859,
            0.05148742347955704,
            0.04246562346816063,
            -0.10531286150217056,
            -0.00130223180167377,
            0.0065413969568908215,
            0.025174330919981003,
            0.06840469688177109,
            0.040052901953458786,
            -0.07518725842237473,
            0.21043021976947784,
            0.12298110127449036,
            -0.0060072182677686214,
            0.12197006493806839,
            0.020580997690558434,
            0.11441594362258911,
            -0.02280568704009056,
            -0.02368004433810711,
            0.02073366940021515,
            -0.08090613037347794,
            0.030620625242590904,
            0.04326071962714195,
            -0.038787975907325745,
            -0.1096578985452652,
            -0.03327510505914688,
            -0.09018252789974213,
            -0.15445290505886078,
            0.08167706429958344,
            -0.08204098045825958,
            0.18084131181240082,
            -0.09682206064462662,
            -0.07401831448078156,
            -0.07224287837743759,
            0.07447263598442078,
            0.0217947568744421,
            0.02291521243751049,
            0.027367595583200455,
            0.13503104448318481,
            0.07908424735069275,
            -0.09978349506855011,
            -0.09232981503009796,
            -0.07908299565315247,
        },
    },
    {
        {
            -0.011325857602059841,
            0.09481174498796463,
            -0.1754492074251175,
            -0.08594872057437897,
            0.01174141839146614,
            0.016804590821266174,
            -0.07030640542507172,
            -0.07916530221700668,
            0.012700822204351425,
            0.12287858873605728,
            0.060749586671590805,
            -0.017852481454610825,
            0.0063205561600625515,
            -0.023402513936161995,
            -0.0408964678645134,
            0.10618675500154495,
            0.008579272776842117,
            -0.16674824059009552,
            -0.19168978929519653,
            -0.07863326370716095,
            0.060816820710897446,
            -0.0558629110455513,
            0.14169086515903473,
            -0.06962023675441742,
            0.02769296057522297,
            0.02099851332604885,
            0.03824152424931526,
            -0.11696100234985352,
            -0.12948521971702576,
            0.05061744898557663,
            0.18629638850688934,
            -0.02682192251086235,
            0.2133704423904419,
            -0.0291528832167387,
            -0.12144855409860611,
            -0.01200356986373663,
            -0.10501907020807266,
            0.0705140233039856,
            -0.03298050910234451,
            -0.10495106875896454,
            0.1537521332502365,
            -0.007391116116195917,
            -0.026897039264440536,
            0.033145226538181305,
            0.02049332484602928,
            -0.024308962747454643,
            -0.00919345486909151,
            -0.05826106294989586,
            -0.10558915883302689,
            0.06574973464012146,
            -0.007246365770697594,
            0.06317965686321259,
            0.07316479086875916,
            -0.04986436665058136,
            -0.018675725907087326,
            -0.009336203336715698,
            0.035745732486248016,
            0.050370145589113235,
            0.013183417730033398,
            -0.02325698547065258,
            -0.06872968375682831,
            0.04427998140454292,
            -0.026411904022097588,
            -0.21378153562545776,
        },
        {
            0.09337609261274338,
            0.055509377270936966,
            0.16995753347873688,
            0.11574333161115646,
            0.01883792132139206,
            0.019318629056215286,
            -0.11011040955781937,
            -0.055105868726968765,
            -0.05654257535934448,
            0.07280398905277252,
            0.0750737339258194,
            -0.14540930092334747,
            -0.0832359716296196,
            -0.06889278441667557,
            0.06261228770017624,
            -0.06468399614095688,
            -0.01500778365880251,
            -0.07755590975284576,
            0.037516336888074875,
            -0.019627073779702187,
            -0.012095529586076736,
            0.1701900213956833,
            0.26744645833969116,
            0.20130597054958344,
            -0.003608717117458582,
            0.1828787475824356,
            0.014363015070557594,
            0.08050345629453659,
            -0.08266790211200714,
            -0.11957856267690659,
            -0.13604247570037842,
            -0.012340919114649296,
            -0.013326874934136868,
            -0.03150966763496399,
            -0.007198620121926069,
            -0.04230206087231636,
            0.04226060211658478,
            0.043722283095121384,
            -0.04783114790916443,
            -0.04446352645754814,
            0.02359798736870289,
            -0.042987074702978134,
            0.11800077557563782,
            0.06921602785587311,
            -0.08253369480371475,
            -0.008168326690793037,
            0.05014020949602127,
            0.04510125890374184,
            0.0070770434103906155,
            0.10602521896362305,
            0.04815834388136864,
            -0.05415371060371399,
            0.04991975054144859,
            0.06675892323255539,
            -0.07734382897615433,
            0.07127983868122101,
            0.06350792199373245,
            -0.026339324191212654,
            0.03617924079298973,
            0.06412798911333084,
            0.06983429938554764,
            0.03890587389469147,
            -0.07551765441894531,
            -0.07640521228313446,
        },
        {
            -0.016504041850566864,
            -0.039899419993162155,
            -0.03137784078717232,
            0.13202916085720062,
            -0.04357486218214035,
            0.03158506751060486,
            -0.007792250253260136,
            -0.01783641427755356,
            -0.21576502919197083,
            -0.1545446217060089,
            -0.07360821962356567,
            -0.11199087649583817,
            -0.10734635591506958,
            -0.054389387369155884,
            -0.10514860600233078,
            -0.07066794484853745,
            0.036411140114068985,
            -0.047676533460617065,
            0.06298073381185532,
            0.024719880893826485,
            -0.01045632641762495,
            0.02108311839401722,
            0.06762856245040894,
            -0.13435038924217224,
            0.15194544196128845,
            -0.10866984724998474,
            0.00257174763828516,
            -0.028121883049607277,
            0.22154444456100464,
            0.12381613254547119,
            -0.10070861130952835,
            0.062298957258462906,
            0.08453682065010071,
            0.01898450031876564,
            -0.003930666018277407,
            0.009219085797667503,
            -0.0597853884100914,
            -0.09264476597309113,
            -0.20008519291877747,
            -0.02293180301785469,
            -0.20274899899959564,
            -0.06243244931101799,
            0.02760736271739006,
            -0.024411719292402267,
            -0.16726870834827423,
            0.05450483411550522,
            0.04951714724302292,
            -0.08208148181438446,
            0.09178949147462845,
            -0.07241553068161011,
            -0.04811135306954384,
            -0.08692162483930588,
            -0.13653965294361115,
            -0.07224711030721664,
            -0.22715677320957184,
            0.09786302596330643,
            0.07440287619829178,
            0.1467924267053604,
            -0.07102005183696747,
            0.0938567966222763,
            -0.0987713485956192,
            0.06206083670258522,
            -0.17926807701587677,
            0.049160201102495193,
        },
    },
    {
        {
            -0.0849003791809082,
            -0.11243602633476257,
            0.1917276382446289,
            0.05440780147910118,
            -0.18194006383419037,
            0.06153305619955063,
            0.07214704155921936,
            0.04340946674346924,
            -0.11268355697393417,
            -0.15957705676555634,
            -0.2602391242980957,
            -0.024347573518753052,
            0.0967356488108635,
            -0.060130368918180466,
            0.049110252410173416,
            -0.06629366427659988,
            -0.08192897588014603,
            -0.045395221561193466,
            -0.009635341353714466,
            0.04886889085173607,
            -0.26511386036872864,
            -0.026584502309560776,
            -0.09430909156799316,
            -0.18297143280506134,
            -0.02162283845245838,
            -0.06546206027269363,
            -0.03582357242703438,
            0.1307918280363083,
            0.29892081022262573,
            -0.01985589787364006,
            -0.1505059003829956,
            0.07573601603507996,
            0.03370237350463867,
            0.011469591408967972,
            0.13496816158294678,
            -0.2059863954782486,
            0.09409566968679428,
            0.085443876683712,
            -0.05880765989422798,
            0.09821915626525879,
            -0.1499931663274765,
            0.055159322917461395,
            -0.020365305244922638,
            -0.12627708911895752,
            -0.10434920340776443,
            0.23251457512378693,
            -0.07918071001768112,
            0.026077887043356895,
            0.07198673486709595,
            -0.22604116797447205,
            -0.04550023004412651,
            0.0704149454832077,
            -0.11780841648578644,
            0.031369030475616455,
            -0.025520846247673035,
            -0.08626655489206314,
            0.10770024359226227,
            0.06248403713107109,
            -0.18719466030597687,
            0.08628327399492264,
            -0.21286413073539734,
            0.05103671923279762,
            -0.036152008920907974,
            0.028314856812357903,
        },
        {
            0.14102934300899506,
            0.08952658623456955,
            0.05546662211418152,
            -0.11570756882429123,
            -0.0005700268084183335,
            -0.12597082555294037,
            -0.019324785098433495,
            -0.16830964386463165,
            0.26919564604759216,
            0.2978196442127228,
            0.1546352356672287,
            -0.061419740319252014,
            -0.0750458762049675,
            0.04008509963750839,
            0.13596181571483612,
            -0.030569495633244514,
            -0.1003284752368927,
            -0.11732330173254013,
            0.021150711923837662,
            -0.02664993144571781,
            0.21551421284675598,
            0.25991007685661316,
            0.010767904110252857,
            0.08816394954919815,
            -0.06824134290218353,
            0.04906920716166496,
            -0.19518058001995087,
            -0.0810716450214386,
            0.015649043023586273,
            -0.02459273487329483,
            0.18408183753490448,
            -0.20587292313575745,
            -0.03323012590408325,
            -0.07843553274869919,
            -0.12767358124256134,
            0.13809768855571747,
            0.030330752953886986,
            0.006734016351401806,
            0.08088372647762299,
            -0.10624835640192032,
            0.13368800282478333,
            0.17518086731433868,
            0.12636832892894745,
            0.01673644781112671,
            0.059917811304330826,
            -0.02814318984746933,
            0.07564938068389893,
            -0.17093588411808014,
            -0.06627937406301498,
            0.12535279989242554,
            0.16454415023326874,
            -0.16466166079044342,
            0.1399269998073578,
            -0.22989684343338013,
            0.008023520931601524,
            0.05361439660191536,
            -0.24870090186595917,
            -0.04933526739478111,
            0.11052543669939041,
            -0.17917931079864502,
            0.09123319387435913,
            -0.22799259424209595,
            0.18985234200954437,
            -0.1801677644252777,
        },
        {
            0.005819995887577534,
            0.06745828688144684,
            0.015416090376675129,
            -0.10294190794229507,
            0.005101805552840233,
            -0.07319696247577667,
            -0.14229722321033478,
            0.019971614703536034,
            0.07433975487947464,
            0.07537711411714554,
            -0.01698867417871952,
            -0.07270600646734238,
            -0.024506837129592896,
            0.09784138202667236,
            0.02116050012409687,
            -0.044345878064632416,
            0.07844183593988419,
            0.1314495950937271,
            0.06998231261968613,
            0.055396560579538345,
            0.02883494459092617,
            0.037869684398174286,
            -0.08055435866117477,
            -0.02184663899242878,
            0.018763111904263496,
            0.04147552326321602,
            -0.21327674388885498,
            -0.18449895083904266,
            -0.06887901574373245,
            -0.08738250285387039,
            0.08003561198711395,
            -0.03391070291399956,
            -0.06348226219415665,
            -0.02433423325419426,
            -0.16070355474948883,
            0.09575920552015305,
            0.1398751586675644,
            -0.0851532444357872,
            0.010989855043590069,
            -0.056109506636857986,
            -0.028987951576709747,
            -0.08364629745483398,
            -0.02792663499712944,
            0.00040395453106611967,
            0.02943721041083336,
            0.1648484170436859,
            0.11554555594921112,
            0.0025731604546308517,
            0.04163169115781784,
            0.1085503026843071,
            0.05785743147134781,
            -0.1096309944987297,
            0.02712257206439972,
            -0.11110391467809677,
            -0.1135222539305687,
            0.18596644699573517,
            -0.08412586152553558,
            -0.01563395746052265,
            0.08087985217571259,
            -0.008569728583097458,
            0.042839862406253815,
            -0.04790759086608887,
            -0.035167302936315536,
            -0.05003437399864197,
        },
    },
    {
        {
            0.0036697830073535442,
            0.09686698764562607,
            0.21914072334766388,
            -0.059609200805425644,
            -0.10221460461616516,
            -0.006524023599922657,
            0.07978809624910355,
            0.03425918519496918,
            -0.2071605771780014,
            -0.04913712665438652,
            -0.16051091253757477,
            -0.001467907684855163,
            -0.044937919825315475,
            0.13192547857761383,
            -0.10075382888317108,
            0.0330817736685276,
            -0.1166544184088707,
            -0.04671018570661545,
            -0.032683756202459335,
            0.010542657226324081,
            -0.23050616681575775,
            0.0168379507958889,
            -0.04996266961097717,
            -0.16412289440631866,
            0.08786308765411377,
            -0.040890321135520935,
            -0.024872783571481705,
            0.14817775785923004,
            0.19485723972320557,
            0.14979049563407898,
            -0.20526500046253204,
            0.06272407621145248,
            0.03196939826011658,
            -0.06508862972259521,
            -0.07103195041418076,
            -0.11193718761205673,
            -0.007003492210060358,
            0.020764777436852455,
            -0.033190369606018066,
            0.1276630163192749,
            0.0018858161056414247,
            -0.035799019038677216,
            0.07590070366859436,
            -0.01571122743189335,
            -0.14140351116657257,
            0.16203366219997406,
            -0.26185840368270874,
            0.05717278644442558,
            0.03686317801475525,
            -0.06609558314085007,
            -0.15863603353500366,
            0.016246598213911057,
            0.10905678570270538,
            0.040295835584402084,
            -0.016685573384165764,
            -0.0053185936994850636,
            0.2151528000831604,
            -0.010104276239871979,
            -0.18951593339443207,
            0.04541612043976784,
            0.03290688991546631,
            -0.03996909782290459,
            -0.037803150713443756,
            0.07491958141326904,
        },
        {
            0.163412943482399,
            0.01290822308510542,
            -0.052749212831258774,
            -0.035401273518800735,
            0.05971237272024155,
            -0.13222306966781616,
            -0.06547701358795166,
            -0.051921017467975616,
            0.15863880515098572,
            0.076148122549057,
            0.16272151470184326,
            -0.06371378153562546,
            0.0019199205562472343,
            0.11355126649141312,
            0.17667214572429657,
            0.021353941410779953,
            -0.09994073212146759,
            -0.17325638234615326,
            0.05975773185491562,
            -0.0762302353978157,
            0.04395535960793495,
            0.1229022666811943,
            -0.005854528862982988,
            0.028432825580239296,
            -0.05740370228886604,
            0.2123364806175232,
            -0.05324561893939972,
            -0.12630611658096313,
            -0.11898533999919891,
            -0.16827382147312164,
            0.010646738111972809,
            -0.14488883316516876,
            0.09287978708744049,
            -0.04079495370388031,
            -0.15895310044288635,
            0.16858959197998047,
            -0.09474533796310425,
            -0.13993588089942932,
            0.09841212630271912,
            -0.14955933392047882,
            0.034788668155670166,
            0.2129516899585724,
            0.03999140113592148,
            0.022997861728072166,
            0.05309516191482544,
            -0.2955133020877838,
            0.07068769633769989,
            -0.1181349828839302,
            -0.05287347361445427,
            0.1859143227338791,
            0.20188240706920624,
            -0.10733526200056076,
            0.11646723747253418,
            -0.06451620906591415,
            0.09376612305641174,
            0.10184339433908463,
            -0.15586674213409424,
            -0.12801367044448853,
            0.15472911298274994,
            -0.05287984013557434,
            0.14415228366851807,
            -0.00019908402464352548,
            0.09781835973262787,
            -0.06445803493261337,
        },
        {
            0.1055544763803482,
            0.03904189541935921,
            -0.003359816037118435,
            -0.0435822457075119,
            0.1887361705303192,
            -0.04041498526930809,
            -0.12075313180685043,
            0.050087276846170425,
            0.08821804821491241,
            0.0969114899635315,
            0.0844515711069107,
            -0.06348110735416412,
            -0.01046773511916399,
            0.15589863061904907,
            0.21904167532920837,
            0.04288637265563011,
            -0.016194524243474007,
            0.1449882537126541,
            -0.014664066024124622,
            -0.08380160480737686,
            0.07871955633163452,
            0.13768427073955536,
            -0.08444777131080627,
            -0.10689248889684677,
            -0.006176297087222338,
            0.16808927059173584,
            0.06810484826564789,
            -0.10606358200311661,
            0.02461615949869156,
            -0.07654858380556107,
            0.08747275173664093,
            -0.16546112298965454,
            -0.12483363598585129,
            -0.07476487010717392,
            -0.024735482409596443,
            0.033350057899951935,
            0.11128414422273636,
            -0.11915302276611328,
            -0.02667084150016308,
            0.12619554996490479,
            -0.01138374488800764,
            0.20072205364704132,
            0.12492358684539795,
            -0.026994982734322548,
            0.008260098285973072,
            -0.1968957632780075,
            0.1280764639377594,
            -0.060991156846284866,
            -0.08967702090740204,
            -0.004597912542521954,
            -0.08930489420890808,
            -0.11043461412191391,
            -0.0272348765283823,
            -0.04157445952296257,
            -0.10176967829465866,
            0.04656023159623146,
            -0.04299207776784897,
            -0.026580313220620155,
            0.015343951992690563,
            -0.16713586449623108,
            -0.06176319345831871,
            -0.05956277623772621,
            0.010501309297978878,
            -0.012758145108819008,
        },
    },
    {
        {
            -0.014141803607344627,
            0.0466068871319294,
            -0.013003883883357048,
            -0.02276097796857357,
            -0.026452934369444847,
            -0.02922602742910385,
            0.032628513872623444,
            0.00811694748699665,
            -0.023799169808626175,
            -0.07396413385868073,
            -0.006053733639419079,
            -0.1093459501862526,
            0.06907370686531067,
            0.17357487976551056,
            -0.028689522296190262,
            0.08664512634277344,
            -0.14146387577056885,
            -0.08885158598423004,
            -0.001279213116504252,
            0.009823787957429886,
            -0.04316705837845802,
            0.07533148676156998,
            -0.0788123607635498,
            0.20680652558803558,
            0.09176651388406754,
            0.0774843841791153,
            -0.024420535191893578,
            -0.01531400065869093,
            -0.14116816222667694,
            -0.04472637549042702,
            -0.08777440339326859,
            0.055778149515390396,
            -0.0022965283133089542,
            0.09583672136068344,
            -0.11412648111581802,
            -0.013615582138299942,
            0.03964618220925331,
            -0.08344878256320953,
            0.14417247474193573,
            -0.10529975593090057,
            0.010833592154085636,
            -0.01111472025513649,
            -0.010256613604724407,
            -0.06730028986930847,
            0.06445568054914474,
            -0.05685365945100784,
            0.17165690660476685,
            -0.22260740399360657,
            -0.09434721618890762,
            0.14597201347351074,
            0.18690262734889984,
            0.018558328971266747,
            0.01687493547797203,
            -0.08948630839586258,
