const float q_bidirectional_1_gru_backward_bias[64][3] = {
    {
        -0.03760113567113876,
        -0.07208935916423798,
        0.01886693760752678,
    },
    {
        0.015702638775110245,
        -0.05792180821299553,
        0.006723605562001467,
    },
    {
        0.08382471650838852,
        -0.06651690602302551,
        -0.005082154646515846,
    },
    {
        -0.03610043227672577,
        -0.06827172636985779,
        0.0008985003805719316,
    },
    {
        0.10295740514993668,
        -0.0517796166241169,
        -0.014142606407403946,
    },
    {
        0.027983451262116432,
        -0.0626186802983284,
        -0.04454605281352997,
    },
    {
        0.021216612309217453,
        -0.029743965715169907,
        0.01966005377471447,
    },
    {
        0.0820431336760521,
        -0.09081968665122986,
        0.014423822052776814,
    },
    {
        -0.010090639814734459,
        -0.024075394496321678,
        -0.05467037856578827,
    },
    {
        0.01894308812916279,
        -0.05295659601688385,
        -0.027577217668294907,
    },
    {
        0.03878646343946457,
        -0.05352364480495453,
        -0.008072218857705593,
    },
    {
        0.01820794679224491,
        -0.07270196080207825,
        0.005184448789805174,
    },
    {
        0.04704137146472931,
        -0.009369672276079655,
        -0.012370968237519264,
    },
    {
        0.02113247662782669,
        -0.011414796113967896,
        -0.02045423537492752,
    },
    {
        0.09927373379468918,
        -0.04724729806184769,
        -0.008895586244761944,
    },
    {
        -0.051840320229530334,
        -0.11298023909330368,
        -0.0003098860615864396,
    },
    {
        -0.011243900284171104,
        0.01597273163497448,
        -0.0020740232430398464,
    },
    {
        0.05380328744649887,
        -0.14093764126300812,
        0.008803456090390682,
    },
    {
        0.023961786180734634,
        -0.02897680178284645,
        -0.0012352579506114125,
    },
    {
        0.08014404773712158,
        -0.0837516263127327,
        -0.013029000721871853,
    },
    {
        0.06882835179567337,
        -0.026016978546977043,
        -0.019039951264858246,
    },
    {
        0.024133794009685516,
        -0.06172443553805351,
        -0.0037851298693567514,
    },
    {
        0.018322397023439407,
        -0.0886264368891716,
        -0.006953070871531963,
    },
    {
        0.05128222703933716,
        -0.14884363114833832,
        -0.019269278272986412,
    },
    {
        0.017919739708304405,
        -0.08548040688037872,
        -0.02469252608716488,
    },
    {
        0.06278431415557861,
        -0.0884561836719513,
        -0.02247008867561817,
    },
    {
        0.04988781362771988,
        -0.0731862410902977,
        -0.0066386000253260136,
    },
    {
        0.17342129349708557,
        -0.10229852050542831,
        -0.03634459152817726,
    },
    {
        0.197513148188591,
        -0.0239394698292017,
        -0.03711326792836189,
    },
    {
        0.013824067078530788,
        -0.09160380810499191,
        0.008262252435088158,
    },
    {
        0.013889092020690441,
        -0.06037973612546921,
        0.04558191075921059,
    },
    {
        0.07674898952245712,
        -0.07846873998641968,
        -0.014492364600300789,
    },
    {
        8.202215394703671e-05,
        -0.09568125754594803,
        -0.006085168104618788,
    },
    {
        0.15478362143039703,
        -0.06684807687997818,
        0.02164989709854126,
    },
    {
        0.04742276296019554,
        -0.1291472464799881,
        -0.024877291172742844,
    },
    {
        0.023367920890450478,
        -0.025940531864762306,
        0.012486383318901062,
    },
    {
        0.07058902829885483,
        -0.040014877915382385,
        -0.04161807522177696,
    },
    {
        0.05899472162127495,
        -0.0779639184474945,
        0.011215722188353539,
    },
    {
        0.023701971396803856,
        -0.014960437081754208,
        -0.0039462735876441,
    },
    {
        0.006975957658141851,
        0.005931990686804056,
        0.019849024713039398,
    },
    {
        0.05397804081439972,
        -0.05218975245952606,
        -0.01586773432791233,
    },
    {
        -0.023198725655674934,
        -0.049679070711135864,
        0.02318362332880497,
    },
    {
        0.04989584535360336,
        -0.05531786382198334,
        0.0015301774255931377,
    },
    {
        0.0811493843793869,
        -0.09493067115545273,
        -0.019352581351995468,
    },
    {
        -0.020251980051398277,
        -0.05986888334155083,
        0.0024504954926669598,
    },
    {
        0.017147032544016838,
        0.005684970412403345,
        0.010941026732325554,
    },
    {
        0.017678139731287956,
        -0.048679664731025696,
        -0.02840578928589821,
    },
    {
        0.04405135288834572,
        -0.12520034611225128,
        -0.01985592395067215,
    },
    {
        0.12857185304164886,
        -0.12478575110435486,
        -0.007554369512945414,
    },
    {
        0.056194938719272614,
        -0.04057818278670311,
        -0.006197798997163773,
    },
    {
        0.0009097319561988115,
        -0.028374478220939636,
        -0.00870143249630928,
    },
    {
        0.0069135138764977455,
        -0.056144025176763535,
        0.014974141493439674,
    },
    {
        0.07294599711894989,
        -0.05229870229959488,
        -0.006986661814153194,
    },
    {
        0.12988118827342987,
        -0.08493632078170776,
        0.0018757282523438334,
    },
    {
        0.0686555802822113,
        -0.08193156868219376,
        -0.009666171856224537,
    },
    {
        0.16706347465515137,
        -0.055419620126485825,
        0.016076890751719475,
    },
    {
        0.07661131769418716,
        -0.03773464635014534,
        0.013817433267831802,
    },
    {
        0.02562791481614113,
        -0.057458892464637756,
        0.0036079727578908205,
    },
    {
        -0.002469915198162198,
        -0.047055330127477646,
        -0.016253115609288216,
    },
    {
        0.05616629123687744,
        -0.05214075744152069,
        0.01632249541580677,
    },
    {
        -0.005170854274183512,
        -0.034086503088474274,
        -0.003584526712074876,
    },
    {
        0.0409352071583271,
        0.019527768716216087,
        -0.007867969572544098,
    },
    {
        0.051959678530693054,
        -0.1150636374950409,
        -0.0006811360362917185,
    },
    {
        -0.004183697979897261,
        -0.04683801904320717,
        -0.002864166395738721,
    },
};
