const float q_bidirectional_gru_forward_bias[64][3] = {
    {
        0.06289296597242355,
        0.06480865925550461,
        -0.03853629156947136,
    },
    {
        0.06180126592516899,
        -0.01067989133298397,
        -0.022465981543064117,
    },
    {
        0.10160551965236664,
        -0.04912707209587097,
        -0.01492988783866167,
    },
    {
        0.09039940685033798,
        -0.04639318957924843,
        -0.02534417249262333,
    },
    {
        0.12047883123159409,
        -0.037112046033144,
        0.023799072951078415,
    },
    {
        0.12255367636680603,
        -0.04045610502362251,
        0.01410320308059454,
    },
    {
        0.08265700936317444,
        -0.00816079881042242,
        -0.002378451405093074,
    },
    {
        0.08895596116781235,
        -0.004929275251924992,
        0.0771496593952179,
    },
    {
        0.1317046582698822,
        0.004932263866066933,
        -0.0139867989346385,
    },
    {
        0.10556352883577347,
        -0.023647861555218697,
        -0.0036042232532054186,
    },
    {
        0.12537342309951782,
        -0.0072434465400874615,
        0.004383374936878681,
    },
    {
        0.12775801122188568,
        0.03296683356165886,
        -0.024788370355963707,
    },
    {
        0.07754059880971909,
        -0.010061370208859444,
        0.010876492597162724,
    },
    {
        0.08604221045970917,
        -0.04449808597564697,
        0.018189966678619385,
    },
    {
        0.09320737421512604,
        -0.035798799246549606,
        0.0037052249535918236,
    },
    {
        0.06213536858558655,
        -0.03481239452958107,
        0.039674364030361176,
    },
    {
        0.0826449990272522,
        -0.010985438711941242,
        0.0016656749648973346,
    },
    {
        0.06501148641109467,
        0.032482173293828964,
        -0.023975765332579613,
    },
    {
        0.07761568576097488,
        0.04123774915933609,
        -0.004115402232855558,
    },
    {
        0.10329419374465942,
        -0.031599197536706924,
        0.02488104999065399,
    },
    {
        0.11337903141975403,
        -0.05580711364746094,
        -0.0067641339264810085,
    },
    {
        0.08563821017742157,
        -0.018682699650526047,
        -0.013828028924763203,
    },
    {
        0.11106099933385849,
        -0.012665451504290104,
        0.01679076813161373,
    },
    {
        0.04928869009017944,
        -0.03336092829704285,
        0.002387100597843528,
    },
    {
        0.10258302092552185,
        0.0161438025534153,
        -0.030722517520189285,
    },
    {
        0.09479830414056778,
        0.006144818849861622,
        -0.025696096941828728,
    },
    {
        0.11387428641319275,
        0.003202766412869096,
        0.02755560167133808,
    },
    {
        0.13160620629787445,
        -0.01974881999194622,
        0.02298799157142639,
    },
    {
        0.11975482106208801,
        0.019991718232631683,
        0.01792982593178749,
    },
    {
        0.1272478550672531,
        -0.01832479238510132,
        -0.019182100892066956,
    },
    {
        0.10351208597421646,
        0.051507558673620224,
        -0.0034703626297414303,
    },
    {
        0.11377798765897751,
        -0.0345841608941555,
        -0.04250415787100792,
    },
    {
        0.1315990537405014,
        -0.009153767488896847,
        -0.007189601194113493,
    },
    {
        0.09325237572193146,
        -0.03395283222198486,
        0.019483767449855804,
    },
    {
        0.07621271163225174,
        0.0036387622822076082,
        0.011285819113254547,
    },
    {
        0.091366708278656,
        -0.0055906930938363075,
        0.020007915794849396,
    },
    {
        0.03752141073346138,
        -0.04954448342323303,
        0.04363998398184776,
    },
    {
        0.10086939483880997,
        0.03033427894115448,
        -0.01912795938551426,
    },
    {
        0.08425895869731903,
        -0.048561204224824905,
        0.0034794623497873545,
    },
    {
        0.09111570566892624,
        0.03695913404226303,
        0.03044068068265915,
    },
    {
        0.10027482360601425,
        0.0057619730941951275,
        0.03458380699157715,
    },
    {
        0.056478794664144516,
        -0.01746896654367447,
        -0.03218388557434082,
    },
    {
        0.13449212908744812,
        -0.03200965374708176,
        0.01846548169851303,
    },
    {
        0.0863289162516594,
        0.022944355383515358,
        -0.018636569380760193,
    },
    {
        0.08554034680128098,
        0.02707047201693058,
        -0.006745326332747936,
    },
    {
        0.09090014547109604,
        -0.01775399222970009,
        -0.03795066103339195,
    },
    {
        0.11980291455984116,
        -0.06312256306409836,
        -0.0029450212605297565,
    },
    {
        0.0672307163476944,
        -0.04830235615372658,
        0.044232144951820374,
    },
    {
        0.07400016486644745,
        0.04554890841245651,
        0.010798550210893154,
    },
    {
        0.10064518451690674,
        -0.019408680498600006,
        0.003165958682075143,
    },
    {
        0.07566208392381668,
        -0.003946574404835701,
        -0.014035302214324474,
    },
    {
        0.059018708765506744,
        0.05546904727816582,
        0.005949550773948431,
    },
    {
        0.10931810736656189,
        -0.022687740623950958,
        0.030710671097040176,
    },
    {
        0.12521377205848694,
        0.03937873989343643,
        0.026775922626256943,
    },
    {
        0.09444393962621689,
        -0.03602595627307892,
        -0.025167981162667274,
    },
    {
        0.13158224523067474,
        0.01299809105694294,
        0.007143969181925058,
    },
    {
        0.11070616543292999,
        0.004473621491342783,
        0.033140890300273895,
    },
    {
        0.0943477600812912,
        -0.029805507510900497,
        -0.0005994188832119107,
    },
    {
        0.1136179193854332,
        0.024708526208996773,
        -0.030914247035980225,
    },
    {
        0.1330050230026245,
        -0.03213686868548393,
        0.0003333256463520229,
    },
    {
        0.10000653564929962,
        -0.007289563771337271,
        -0.03703390434384346,
    },
    {
        0.041395802050828934,
        -0.02433212287724018,
        0.01133528258651495,
    },
    {
        0.10495670139789581,
        -0.042811743915081024,
        -0.017095841467380524,
    },
    {
        0.10867089033126831,
        -0.0439387746155262,
        0.00027740385849028826,
    },
};
