const float q_bidirectional_gru_backward_bias_recurrent[64][3] = {
    {
        0.021372748538851738,
        0.0517733097076416,
        0.054292213171720505,
    },
    {
        0.15101878345012665,
        0.055999401956796646,
        -0.0073386505246162415,
    },
    {
        -0.054648254066705704,
        0.045935895293951035,
        -0.032353006303310394,
    },
    {
        0.03886118158698082,
        0.03563246876001358,
        -0.003823047736659646,
    },
    {
        0.16905444860458374,
        0.043064504861831665,
        -0.05308062955737114,
    },
    {
        0.015620904974639416,
        0.04971148073673248,
        -0.02384110726416111,
    },
    {
        -0.05398762598633766,
        0.00335291656665504,
        -0.02977975830435753,
    },
    {
        0.06243078410625458,
        0.06893756985664368,
        -0.019218895584344864,
    },
    {
        0.0017973441863432527,
        -0.00722893700003624,
        0.012629291974008083,
    },
    {
        0.025796810165047646,
        0.06062658131122589,
        0.03141465783119202,
    },
    {
        -0.004982999991625547,
        0.021763499826192856,
        0.025187283754348755,
    },
    {
        -0.025759657844901085,
        0.03457849845290184,
        -0.06865252554416656,
    },
    {
        0.08563406765460968,
        0.08096455037593842,
        -0.13619285821914673,
    },
    {
        0.08498330414295197,
        -0.008632412180304527,
        0.012137984856963158,
    },
    {
        0.017590275034308434,
        0.04246906936168671,
        0.03153003379702568,
    },
    {
        -0.004584589507430792,
        0.035445064306259155,
        -0.02199864387512207,
    },
    {
        0.027678189799189568,
        0.06682179123163223,
        -0.02757912315428257,
    },
    {
        -0.09895489364862442,
        0.0575980469584465,
        0.020398495718836784,
    },
    {
        -0.006715948693454266,
        -0.010444407351315022,
        -0.004675570409744978,
    },
    {
        0.15964974462985992,
        0.09482719004154205,
        -0.02022375538945198,
    },
    {
        -0.0009289918816648424,
        0.08378735184669495,
        0.06493623554706573,
    },
    {
        6.776992086088285e-05,
        0.08538203686475754,
        0.05314860865473747,
    },
    {
        -0.018493952229619026,
        -0.01079606544226408,
        0.01170042809098959,
    },
    {
        0.011360404081642628,
        0.0680704414844513,
        -0.006828319281339645,
    },
    {
        -0.004246293567121029,
        0.12356320023536682,
        0.003103715367615223,
    },
    {
        -0.03061944805085659,
        0.01861024647951126,
        0.02460530400276184,
    },
    {
        0.039690736681222916,
        0.0815051794052124,
        0.012608414515852928,
    },
    {
        -0.015992704778909683,
        -0.010583645664155483,
        -0.021161764860153198,
    },
    {
        0.05684608221054077,
        0.11248230934143066,
        -0.017112668603658676,
    },
    {
        0.00874571967869997,
        0.05433126538991928,
        0.0003065813798457384,
    },
    {
        -0.03060172311961651,
        0.03326599672436714,
        0.040723029524087906,
    },
    {
        0.01884084939956665,
        0.06094888597726822,
        0.03606024757027626,
    },
    {
        -0.033233027905225754,
        0.09617907553911209,
        0.036359794437885284,
    },
    {
        0.1493479609489441,
        0.024662407115101814,
        0.10145258158445358,
    },
    {
        0.09943156689405441,
        0.07043053209781647,
        0.05389731004834175,
    },
    {
        -0.04885321110486984,
        0.04536372423171997,
        -0.018011171370744705,
    },
    {
        0.02276335284113884,
        -0.045214857906103134,
        -0.012895746156573296,
    },
    {
        0.030238177627325058,
        0.08955809473991394,
        0.0813484787940979,
    },
    {
        0.0038267341442406178,
        0.05088112875819206,
        0.004131393041461706,
    },
    {
        -0.07246232032775879,
        -0.010107302106916904,
        0.032912369817495346,
    },
    {
        0.0890970379114151,
        0.06495168805122375,
        -0.04191000759601593,
    },
    {
        0.00046110484981909394,
        0.06948019564151764,
        0.023244135081768036,
    },
    {
        -0.03818969801068306,
        -0.004572741221636534,
        0.03585502877831459,
    },
    {
        -0.01611078903079033,
        0.06454828381538391,
        -0.019876988604664803,
    },
    {
        -0.030259842053055763,
        -0.0026775572914630175,
        0.034919850528240204,
    },
    {
        0.034381620585918427,
        0.023938624188303947,
        0.01197508629411459,
    },
    {
        0.1692032814025879,
        0.07988489419221878,
        -0.034272413700819016,
    },
    {
        0.002723591635003686,
        0.023976055905222893,
        -0.040905967354774475,
    },
    {
        0.04314738139510155,
        0.09934519976377487,
        0.050723299384117126,
    },
    {
        0.0770627036690712,
        -0.004008724354207516,
        -0.018073532730340958,
    },
    {
        0.08589141815900803,
        0.04523118585348129,
        0.01143308263272047,
    },
    {
        0.12209576368331909,
        0.10663506388664246,
        -0.007613754831254482,
    },
    {
        0.034129414707422256,
        0.09431395679712296,
        -0.015075706876814365,
    },
    {
        0.2156968116760254,
        0.10989169031381607,
        -0.028353966772556305,
    },
    {
        0.1233825534582138,
        0.10810156911611557,
        0.021237753331661224,
    },
    {
        0.0023878864012658596,
        0.0947863757610321,
        -0.04871876537799835,
    },
    {
        0.048314813524484634,
        0.04054195433855057,
        0.0766838863492012,
    },
    {
        -0.023363688960671425,
        0.044339779764413834,
        0.023390905931591988,
    },
    {
        0.013054480776190758,
        0.014676036313176155,
        -0.04529102146625519,
    },
    {
        -0.07182856649160385,
        0.1044394001364708,
        0.03632345050573349,
    },
    {
        -0.03897250071167946,
        -0.001893654465675354,
        -0.007977551780641079,
    },
    {
        -0.014296121895313263,
        0.05781925469636917,
        -0.04361620172858238,
    },
    {
        -0.07582072168588638,
        0.021144870668649673,
        -0.01023525558412075,
    },
    {
        0.007152143865823746,
        -0.015304339118301868,
        -0.03856294974684715,
    },
};
