const float q_bidirectional_1_gru_backward_bias_recurrent[64][3] = {
    {
        -0.03760113567113876,
        -0.07208935916423798,
        0.021044565364718437,
    },
    {
        0.015702638775110245,
        -0.05792180821299553,
        0.02007787674665451,
    },
    {
        0.08382471650838852,
        -0.06651690602302551,
        0.00993224885314703,
    },
    {
        -0.03610043227672577,
        -0.06827172636985779,
        -0.011018319055438042,
    },
    {
        0.10295740514993668,
        -0.0517796166241169,
        -0.009494617581367493,
    },
    {
        0.027983451262116432,
        -0.0626186802983284,
        -0.03295755758881569,
    },
    {
        0.021216612309217453,
        -0.029743965715169907,
        0.0290630292147398,
    },
    {
        0.0820431336760521,
        -0.09081968665122986,
        0.009398963302373886,
    },
    {
        -0.010090639814734459,
        -0.024075394496321678,
        -0.036426544189453125,
    },
    {
        0.01894308812916279,
        -0.05295659601688385,
        -0.0024763711262494326,
    },
    {
        0.03878646343946457,
        -0.05352364480495453,
        -0.015374223701655865,
    },
    {
        0.01820794679224491,
        -0.07270196080207825,
        0.01153287198394537,
    },
    {
        0.04704137146472931,
        -0.009369672276079655,
        -0.00944577343761921,
    },
    {
        0.02113247662782669,
        -0.011414796113967896,
        -0.012186676263809204,
    },
    {
        0.09927373379468918,
        -0.04724729806184769,
        -0.0012688819551840425,
    },
    {
        -0.051840320229530334,
        -0.11298023909330368,
        0.008308111689984798,
    },
    {
        -0.011243900284171104,
        0.01597273163497448,
        0.009767611511051655,
    },
    {
        0.05380328744649887,
        -0.14093764126300812,
        0.00887476745992899,
    },
    {
        0.023961786180734634,
        -0.02897680178284645,
        -0.015801597386598587,
    },
    {
        0.08014404773712158,
        -0.0837516263127327,
        -0.004312236327677965,
    },
    {
        0.06882835179567337,
        -0.026016978546977043,
        -0.014886894263327122,
    },
    {
        0.024133794009685516,
        -0.06172443553805351,
        0.002067428780719638,
    },
    {
        0.018322397023439407,
        -0.0886264368891716,
        0.00487635750323534,
    },
    {
        0.05128222703933716,
        -0.14884363114833832,
        -0.038821879774332047,
    },
    {
        0.017919739708304405,
        -0.08548040688037872,
        -0.043340858072042465,
    },
    {
        0.06278431415557861,
        -0.0884561836719513,
        -0.009646203368902206,
    },
    {
        0.04988781362771988,
        -0.0731862410902977,
        -0.005142658948898315,
    },
    {
        0.17342129349708557,
        -0.10229852050542831,
        -0.02648037299513817,
    },
    {
        0.197513148188591,
        -0.0239394698292017,
        -0.09376102685928345,
    },
    {
        0.013824067078530788,
        -0.09160380810499191,
        -0.00549780810251832,
    },
    {
        0.013889092020690441,
        -0.06037973612546921,
        0.032034993171691895,
    },
    {
        0.07674898952245712,
        -0.07846873998641968,
        -0.03197407349944115,
    },
    {
        8.202215394703671e-05,
        -0.09568125754594803,
        -0.020251017063856125,
    },
    {
        0.15478362143039703,
        -0.06684807687997818,
        0.019418980926275253,
    },
    {
        0.04742276296019554,
        -0.1291472464799881,
        -0.02429102174937725,
    },
    {
        0.023367920890450478,
        -0.025940531864762306,
        0.012913521379232407,
    },
    {
        0.07058902829885483,
        -0.040014877915382385,
        -0.024948539212346077,
    },
    {
        0.05899472162127495,
        -0.0779639184474945,
        0.007786545902490616,
    },
    {
        0.023701971396803856,
        -0.014960437081754208,
        -0.0062293196097016335,
    },
    {
        0.006975957658141851,
        0.005931990686804056,
        0.01958773285150528,
    },
    {
        0.05397804081439972,
        -0.05218975245952606,
        -0.01207706518471241,
    },
    {
        -0.023198725655674934,
        -0.049679070711135864,
        0.018199186772108078,
    },
    {
        0.04989584535360336,
        -0.05531786382198334,
        -0.0053890906274318695,
    },
    {
        0.0811493843793869,
        -0.09493067115545273,
        -0.04172726348042488,
    },
    {
        -0.020251980051398277,
        -0.05986888334155083,
        0.006892513949424028,
    },
    {
        0.017147032544016838,
        0.005684970412403345,
        0.01784977689385414,
    },
    {
        0.017678139731287956,
        -0.048679664731025696,
        -0.02513534016907215,
    },
    {
        0.04405135288834572,
        -0.12520034611225128,
        -0.025104859843850136,
    },
    {
        0.12857185304164886,
        -0.12478575110435486,
        -0.028739308938384056,
    },
    {
        0.056194938719272614,
        -0.04057818278670311,
        0.006638640537858009,
    },
    {
        0.0009097319561988115,
        -0.028374478220939636,
        0.0011373269371688366,
    },
    {
        0.0069135138764977455,
        -0.056144025176763535,
        0.009747120551764965,
    },
    {
        0.07294599711894989,
        -0.05229870229959488,
        0.007441251538693905,
    },
    {
        0.12988118827342987,
        -0.08493632078170776,
        -0.02337365411221981,
    },
    {
        0.0686555802822113,
        -0.08193156868219376,
        -0.02013224922120571,
    },
    {
        0.16706347465515137,
        -0.055419620126485825,
        0.016290001571178436,
    },
    {
        0.07661131769418716,
        -0.03773464635014534,
        0.005278037860989571,
    },
    {
        0.02562791481614113,
        -0.057458892464637756,
        0.003193311393260956,
    },
    {
        -0.002469915198162198,
        -0.047055330127477646,
        0.0012429294874891639,
    },
    {
        0.05616629123687744,
        -0.05214075744152069,
        -0.0015633896691724658,
    },
    {
        -0.005170854274183512,
        -0.034086503088474274,
        0.005035328213125467,
    },
    {
        0.0409352071583271,
        0.019527768716216087,
        0.007033820264041424,
    },
    {
        0.051959678530693054,
        -0.1150636374950409,
        0.006820295937359333,
    },
    {
        -0.004183697979897261,
        -0.04683801904320717,
        0.003593720030039549,
    },
};
