const float q_bidirectional_gru_backward_recurrent_kernel[64][3][64] = {
    {
        {
            0.03125,
            0.0,
            -0.0625,
            -0.0625,
            0.0,
            0.0625,
            0.0625,
            0.0625,
            0.03125,
            0.0625,
            -0.03125,
            -0.09375,
            -0.0625,
            0.0,
            0.03125,
            -0.03125,
            -0.0625,
            -0.0625,
            0.03125,
            0.03125,
            0.03125,
            0.125,
            -0.09375,
            0.03125,
            -0.15625,
            0.0625,
            -0.0625,
            0.15625,
            -0.03125,
            0.0,
            0.0,
            0.09375,
            0.09375,
            0.0625,
            -0.125,
            -0.0625,
            0.03125,
            -0.09375,
            -0.0625,
            0.0,
            -0.1875,
            -0.03125,
            0.0,
            0.0625,
            -0.09375,
            0.09375,
            -0.03125,
            -0.03125,
            0.03125,
            -0.03125,
            -0.09375,
            0.0625,
            -0.09375,
            -0.0625,
            -0.0625,
            -0.0625,
            0.09375,
            -0.0625,
            -0.0625,
            0.0625,
            0.09375,
            -0.03125,
            -0.03125,
            0.0,
        },
        {
            0.03125,
            -0.09375,
            -0.0625,
            0.0,
            0.09375,
            0.0,
            -0.03125,
            -0.03125,
            -0.03125,
            0.09375,
            0.03125,
            -0.03125,
            0.03125,
            -0.09375,
            0.125,
            -0.0625,
            -0.03125,
            -0.15625,
            0.03125,
            -0.03125,
            -0.125,
            0.09375,
            0.0,
            -0.0625,
            0.125,
            0.0,
            0.0625,
            0.03125,
            0.09375,
            0.0,
            -0.03125,
            0.09375,
            0.03125,
            -0.0625,
            0.09375,
            0.0625,
            -0.09375,
            -0.21875,
            0.0,
            0.0625,
            -0.03125,
            0.0625,
            0.09375,
            0.09375,
            0.03125,
            0.0625,
            0.09375,
            -0.0625,
            -0.03125,
            -0.03125,
            -0.0625,
            0.0,
            0.15625,
            0.0,
            0.0,
            -0.09375,
            -0.03125,
            0.03125,
            -0.09375,
            0.0,
            -0.03125,
            -0.03125,
            0.09375,
            -0.09375,
        },
        {
            0.0,
            0.1875,
            -0.0625,
            -0.0625,
            -0.03125,
            0.03125,
            -0.0625,
            -0.09375,
            -0.09375,
            0.03125,
            0.03125,
            0.03125,
            0.0,
            0.0,
            0.0,
            0.0625,
            0.03125,
            -0.09375,
            0.09375,
            -0.15625,
            0.09375,
            -0.09375,
            0.0625,
            0.0625,
            -0.03125,
            -0.1875,
            -0.125,
            0.125,
            0.0,
            0.0,
            -0.03125,
            -0.0625,
            -0.0625,
            -0.03125,
            0.03125,
            0.0625,
            0.0,
            -0.03125,
            0.0625,
            -0.03125,
            -0.09375,
            0.0625,
            0.0625,
            -0.09375,
            0.03125,
            0.09375,
            0.125,
            -0.09375,
            -0.09375,
            -0.0625,
            -0.03125,
            0.0,
            0.0,
            -0.1875,
            0.0625,
            -0.15625,
            0.03125,
            -0.03125,
            -0.09375,
            0.09375,
            -0.09375,
            -0.03125,
            -0.03125,
            -0.0625,
        },
    },
    {
        {
            0.03125,
            -0.0625,
            0.0625,
            -0.03125,
            -0.15625,
            0.21875,
            0.03125,
            0.0625,
            -0.0625,
            -0.0625,
            0.09375,
            -0.0625,
            0.03125,
            -0.03125,
            -0.03125,
            -0.09375,
            0.0,
            -0.09375,
            0.03125,
            0.03125,
            0.03125,
            -0.09375,
            0.03125,
            -0.0625,
            0.15625,
            -0.09375,
            -0.0625,
            0.09375,
            -0.09375,
            -0.03125,
            0.09375,
            -0.03125,
            0.0,
            -0.03125,
            0.09375,
            0.125,
            0.09375,
            -0.03125,
            0.0,
            0.09375,
            0.0625,
            0.0625,
            0.0,
            0.0,
            -0.03125,
            0.03125,
            0.03125,
            0.03125,
            0.0625,
            0.09375,
            0.0,
            0.0,
            0.03125,
            0.0,
            0.03125,
            -0.0625,
            0.15625,
            -0.125,
            -0.09375,
            -0.125,
            0.03125,
            0.0625,
            -0.03125,
            0.09375,
        },
        {
            -0.0625,
            0.09375,
            -0.15625,
            0.03125,
            0.09375,
            -0.03125,
            0.0,
            -0.03125,
            -0.125,
            -0.03125,
            0.0,
            -0.0625,
            0.09375,
            0.0,
            0.09375,
            -0.125,
            0.03125,
            0.03125,
            0.0,
            -0.03125,
            -0.0625,
            0.0625,
            0.125,
            -0.03125,
            0.0625,
            -0.03125,
            -0.0625,
            -0.0625,
            0.0625,
            0.03125,
            0.15625,
            0.0625,
            -0.15625,
            -0.0625,
            -0.03125,
            0.0625,
            -0.03125,
            0.0625,
            0.0,
            0.03125,
            0.0625,
            -0.03125,
            0.09375,
            0.03125,
            -0.03125,
            0.0,
            -0.125,
            -0.03125,
            -0.03125,
            0.03125,
            0.03125,
            -0.03125,
            -0.21875,
            -0.15625,
            0.03125,
            0.0,
            0.03125,
            -0.0625,
            0.0625,
            -0.09375,
            0.03125,
            0.03125,
            -0.09375,
            0.0625,
        },
        {
            0.046875,
            0.046875,
            0.078125,
            -0.0625,
            0.109375,
            0.03125,
            -0.0625,
            0.03125,
            -0.03125,
            -0.046875,
            -0.03125,
            0.015625,
            0.046875,
            0.046875,
            0.078125,
            0.0,
            0.078125,
            -0.078125,
            -0.046875,
            0.015625,
            0.03125,
            0.078125,
            -0.03125,
            0.03125,
            -0.078125,
            0.0625,
            0.0625,
            0.109375,
            -0.015625,
            0.046875,
            0.0625,
            0.0625,
            0.046875,
            0.015625,
            0.0625,
            0.109375,
            -0.03125,
            0.078125,
            0.09375,
            0.0,
            -0.109375,
            0.0,
            0.0,
            -0.03125,
            -0.03125,
            0.015625,
            0.015625,
            -0.03125,
            -0.015625,
            -0.09375,
            0.078125,
            0.015625,
            -0.046875,
            -0.046875,
            -0.046875,
            -0.109375,
            -0.015625,
            0.0,
            -0.0625,
            -0.109375,
            0.03125,
            0.109375,
            0.046875,
            0.03125,
        },
    },
    {
        {
            -0.15625,
            0.0625,
            -0.09375,
            0.125,
            0.125,
            0.0625,
            -0.03125,
            -0.03125,
            -0.15625,
            0.09375,
            0.03125,
            0.03125,
            0.03125,
            0.03125,
            0.0625,
            0.0625,
            -0.0625,
            0.03125,
            -0.125,
            -0.0625,
            -0.0625,
            -0.03125,
            0.0,
            0.0,
            -0.0625,
            0.0,
            0.0,
            0.0,
            -0.15625,
            -0.09375,
            -0.0625,
            0.0,
            0.0625,
            0.09375,
            0.125,
            0.0,
            0.03125,
            0.03125,
            -0.15625,
            0.0,
            -0.03125,
            0.03125,
            0.0625,
            -0.125,
            0.1875,
            0.125,
            -0.03125,
            -0.03125,
            0.0625,
            0.03125,
            0.03125,
            0.0,
            -0.15625,
            -0.0625,
            0.125,
            -0.09375,
            0.0,
            0.0625,
            0.03125,
            0.15625,
            0.0625,
            0.15625,
            -0.09375,
            0.0,
        },
        {
            -0.0625,
            -0.0625,
            0.0,
            0.0625,
            -0.09375,
            -0.15625,
            0.0,
            0.03125,
            0.0625,
            0.0,
            0.03125,
            0.03125,
            -0.03125,
            0.09375,
            0.0,
            0.0625,
            0.0,
            0.09375,
            -0.03125,
            -0.03125,
            -0.0625,
            0.0625,
            0.03125,
            -0.125,
            0.0,
            -0.03125,
            -0.1875,
            -0.03125,
            0.0625,
            -0.0625,
            0.0,
            0.09375,
            0.15625,
            0.0,
            0.0625,
            -0.03125,
            0.03125,
            -0.03125,
            0.09375,
            0.125,
            -0.09375,
            0.0,
            0.0625,
            -0.03125,
            0.0,
            0.125,
            0.03125,
            -0.0625,
            0.03125,
            -0.125,
            0.0625,
            0.0,
            -0.03125,
            -0.0625,
            -0.15625,
            0.125,
            0.0,
            0.0,
            -0.125,
            0.09375,
            0.0625,
            -0.03125,
            -0.0625,
            -0.03125,
        },
        {
            -0.09375,
            0.03125,
            0.03125,
            -0.0625,
            0.0,
            -0.03125,
            0.03125,
            -0.03125,
            0.03125,
            0.0,
            0.0625,
            0.03125,
            -0.03125,
            0.09375,
            0.0625,
            0.0625,
            -0.03125,
            -0.03125,
            0.0,
            -0.03125,
            0.0,
            -0.03125,
            0.03125,
            -0.0625,
            0.15625,
            0.125,
            -0.0625,
            0.03125,
            0.0625,
            0.09375,
            0.0625,
            -0.0625,
            0.09375,
            -0.03125,
            0.0,
            -0.1875,
            0.03125,
            0.125,
            0.09375,
            -0.03125,
            0.0,
            0.0,
            -0.03125,
            0.125,
            0.0,
            0.0625,
            0.0,
            0.09375,
            0.0,
            -0.21875,
            -0.03125,
            -0.03125,
            0.09375,
            -0.03125,
            0.0625,
            0.03125,
            -0.09375,
            0.0,
            -0.09375,
            0.03125,
            -0.03125,
            0.09375,
            0.0,
            0.0,
        },
    },
    {
        {
            0.09375,
            0.0625,
            0.0,
            0.125,
            0.09375,
            -0.0625,
            0.0,
            0.0625,
            0.0625,
            -0.03125,
            -0.09375,
            0.0,
            -0.125,
            0.0,
            0.125,
            0.0,
            0.0625,
            -0.09375,
            -0.03125,
            0.0,
            0.03125,
            0.03125,
            -0.03125,
            -0.125,
            -0.0625,
            0.03125,
            -0.0625,
            0.0625,
            0.03125,
            -0.0625,
            0.03125,
            0.03125,
            -0.09375,
            0.0,
            0.0625,
            0.0625,
            0.0,
            -0.0625,
            0.0,
            0.09375,
            0.15625,
            0.0,
            -0.09375,
            -0.0625,
            0.0,
            -0.09375,
            0.125,
            0.0625,
            -0.03125,
            -0.03125,
            0.03125,
            0.0625,
            0.0,
            0.0,
            0.03125,
            -0.09375,
            -0.15625,
            -0.03125,
            -0.0625,
            0.0,
            0.03125,
            0.03125,
            -0.09375,
            0.03125,
        },
        {
            -0.03125,
            0.0,
            0.0,
            0.0,
            -0.03125,
            -0.0625,
            -0.09375,
            0.03125,
            0.0,
            -0.109375,
            0.046875,
            0.109375,
            0.0625,
            0.0,
            -0.09375,
            -0.0625,
            -0.078125,
            -0.0625,
            0.0,
            -0.0625,
            -0.09375,
            -0.0625,
            -0.078125,
            -0.109375,
            0.015625,
            0.03125,
            0.09375,
            -0.03125,
            0.03125,
            0.046875,
            0.0,
            0.0,
            0.0625,
            0.046875,
            -0.109375,
            0.09375,
            -0.109375,
            -0.09375,
            0.0,
            -0.03125,
            0.03125,
            -0.09375,
            -0.046875,
            -0.078125,
            0.0,
            -0.046875,
            -0.046875,
            0.078125,
            0.0,
            0.03125,
            -0.109375,
            0.015625,
            -0.015625,
            0.09375,
            0.046875,
            -0.109375,
            -0.09375,
            -0.046875,
            -0.03125,
            -0.109375,
            -0.109375,
            0.03125,
            0.0625,
            -0.03125,
        },
        {
            0.03125,
            0.0625,
            -0.125,
            -0.09375,
            -0.03125,
            0.09375,
            0.125,
            0.03125,
            0.09375,
            -0.0625,
            0.09375,
            0.0,
            -0.0625,
            -0.125,
            0.0625,
            0.0625,
            -0.03125,
            0.0,
            0.0,
            0.15625,
            0.0,
            0.03125,
            0.03125,
            -0.125,
            0.0625,
            0.21875,
            -0.03125,
            0.03125,
            -0.09375,
            0.0,
            0.0,
            0.0,
            0.125,
            0.0625,
            -0.03125,
            -0.0625,
            0.0,
            0.125,
            0.03125,
            0.03125,
            -0.09375,
            0.0625,
            0.0625,
            -0.15625,
            0.0625,
            0.03125,
            0.0,
            0.03125,
            0.0625,
            0.03125,
            0.0,
            0.0,
            -0.09375,
            -0.03125,
            -0.03125,
            -0.0625,
            -0.0625,
            0.0625,
            0.09375,
            0.0,
            0.0625,
            0.125,
            0.09375,
            0.03125,
        },
    },
    {
        {
            0.03125,
            -0.09375,
            -0.03125,
            0.0625,
            0.0,
            0.15625,
            0.0625,
            -0.0625,
            -0.03125,
            -0.09375,
            0.0,
            0.0625,
            0.0625,
            -0.03125,
            0.0,
            0.125,
            0.0625,
            0.0,
            0.0625,
            0.0,
            0.0625,
            0.0625,
            0.03125,
            0.0,
            -0.0625,
            -0.0625,
            0.0,
            -0.125,
            0.0625,
            0.0625,
            0.15625,
            0.0625,
            0.03125,
            -0.03125,
            0.0,
            0.125,
            0.03125,
            0.125,
            -0.03125,
            0.03125,
            0.15625,
            -0.0625,
            -0.0625,
            0.03125,
            0.03125,
            0.15625,
            -0.03125,
            0.09375,
            0.0,
            -0.03125,
            0.0625,
            -0.0625,
            -0.125,
            0.125,
            0.0,
            0.0,
            0.0,
            0.09375,
            -0.1875,
            0.0625,
            0.0625,
            0.03125,
            0.0,
            0.0,
        },
        {
            0.03125,
            -0.09375,
            0.03125,
            -0.15625,
            0.03125,
            -0.0625,
            0.03125,
            0.09375,
            -0.03125,
            0.0,
            0.0,
            0.125,
            -0.03125,
            0.03125,
            0.0,
            -0.03125,
            -0.03125,
            0.03125,
            -0.0625,
            -0.03125,
            0.0625,
            0.03125,
            -0.09375,
            -0.15625,
            -0.09375,
            -0.03125,
            0.0625,
            -0.09375,
            -0.0625,
            -0.0625,
            -0.125,
            0.03125,
            -0.09375,
            -0.03125,
            0.1875,
            0.0,
            -0.03125,
            0.0625,
            0.0,
            -0.0625,
            -0.15625,
            -0.03125,
            -0.03125,
            -0.03125,
            0.0,
            -0.09375,
            0.125,
            0.0,
            0.03125,
            -0.09375,
            -0.09375,
            0.0,
            0.0,
            -0.0625,
            0.03125,
            -0.03125,
            -0.0625,
            -0.03125,
            0.03125,
            0.0,
            0.0625,
            0.1875,
            0.09375,
            0.03125,
        },
        {
            -0.03125,
            -0.03125,
            0.15625,
            0.0625,
            0.03125,
            -0.03125,
            0.0625,
            -0.03125,
            0.0,
            0.0,
            -0.0625,
            -0.03125,
            -0.0625,
            0.03125,
            -0.09375,
            0.09375,
            -0.0625,
            -0.03125,
            -0.09375,
            0.0,
            0.0625,
            0.0,
            0.0,
            -0.09375,
            -0.03125,
            0.03125,
            -0.0625,
            0.0625,
            -0.0625,
            0.21875,
            -0.03125,
            -0.03125,
            -0.0625,
            -0.125,
            0.0625,
            0.125,
            -0.03125,
            0.0,
            -0.125,
            0.03125,
            -0.03125,
            -0.0625,
            0.09375,
            0.03125,
            -0.125,
            -0.03125,
            0.0,
            -0.09375,
            0.0625,
            0.03125,
            -0.09375,
            0.0,
            -0.0625,
            0.03125,
            0.0625,
            0.09375,
            0.0625,
            0.0,
            0.0,
            -0.09375,
            0.125,
            0.03125,
            0.03125,
            0.0,
        },
    },
    {
        {
            -0.1875,
            0.0,
            -0.03125,
            -0.0625,
            0.0625,
            -0.0625,
            0.09375,
            0.03125,
            0.03125,
            0.125,
            -0.09375,
            0.0625,
            -0.03125,
            0.0,
            -0.09375,
            -0.0625,
            -0.03125,
            -0.09375,
            0.0,
            0.03125,
            0.03125,
            0.0625,
            -0.09375,
            0.09375,
            0.125,
            -0.03125,
            0.0,
            -0.125,
            -0.09375,
            0.03125,
            0.03125,
            0.03125,
            -0.0625,
            -0.0625,
            -0.15625,
            0.0,
            0.0625,
            -0.09375,
            0.09375,
            0.09375,
            -0.03125,
            0.0625,
            0.0625,
            -0.09375,
            -0.03125,
            0.03125,
            0.03125,
            0.1875,
            0.03125,
            0.03125,
            -0.03125,
            -0.03125,
            -0.0625,
            -0.0625,
            0.0625,
            0.1875,
            0.0,
            0.0,
            0.03125,
            -0.0625,
            -0.03125,
            0.0,
            0.0625,
            -0.03125,
        },
        {
            -0.09375,
            0.03125,
            0.09375,
            -0.125,
            0.03125,
            0.0625,
            -0.03125,
            0.03125,
            -0.03125,
            0.03125,
            -0.15625,
            -0.0625,
            -0.09375,
            -0.09375,
            0.15625,
            -0.125,
            0.125,
            -0.03125,
            -0.0625,
            0.0625,
            0.0,
            0.03125,
            0.0,
            -0.03125,
            -0.125,
            0.03125,
            -0.15625,
            -0.0625,
            0.03125,
            0.0,
            0.125,
            0.0,
            0.03125,
            -0.0625,
            -0.125,
            0.03125,
            0.0,
            -0.09375,
            0.0625,
            -0.03125,
            -0.03125,
            0.0,
            0.03125,
            0.0,
            -0.0625,
            -0.03125,
            -0.03125,
            -0.15625,
            -0.0625,
            0.0,
            -0.0625,
            -0.03125,
            0.09375,
            0.03125,
            0.09375,
            -0.0625,
            -0.0625,
            0.03125,
            -0.125,
            0.0625,
            -0.0625,
            -0.0625,
            0.09375,
            -0.03125,
        },
        {
            -0.09375,
            -0.09375,
            -0.0625,
            0.03125,
            0.0625,
            0.0,
            -0.03125,
            -0.03125,
            -0.03125,
            0.09375,
            0.03125,
            0.03125,
            -0.0625,
            -0.09375,
            -0.125,
            0.03125,
            -0.0625,
            -0.0625,
            -0.125,
            0.0,
            0.0,
            -0.03125,
            0.0625,
            0.03125,
            0.03125,
            -0.0625,
            0.0,
            0.0,
            -0.0625,
            -0.1875,
            0.09375,
            0.09375,
            0.03125,
            -0.15625,
            -0.03125,
            -0.03125,
            -0.03125,
            -0.0625,
            0.21875,
            -0.0625,
            0.09375,
            -0.0625,
            -0.0625,
            0.09375,
            -0.09375,
            0.125,
            -0.0625,
            -0.03125,
            0.125,
            0.0625,
            0.0,
            0.09375,
            0.125,
            -0.03125,
            -0.125,
            0.0625,
            0.09375,
            -0.03125,
            -0.0625,
            -0.0625,
            0.03125,
            0.03125,
            -0.09375,
            -0.0625,
        },
    },
    {
        {
            -0.03125,
            0.09375,
            0.0625,
            0.0,
            -0.03125,
            0.0625,
            -0.125,
            0.15625,
            -0.0625,
            -0.03125,
            0.0,
            0.0625,
            0.03125,
            0.03125,
            -0.09375,
            0.0,
            0.09375,
            -0.03125,
            0.0625,
            0.0,
            0.0,
            0.03125,
            -0.03125,
            -0.0625,
            0.03125,
            -0.125,
            -0.0625,
            0.03125,
            0.09375,
            -0.0625,
            0.125,
            0.03125,
            -0.03125,
            -0.0625,
            -0.09375,
            -0.03125,
            0.03125,
            -0.03125,
            -0.09375,
            -0.09375,
            -0.0625,
            0.0625,
            -0.03125,
            0.0,
            0.0625,
            0.0,
            0.0625,
            -0.09375,
            -0.03125,
            0.0,
            0.03125,
            0.03125,
            -0.09375,
            0.03125,
            0.03125,
            0.15625,
            0.03125,
            0.0625,
            0.0,
            0.0625,
            -0.0625,
            0.0,
            0.03125,
            -0.03125,
        },
        {
            -0.03125,
            -0.015625,
            -0.109375,
            0.015625,
            -0.109375,
            0.0,
            -0.0625,
            -0.078125,
            0.0625,
            0.109375,
            0.109375,
            0.015625,
            -0.03125,
            0.0,
            0.0,
            0.015625,
            0.109375,
            0.015625,
            0.0,
            0.0625,
            -0.046875,
            -0.109375,
            0.109375,
            0.09375,
            -0.03125,
            -0.09375,
            -0.109375,
            -0.078125,
            0.0,
            0.015625,
            0.09375,
            -0.046875,
            -0.109375,
            0.109375,
            0.109375,
            -0.03125,
            0.046875,
            -0.078125,
            -0.03125,
            0.09375,
            -0.09375,
            0.0,
            -0.09375,
            0.0625,
            -0.0625,
            0.015625,
            -0.109375,
            -0.03125,
            -0.015625,
            -0.0625,
            0.09375,
            0.03125,
            0.0,
            0.046875,
            0.03125,
            -0.046875,
            -0.109375,
            -0.015625,
            0.078125,
            -0.03125,
            0.03125,
            0.03125,
            0.015625,
            0.078125,
        },
        {
            0.0625,
            0.09375,
            -0.15625,
            0.03125,
            0.03125,
            0.0,
            0.03125,
            -0.03125,
            0.03125,
            0.09375,
            0.0625,
            0.09375,
            -0.125,
            -0.1875,
            -0.09375,
            -0.03125,
            -0.09375,
            0.03125,
            0.03125,
            0.03125,
            0.03125,
            -0.03125,
            0.09375,
            0.0,
            0.0625,
            -0.03125,
            -0.09375,
            0.0,
            0.03125,
            0.0625,
            -0.0625,
            0.0625,
            0.09375,
            0.0625,
            0.0,
            -0.03125,
            0.0625,
            -0.09375,
            -0.09375,
            0.0,
            0.0625,
            -0.0625,
            -0.09375,
            0.03125,
            -0.0625,
            0.0,
            0.0,
            0.0625,
            0.0625,
            -0.03125,
            -0.21875,
            0.0,
            0.0,
            0.15625,
            0.0,
            0.03125,
            0.0625,
            0.1875,
            -0.03125,
            0.0625,
            0.15625,
            -0.03125,
            0.03125,
            0.0,
        },
    },
    {
        {
            -0.03125,
            -0.0625,
            -0.09375,
            -0.03125,
            0.09375,
            0.03125,
            -0.03125,
            0.0625,
            0.03125,
            0.03125,
            0.09375,
            0.09375,
            0.0,
            -0.03125,
            -0.125,
            -0.125,
            0.03125,
            0.03125,
            -0.15625,
            -0.0625,
            -0.0625,
            0.0625,
            -0.09375,
            -0.03125,
            -0.03125,
            0.0,
            0.03125,
            0.0625,
            0.0,
            0.125,
            -0.0625,
            0.09375,
            -0.125,
            0.125,
            -0.03125,
            -0.03125,
            -0.03125,
            -0.09375,
            -0.0625,
            0.0,
            0.125,
            0.09375,
            0.21875,
            0.03125,
            -0.03125,
            -0.125,
            0.09375,
            0.0,
            -0.09375,
            -0.125,
            -0.03125,
            -0.09375,
            -0.03125,
            -0.03125,
            -0.09375,
            -0.09375,
            0.09375,
            0.03125,
            -0.09375,
            -0.03125,
            0.0,
            0.03125,
            0.03125,
            0.09375,
        },
        {
            -0.125,
            0.125,
            0.125,
            0.15625,
            0.03125,
            0.03125,
            0.03125,
            0.09375,
            -0.0625,
            -0.0625,
            0.0,
            0.0,
            0.03125,
            -0.03125,
            0.0,
            -0.09375,
            -0.09375,
            0.0,
            0.03125,
            -0.03125,
            0.0,
            0.0,
            -0.15625,
            0.0,
            -0.09375,
            0.09375,
            -0.03125,
            -0.0625,
            0.0,
            0.125,
            -0.03125,
            0.03125,
            0.0,
            0.09375,
            0.09375,
            -0.03125,
            -0.0625,
            -0.0625,
            0.125,
            -0.03125,
            0.0,
            0.0625,
            0.0,
            -0.0625,
            0.0,
            0.125,
            -0.03125,
            -0.03125,
            0.0625,
            0.125,
            0.15625,
            -0.03125,
            0.03125,
            0.0,
            0.03125,
            -0.03125,
            0.0,
            -0.0625,
            0.0,
            0.09375,
            0.03125,
            -0.03125,
            -0.09375,
            -0.0625,
        },
        {
            0.09375,
            0.0,
            0.0625,
            -0.125,
            0.0625,
            0.0,
            0.0,
            -0.03125,
            0.03125,
            0.0,
            -0.0625,
            -0.09375,
            0.0625,
            -0.03125,
            0.0,
            0.0,
            -0.125,
            -0.0625,
            -0.0625,
            0.15625,
            0.0,
            0.0,
            -0.0625,
            -0.0625,
            0.125,
            -0.125,
            -0.0625,
            0.0625,
            0.0,
            0.0,
            0.0,
            0.0625,
            -0.125,
            0.09375,
            -0.03125,
            0.03125,
            0.09375,
            0.0,
            0.09375,
            0.03125,
            -0.0625,
            0.0,
            -0.09375,
            0.09375,
            0.0625,
            -0.09375,
            -0.21875,
            -0.03125,
            0.03125,
            -0.125,
            0.125,
            -0.1875,
            0.03125,
            0.125,
            -0.03125,
            -0.0625,
            0.03125,
            0.03125,
            0.09375,
            -0.0625,
            -0.09375,
            0.09375,
            0.0,
            -0.03125,
        },
    },
    {
        {
            -0.0625,
            -0.03125,
            -0.03125,
            -0.03125,
            -0.15625,
            0.03125,
            -0.0625,
            0.09375,
            0.125,
            0.0,
            0.03125,
            -0.03125,
            0.03125,
            -0.0625,
            0.0,
            -0.03125,
            -0.15625,
            0.125,
            0.03125,
            -0.0625,
            0.0625,
            0.09375,
            0.03125,
            0.0,
            0.125,
            0.0,
            0.15625,
            0.0625,
            -0.0625,
            0.03125,
            -0.03125,
            -0.03125,
            -0.0625,
            -0.21875,
            -0.0625,
            0.125,
            -0.09375,
            -0.0625,
            -0.09375,
            0.0625,
            0.0625,
            0.0,
            -0.03125,
            0.03125,
            0.09375,
            -0.03125,
            -0.0625,
            -0.09375,
            -0.0625,
            0.03125,
            0.125,
            0.03125,
            -0.03125,
            -0.03125,
            0.0,
            0.0,
            0.0,
            -0.03125,
            -0.0625,
            0.125,
            0.0625,
            0.0,
            0.09375,
            -0.0625,
        },
        {
            0.03125,
            0.0625,
            -0.0625,
            0.03125,
            0.0625,
            -0.0625,
            -0.0625,
            -0.0625,
            -0.0625,
            0.0,
            0.15625,
            -0.03125,
            0.09375,
            -0.09375,
            0.03125,
            0.03125,
            0.0,
            -0.03125,
            0.0625,
            0.0,
            -0.0625,
            0.0,
            0.0625,
            0.0,
            0.09375,
            0.03125,
            -0.0625,
            -0.125,
            0.0,
            -0.0625,
            -0.0625,
            -0.0625,
            -0.0625,
            -0.09375,
            0.0625,
            0.0625,
            -0.15625,
            -0.0625,
            -0.0625,
            0.0625,
            0.03125,
            0.03125,
            0.0625,
            0.0625,
            0.0625,
            -0.09375,
            -0.0625,
            -0.03125,
            -0.03125,
            -0.03125,
            -0.0625,
            0.0,
            0.0,
            0.0,
            0.0625,
            0.0625,
            0.0,
            0.125,
            0.03125,
            -0.03125,
            0.09375,
            0.03125,
            -0.1875,
            -0.1875,
        },
        {
            0.03125,
            -0.03125,
            0.125,
            0.09375,
            -0.1875,
            0.0,
            0.09375,
            -0.03125,
            0.0,
            0.0625,
            0.0625,
            -0.125,
            -0.09375,
            -0.03125,
            0.03125,
            0.03125,
            0.03125,
            0.0625,
            -0.03125,
            -0.03125,
            0.0,
            0.0625,
            0.09375,
            0.03125,
            -0.0625,
            0.0,
            0.09375,
            -0.03125,
            -0.0625,
            0.125,
            0.03125,
            -0.03125,
            -0.15625,
            -0.09375,
            0.03125,
            0.03125,
            -0.03125,
            -0.03125,
            0.0625,
            0.09375,
            -0.1875,
            0.03125,
            -0.03125,
            0.0,
            -0.0625,
            0.09375,
            0.0,
            0.09375,
            -0.09375,
            -0.03125,
            0.09375,
            0.0625,
            -0.03125,
            0.0625,
            0.09375,
            0.03125,
            -0.03125,
            0.03125,
            -0.09375,
            -0.03125,
            -0.125,
            0.0625,
            -0.0625,
            0.09375,
        },
    },
    {
        {
            0.0,
            0.09375,
            0.09375,
            0.0,
            0.15625,
            0.0,
            -0.15625,
            -0.03125,
            0.0625,
            0.03125,
            0.0,
            -0.03125,
            0.03125,
            -0.0625,
            0.125,
            0.03125,
            0.03125,
            0.0,
            -0.0625,
            -0.03125,
            0.03125,
            -0.03125,
            -0.03125,
            0.0,
            0.0625,
            -0.03125,
            -0.0625,
            0.0,
            -0.125,
            0.0625,
            -0.03125,
            -0.03125,
            0.0625,
            0.0,
            0.03125,
            -0.0625,
            0.0625,
            0.03125,
            -0.09375,
            -0.03125,
            0.0,
            -0.03125,
            0.0,
            -0.03125,
            -0.0625,
            0.0625,
            0.125,
            -0.09375,
            -0.0625,
            0.0,
            0.0,
            0.0,
            -0.03125,
            0.03125,
            -0.0625,
            0.15625,
            -0.03125,
            -0.15625,
            -0.125,
            -0.0625,
            -0.03125,
            0.0,
            -0.03125,
            -0.0625,
        },
        {
            -0.015625,
            0.109375,
            -0.109375,
            0.109375,
            0.0625,
            -0.046875,
            0.109375,
            0.109375,
            0.015625,
            0.109375,
            -0.015625,
            0.015625,
            0.0,
            0.078125,
            0.015625,
            -0.03125,
            -0.09375,
            -0.109375,
            -0.03125,
            -0.046875,
            0.046875,
            0.03125,
            -0.09375,
            0.0,
            0.0,
            -0.046875,
            -0.0625,
            0.109375,
            -0.109375,
            0.015625,
            -0.078125,
            -0.109375,
            0.0625,
            0.015625,
            0.109375,
            0.109375,
            0.109375,
            -0.03125,
            -0.046875,
            -0.109375,
            -0.03125,
            0.109375,
            -0.0625,
            0.046875,
            0.0,
            0.015625,
            -0.015625,
            0.046875,
            -0.078125,
            -0.046875,
            0.109375,
            -0.015625,
            0.0,
            -0.046875,
            -0.03125,
            0.0625,
            0.109375,
            0.0625,
            0.015625,
            -0.0625,
            0.046875,
            -0.046875,
            0.109375,
            0.046875,
        },
        {
            -0.03125,
            0.125,
            -0.0625,
            0.125,
            0.0625,
            -0.0625,
            -0.0625,
            0.0625,
            0.0,
            -0.03125,
            0.03125,
            -0.0625,
            0.0625,
            -0.0625,
            -0.0625,
            -0.03125,
            -0.0625,
            -0.03125,
            -0.09375,
            0.15625,
            0.0625,
            -0.125,
            0.0,
            -0.03125,
            0.03125,
            0.125,
            -0.03125,
            -0.0625,
            0.0,
            0.03125,
            0.125,
            0.125,
            0.09375,
            0.0,
            0.03125,
            0.03125,
            0.0,
            -0.0625,
            0.09375,
            -0.0625,
            -0.09375,
            0.03125,
            -0.125,
            0.0,
            -0.03125,
            -0.15625,
            -0.0625,
            0.0,
            -0.0625,
            -0.09375,
            0.0,
            -0.03125,
            0.0,
            -0.0625,
            -0.03125,
            0.09375,
            -0.09375,
            0.0625,
            -0.15625,
            0.0,
            0.0,
            0.03125,
            0.03125,
            0.0,
        },
    },
    {
        {
            -0.046875,
            0.09375,
            0.015625,
            -0.0625,
            0.0,
            0.015625,
            0.0,
            0.09375,
            -0.03125,
            0.109375,
            -0.015625,
            0.03125,
            0.015625,
            0.015625,
            0.03125,
            -0.046875,
            0.078125,
            -0.046875,
            0.09375,
            0.0625,
            -0.109375,
            -0.015625,
            0.0,
            -0.015625,
            0.109375,
            0.0625,
            0.0,
            0.0625,
            -0.015625,
            0.09375,
            0.0,
            0.0,
            -0.046875,
            0.03125,
            0.0625,
            0.109375,
            -0.046875,
            0.09375,
            0.015625,
            0.015625,
            0.0,
            -0.09375,
            -0.09375,
            -0.109375,
            -0.046875,
            0.0625,
            -0.015625,
            0.015625,
            0.046875,
            -0.015625,
            -0.015625,
            0.0,
            -0.078125,
            -0.078125,
            -0.109375,
            0.03125,
            -0.046875,
            -0.015625,
            -0.078125,
            -0.015625,
            -0.015625,
            -0.03125,
            -0.046875,
            0.078125,
        },
        {
            -0.0625,
            -0.125,
            -0.0625,
            0.125,
            0.21875,
            0.0,
            -0.03125,
            -0.09375,
            -0.09375,
            -0.0625,
            -0.125,
            -0.0625,
            0.0,
            0.09375,
            -0.0625,
            0.0,
            -0.09375,
            -0.03125,
            0.125,
            0.125,
            -0.09375,
            -0.03125,
            0.09375,
            0.09375,
            0.0625,
            -0.1875,
            0.09375,
            0.125,
            0.0,
            0.09375,
            -0.03125,
            -0.125,
            0.0625,
            0.0625,
            0.0625,
            -0.09375,
            0.0,
            0.03125,
            -0.03125,
            0.03125,
            -0.125,
            -0.09375,
            0.0,
            0.0625,
            0.0,
            0.0,
            -0.0625,
            0.0,
            0.0,
            -0.09375,
            -0.09375,
            -0.03125,
            -0.09375,
            0.0,
            -0.03125,
            -0.03125,
            -0.03125,
            -0.03125,
            0.0,
            -0.03125,
            -0.03125,
            -0.03125,
            0.0,
            -0.03125,
        },
        {
            0.0625,
            0.0,
            0.0,
            0.03125,
            0.125,
            0.09375,
            -0.15625,
            0.09375,
            0.0625,
            0.03125,
            0.09375,
            -0.03125,
            0.0,
            0.0,
            -0.0625,
            0.03125,
            0.03125,
            -0.03125,
            0.03125,
            -0.03125,
            -0.03125,
            -0.03125,
            0.03125,
            -0.125,
            -0.0625,
            -0.03125,
            -0.03125,
            -0.125,
            0.03125,
            0.21875,
            -0.09375,
            -0.0625,
            -0.03125,
            0.0625,
            -0.0625,
            -0.03125,
            -0.03125,
            -0.0625,
            0.03125,
            0.03125,
            0.03125,
            0.0625,
            0.03125,
            0.0625,
            -0.03125,
            0.0,
            -0.09375,
            -0.15625,
            0.09375,
            -0.0625,
            0.0625,
            0.0625,
            -0.15625,
            0.0625,
            -0.0625,
            0.0625,
            -0.03125,
            0.03125,
            0.0,
            -0.0625,
            -0.09375,
            0.09375,
            -0.03125,
            0.0,
        },
    },
    {
        {
            -0.03125,
            -0.0625,
            -0.0625,
            -0.03125,
            0.0,
            -0.15625,
            0.03125,
            0.0625,
            0.0625,
            -0.03125,
            0.09375,
            -0.0625,
            -0.09375,
            -0.0625,
            0.03125,
            0.03125,
            0.0,
            -0.09375,
            -0.03125,
            -0.0625,
            0.09375,
            0.0,
            0.0,
            0.0625,
            0.15625,
            -0.0625,
            -0.03125,
            -0.0625,
            0.0,
            0.09375,
            0.09375,
            -0.125,
            -0.15625,
            0.0,
            -0.125,
            0.125,
            0.0,
            0.03125,
            0.0,
            -0.09375,
            -0.09375,
            0.0,
            -0.125,
            0.0,
            0.0,
            0.0,
            0.0625,
            -0.125,
            -0.09375,
            0.03125,
            0.0,
            -0.15625,
            0.0,
            0.0,
            0.0,
            0.03125,
            -0.03125,
            0.03125,
            0.15625,
            0.03125,
            0.09375,
            0.09375,
            -0.125,
            0.0,
        },
        {
            0.09375,
            0.03125,
            0.03125,
            0.0,
            0.0,
            0.0,
            0.0,
            -0.03125,
            0.03125,
            0.09375,
            0.0,
            0.03125,
            0.0,
            0.125,
            -0.03125,
            -0.125,
            -0.0625,
            0.0,
            0.0,
            -0.03125,
            0.0625,
            0.0,
            0.21875,
            -0.125,
            -0.03125,
            -0.0625,
            0.03125,
            0.09375,
            0.0625,
            0.09375,
            -0.0625,
            -0.15625,
            -0.03125,
            0.09375,
            0.0,
            0.0625,
            0.125,
            0.0,
            -0.0625,
            -0.0625,
            0.0,
            0.03125,
            -0.03125,
            -0.0625,
            -0.0625,
            -0.0625,
            0.0,
            0.0625,
            0.0625,
            -0.03125,
            0.0,
            0.0625,
            -0.0625,
            -0.03125,
            0.0625,
            -0.03125,
            0.03125,
            0.0625,
            0.0,
            -0.0625,
            0.125,
            -0.03125,
            -0.03125,
            -0.09375,
        },
        {
            -0.03125,
            -0.0625,
            -0.03125,
            0.125,
            0.0,
            0.0,
            0.03125,
            0.0,
            0.15625,
            0.03125,
            0.125,
            0.0,
            -0.03125,
            0.0625,
            0.0625,
            -0.03125,
            0.0625,
            0.09375,
            0.0625,
            0.03125,
            -0.03125,
            0.09375,
            -0.03125,
            -0.09375,
            -0.03125,
            -0.09375,
            0.15625,
            0.03125,
            -0.09375,
            -0.0625,
            0.0,
            -0.15625,
            -0.0625,
            0.03125,
            0.0,
            -0.03125,
            0.0625,
            -0.0625,
            0.0625,
            0.0,
            -0.09375,
            -0.03125,
            -0.0625,
            -0.09375,
            -0.15625,
            0.0,
            0.0,
            -0.09375,
            0.0625,
            -0.03125,
            0.03125,
            -0.0625,
            -0.0625,
            0.03125,
            -0.0625,
            0.03125,
            -0.03125,
            0.09375,
            0.0625,
            -0.03125,
            0.03125,
            -0.03125,
            0.0,
            -0.0625,
        },
    },
    {
        {
            -0.03125,
            -0.09375,
            0.0625,
            0.125,
            0.15625,
            0.03125,
            0.0,
            0.0,
            0.0,
            0.03125,
            0.0625,
            -0.15625,
            -0.125,
            0.0,
            -0.0625,
            -0.0625,
            0.03125,
            0.1875,
            -0.0625,
            0.0,
            -0.125,
            0.03125,
            0.03125,
            -0.03125,
            0.15625,
            0.03125,
            0.125,
            0.0625,
            -0.03125,
            0.03125,
            0.0625,
            0.125,
            -0.03125,
            0.0,
            0.0,
            -0.09375,
            0.125,
            -0.03125,
            -0.0625,
            -0.03125,
            -0.03125,
            0.1875,
            0.03125,
            -0.03125,
            -0.03125,
            -0.03125,
            -0.03125,
            0.0625,
            0.03125,
            -0.09375,
            -0.03125,
            0.03125,
            -0.03125,
            -0.03125,
            -0.0625,
            -0.09375,
            -0.09375,
            0.03125,
            0.03125,
            0.1875,
            0.0,
            -0.0625,
            -0.0625,
            0.03125,
        },
        {
            -0.09375,
            0.0625,
            -0.0625,
            0.0,
            0.125,
            0.03125,
            0.0625,
            0.0,
            0.0,
            0.0625,
            0.0,
            -0.21875,
            0.0,
            -0.03125,
            0.09375,
            -0.03125,
            -0.03125,
            0.03125,
            0.0,
            0.03125,
            0.09375,
            0.0,
            0.0625,
            0.0,
            0.03125,
            0.03125,
            0.03125,
            0.0,
            0.0625,
            0.03125,
            0.125,
            0.09375,
            -0.125,
            -0.03125,
            -0.0625,
            0.0,
            0.125,
            0.0,
            -0.0625,
            0.125,
            0.0,
            -0.03125,
            -0.09375,
            -0.0625,
            0.03125,
            0.03125,
            0.0625,
            0.0,
            0.0625,
            0.0,
            -0.03125,
            0.0,
            -0.0625,
            0.03125,
            0.0625,
            0.09375,
            0.03125,
            -0.03125,
            0.0,
            0.0,
            -0.0625,
            0.03125,
            0.0,
            -0.03125,
        },
        {
            -0.15625,
            -0.03125,
            -0.09375,
            0.03125,
            0.03125,
            0.0,
            -0.15625,
            0.15625,
            0.03125,
            -0.15625,
            0.09375,
            0.03125,
            -0.0625,
            -0.03125,
            -0.09375,
            -0.03125,
            0.0,
            -0.0625,
            -0.09375,
            -0.03125,
            0.03125,
            0.0625,
            0.09375,
            0.03125,
            -0.0625,
            0.03125,
            -0.0625,
            0.0625,
            0.0,
            0.09375,
            0.0,
            -0.09375,
            -0.0625,
            -0.09375,
            0.0,
            0.03125,
            0.03125,
            0.09375,
            0.0,
            0.03125,
            0.03125,
            0.0,
            -0.0625,
            -0.0625,
            -0.0625,
            -0.0625,
            0.03125,
            0.0625,
            -0.0625,
            -0.0625,
            0.0625,
            0.0,
            0.125,
            -0.09375,
            0.09375,
            0.0,
            0.15625,
            -0.03125,
            -0.03125,
            0.15625,
            -0.0625,
            -0.0625,
            0.03125,
            -0.125,
        },
    },
    {
        {
            0.0625,
            0.0625,
            0.0,
            0.0,
            -0.0625,
            0.0,
            -0.0625,
            0.03125,
            0.0625,
            -0.1875,
            -0.03125,
            0.0,
            0.03125,
            0.0625,
            -0.03125,
            -0.125,
            0.0,
            0.125,
            -0.09375,
            0.0625,
            0.09375,
            0.09375,
            0.125,
            0.0,
            0.03125,
            0.0,
            0.09375,
            -0.03125,
            0.0,
            0.0,
            0.0625,
            -0.09375,
            0.125,
            0.03125,
            -0.03125,
            0.0625,
            0.03125,
            0.09375,
            -0.0625,
            0.0625,
            -0.03125,
            0.0625,
            0.0,
            0.03125,
            0.0,
            0.03125,
            0.125,
            0.03125,
            -0.0625,
            -0.03125,
            0.0,
            0.03125,
            0.03125,
            -0.09375,
            0.03125,
            -0.03125,
            -0.0625,
            0.03125,
            -0.09375,
            -0.03125,
            0.0,
            0.0,
            -0.09375,
            -0.0625,
        },
        {
            -0.0625,
            0.03125,
            0.21875,
            0.0,
            0.0625,
            0.0625,
            -0.0625,
            -0.15625,
            0.0,
            0.0,
            0.09375,
            -0.15625,
            -0.09375,
            -0.0625,
            -0.125,
            -0.03125,
            0.15625,
            -0.0625,
            0.0,
            -0.125,
            -0.0625,
            0.09375,
            -0.03125,
            0.0625,
            0.0,
            -0.09375,
            -0.03125,
            0.15625,
            0.0,
            -0.1875,
            0.0,
            0.03125,
            -0.03125,
            0.15625,
            0.0625,
            0.0,
            -0.09375,
            0.0,
            0.0625,
            0.0,
            0.0625,
            -0.09375,
            -0.03125,
            -0.125,
            0.09375,
            -0.0625,
            0.15625,
            0.0625,
            -0.03125,
            -0.125,
            0.0,
            0.0,
            0.0,
            0.03125,
            -0.0625,
            0.0625,
            -0.0625,
            0.0,
            0.03125,
            -0.15625,
            0.0625,
            0.09375,
            -0.03125,
            0.0,
        },
        {
            -0.0625,
            0.03125,
            0.03125,
            0.0,
            -0.0625,
            0.0,
            0.03125,
            0.09375,
            0.0,
            0.03125,
            0.0,
            -0.09375,
            0.03125,
            -0.0625,
            0.0,
            0.125,
            0.03125,
            -0.03125,
            -0.09375,
            -0.0625,
            -0.0625,
            -0.03125,
            0.0,
            0.0625,
            -0.03125,
            0.0625,
            0.03125,
            0.15625,
            0.21875,
            0.0,
            0.125,
            -0.15625,
            0.0625,
            0.0625,
            0.0,
            -0.09375,
            0.09375,
            -0.09375,
            0.09375,
            0.03125,
            -0.03125,
            -0.125,
            0.125,
            0.03125,
            -0.0625,
            -0.0625,
            0.0,
            0.03125,
            -0.03125,
            0.125,
            -0.0625,
            -0.03125,
            0.09375,
            0.0,
            -0.09375,
            0.0625,
            -0.09375,
            0.0,
            0.09375,
            0.03125,
            0.0625,
            -0.03125,
            -0.0625,
            -0.03125,
        },
    },
    {
        {
            -0.03125,
            0.09375,
            -0.03125,
            0.0,
            0.0625,
            -0.09375,
            -0.0625,
            0.0625,
            0.09375,
            0.0,
            0.03125,
            -0.0625,
            0.0625,
            0.03125,
            -0.03125,
            -0.03125,
            0.03125,
            -0.03125,
            -0.125,
            -0.1875,
            0.125,
            0.03125,
            -0.15625,
            0.0,
            0.125,
            -0.09375,
            -0.03125,
            0.1875,
            0.03125,
            -0.03125,
            -0.03125,
            -0.03125,
            0.09375,
            -0.03125,
            -0.0625,
            0.03125,
            -0.03125,
            -0.09375,
            0.15625,
            0.0,
            0.0,
            0.0625,
            -0.03125,
            0.0625,
            0.0,
            0.03125,
            0.03125,
            0.03125,
            0.03125,
            0.03125,
            0.0,
            0.0625,
            -0.15625,
            0.0,
            -0.0625,
            -0.125,
            -0.125,
            0.0625,
            0.0,
            0.15625,
            0.0625,
            0.03125,
            -0.03125,
            -0.0625,
        },
        {
            -0.078125,
            -0.046875,
            -0.03125,
            0.078125,
            0.0,
            0.03125,
            -0.046875,
            -0.109375,
            -0.03125,
            -0.03125,
            -0.0625,
            -0.03125,
            0.03125,
            -0.078125,
            0.03125,
            0.0,
            -0.09375,
            0.03125,
            -0.0625,
            0.015625,
            0.0625,
            -0.078125,
            -0.03125,
            0.0,
            0.03125,
            0.0625,
            0.03125,
            0.109375,
            -0.015625,
            0.03125,
            -0.015625,
            -0.109375,
            -0.109375,
            0.0,
            0.109375,
            0.015625,
            -0.03125,
            0.0625,
            0.046875,
            0.0,
            0.015625,
            -0.03125,
            0.015625,
            -0.078125,
            0.015625,
            -0.078125,
            -0.0625,
            0.0625,
            0.109375,
            -0.09375,
            0.015625,
            0.078125,
            0.046875,
            0.078125,
            -0.0625,
            -0.0625,
            0.015625,
            -0.09375,
            -0.03125,
            0.09375,
            -0.109375,
            -0.015625,
            -0.046875,
            0.015625,
        },
        {
            0.0625,
            0.03125,
            -0.03125,
            0.03125,
            0.03125,
            -0.03125,
            0.03125,
            0.09375,
            -0.15625,
            -0.0625,
            0.0,
            0.0625,
            0.0625,
            -0.09375,
            0.03125,
            -0.03125,
            0.1875,
            0.03125,
            0.0,
            -0.03125,
            0.03125,
            -0.03125,
            -0.0625,
            0.15625,
            0.125,
            0.03125,
            0.0,
            -0.03125,
            0.0625,
            0.09375,
            -0.0625,
            -0.03125,
            0.03125,
            -0.0625,
            0.0625,
            0.0,
            0.0,
            0.0,
            0.0,
            -0.0625,
            -0.03125,
            0.0625,
            -0.09375,
            -0.0625,
            -0.0625,
            0.0,
            0.125,
            -0.15625,
            0.1875,
            -0.03125,
            -0.03125,
            0.03125,
            0.0,
            0.15625,
            0.0,
            -0.0625,
            -0.03125,
            -0.0625,
            0.0,
            0.0625,
            0.03125,
            -0.03125,
            0.1875,
            0.0,
        },
    },
    {
        {
            0.0,
            0.15625,
            0.03125,
            0.0,
            0.0625,
            0.0,
            0.03125,
            0.0,
            -0.0625,
            0.0625,
            0.125,
            0.0,
            0.0,
            0.03125,
            0.0,
            0.03125,
            0.0625,
            0.0625,
            0.0,
            0.0,
            0.03125,
            -0.03125,
            -0.09375,
            0.03125,
            0.0625,
            0.125,
            0.125,
            0.125,
            0.03125,
            0.0,
            0.0625,
            0.0,
            0.0,
            -0.0625,
            0.03125,
            0.03125,
            0.0625,
            0.0625,
            -0.09375,
            -0.03125,
            -0.0625,
            -0.09375,
            -0.15625,
            0.03125,
            -0.0625,
            -0.03125,
            0.03125,
            0.0,
            -0.0625,
            -0.03125,
            -0.03125,
            -0.15625,
            -0.09375,
            0.0,
            0.0625,
            0.125,
            0.15625,
            0.03125,
            0.0,
            0.09375,
            0.0,
            0.0,
            -0.03125,
            0.03125,
        },
        {
            0.0,
            -0.015625,
            0.03125,
            0.09375,
            0.0625,
            0.109375,
            -0.015625,
            -0.015625,
            0.015625,
            0.046875,
            -0.03125,
            0.03125,
            -0.078125,
            0.015625,
            0.0,
            0.046875,
            0.109375,
            0.109375,
            0.09375,
            -0.046875,
            0.046875,
            0.046875,
            -0.046875,
            -0.03125,
            0.0625,
            -0.046875,
            -0.078125,
            -0.015625,
            -0.0625,
            0.0625,
            -0.015625,
            0.03125,
            0.046875,
            0.03125,
            -0.109375,
            0.03125,
            -0.109375,
            0.03125,
            -0.015625,
            -0.03125,
            -0.015625,
            0.046875,
            0.03125,
            0.046875,
            0.015625,
            0.015625,
            0.046875,
            0.09375,
            -0.03125,
            0.09375,
            -0.046875,
            0.015625,
            0.015625,
            0.03125,
            0.0625,
            -0.03125,
            -0.046875,
            0.03125,
            -0.0625,
            -0.03125,
            -0.03125,
            0.046875,
            -0.109375,
            0.046875,
        },
        {
            -0.125,
            0.0,
            0.03125,
            0.21875,
            0.03125,
            0.0,
            0.03125,
            0.0,
            -0.0625,
            0.0,
            -0.125,
            0.09375,
            -0.0625,
            -0.03125,
            -0.0625,
            0.0,
            0.09375,
            0.03125,
            0.0,
            0.03125,
            0.0,
            0.0625,
            0.03125,
            -0.09375,
            0.0,
            -0.09375,
            0.0,
            0.0,
            0.03125,
            0.0,
            -0.0625,
            0.0,
            -0.0625,
            -0.03125,
            -0.0625,
            -0.03125,
            -0.03125,
            0.03125,
            -0.0625,
            -0.0625,
            -0.03125,
            -0.09375,
            -0.125,
            -0.125,
            -0.03125,
            0.0625,
            -0.125,
            0.0,
            -0.03125,
            0.0,
            -0.03125,
            0.09375,
            0.03125,
            -0.0625,
            -0.0625,
            0.0,
            -0.15625,
            -0.0625,
            0.0,
            -0.0625,
            0.0625,
            0.0,
            -0.03125,
            0.0625,
        },
    },
    {
        {
            0.0625,
            -0.03125,
            0.03125,
            0.03125,
            0.125,
            0.09375,
            0.03125,
            0.03125,
            0.03125,
            0.09375,
            0.0,
            0.0,
            0.03125,
            -0.0625,
            0.03125,
            -0.125,
            0.125,
            -0.0625,
            0.03125,
            -0.03125,
            0.0625,
            -0.03125,
            0.15625,
            -0.0625,
            0.03125,
            0.03125,
            0.15625,
            0.0,
            0.125,
            -0.15625,
            0.03125,
            0.0,
            0.125,
            0.0,
            -0.0625,
            0.0,
            -0.03125,
            -0.125,
            0.0,
            0.09375,
            -0.03125,
            0.03125,
            0.0,
            0.0,
            0.0625,
            -0.125,
            -0.125,
            -0.03125,
            0.09375,
            0.0,
            -0.03125,
            0.0625,
            -0.0625,
            -0.03125,
            0.0,
            0.0,
            0.03125,
            -0.125,
            -0.0625,
            -0.125,
            -0.0625,
            -0.0625,
            -0.03125,
            0.03125,
        },
        {
            -0.0625,
            -0.03125,
            0.09375,
            -0.0625,
            0.0,
            -0.0625,
            0.0,
            0.0625,
            -0.0625,
            -0.1875,
            -0.0625,
            0.1875,
            -0.03125,
            -0.03125,
            0.09375,
            -0.09375,
            -0.125,
            -0.09375,
            -0.0625,
            0.09375,
            -0.0625,
            0.03125,
            0.1875,
            -0.125,
            0.125,
            -0.09375,
            -0.03125,
            -0.03125,
            0.03125,
            -0.0625,
            0.0,
            0.0625,
            0.03125,
            0.0625,
            -0.03125,
            0.03125,
            0.0625,
            0.0,
            -0.03125,
            0.0625,
            -0.03125,
            0.0625,
            -0.125,
            0.0625,
            -0.15625,
            0.03125,
            0.125,
            -0.03125,
            0.0,
            0.125,
            -0.0625,
            0.0625,
            -0.125,
            0.0,
            0.0,
            0.09375,
            -0.125,
            0.0,
            0.03125,
            0.0625,
            0.0625,
            -0.03125,
            0.0,
            -0.0625,
        },
        {
            0.0625,
            0.09375,
            -0.09375,
            0.03125,
            -0.03125,
            -0.1875,
            0.09375,
            -0.03125,
            -0.0625,
            -0.125,
            0.09375,
            -0.09375,
            0.0,
            0.0,
            0.09375,
            -0.03125,
            0.03125,
            -0.125,
            0.0,
            0.0,
            0.0,
            0.03125,
            0.03125,
            -0.0625,
            -0.03125,
            -0.03125,
            0.0,
            0.0,
            0.125,
            -0.03125,
            -0.03125,
            0.15625,
            -0.15625,
            -0.03125,
            -0.09375,
            -0.03125,
            0.15625,
            0.0,
            0.03125,
            0.03125,
            0.0,
            -0.125,
            0.0625,
            -0.03125,
            0.0625,
            -0.0625,
            -0.0625,
            -0.03125,
            0.03125,
            -0.125,
            -0.09375,
            0.03125,
            -0.0625,
            0.0,
            -0.09375,
            0.0,
            0.1875,
            -0.0625,
            0.125,
            0.0625,
            -0.03125,
            -0.03125,
            0.0,
            0.125,
        },
    },
    {
        {
            -0.09375,
            -0.0625,
            -0.09375,
            0.03125,
            -0.0625,
            -0.03125,
            0.03125,
            0.0625,
            0.0,
            -0.03125,
            -0.0625,
            0.0625,
            -0.125,
            0.0625,
            0.0625,
            -0.03125,
            0.0625,
            -0.0625,
            0.1875,
            0.125,
            0.0,
            -0.0625,
            -0.125,
            0.0,
            0.0,
            0.03125,
            -0.0625,
            0.03125,
            0.0,
            0.09375,
            0.0,
            0.0625,
            0.0625,
            0.0625,
            -0.03125,
            0.125,
            -0.125,
            0.0625,
            -0.09375,
            0.09375,
            0.0625,
            0.1875,
            -0.03125,
            0.0,
            0.03125,
            0.0625,
            -0.09375,
            -0.03125,
            0.0625,
            -0.0625,
            -0.03125,
            -0.0625,
            0.15625,
            -0.03125,
            -0.15625,
            0.0,
            0.0625,
            0.03125,
            0.125,
            0.0625,
            -0.0625,
            0.125,
            -0.09375,
            0.03125,
        },
        {
            -0.03125,
            -0.09375,
            0.03125,
            0.0625,
            0.03125,
            0.125,
            -0.1875,
            0.03125,
            -0.03125,
            -0.125,
            -0.03125,
            0.03125,
            0.03125,
            -0.03125,
            0.0,
            0.03125,
            -0.0625,
            0.03125,
            0.0,
            -0.0625,
            -0.03125,
            0.0,
            -0.03125,
            -0.125,
            0.0625,
            0.0625,
            -0.03125,
            -0.09375,
            -0.0625,
            -0.0625,
            -0.09375,
            -0.03125,
            -0.09375,
            -0.03125,
            -0.0625,
            -0.09375,
            0.125,
            -0.15625,
            -0.0625,
            0.09375,
            -0.0625,
            0.0625,
            0.0625,
            -0.0625,
            -0.09375,
            0.0625,
            0.0,
            0.0625,
            -0.03125,
            -0.09375,
            -0.09375,
            0.0625,
            0.0,
            -0.09375,
            0.125,
            -0.03125,
            -0.03125,
            0.03125,
            0.03125,
            -0.09375,
            0.03125,
            0.03125,
            0.03125,
            0.0625,
        },
        {
            0.03125,
            0.125,
            -0.09375,
            -0.03125,
            0.03125,
            0.03125,
            -0.125,
            -0.15625,
            0.125,
            -0.1875,
            -0.03125,
            0.09375,
            0.03125,
            -0.09375,
            0.0,
            -0.0625,
            -0.03125,
            -0.03125,
            0.09375,
            -0.03125,
            0.03125,
            0.15625,
            -0.1875,
            -0.03125,
            -0.03125,
            0.0625,
            0.0,
            0.15625,
            0.0,
            -0.03125,
            0.03125,
            -0.03125,
            -0.0625,
            -0.0625,
            0.09375,
            0.0625,
            0.125,
            0.03125,
            0.03125,
            -0.0625,
            0.0,
            0.09375,
            -0.03125,
            -0.0625,
            -0.0625,
            0.0625,
            -0.09375,
            -0.03125,
            0.0,
            0.0,
            -0.09375,
            0.0625,
            0.125,
            -0.03125,
            0.03125,
            -0.0625,
            0.0,
            0.0625,
            -0.0625,
            -0.0625,
            0.0625,
            -0.0625,
            -0.125,
            0.09375,
        },
    },
    {
        {
            0.03125,
            0.0625,
            0.109375,
            -0.015625,
            0.078125,
            -0.015625,
            0.078125,
            -0.015625,
            0.03125,
            0.0,
            0.0625,
            0.046875,
            0.0625,
            0.109375,
            -0.078125,
            0.046875,
            -0.015625,
            -0.015625,
            0.046875,
            -0.015625,
            -0.09375,
            0.046875,
            0.09375,
            -0.046875,
            0.0625,
            0.109375,
            -0.0625,
            -0.109375,
            -0.109375,
            -0.109375,
            0.109375,
            -0.0625,
            0.0625,
            -0.015625,
            -0.046875,
            0.0625,
            0.03125,
            -0.0625,
            -0.015625,
            -0.015625,
            0.109375,
            0.109375,
            -0.109375,
            0.09375,
            -0.078125,
            0.015625,
            0.09375,
            -0.0625,
            0.015625,
            0.0625,
            0.046875,
            0.0625,
            0.0625,
            -0.078125,
            -0.015625,
            -0.03125,
            0.109375,
            0.0625,
            0.109375,
            -0.046875,
            -0.03125,
            -0.09375,
            0.03125,
            -0.078125,
        },
        {
            0.0625,
            -0.03125,
            0.0,
            0.09375,
            -0.0625,
            0.125,
            0.0,
            0.0625,
            -0.0625,
            0.03125,
            -0.0625,
            -0.03125,
            0.03125,
            -0.125,
            -0.03125,
            0.0625,
            -0.0625,
            0.0625,
            0.0625,
            0.0,
            0.03125,
            0.0625,
            0.0625,
            -0.0625,
            0.0,
            -0.09375,
            0.0625,
            0.1875,
            0.0,
            0.03125,
            -0.0625,
            0.0,
            -0.125,
            0.125,
            -0.0625,
            -0.09375,
            -0.09375,
            0.0,
            0.0,
            -0.03125,
            0.09375,
            -0.0625,
            -0.0625,
            -0.03125,
            -0.09375,
            0.09375,
            0.03125,
            0.09375,
            0.0,
            0.03125,
            0.15625,
            -0.09375,
            0.0,
            -0.03125,
            -0.03125,
            -0.0625,
            0.15625,
            -0.09375,
            -0.03125,
            0.0625,
            0.0,
            0.0625,
            0.09375,
            -0.21875,
        },
        {
            0.09375,
            0.0,
            -0.0625,
            0.125,
            0.1875,
            -0.03125,
            -0.0625,
            0.03125,
            0.09375,
            0.0,
            0.0625,
            0.0,
            0.125,
            -0.0625,
            -0.09375,
            0.0,
            0.09375,
            0.03125,
            0.03125,
            0.03125,
            -0.0625,
            0.0,
            0.03125,
            0.0,
            0.0,
            0.0,
            0.0,
            0.09375,
            0.1875,
            0.03125,
            0.0,
            -0.03125,
            -0.03125,
            -0.125,
            -0.0625,
            0.0,
            -0.09375,
            0.0,
            0.0625,
            -0.09375,
            -0.15625,
            0.03125,
            0.0625,
            0.03125,
            -0.0625,
            0.0625,
            0.125,
            0.0625,
            0.03125,
            0.0625,
            0.09375,
            -0.125,
            0.03125,
            0.0,
            0.0625,
            0.03125,
            0.03125,
            0.0625,
            -0.03125,
            0.125,
            0.0,
            0.09375,
            0.09375,
            0.15625,
        },
    },
    {
        {
            -0.03125,
            0.0,
            0.0,
            -0.09375,
            0.0625,
            0.03125,
            -0.03125,
            -0.09375,
            -0.03125,
            0.0,
            0.03125,
            0.0,
            0.0,
            -0.0625,
            -0.03125,
            0.09375,
            -0.03125,
            -0.03125,
            -0.15625,
            0.125,
            0.0,
            0.0625,
            -0.0625,
            -0.0625,
            0.0625,
            -0.03125,
            0.09375,
            -0.03125,
            0.0625,
            -0.0625,
            0.03125,
            -0.09375,
            0.03125,
            0.0,
            0.03125,
            -0.0625,
            -0.03125,
            -0.03125,
            -0.0625,
            0.0625,
            -0.03125,
            -0.03125,
            -0.0625,
            -0.03125,
            0.0625,
            0.15625,
            -0.09375,
            0.03125,
            -0.0625,
            0.03125,
            0.03125,
            -0.03125,
            0.0625,
            0.0625,
            0.03125,
            -0.03125,
            0.0,
            -0.15625,
            0.03125,
            -0.03125,
            0.1875,
            0.09375,
            -0.0625,
            0.09375,
        },
        {
            0.0625,
            -0.09375,
            0.09375,
            0.0,
            0.0625,
            0.03125,
            0.0,
            0.0,
            0.125,
            0.0625,
            -0.03125,
            -0.0625,
            -0.0625,
            -0.03125,
            -0.0625,
            0.0,
            0.09375,
            -0.09375,
            0.0,
            0.09375,
            0.09375,
            0.0,
            0.0,
            -0.15625,
            0.03125,
            -0.15625,
            0.125,
            0.0,
            0.0,
            0.03125,
            0.125,
            -0.09375,
            0.03125,
            0.125,
            0.0625,
            0.0625,
            -0.0625,
            0.0,
            0.03125,
            0.125,
            0.0,
            0.09375,
            -0.03125,
            -0.03125,
            0.0,
            0.0,
            0.0,
            -0.03125,
            0.09375,
            0.0,
            0.0,
            -0.03125,
            0.03125,
            -0.09375,
            0.15625,
            0.09375,
            0.0,
            0.09375,
            0.125,
            0.0625,
            0.03125,
            -0.15625,
            0.0,
            0.09375,
        },
        {
            0.0625,
            0.0625,
            0.0,
            -0.03125,
            -0.09375,
            -0.0625,
            -0.03125,
            0.03125,
            -0.0625,
            0.09375,
            0.03125,
            0.03125,
            0.0625,
            -0.03125,
            0.09375,
            -0.0625,
            0.0,
            0.0,
            0.03125,
            0.0,
            -0.15625,
            0.15625,
            0.0,
            -0.09375,
            -0.15625,
            0.03125,
            0.03125,
            0.03125,
            -0.03125,
            -0.15625,
            0.0,
            -0.125,
            -0.09375,
            0.0,
            0.0625,
            -0.15625,
            -0.0625,
            0.09375,
            -0.0625,
            -0.0625,
            0.0,
            0.0625,
            -0.0625,
            0.15625,
            -0.125,
            -0.03125,
            -0.03125,
            0.0625,
            -0.03125,
            0.125,
            -0.09375,
            0.09375,
            0.0,
            -0.09375,
            0.0,
            0.0625,
            0.0,
            -0.03125,
            0.0,
            0.125,
            0.0,
            0.03125,
            0.03125,
            0.03125,
        },
    },
    {
        {
            -0.09375,
            0.0625,
            0.125,
            -0.0625,
            0.0625,
            -0.03125,
            0.0625,
            -0.0625,
            0.0,
            -0.0625,
            0.125,
            -0.03125,
            -0.125,
            0.0,
            -0.09375,
            0.0,
            -0.125,
            0.0,
            -0.03125,
            -0.09375,
            0.0,
            -0.09375,
            -0.03125,
            0.03125,
            -0.0625,
            -0.09375,
            0.15625,
            -0.09375,
            -0.03125,
            0.03125,
            0.0,
            0.0625,
            0.0,
            -0.03125,
            0.03125,
            -0.15625,
            0.0,
            0.03125,
            -0.03125,
            0.03125,
            0.03125,
            0.0625,
            -0.1875,
            -0.03125,
            -0.0625,
            0.0625,
            -0.03125,
            -0.125,
            -0.125,
            0.03125,
            0.0,
            0.0,
            0.0625,
            -0.15625,
            0.0,
            0.0,
            -0.03125,
            0.0,
            0.03125,
            -0.0625,
            0.0,
            -0.125,
            0.0,
            0.0,
        },
        {
            0.125,
            -0.0625,
            0.125,
            0.0625,
            -0.09375,
            0.09375,
            0.03125,
            0.0625,
            -0.0625,
            0.0,
            0.03125,
            0.0,
            -0.03125,
            0.0,
            -0.0625,
            -0.0625,
            -0.03125,
            -0.15625,
            -0.0625,
            0.03125,
            0.0,
            -0.03125,
            -0.0625,
            0.15625,
            0.03125,
            -0.09375,
            0.1875,
            -0.0625,
            0.125,
            -0.0625,
            -0.09375,
            0.03125,
            0.0625,
            0.03125,
            -0.03125,
            0.03125,
            0.0,
            0.03125,
            -0.03125,
            -0.09375,
            -0.0625,
            0.0625,
            -0.0625,
            -0.03125,
            0.0625,
            0.03125,
            -0.03125,
            0.0,
            0.03125,
            -0.0625,
            0.0,
            0.0,
            0.0,
            -0.1875,
            -0.125,
            0.125,
            0.09375,
            0.0625,
            -0.09375,
            0.03125,
            -0.0625,
            0.0625,
            -0.03125,
            0.03125,
        },
        {
            0.0,
            0.015625,
            0.078125,
            0.0625,
            -0.03125,
            0.015625,
            0.0625,
            -0.09375,
            0.0625,
            0.015625,
            -0.109375,
            -0.03125,
            0.046875,
            0.109375,
            -0.015625,
            0.0,
            0.0,
            0.015625,
            0.078125,
            -0.09375,
            -0.0625,
            0.09375,
            0.078125,
            0.109375,
            0.046875,
            0.109375,
            0.046875,
            -0.046875,
            0.078125,
            0.109375,
            0.09375,
            0.0,
            -0.03125,
            0.109375,
            0.0625,
            0.078125,
            -0.015625,
            -0.109375,
            0.0,
            0.046875,
            -0.078125,
            -0.03125,
            -0.015625,
            -0.015625,
            0.078125,
            -0.078125,
            0.0,
            -0.09375,
            0.0,
            0.0625,
            -0.046875,
            0.109375,
            0.0625,
            0.03125,
            -0.015625,
            0.015625,
            0.015625,
            -0.03125,
            -0.0625,
            -0.015625,
            0.046875,
            0.078125,
            0.078125,
            0.0625,
        },
    },
    {
        {
            0.046875,
            -0.046875,
            -0.03125,
            0.015625,
            0.078125,
            -0.03125,
            -0.09375,
            0.046875,
            0.046875,
            0.0,
            0.109375,
            -0.109375,
            0.109375,
            0.0,
            0.109375,
            -0.078125,
            -0.109375,
            0.046875,
            -0.109375,
            -0.09375,
            0.109375,
            0.046875,
            0.046875,
            0.09375,
            -0.03125,
            0.0625,
            -0.046875,
            -0.015625,
            -0.09375,
            0.046875,
            -0.078125,
            0.046875,
            -0.0625,
            0.046875,
            0.09375,
            -0.0625,
            0.078125,
            -0.078125,
            -0.015625,
            0.046875,
            0.046875,
            -0.109375,
            -0.015625,
            0.015625,
            -0.046875,
            0.078125,
            0.078125,
            0.0625,
            -0.0625,
            0.09375,
            0.109375,
            -0.078125,
            0.046875,
            -0.109375,
            -0.046875,
            0.046875,
            -0.09375,
            -0.03125,
            0.0625,
            -0.046875,
            -0.015625,
            0.0,
            0.0625,
            0.09375,
        },
        {
            0.0,
            0.15625,
            -0.09375,
            -0.15625,
            -0.09375,
            0.09375,
            0.0625,
            0.0,
            -0.21875,
            -0.15625,
            0.0,
            -0.125,
            0.0,
            0.0625,
            -0.0625,
            0.03125,
            0.03125,
            0.125,
            -0.03125,
            -0.03125,
            0.09375,
            0.0,
            0.0,
            0.03125,
            -0.03125,
            -0.03125,
            0.125,
            0.03125,
            0.0625,
            0.15625,
            -0.03125,
            0.1875,
            0.09375,
            -0.09375,
            0.0,
            -0.09375,
            0.0,
            0.0,
            0.03125,
            0.09375,
            -0.03125,
            0.0625,
            0.0625,
            -0.03125,
            -0.125,
            0.03125,
            -0.03125,
            0.125,
            -0.03125,
            0.0,
            -0.03125,
            0.0625,
            -0.09375,
            -0.03125,
            0.03125,
            -0.03125,
            0.0,
            0.15625,
            0.0625,
            -0.0625,
            0.0625,
            0.03125,
            -0.09375,
            0.0625,
        },
        {
            -0.09375,
            0.03125,
            -0.015625,
            0.03125,
            -0.09375,
            -0.078125,
            -0.0625,
            -0.03125,
            0.03125,
            0.109375,
            0.0,
            0.109375,
            -0.078125,
            0.03125,
            0.0625,
            -0.078125,
            0.109375,
            0.03125,
            -0.046875,
            0.03125,
            0.109375,
            0.015625,
            0.109375,
            0.0625,
            -0.0625,
            0.109375,
            0.046875,
            0.109375,
            -0.015625,
            -0.09375,
            0.046875,
            0.078125,
            -0.015625,
            -0.03125,
            -0.03125,
            -0.015625,
            -0.015625,
            -0.03125,
            -0.109375,
            -0.015625,
            0.015625,
            0.09375,
            -0.0625,
            -0.015625,
            0.046875,
            0.109375,
            0.09375,
            0.0,
            0.09375,
            -0.09375,
            0.046875,
            -0.109375,
            0.078125,
            -0.0625,
            -0.015625,
            -0.109375,
            -0.09375,
            0.03125,
            0.03125,
            -0.109375,
            -0.03125,
            -0.046875,
            0.046875,
            0.09375,
        },
    },
    {
        {
            0.03125,
            -0.0625,
            0.03125,
            0.0,
            -0.0625,
            0.0625,
            0.125,
            0.0,
            0.09375,
            0.0,
            -0.03125,
            -0.03125,
            0.09375,
            0.03125,
            0.0,
            -0.03125,
            0.0,
            -0.03125,
            -0.03125,
            0.125,
            -0.09375,
            -0.0625,
            0.0,
            0.0,
            -0.09375,
            0.0,
            -0.21875,
            0.0,
            -0.15625,
            -0.03125,
            -0.09375,
            0.03125,
            0.0,
            -0.03125,
            0.0625,
            -0.0625,
            -0.03125,
            -0.09375,
            -0.15625,
            0.0,
            0.0,
            -0.0625,
            -0.03125,
            -0.03125,
            0.0,
            0.0,
            0.0625,
            0.0,
            0.0625,
            -0.09375,
            -0.0625,
            0.0625,
            0.0625,
            -0.03125,
            -0.0625,
            0.125,
            0.03125,
            0.03125,
            -0.03125,
            0.09375,
            0.0625,
            -0.0625,
            -0.03125,
            -0.09375,
        },
        {
            -0.15625,
            0.0,
            0.0,
            0.09375,
            -0.09375,
            -0.09375,
            0.09375,
            0.03125,
            -0.125,
            0.0625,
            0.0625,
            -0.0625,
            0.125,
            0.15625,
            -0.09375,
            0.0,
            -0.03125,
            0.0625,
            0.09375,
            0.03125,
            0.03125,
            -0.125,
            -0.0625,
            -0.09375,
            -0.03125,
            -0.09375,
            -0.03125,
            0.09375,
            0.0,
            -0.0625,
            0.0625,
            0.03125,
            0.03125,
            0.125,
            -0.03125,
            -0.09375,
            -0.0625,
            -0.09375,
            -0.0625,
            -0.09375,
            -0.0625,
            0.09375,
            0.03125,
            0.0,
            -0.125,
            0.0,
            0.0625,
            -0.03125,
            0.03125,
            0.0,
            0.0625,
            0.0625,
            0.0625,
            0.09375,
            0.0625,
            -0.03125,
            0.03125,
            -0.09375,
            0.0625,
            0.03125,
            0.09375,
            0.0,
            0.0,
            0.0625,
        },
        {
            0.0,
            -0.0625,
            -0.09375,
            0.03125,
            -0.125,
            0.0625,
            0.125,
            0.0,
            -0.03125,
            0.0,
            0.0,
            -0.03125,
            0.03125,
            -0.09375,
            0.09375,
            0.09375,
            -0.0625,
            -0.0625,
            -0.09375,
            -0.125,
            -0.0625,
            0.0,
            -0.03125,
            0.03125,
            0.0,
            -0.0625,
            0.0,
            0.0,
            0.15625,
            -0.03125,
            0.09375,
            -0.0625,
            0.03125,
            0.0,
            0.03125,
            -0.0625,
            -0.03125,
            -0.0625,
            0.0,
            0.03125,
            0.0,
            0.0,
            -0.03125,
            -0.1875,
            -0.125,
            0.0,
            0.09375,
            -0.09375,
            0.03125,
            -0.15625,
            -0.0625,
            0.09375,
            -0.09375,
            -0.09375,
            0.0,
            0.0,
            0.0,
            0.0625,
            0.0625,
            0.03125,
            -0.03125,
            0.0625,
            0.0,
            -0.09375,
        },
    },
    {
        {
            0.0,
            -0.03125,
            0.0625,
            -0.03125,
            0.03125,
            0.21875,
            0.03125,
            0.125,
            0.0,
            0.0,
            0.09375,
            0.03125,
            -0.03125,
            -0.03125,
            0.03125,
            0.0625,
            -0.09375,
            -0.125,
            0.09375,
            -0.0625,
            0.0625,
            0.0625,
            -0.09375,
            -0.03125,
            0.0,
            0.03125,
            0.0625,
            -0.0625,
            0.03125,
            -0.0625,
            -0.0625,
            -0.03125,
            -0.03125,
            0.03125,
            0.03125,
            -0.09375,
            0.0,
            0.09375,
            0.03125,
            0.0625,
            0.15625,
            -0.09375,
            0.03125,
            0.1875,
            -0.0625,
            0.125,
            0.0,
            -0.03125,
            -0.0625,
            -0.0625,
            0.0,
            0.0,
            0.0,
            0.0625,
            -0.0625,
            -0.0625,
            0.0,
            0.1875,
            0.0625,
            0.03125,
            -0.03125,
            -0.03125,
            -0.0625,
            0.15625,
        },
        {
            0.0,
            -0.0625,
            -0.0625,
            0.0,
            -0.0625,
            0.0,
            -0.0625,
            0.125,
            -0.03125,
            -0.125,
            0.0,
            0.09375,
            -0.125,
            -0.0625,
            0.15625,
            0.0625,
            0.0,
            0.0,
            0.03125,
            0.03125,
            0.0,
            0.09375,
            -0.0625,
            0.0625,
            0.0625,
            -0.125,
            0.0625,
            0.09375,
            -0.125,
            0.09375,
            0.03125,
            0.09375,
            -0.03125,
            -0.0625,
            -0.125,
            -0.03125,
            0.0625,
            -0.0625,
            -0.03125,
            -0.125,
            -0.0625,
            -0.0625,
            -0.09375,
            0.03125,
            0.21875,
            0.0625,
            0.09375,
            -0.09375,
            -0.09375,
            0.0,
            -0.03125,
            0.0625,
            0.03125,
            0.0,
            -0.03125,
            0.03125,
            -0.03125,
            -0.09375,
            0.125,
            -0.03125,
            -0.0625,
            0.03125,
            -0.09375,
            0.0,
        },
        {
            -0.0625,
            0.0625,
            0.0,
            0.0625,
            0.03125,
            0.0,
            -0.03125,
            -0.03125,
            -0.03125,
            0.0,
            0.1875,
            -0.03125,
            0.1875,
            0.03125,
            0.0,
            0.0625,
            0.09375,
            0.03125,
            -0.09375,
            0.0,
            0.09375,
            -0.03125,
            -0.09375,
            -0.125,
            0.03125,
            -0.03125,
            0.03125,
            -0.125,
            0.09375,
            -0.09375,
            0.03125,
            0.0,
            0.0625,
            0.0625,
            0.0625,
            0.0625,
            -0.0625,
            0.03125,
            -0.0625,
            0.0625,
            -0.03125,
            -0.03125,
            -0.0625,
            -0.125,
            0.0625,
            -0.0625,
            0.0,
            -0.0625,
            -0.03125,
            -0.0625,
            0.0,
            0.09375,
            0.1875,
            -0.0625,
            -0.09375,
            -0.09375,
            0.03125,
            0.0625,
            0.0,
            0.0625,
            0.09375,
            -0.03125,
            0.03125,
            -0.03125,
        },
    },
    {
        {
            -0.09375,
            0.046875,
            0.109375,
            -0.046875,
            0.078125,
            0.078125,
            0.109375,
            0.0,
            0.078125,
            0.046875,
            -0.015625,
            0.09375,
            -0.046875,
            -0.109375,
            -0.046875,
            -0.046875,
            0.03125,
            0.078125,
            -0.015625,
            -0.078125,
            -0.015625,
            -0.03125,
            0.046875,
            0.03125,
            0.0625,
            -0.078125,
            0.0625,
            0.046875,
            -0.03125,
            -0.03125,
            0.03125,
            0.0625,
            -0.015625,
            0.0625,
            -0.078125,
            0.09375,
            0.046875,
            0.109375,
            -0.109375,
            -0.03125,
            -0.078125,
            -0.109375,
            -0.03125,
            -0.015625,
            0.0,
            0.09375,
            -0.046875,
            -0.109375,
            0.109375,
            0.046875,
            -0.078125,
            -0.078125,
            -0.015625,
            -0.078125,
            0.03125,
            -0.09375,
            -0.015625,
            0.109375,
            -0.015625,
            0.046875,
            0.015625,
            -0.03125,
            0.109375,
            -0.09375,
        },
        {
            0.0625,
            -0.03125,
            0.09375,
            0.03125,
            0.0,
            -0.09375,
            0.0,
            -0.125,
            0.03125,
            0.0,
            0.09375,
            0.0,
            0.03125,
            -0.03125,
            0.09375,
            -0.09375,
            0.03125,
            0.0625,
            -0.0625,
            0.03125,
            0.125,
            0.09375,
            -0.0625,
            -0.0625,
            -0.03125,
            0.03125,
            -0.0625,
            0.09375,
            -0.125,
            0.0625,
            0.0,
            0.0,
            -0.0625,
            -0.125,
            -0.125,
            -0.0625,
            -0.03125,
            0.0,
            0.0,
            0.0625,
            0.09375,
            -0.03125,
            -0.125,
            -0.03125,
            -0.03125,
            0.03125,
            -0.03125,
            -0.125,
            0.03125,
            0.0,
            0.03125,
            0.03125,
            -0.0625,
            0.125,
            -0.03125,
            0.0,
            -0.0625,
            -0.03125,
            -0.1875,
            0.09375,
            0.09375,
            -0.03125,
            -0.03125,
            -0.0625,
        },
        {
            -0.03125,
            0.125,
            0.03125,
            0.0,
            -0.03125,
            0.0,
            -0.09375,
            -0.09375,
            0.03125,
            -0.21875,
            0.0625,
            -0.03125,
            -0.09375,
            0.0,
            -0.09375,
            0.0,
            -0.03125,
            0.0,
            -0.09375,
            0.0,
            -0.03125,
            0.0,
            -0.03125,
            0.03125,
            0.03125,
            0.0625,
            0.0625,
            -0.03125,
            0.03125,
            0.0,
            -0.0625,
            0.0625,
            -0.0625,
            0.03125,
            0.03125,
            0.09375,
            0.0625,
            -0.125,
            -0.09375,
            0.0,
            0.0,
            0.03125,
