const float q_bidirectional_1_gru_backward_kernel[64][3][128] = {
    {
        {
            0.00035391314304433763,
            -0.03233861178159714,
            0.0591144897043705,
            -0.13711929321289062,
            -0.061971064656972885,
            0.1792110800743103,
            -0.09710147976875305,
            -0.08572176843881607,
            0.01335514709353447,
            0.03901045024394989,
            0.03715783357620239,
            -0.08268763870000839,
            0.03982057049870491,
            -0.10316721349954605,
            0.11635951697826385,
            0.013992578722536564,
            -0.029427187517285347,
            0.055195152759552,
            0.1409817337989807,
            -0.02551409788429737,
            -0.09982430189847946,
            0.11715984344482422,
            -0.16611525416374207,
            -0.04612069949507713,
            0.0598854199051857,
            -0.1023237556219101,
            -0.10923776775598526,
            0.17608919739723206,
            -0.13968287408351898,
            -0.009437620639801025,
            -0.10856389999389648,
            0.013109607622027397,
            0.10977665334939957,
            0.04723896086215973,
            0.0709289014339447,
            0.03662421926856041,
            0.09037408232688904,
            -0.0760224387049675,
            0.07610230147838593,
            0.008444911800324917,
            -0.057742681354284286,
            -0.03686455637216568,
            0.039906296879053116,
            0.054238926619291306,
            0.007624161895364523,
            0.19020411372184753,
            -0.07425916939973831,
            -0.012856272980570793,
            -0.11097601801156998,
            0.032623693346977234,
            -0.05202342942357063,
            0.20578834414482117,
            -0.1394786387681961,
            -0.07721828669309616,
            0.004584559239447117,
            -0.017040632665157318,
            -0.16789697110652924,
            0.16829781234264374,
            -0.11360455304384232,
            -0.04621828719973564,
            0.09907121956348419,
            0.05564785376191139,
            -0.07206886261701584,
            -0.08758322894573212,
            -0.16278716921806335,
            0.0130904046818614,
            -0.20618696510791779,
            -0.03387012332677841,
            -0.060866426676511765,
            0.06029028818011284,
            -0.0013832345139235258,
            -0.012638233602046967,
            -0.16918344795703888,
            0.0518365204334259,
            0.19210460782051086,
            0.10386964678764343,
            -0.1462351381778717,
            -0.009265951812267303,
            0.0205380916595459,
            0.010524622164666653,
            -0.1206846758723259,
            -0.0013752534287050366,
            -0.03641568869352341,
            -0.021819239482283592,
            -0.13211558759212494,
            -0.10951434075832367,
            0.015946922823786736,
            -0.038095731288194656,
            0.17296531796455383,
            0.049851272255182266,
            0.006977166514843702,
            -0.07353891432285309,
            0.08382971584796906,
            0.05411887541413307,
            0.05707847326993942,
            -0.11182664334774017,
            -0.1228208839893341,
            -0.013760071247816086,
            0.04949939623475075,
            0.006622749846428633,
            -0.09510761499404907,
            0.0153109822422266,
            0.016889940947294235,
            -0.116465725004673,
            -0.010055165737867355,
            -0.07656455785036087,
            0.027525076642632484,
            0.0686170756816864,
            -0.06591811776161194,
            -0.2080918401479721,
            0.09114407002925873,
            -0.04249980300664902,
            -0.17743749916553497,
            0.019728343933820724,
            0.015485376119613647,
            0.25196021795272827,
            -0.08704245835542679,
            -0.12494517117738724,
            0.06148228794336319,
            0.0567082017660141,
            0.06387646496295929,
            0.047483667731285095,
            -0.06242375448346138,
            -0.060867879539728165,
            -0.1511138379573822,
            -0.02902543917298317,
            0.018438849598169327,
            0.009875018149614334,
        },
        {
            -0.1422836035490036,
            -0.14987945556640625,
            0.02699771523475647,
            -0.017617208883166313,
            0.1555415838956833,
            -0.09051884710788727,
            0.1588580459356308,
            -0.062468670308589935,
            0.037510860711336136,
            0.11599669605493546,
            0.07721903920173645,
            -0.15060853958129883,
            0.03958604857325554,
            -0.0731390193104744,
            0.03127560392022133,
            0.06446950882673264,
            0.1301025003194809,
            0.056954555213451385,
            0.050415411591529846,
            0.1517603099346161,
            0.023191917687654495,
            0.06761627644300461,
            0.10825581848621368,
            0.08007286489009857,
            0.05996617674827576,
            -0.14130853116512299,
            0.018838591873645782,
            -0.01050199568271637,
            0.06630632281303406,
            0.10276419669389725,
            -0.06497010588645935,
            0.09251629561185837,
            -0.11295405775308609,
            0.013277733698487282,
            0.16201122105121613,
            0.11849609017372131,
            0.08827608823776245,
            0.04471207037568092,
            0.0073857088573277,
            0.08298143744468689,
            -0.04889339581131935,
            0.11412888765335083,
            0.1585739254951477,
            -0.12258560210466385,
            0.0028687843587249517,
            -0.06108314171433449,
            0.14154629409313202,
            -0.09388695657253265,
            0.031286366283893585,
            0.18201105296611786,
            -0.1525268852710724,
            -0.10870864242315292,
            0.08685451000928879,
            -0.08122614026069641,
            -0.15745554864406586,
            -0.07241098582744598,
            0.1420503854751587,
            0.14705587923526764,
            -0.19061540067195892,
            0.020941752940416336,
            -0.10180935263633728,
            -0.00789590459316969,
            -0.033579468727111816,
            0.06174209341406822,
            0.1117454469203949,
            -0.0990830659866333,
            0.0049159289337694645,
            0.14170022308826447,
            0.06848201900720596,
            0.04122693091630936,
            0.11850181221961975,
            0.04611849784851074,
            -0.044426143169403076,
            0.12515123188495636,
            0.028856858611106873,
            -0.03222762793302536,
            0.09566056728363037,
            0.12659615278244019,
            0.1531476527452469,
            -0.10723153501749039,
            0.17070616781711578,
            -0.031858280301094055,
            -0.06031861528754234,
            -0.1105014979839325,
            -0.11537684500217438,
            0.1084100529551506,
            -0.08808698505163193,
            -0.08424806594848633,
            -0.07011991739273071,
            -0.09392447769641876,
            0.13229870796203613,
            0.026230530813336372,
            -0.2171226441860199,
            0.03916744887828827,
            0.060864776372909546,
            0.07569627463817596,
            -0.0621606707572937,
            0.11144930124282837,
            0.06493715196847916,
            0.1673259735107422,
            0.12047015875577927,
            0.018405014649033546,
            0.174706369638443,
            0.07575060427188873,
            -0.0398072712123394,
            0.04760442301630974,
            0.009243790060281754,
            -0.11229074746370316,
            -0.04479025676846504,
            0.22938747704029083,
            -0.1934477537870407,
            -0.05188145488500595,
            -0.0579574778676033,
            -0.035106126219034195,
            0.10647555440664291,
            0.02237480878829956,
            0.16347862780094147,
            -0.1313302367925644,
            -0.09376267343759537,
            -0.2618556618690491,
            -0.1798948496580124,
            0.06586961448192596,
            0.010110139846801758,
            0.11060360819101334,
            -0.06079588830471039,
            0.08347418159246445,
            -0.06916733086109161,
            0.05268241837620735,
        },
        {
            0.01342945545911789,
            -0.056352030485868454,
            -0.09697335213422775,
            -0.10186050832271576,
            0.09042054414749146,
            -0.0640995055437088,
            0.09831896424293518,
            -0.13720758259296417,
            0.07100015133619308,
            0.01789027824997902,
            -0.033679839223623276,
            0.00918207224458456,
            0.10473368316888809,
            0.007632057648152113,
            0.10218457877635956,
            0.09242335706949234,
            -0.04051433876156807,
            0.04228635132312775,
            0.12247998267412186,
            -0.04660331457853317,
            0.028222471475601196,
            -0.023108433932065964,
            -0.04666558653116226,
            0.0451035276055336,
            0.10261113941669464,
            -0.014858434908092022,
            0.03779311850667,
            -0.016344714909791946,
            0.10492391139268875,
            -0.05418470501899719,
            0.012557944282889366,
            0.03111419640481472,
            0.029932253062725067,
            0.09569060057401657,
            0.107106514275074,
            -0.02256746217608452,
            -0.10311714559793472,
            0.011124449782073498,
            -0.027981501072645187,
            -0.040229830890893936,
            -0.10587776452302933,
            -0.048754941672086716,
            -0.0030677032191306353,
            0.06003032624721527,
            0.10080984979867935,
            -0.027216138318181038,
            -0.010087682865560055,
            0.07523345947265625,
            -0.1257869452238083,
            -0.03950708359479904,
            0.08425013720989227,
            -0.011635685339570045,
            -0.0454869382083416,
            0.07531435787677765,
            0.016667421907186508,
            0.060013096779584885,
            0.0804997980594635,
            -0.03544244542717934,
            0.008408656343817711,
            -0.006104352883994579,
            0.08848793059587479,
            -0.02408730983734131,
            -0.03421672806143761,
            0.09738689661026001,
            -0.11402801424264908,
            0.021255718544125557,
            0.06517987698316574,
            0.0018746918067336082,
            7.69977705203928e-05,
            -0.03253188356757164,
            0.04623711109161377,
            -0.05026978626847267,
            -0.0377470999956131,
            0.019655849784612656,
            -0.13543911278247833,
            0.09402843564748764,
            -0.03239933028817177,
            -0.04327033832669258,
            -0.05846681445837021,
            0.10162950307130814,
            -0.010082830674946308,
            0.024281224235892296,
            -0.09426534175872803,
            0.08945578336715698,
            -0.02628181502223015,
            -0.14568041265010834,
            -0.029027137905359268,
            -0.0005261917249299586,
            -0.08450235426425934,
            0.008086472749710083,
            -0.10689461976289749,
            -0.006309155374765396,
            0.06191140413284302,
            0.06754633039236069,
            -0.12214235961437225,
            -0.1119702160358429,
            -0.11762186884880066,
            0.07938209176063538,
            0.12811951339244843,
            0.07429386675357819,
            -0.01722780056297779,
            -0.04972633346915245,
            -0.15200063586235046,
            -0.08687668293714523,
            0.11040034145116806,
            0.04734097793698311,
            0.05391519144177437,
            -0.11028698831796646,
            -0.0034650852903723717,
            0.07946321368217468,
            -0.08942553400993347,
            -0.08042504638433456,
            0.11817774921655655,
            0.11048280447721481,
            -0.09023548662662506,
            -0.0492398627102375,
            -0.02289765328168869,
            -0.13882267475128174,
            0.038174793124198914,
            -0.0693807601928711,
            0.2594730854034424,
            -0.006970276590436697,
            -0.12983295321464539,
            -0.04442894831299782,
            0.10299134999513626,
            0.025576455518603325,
            0.05722186714410782,
            0.09774085879325867,
        },
    },
    {
        {
            0.10636647045612335,
            -0.11431558430194855,
            -0.11673746258020401,
            -0.15617306530475616,
            0.1115088015794754,
            0.12111344188451767,
            -0.20046904683113098,
            0.16523486375808716,
            -0.04876140505075455,
            -0.11915023624897003,
            0.13617464900016785,
            0.04126178100705147,
            0.03253675252199173,
            0.015337486751377583,
            0.07589124143123627,
            0.10016494989395142,
            -0.042595457285642624,
            0.11035991460084915,
            -0.09643286466598511,
            0.11289273947477341,
            -0.17076429724693298,
            0.05496545508503914,
            -0.06300069391727448,
            0.023089207708835602,
            -0.11447607725858688,
            -0.21123313903808594,
            0.002720857970416546,
            -0.10331473499536514,
            -0.05187833309173584,
            0.014266216196119785,
            -0.08512300997972488,
            0.030223021283745766,
            0.06380383670330048,
            0.08594971895217896,
            0.09617459774017334,
            -0.004785717930644751,
            -0.04507365822792053,
            -0.08338933438062668,
            -0.11437516659498215,
            -0.12200421094894409,
            -0.13319869339466095,
            0.07443142682313919,
            -0.006387107074260712,
            0.10323160886764526,
            0.02175573818385601,
            0.040121521800756454,
            0.09126251935958862,
            -0.10747028142213821,
            0.0183520819991827,
            0.06708318740129471,
            -0.035618580877780914,
            0.0959901288151741,
            0.04637455195188522,
            0.07147952914237976,
            -0.08945121616125107,
            -0.1219923123717308,
            -0.16682292520999908,
            -0.01309625618159771,
            -0.11742212623357773,
            0.1446448713541031,
            0.034216757863759995,
            0.13301175832748413,
            0.09352150559425354,
            -0.01354200765490532,
            -0.15159133076667786,
            -0.019110260531306267,
            -0.1593933254480362,
            -0.13252165913581848,
            -0.12853336334228516,
            0.16575150191783905,
            0.036564018577337265,
            0.008074240759015083,
            -0.1341092884540558,
            -0.15880700945854187,
            0.1612177938222885,
            -0.1416686773300171,
            -0.013221555389463902,
            0.12498655915260315,
            -0.24536919593811035,
            0.04796605184674263,
            -0.08971957117319107,
            -0.03147740289568901,
            -0.0319848507642746,
            -0.04530840367078781,
            0.01956527680158615,
            -0.08081205189228058,
            0.04303587228059769,
            -0.04674117639660835,
            0.18192382156848907,
            0.08910007774829865,
            0.054193176329135895,
            0.0695183202624321,
            0.049967747181653976,
            0.0640816017985344,
            -0.18273840844631195,
            0.058294810354709625,
            0.009299110621213913,
            0.007670699618756771,
            0.10785824060440063,
            0.06957851350307465,
            -0.28636494278907776,
            -0.1928916573524475,
            -0.16766111552715302,
            -0.254768043756485,
            -0.08103284239768982,
            -0.11241009831428528,
            -0.19567734003067017,
            -0.07357188314199448,
            -0.3182744085788727,
            -0.22745473682880402,
            -0.04493491351604462,
            0.21344870328903198,
            0.031923431903123856,
            0.019433017820119858,
            -0.06697367876768112,
            0.1253514140844345,
            -0.12186864018440247,
            0.06054781377315521,
            0.028963394463062286,
            0.10445787012577057,
            0.15372182428836823,
            0.13669230043888092,
            -0.14388860762119293,
            -0.17373506724834442,
            -0.11172866076231003,
            0.0054819947108626366,
            -0.15651798248291016,
            0.027051083743572235,
        },
        {
            -0.04991239681839943,
            -0.05517538636922836,
            0.14471548795700073,
            0.025752410292625427,
            0.09020854532718658,
            0.06387341767549515,
            0.04743985831737518,
            0.12460178136825562,
            0.004173596855252981,
            0.03860151395201683,
            -0.11161072552204132,
            0.0014909408055245876,
            -0.06707342714071274,
            0.0895116999745369,
            0.11950516700744629,
            -0.03972641006112099,
            0.004579935688525438,
            0.15449391305446625,
            0.04355072230100632,
            -0.03612968698143959,
            0.0625007227063179,
            -0.15134018659591675,
            0.14632649719715118,
            0.13310986757278442,
            -0.04697686806321144,
            0.12643671035766602,
            0.027204586192965508,
            0.06279748678207397,
            0.13145819306373596,
            0.17564710974693298,
            -0.10803566873073578,
            0.05674729868769646,
            -0.0056567443534731865,
            -0.08662379533052444,
            -0.05033983290195465,
            -0.0063850111328065395,
            0.04748057201504707,
            -0.12116033583879471,
            -0.09829755127429962,
            0.09254059940576553,
            0.1620640754699707,
            0.060594044625759125,
            0.010666762478649616,
            0.09349576383829117,
            -0.09159152954816818,
            0.1182897686958313,
            0.007803881075233221,
            0.08552800118923187,
            0.13588078320026398,
            0.0020644173491746187,
            -0.1227518692612648,
            -0.0795351192355156,
            0.15196318924427032,
            -0.030648715794086456,
            -0.014095177873969078,
            0.10482266545295715,
            0.039904866367578506,
            -0.12212703377008438,
            0.15192976593971252,
            -0.03514156863093376,
            0.012589924968779087,
            -0.012681589461863041,
            -0.05362064763903618,
            0.0717306062579155,
            -0.03265903517603874,
            0.024045828729867935,
            -0.04226917028427124,
            0.1429479718208313,
            -0.07144277542829514,
            -0.02343517728149891,
            -0.04646069183945656,
            -0.03379170224070549,
            0.015056051313877106,
            0.16615062952041626,
            -0.04569365456700325,
            0.08948977291584015,
            -0.014179855585098267,
            0.04894338175654411,
            0.03740936517715454,
            -0.06455732136964798,
            0.14390620589256287,
            0.023525351658463478,
            0.1323237419128418,
            0.023933736607432365,
            0.030900677666068077,
            0.19563265144824982,
            -0.07830505073070526,
            -0.051081929355859756,
            0.005138583481311798,
            -0.0957728922367096,
            -0.08995763212442398,
            0.05855816975235939,
            0.042162030935287476,
            0.09691297262907028,
            0.17599399387836456,
            0.04424125328660011,
            -0.013434027321636677,
            0.07457194477319717,
            0.03357802331447601,
            0.06088431924581528,
            0.03815913200378418,
            0.049314144998788834,
            -0.03985698148608208,
            0.18625690042972565,
            -0.15069760382175446,
            0.07466917484998703,
            -0.046732787042856216,
            0.07921207696199417,
            0.20427973568439484,
            0.1847168654203415,
            -0.15620899200439453,
            -0.09846017509698868,
            -0.1979285478591919,
            0.12369187921285629,
            0.06543030589818954,
            0.12638325989246368,
            -0.010043839924037457,
            0.022883621975779533,
            -0.20829997956752777,
            0.0502622053027153,
            -0.2994809150695801,
            0.07932636886835098,
            0.2127012312412262,
            -0.023635314777493477,
            0.10843849182128906,
            0.13800835609436035,
            0.03613395616412163,
            0.08098000288009644,
        },
        {
            0.11399737745523453,
            0.10519616305828094,
            0.07616951316595078,
            0.04124367609620094,
            0.022702831774950027,
            0.042382240295410156,
            -0.06525789946317673,
            0.05179167166352272,
            0.033128589391708374,
            0.03649340942502022,
            -0.12567873299121857,
            0.13364574313163757,
            0.060276422649621964,
            -0.11959707736968994,
            0.10714183002710342,
            0.05179057642817497,
            0.029937682673335075,
            0.09664052724838257,
            0.13198013603687286,
            0.0999475046992302,
            0.10884782671928406,
            -0.019211694598197937,
            -0.11665996164083481,
            -0.06340637058019638,
            0.10587260127067566,
            0.06749582290649414,
            0.047007206827402115,
            0.11337291449308395,
            -0.04563917964696884,
            -0.0403241291642189,
            -0.05864850804209709,
            0.07451415807008743,
            -0.047206368297338486,
            -0.10057589411735535,
            0.04572056978940964,
            -0.10976167768239975,
            -0.09778337180614471,
            0.11611870676279068,
            0.12026393413543701,
            0.08049149811267853,
            0.06471643596887589,
            -0.09853967279195786,
            0.13045258820056915,
            0.09078006446361542,
            0.002577428240329027,
            -0.008605862967669964,
            -0.06813196837902069,
            0.02644483745098114,
            -0.025123491883277893,
            0.0791437029838562,
            -0.07497084885835648,
            0.10601197183132172,
            0.09352165460586548,
            0.0923292338848114,
            0.13856889307498932,
            0.10259190946817398,
            -0.1409924328327179,
            -0.03149012476205826,
            -0.10824257135391235,
            -0.08981331437826157,
            0.024491166695952415,
            0.04808928444981575,
            0.05469653755426407,
            -0.11575352400541306,
            -0.12999804317951202,
            -0.05753513053059578,
            -0.0520402267575264,
            -0.03663995489478111,
            0.03654120862483978,
            -0.04675747826695442,
            0.038916364312171936,
            -0.03633490949869156,
            -0.045902661979198456,
            -0.07894723862409592,
            0.06164107844233513,
            -0.08808968216180801,
            -0.12745064496994019,
            -0.1136196032166481,
            -0.08529984205961227,
            0.09709189832210541,
            0.04985102266073227,
            -0.035607315599918365,
            -0.10158215463161469,
            -0.10843934863805771,
            0.07674261927604675,
            -0.14473114907741547,
            0.03153006359934807,
            -0.00036964009632356465,
            -0.09488485008478165,
            -0.02119358815252781,
            -0.09060966223478317,
            -0.03501608222723007,
            0.14313896000385284,
            0.05247572064399719,
            -0.05640478804707527,
            0.09933176636695862,
            0.1283022165298462,
            -0.09068161249160767,
            -0.09365289658308029,
            -0.04277130961418152,
            -0.056434474885463715,
            -0.08819688111543655,
            0.04464787244796753,
            0.045892853289842606,
            0.026768194511532784,
            -0.0631314069032669,
            -0.02501092292368412,
            -0.11351316422224045,
            -0.11516103148460388,
            0.003024236997589469,
            -0.06504814326763153,
            0.0383041650056839,
            0.14286820590496063,
            -0.03958326205611229,
            -0.02125350758433342,
            0.07577186822891235,
            0.05638129264116287,
            -0.19111883640289307,
            -0.029423411935567856,
            -0.06765127927064896,
            0.197534441947937,
            -0.037092626094818115,
            -0.05636624991893768,
            -0.12806980311870575,
            -0.10662327706813812,
            0.06125393137335777,
            0.03292088583111763,
            -0.018854383379220963,
        },
    },
    {
        {
            0.13877299427986145,
            0.046610843390226364,
            0.05391514301300049,
            0.13575616478919983,
            -0.07492110878229141,
            -0.031172538176178932,
            -0.14056074619293213,
            -0.022267837077379227,
            -0.07886157184839249,
            -0.02108256332576275,
            0.004569254815578461,
            0.12011939287185669,
            0.2205626517534256,
            -0.1783195585012436,
            -0.18321074545383453,
            0.014377468265593052,
            -0.004610956180840731,
            0.16771329939365387,
            0.05852694436907768,
            0.05234428867697716,
            -0.02035861276090145,
            0.018166558817029,
            -0.1142985001206398,
            0.08632618933916092,
            0.0585884191095829,
            0.12433423846960068,
            -0.1206737533211708,
            0.013236792758107185,
            -0.01259985938668251,
            -0.025033840909600258,
            -0.04848485067486763,
            0.1234920471906662,
            -0.09236573427915573,
            0.05739714577794075,
            0.07011368870735168,
            -0.16271257400512695,
            -0.034936513751745224,
            -0.03706035390496254,
            -0.11028558015823364,
            -0.17902378737926483,
            -0.13874264061450958,
            0.24829497933387756,
            0.03102925606071949,
            0.08917724341154099,
            0.20837433636188507,
            0.028553230687975883,
            -0.14453338086605072,
            -0.05755014717578888,
            -0.21541614830493927,
            0.04699878394603729,
            0.05687306076288223,
            0.07331083714962006,
            -0.05445442721247673,
            -0.049430038779973984,
            -0.01905551366508007,
            -0.04361405968666077,
            -0.15386664867401123,
            0.01586340181529522,
            0.11170601844787598,
            0.1855953186750412,
            0.14993657171726227,
            0.032181039452552795,
            -0.015262806788086891,
            -0.003393313614651561,
            -0.0740542784333229,
            -0.10285230726003647,
            -0.04378678649663925,
            -0.0006540041649714112,
            -0.22413338720798492,
            0.07470482587814331,
            0.048357799649238586,
            0.07079558819532394,
            -0.038312263786792755,
            -0.09169452637434006,
            -0.154502734541893,
            0.15183326601982117,
            0.1452312022447586,
            -0.13613349199295044,
            -0.05793140083551407,
            -0.03390577808022499,
            0.0659039318561554,
            -0.021114299073815346,
            0.19460810720920563,
            -0.1692759096622467,
            -0.10467637330293655,
            -0.19371433556079865,
            0.2299167811870575,
            -0.09464962780475616,
            0.08329646289348602,
            0.006499831099063158,
            -0.15327033400535583,
            0.22788457572460175,
            0.05965189263224602,
            -0.22124581038951874,
            -0.1936570256948471,
            -0.03772808983922005,
            -0.15267236530780792,
            0.1752358376979828,
            0.07023593783378601,
            0.0579666793346405,
            0.07626467943191528,
            0.14449456334114075,
            0.036234404891729355,
            0.03572363406419754,
            -0.05667157098650932,
            -0.2526766061782837,
            0.03418206796050072,
            0.025358397513628006,
            -0.037309613078832626,
            -0.15586905181407928,
            0.21110199391841888,
            0.09931622445583344,
            -0.09486429393291473,
            -0.09896679222583771,
            -0.1459551453590393,
            0.03206081688404083,
            0.19168579578399658,
            0.10652871429920197,
            0.25781190395355225,
            -0.0038166858721524477,
            0.004451661370694637,
            -0.19995878636837006,
            0.15550249814987183,
            -0.005661487579345703,
            0.04890753701329231,
            -0.09556937217712402,
            0.18271255493164062,
            0.1121162548661232,
        },
        {
            -0.02999226190149784,
            -0.09983833134174347,
            -0.02645689994096756,
            -0.11782733350992203,
            0.12582479417324066,
            -0.05880104750394821,
            0.14492523670196533,
            0.10974104702472687,
            0.07166071981191635,
            -0.010151597671210766,
            -0.055944524705410004,
            0.03908371180295944,
            -0.05055597424507141,
            0.0521349161863327,
            0.1362239271402359,
            0.08972394466400146,
            -0.05722527205944061,
            -0.12375527620315552,
            0.08699212968349457,
            0.1400057077407837,
            5.7877852668752894e-05,
            0.05419299378991127,
            -0.07833843678236008,
            0.05004623904824257,
            -0.10652115195989609,
            -0.01792820729315281,
            0.020377671346068382,
            0.08736827969551086,
            0.15097199380397797,
            0.05947623401880264,
            -0.17532150447368622,
            -0.1423378735780716,
            0.038570284843444824,
            -0.03338998183608055,
            0.0827985554933548,
            0.05959415063261986,
            0.048741478472948074,
            0.1037171334028244,
            -0.014050275087356567,
            -0.016588766127824783,
            -0.04698839411139488,
            -0.08415530622005463,
            0.09051056951284409,
            -0.04675513878464699,
            0.11369068175554276,
            0.01822349615395069,
            0.027972083538770676,
            0.035102955996990204,
            0.03338424116373062,
            0.05587317422032356,
            -0.0185688529163599,
            -0.06756510585546494,
            0.005477181635797024,
            -0.09122393280267715,
            -0.14928768575191498,
            0.14535094797611237,
            -0.06446067243814468,
            0.09322774410247803,
            0.04056767001748085,
            -0.02205994725227356,
            0.08719895035028458,
            -0.12515079975128174,
            -0.15812022984027863,
            -0.02777491882443428,
            -0.00481792027130723,
            -0.09387951344251633,
            -0.03773801773786545,
            -0.04781784862279892,
            -0.016883503645658493,
            -0.024753477424383163,
            -0.07979907095432281,
            -0.021987520158290863,
            -0.057246264070272446,
            -0.09399363398551941,
            0.15505503118038177,
            0.033438198268413544,
            -0.04976939782500267,
            -0.17209172248840332,
            0.06700091809034348,
            -0.10217196494340897,
            -0.11502096056938171,
            -0.18234242498874664,
            0.04962562024593353,
            -0.1175486296415329,
            0.12738709151744843,
            -0.03387141227722168,
            -0.11452054232358932,
            0.07286285609006882,
            -0.055255044251680374,
            -0.10461132973432541,
            0.12562298774719238,
            0.03725317493081093,
            -0.054742272943258286,
            -0.13185898959636688,
            -0.02824879251420498,
            -0.08800844103097916,
            -0.06832682341337204,
            -0.0592665858566761,
            -0.0690641924738884,
            0.04365050047636032,
            -0.06972123682498932,
            0.05220761522650719,
            -0.13609611988067627,
            -0.048316072672605515,
            -0.015557998791337013,
            0.04982415959239006,
            0.11970420926809311,
            -0.14118316769599915,
            0.11250749230384827,
            -0.03580987825989723,
            0.0692475438117981,
            -0.1027010902762413,
            -0.11530608683824539,
            0.05388619750738144,
            0.06150626018643379,
            0.032261885702610016,
            -0.02816094644367695,
            0.0977497324347496,
            -0.04201951622962952,
            -0.05923826992511749,
            -0.12033173441886902,
            0.20565706491470337,
            0.10436892509460449,
            -0.0272479560226202,
            -0.06646497547626495,
            -0.06700969487428665,
            -0.09739512205123901,
            0.18982148170471191,
        },
        {
            0.008863108232617378,
            -0.10822010040283203,
            0.1294219195842743,
            0.11782070249319077,
            0.0056540933437645435,
            -0.015650462359189987,
            -0.007568132597953081,
            0.06145447865128517,
            0.12517257034778595,
            0.1091093122959137,
            -0.013530978932976723,
            0.09933960437774658,
            0.07721280306577682,
            -0.04149119555950165,
            0.11466134339570999,
            -0.037193574011325836,
            0.016593744978308678,
            0.09555324167013168,
            -0.10455560684204102,
            0.07461944967508316,
            0.07670740783214569,
            -0.08601730316877365,
            -0.058735962957143784,
            0.10954232513904572,
            -0.038459014147520065,
            -0.07803618162870407,
            -0.02761959657073021,
            0.017046960070729256,
            0.08344642072916031,
            0.018113873898983,
            0.11804794520139694,
            0.05479199439287186,
            0.0738472118973732,
            -0.1059354767203331,
            -0.11339970678091049,
            -0.011384954676032066,
            -0.027843885123729706,
            0.03580279275774956,
            0.004986045882105827,
            0.027235491201281548,
            0.11477477848529816,
            0.0548788346350193,
            0.13950327038764954,
            -0.08657187968492508,
            0.0325455516576767,
            -0.13995596766471863,
            -0.02172248624265194,
            0.013929475098848343,
            -0.10985695570707321,
            0.07073751837015152,
            -0.10278571397066116,
            -0.04219130054116249,
            -0.09564799070358276,
            0.03331228718161583,
            -0.0890926942229271,
            0.11167170107364655,
            -0.05446517840027809,
            -0.016660410910844803,
            0.07734698802232742,
            0.04462440684437752,
            -0.12891726195812225,
            -0.08862878382205963,
            0.09078527241945267,
            0.12456386536359787,
            -0.07241776585578918,
            -0.16895046830177307,
            0.12243285030126572,
            0.024591049179434776,
            -0.04374467954039574,
            -0.06856722384691238,
            -0.11935066431760788,
            0.23962363600730896,
            0.07974551618099213,
            -0.14554785192012787,
            0.11742029339075089,
            -0.06550465524196625,
            0.06299620866775513,
            -0.06614761799573898,
            -0.12798558175563812,
            -0.08720287680625916,
            0.024142254143953323,
            -0.015462176874279976,
            0.01896481402218342,
            -0.04870906472206116,
            -0.08530930429697037,
            -0.027465365827083588,
            -0.12835906445980072,
            0.0431479774415493,
            -0.15632210671901703,
            -0.13892367482185364,
            0.06585507839918137,
            -0.1427975445985794,
            0.1422426551580429,
            -0.1839389055967331,
            -0.00883520394563675,
            -0.04532880708575249,
            -0.0003358985995873809,
            -0.02333172596991062,
            -0.19057194888591766,
            -0.1588849127292633,
            0.06845540553331375,
            -0.1008211150765419,
            -0.1864757537841797,
            0.051507629454135895,
            0.1795913279056549,
            -0.07274561375379562,
            0.07514684647321701,
            -0.03182970732450485,
            -0.005637718364596367,
            0.13130292296409607,
            0.08920515328645706,
            0.10806313157081604,
            0.05216455087065697,
            0.06299754232168198,
            -0.07512727379798889,
            0.04412980005145073,
            -0.07152155041694641,
            0.022739741951227188,
            0.06332205981016159,
            0.07355803996324539,
            0.15082451701164246,
            -0.1360589563846588,
            0.04358117654919624,
            0.03840510547161102,
            -0.08639205247163773,
            0.12016825377941132,
            -0.030563192442059517,
            0.04524639621376991,
        },
    },
    {
        {
            0.09268779307603836,
            -0.0982365682721138,
            0.1227669045329094,
            -0.16552504897117615,
            0.08491868525743484,
            0.0136147141456604,
            -0.10661513358354568,
            0.16070649027824402,
            -0.028048589825630188,
            0.030238742008805275,
            -0.09487184137105942,
            -0.10509568452835083,
            -0.09157893061637878,
            0.024066828191280365,
            -0.0936124250292778,
            0.21293601393699646,
            0.1377062350511551,
            -0.1017005518078804,
            0.0269051194190979,
            0.1118735522031784,
            -0.07244306802749634,
            0.019288195297122,
            0.1343780905008316,
            -0.026746483519673347,
            -0.02173507586121559,
            -0.18320797383785248,
            0.10319166630506516,
            0.054012443870306015,
            0.07857456803321838,
            -0.02326352708041668,
            -0.02997930906713009,
            0.11131931096315384,
            -0.05786316841840744,
            0.09030935913324356,
            -0.09438063949346542,
            -0.15501369535923004,
            0.09670820832252502,
            -0.09491375833749771,
            0.09664241969585419,
            -0.06266485154628754,
            -0.028437966480851173,
            -0.03420785441994667,
            -0.04085717722773552,
            0.07737050950527191,
            -0.010558130219578743,
            -0.1088605746626854,
            0.09639401733875275,
            -0.0018377668457105756,
            -0.10344526916742325,
            0.09589708596467972,
            0.10137145221233368,
            0.07513592392206192,
            -0.004943764302879572,
            0.00338145368732512,
            0.02250598929822445,
            -0.0742112472653389,
            -0.0652351975440979,
            -0.12105492502450943,
            -0.19220466911792755,
            -0.0465286448597908,
            -0.0508146733045578,
            -0.1295602023601532,
            -0.06608203798532486,
            0.05550312250852585,
            -0.13493521511554718,
            0.09731058031320572,
            -0.18482938408851624,
            -0.086784727871418,
            0.09820385277271271,
            0.14048974215984344,
            -0.09413598477840424,
            -0.16881509125232697,
            0.032427847385406494,
            -0.12624624371528625,
            -0.09941409528255463,
            -0.13361813127994537,
            -0.1259470134973526,
            -0.14300554990768433,
            0.028436049818992615,
            0.019359558820724487,
            -0.0068816314451396465,
            0.041206665337085724,
            -0.1020808294415474,
            -0.05047169700264931,
            0.027038458734750748,
            -0.09885010123252869,
            -0.051485463976860046,
            -0.14130637049674988,
            0.18180684745311737,
            -0.12485719472169876,
            0.0028516985476017,
            0.03667699545621872,
            0.033674970269203186,
            -0.0952276885509491,
            0.039519283920526505,
            -0.04367635026574135,
            -0.02238026075065136,
            -0.12398096919059753,
            0.00014067684242036194,
            -0.07128002494573593,
            0.021719668060541153,
            0.008077990263700485,
            -0.013236576691269875,
            -0.012693495489656925,
            -0.022944150492548943,
            -0.12580619752407074,
            -0.17966747283935547,
            0.059722624719142914,
            -0.20684748888015747,
            0.03211982920765877,
            -0.047747109085321426,
            0.002241413341835141,
            -0.046115271747112274,
            -0.02292730286717415,
            0.13983778655529022,
            0.035827167332172394,
            -0.001535856514237821,
            0.11246327310800552,
            -0.10279107838869095,
            0.15695573389530182,
            0.03354138880968094,
            -0.0926482230424881,
            -0.022541092708706856,
            0.009153108112514019,
            -0.041863854974508286,
            -0.040905073285102844,
            -0.14583677053451538,
            -0.10429727286100388,
        },
        {
            -0.05341925099492073,
            0.04194409400224686,
            -0.07435926049947739,
            -0.004894491750746965,
            0.19172538816928864,
            0.09471878409385681,
            0.026824984699487686,
            -0.060805901885032654,
            0.010439802892506123,
            0.11838069558143616,
            0.13797037303447723,
            -0.013442105613648891,
            -0.031179027631878853,
            -0.01622265949845314,
            0.028847673907876015,
            -0.003329887753352523,
            0.13280093669891357,
            0.10254283249378204,
            -0.027679605409502983,
            0.1628589928150177,
            -0.00015469934442080557,
            -0.11967375874519348,
            0.019784465432167053,
            0.12234244495630264,
            0.0456877127289772,
            -0.1508784145116806,
            -0.04784994572401047,
            0.015459791757166386,
            -0.07326047867536545,
            0.06002315878868103,
            0.03096117451786995,
            -0.12080663442611694,
            -0.16756145656108856,
            0.062430888414382935,
            0.16535308957099915,
            -0.02581901103258133,
            0.1502656489610672,
            0.005004114005714655,
            0.16875159740447998,
            0.04371129348874092,
            0.0010187173029407859,
            -0.07232929021120071,
            0.10802645236253738,
            0.03459619730710983,
            -0.128033846616745,
            -0.08135498315095901,
            0.1451653689146042,
            0.010795416310429573,
            0.036856867372989655,
            -0.09135513752698898,
            -0.03781630098819733,
            -0.044789526611566544,
            0.15746711194515228,
            0.14515961706638336,
            0.08436647802591324,
            -0.05464518070220947,
            -0.014879646711051464,
            -0.06142624467611313,
            0.06652280688285828,
            0.13073121011257172,
            -0.08336814492940903,
            0.004614062141627073,
            -0.04945775866508484,
            0.06412148475646973,
            0.10353145003318787,
            0.11979782581329346,
            0.040593381971120834,
            0.08480899035930634,
            -0.01868332177400589,
            0.04068436473608017,
            -0.11666508764028549,
            -0.07996644079685211,
            -0.08766534924507141,
            0.0061532072722911835,
            0.1604604423046112,
            0.018480144441127777,
            0.03647996112704277,
            0.037314292043447495,
            -0.05686065927147865,
            -0.1338624656200409,
            -0.16358840465545654,
            -0.1294412612915039,
            -0.09674731642007828,
            0.18457193672657013,
            0.029954375699162483,
            -0.03082282654941082,
            0.0898173525929451,
            -0.2299426794052124,
            0.12114259600639343,
            0.1698119044303894,
            -0.011043555103242397,
            0.04179605096578598,
            -0.1402282863855362,
            0.06442976742982864,
            0.10467130690813065,
            0.0007974647451192141,
            -0.025697093456983566,
            -0.172521710395813,
            0.08665747195482254,
            0.15187375247478485,
            0.08918619900941849,
            -0.05563747137784958,
            0.029945706948637962,
            -0.09226389974355698,
            -0.16175763309001923,
            0.03469052538275719,
            0.07456281036138535,
            0.026023533195257187,
            0.10811267793178558,
            0.044668033719062805,
            0.027205342426896095,
            -0.06638382375240326,
            0.16004326939582825,
            -0.14062240719795227,
            -0.010631346143782139,
            0.039280056953430176,
            -0.17460855841636658,
            -0.10611899197101593,
            0.013368841260671616,
            0.05831216648221016,
            0.006354992277920246,
            0.09532737731933594,
            0.03579913452267647,
            0.03756583482027054,
            0.12827268242835999,
            -0.035103652626276016,
            -0.004068818408995867,
            -0.13513150811195374,
        },
        {
            0.004039962776005268,
            -0.06978558748960495,
            0.09617947041988373,
            -0.12141242623329163,
            -0.012323378585278988,
            -0.09859805554151535,
            0.014619327150285244,
            -0.060770053416490555,
            0.13649478554725647,
            0.05513814464211464,
            0.026182612404227257,
            -0.02994115650653839,
            -0.12300101667642593,
            -0.08040957152843475,
            0.06430976092815399,
            -0.06064523756504059,
            0.030315455049276352,
            0.11931952089071274,
            -0.05382731556892395,
            -0.12283379584550858,
            0.11773014068603516,
            0.12959443032741547,
            -0.007449640426784754,
            0.07239528745412827,
            -0.08898388594388962,
            -0.05074173957109451,
            -0.014887950383126736,
            -0.030698353424668312,
            -0.11060488224029541,
            -0.11017530411481857,
            0.039677027612924576,
            0.014281411655247211,
            0.11596881598234177,
            0.05461496114730835,
            0.026963409036397934,
            0.0725850984454155,
            0.09558875858783722,
            -0.026328423991799355,
            -0.08523958176374435,
            -0.09677791595458984,
            -0.06948567181825638,
            0.08221259713172913,
            -0.08748973160982132,
            0.033367279917001724,
            -0.11515337228775024,
            -0.11240117251873016,
            0.14043064415454865,
            -0.1157865896821022,
            -0.11744311451911926,
            0.07429655641317368,
            0.05434443801641464,
            -0.048951417207717896,
            0.04952700436115265,
            -0.10024426877498627,
            0.11877363920211792,
            -0.05365418642759323,
            -0.114756740629673,
            0.05464494973421097,
            -0.04696111008524895,
            0.08239816129207611,
            0.07157326489686966,
            0.10177522897720337,
            0.13410410284996033,
            0.11757227033376694,
            -0.004477552603930235,
            -0.16724349558353424,
            -0.07324844598770142,
            0.04933325946331024,
            0.030841723084449768,
            -0.01070758793503046,
            0.09400304406881332,
            -0.11806762218475342,
            0.0002804009127430618,
            0.0025118328630924225,
            -0.008040059357881546,
            0.06704189628362656,
            -0.13272958993911743,
            0.0018135763239115477,
            -0.0368623211979866,
            0.042708754539489746,
            -0.055360522121191025,
            -0.0829504206776619,
            0.017874836921691895,
            -0.16973629593849182,
            -0.10101550072431564,
            -0.11743280291557312,
            0.018137842416763306,
            0.02581115812063217,
            -0.11188395321369171,
            -0.05811992287635803,
            0.020167870447039604,
            0.030996976420283318,
            0.015387129038572311,
            -0.08129077404737473,
            -0.14497391879558563,
            -0.012601582333445549,
            0.004368846770375967,
            0.1047447919845581,
            -0.07062277942895889,
            0.076120525598526,
            -0.06978956609964371,
            -0.09403948485851288,
            -0.07453911006450653,
            -0.07723794132471085,
            -0.09584680944681168,
            -0.17319616675376892,
            -0.12442908436059952,
            0.12770085036754608,
            -0.0899059846997261,
            -0.09585783630609512,
            -0.16608186066150665,
            0.06572917848825455,
            0.042844731360673904,
            0.004711705259978771,
            0.1346779465675354,
            0.09171956777572632,
            0.0347331240773201,
            -0.14563162624835968,
            0.04045574739575386,
            0.08564972132444382,
            0.03468989208340645,
            0.10717826336622238,
            -0.05461665242910385,
            -0.05903080850839615,
            0.10527036339044571,
            0.15049239993095398,
            0.08264957368373871,
            -0.08059686422348022,
        },
    },
    {
        {
            -0.06646816432476044,
            -0.04014862701296806,
            0.0639442726969719,
            0.20019228756427765,
            -0.11185535788536072,
            0.04100847616791725,
            0.15895898640155792,
            -0.1250176876783371,
            -0.01380574144423008,
            -0.009651180356740952,
            -0.028512747958302498,
            -0.040770433843135834,
            0.12574154138565063,
            0.08442869782447815,
            -0.157838836312294,
            -0.0529697947204113,
            0.08273837715387344,
            0.08691267669200897,
            0.06070913001894951,
            -0.013162700459361076,
            -0.011949000880122185,
            0.17546555399894714,
            -0.010794318281114101,
            -0.1481340080499649,
            0.16729126870632172,
            -0.062308114022016525,
            -0.07215344160795212,
            -0.13653205335140228,
            -0.12884776294231415,
            -0.07424268871545792,
            0.12664064764976501,
            0.02552902325987816,
            0.0018825315637513995,
            0.08622802793979645,
            -0.011536480858922005,
            0.17996449768543243,
            -0.20996473729610443,
            0.12211843580007553,
            -0.03724712133407593,
            -0.12739895284175873,
            0.017573600634932518,
            0.1722203493118286,
            -0.10660634934902191,
            0.07074769586324692,
            -0.001668337034061551,
            0.10169831663370132,
            0.018625104799866676,
            -0.030972609296441078,
            -0.13322819769382477,
            0.016849379986524582,
            0.05683814361691475,
            0.018887929618358612,
            -0.11491487920284271,
            0.004513674881309271,
            0.057765983045101166,
            -0.02015089802443981,
            -0.06040992587804794,
            -0.03858949616551399,
            -0.11229454725980759,
            -0.07362085580825806,
            0.13988317549228668,
            0.010557172819972038,
            0.14570318162441254,
            0.18577007949352264,
            0.07491093873977661,
            0.051352567970752716,
            -0.1381649672985077,
            0.3185867965221405,
            -0.12010778486728668,
            -0.04050919786095619,
            0.13956941664218903,
            -0.17488814890384674,
            0.0694059506058693,
            0.16006773710250854,
            -0.0412665419280529,
            -0.13372069597244263,
            0.10903384536504745,
            -0.04192333668470383,
            0.24767066538333893,
            0.06035035848617554,
            0.002005518414080143,
            0.16528445482254028,
            0.024466844275593758,
            0.08811652660369873,
            -0.03899386525154114,
            0.08153123408555984,
            -0.2467174232006073,
            -0.10576877743005753,
            0.14035183191299438,
            0.02296426333487034,
            0.1745629608631134,
            -0.2505223751068115,
            -0.09536270052194595,
            0.10861091315746307,
            0.13156570494174957,
            0.032930731773376465,
            -0.0682654157280922,
            0.09234468638896942,
            0.018614958971738815,
            -0.05450885370373726,
            -0.10525660216808319,
            -0.023094214498996735,
            -0.07587075978517532,
            0.08901435881853104,
            -0.1505218893289566,
            0.09522278606891632,
            0.28088003396987915,
            -0.2505944073200226,
            0.06750742346048355,
            0.23039624094963074,
            0.04721205681562424,
            -0.2755943238735199,
            -0.03141557797789574,
            -0.014523504301905632,
            0.026822581887245178,
            0.04721500352025032,
            0.2756064832210541,
            0.19052287936210632,
            0.1167188212275505,
            -0.15971098840236664,
            -0.037435874342918396,
            0.11504608392715454,
            0.043198224157094955,
            0.06280737370252609,
            0.04178546741604805,
            -0.10578340291976929,
            0.10535692423582077,
            -0.07294239848852158,
        },
        {
            0.07013189792633057,
            -0.04774020239710808,
            -0.008285293355584145,
            0.0813116654753685,
            0.11816226691007614,
            0.008748002350330353,
            0.11592070013284683,
            -0.028704999014735222,
            0.08842755854129791,
            -0.02577367052435875,
            -0.08935211598873138,
            0.08414508402347565,
            0.1285824179649353,
            -0.03853549063205719,
            0.017145993188023567,
            -0.01764027588069439,
            -0.09234181046485901,
            0.02023676410317421,
            0.12425720691680908,
            -0.0559842512011528,
            0.1172330230474472,
            -0.07041026651859283,
            -0.021073685958981514,
            0.08930069953203201,
            0.15790410339832306,
            0.08763032406568527,
            0.0404813252389431,
            -0.035290997475385666,
            -0.012270133942365646,
            0.11838028579950333,
            0.20960454642772675,
            -0.0402417927980423,
            0.033789899200201035,
            0.12114670872688293,
            -0.0348985493183136,
            0.012010584585368633,
            0.06801071017980576,
            0.09419562667608261,
            -0.10562705248594284,
            0.07311806082725525,
            0.07465259730815887,
            -0.08957851678133011,
            -0.06491360813379288,
            0.060930829495191574,
            -0.013453567400574684,
            0.12538890540599823,
            -0.07808154076337814,
            -0.006880208849906921,
            0.10675393790006638,
            -0.018789546564221382,
            0.006117184180766344,
            0.15011629462242126,
            -0.13138094544410706,
            -0.08396448940038681,
            0.005162507761269808,
            0.15008008480072021,
            -0.05615990608930588,
            0.0031156318727880716,
            -0.11244650930166245,
            -0.009900481440126896,
            0.019368071109056473,
            -0.012295268476009369,
            -0.03194425255060196,
            0.017292672768235207,
            -0.06425236165523529,
            0.076728954911232,
            -0.10243304073810577,
            -0.056170184165239334,
            0.06494548171758652,
            0.013444725424051285,
            -0.1760164499282837,
            -0.032428205013275146,
            -0.02182299643754959,
            -0.039030902087688446,
            0.03887780383229256,
            -0.08211605250835419,
            -0.036069538444280624,
            0.13146649301052094,
            -0.013613071292638779,
            0.1731836199760437,
            -0.09315434843301773,
            -0.1624026894569397,
            -0.08358645439147949,
            0.24121007323265076,
            -0.032166458666324615,
            0.07699744403362274,
            0.004236852750182152,
            -0.189409539103508,
            0.12077770382165909,
            0.05671382322907448,
            0.1670500487089157,
            0.052988339215517044,
            -0.08038949221372604,
            -0.0035898785572499037,
            -0.019800955429673195,
            0.11343639343976974,
            -0.0691496729850769,
            -0.09253779798746109,
            0.1744992733001709,
            -0.03028400056064129,
            -0.2343256026506424,
            -0.10862589627504349,
            -0.16065692901611328,
            0.1440695971250534,
            0.0007906826795078814,
            0.13379184901714325,
            0.027214350178837776,
            0.024431172758340836,
            0.013562936335802078,
            0.08310306072235107,
            0.007738021668046713,
            -0.0692952424287796,
            0.0198704581707716,
            -0.28071489930152893,
            0.07861059159040451,
            0.016204189509153366,
            -0.014227132312953472,
            0.014291972853243351,
            0.004111000802367926,
            -0.07496976852416992,
            -0.08490195870399475,
            0.14543530344963074,
            -0.23650018870830536,
            -0.008063358254730701,
            0.16764093935489655,
            0.050182487815618515,
            -0.15718528628349304,
            0.014694185927510262,
        },
        {
            0.006005411501973867,
            -0.009918161667883396,
            0.13762818276882172,
            -0.02393302321434021,
            0.08026016503572464,
            -0.08913485705852509,
            0.023114753887057304,
            -0.048161838203668594,
            -0.0007098167552612722,
            -0.0031698953825980425,
            -0.149960458278656,
            0.015927603468298912,
            -0.06701291352510452,
            0.05243229493498802,
            -0.008019257336854935,
            0.09234889596700668,
            -0.10951033979654312,
            0.03768179565668106,
            0.024779638275504112,
            0.08388858288526535,
            -0.03443155437707901,
            0.07396475225687027,
            -0.04151255637407303,
            -0.0036090028006583452,
            0.02671140618622303,
            0.05415637046098709,
            0.049872491508722305,
            0.10998676717281342,
            0.01520492509007454,
            0.13014110922813416,
            -0.06209713593125343,
            -0.02364310994744301,
            0.13973264396190643,
            -0.029673928394913673,
            -0.08015963435173035,
            0.045661527663469315,
            0.078778475522995,
            0.06703849881887436,
            0.057543814182281494,
            0.06514520943164825,
            0.058713167905807495,
            0.01613479293882847,
            0.035435743629932404,
            0.11019940674304962,
            0.07922112941741943,
            -0.050061002373695374,
            -0.13545070588588715,
            0.07949922233819962,
            -0.10764334350824356,
            0.07054571062326431,
            0.02374422177672386,
            -0.010849677957594395,
            -0.11321847885847092,
            -0.135602667927742,
            0.13779164850711823,
            0.02469489723443985,
            0.07962870597839355,
            0.049697354435920715,
            0.10797305405139923,
            0.1373397409915924,
            0.05346544086933136,
            -0.14903739094734192,
            0.07494965940713882,
            0.08913607150316238,
            0.08478323370218277,
            0.3007122874259949,
            0.015151126310229301,
            -0.028527757152915,
            0.04152553528547287,
            0.16285762190818787,
            -0.07984078675508499,
            -0.09239755570888519,
            -0.0907994955778122,
            0.05818087235093117,
            -0.015099835582077503,
            0.10278290510177612,
            0.11228549480438232,
            0.04789062589406967,
            0.027399124577641487,
            -0.03422950580716133,
            0.06379351764917374,
            0.03448909893631935,
            -0.14831764996051788,
            0.16020642220973969,
            0.021998077630996704,
            0.06558024883270264,
            0.03289066255092621,
            0.10682829469442368,
            0.1819457709789276,
            0.005433653015643358,
            0.07024163007736206,
            -0.0188352819532156,
            -0.10657420754432678,
            0.12817949056625366,
            0.10292769968509674,
            0.06479375064373016,
            0.12043383717536926,
            -0.1312534064054489,
            0.2048850953578949,
            -0.07004068046808243,
            0.10668663680553436,
            0.009052800014615059,
            0.05063902214169502,
            0.08562180399894714,
            -0.1205451712012291,
            0.11101622134447098,
            -0.023761488497257233,
            0.022589394822716713,
            0.10505788773298264,
            -0.0927685797214508,
            0.0481400229036808,
            -0.0009652309818193316,
            0.1298982948064804,
            -0.2393757700920105,
            -0.01447945274412632,
            0.12192453444004059,
            -0.004276523366570473,
            0.24004405736923218,
            0.14595675468444824,
            -0.12492408603429794,
            -0.04674564301967621,
            0.049976617097854614,
            -0.0859118103981018,
            -0.00975218415260315,
            0.014028677716851234,
            -0.1132509633898735,
            0.03215106576681137,
            0.0917486846446991,
        },
    },
    {
        {
            -0.04578399658203125,
            0.050362762063741684,
            0.011917109601199627,
            0.014298400841653347,
            0.061268266290426254,
            -0.019234798848628998,
            -0.034579914063215256,
            0.011371726170182228,
            -0.13773763179779053,
            0.10990067571401596,
            -0.023558421060442924,
            0.03066854178905487,
            0.08480852842330933,
            0.09856878221035004,
            0.14429518580436707,
            -0.029657574370503426,
            -0.05883026123046875,
            -0.04668784141540527,
            0.04243544116616249,
            -0.10062403976917267,
            -0.006989482790231705,
            -0.10588681697845459,
            0.10921995341777802,
            -0.09907648712396622,
            0.08509942889213562,
            0.09183668345212936,
            0.09064191579818726,
            -0.10920865088701248,
            -0.012071619741618633,
            0.042073801159858704,
            -0.03018875978887081,
            0.1339525431394577,
            -0.1399787813425064,
            0.1176132932305336,
            0.02550927922129631,
            -0.147190123796463,
            0.0009291531750932336,
            -0.11350639164447784,
            -0.05844351276755333,
            0.07804877310991287,
            0.0276679378002882,
            -0.056643299758434296,
            0.05969519913196564,
            0.0037085837684571743,
            0.08396562188863754,
            -0.09238551557064056,
            0.07301275432109833,
            -0.10577082633972168,
            -0.14113971590995789,
            -0.03441200405359268,
            -0.0225648432970047,
            -0.00800661277025938,
            -0.016195721924304962,
            0.11231143772602081,
            0.08091094344854355,
            0.06259799748659134,
            -0.05286739766597748,
            0.009848338551819324,
            0.06955061107873917,
            0.07156053185462952,
            0.08848541229963303,
            -0.018140029162168503,
            -0.1315121203660965,
            0.01944592595100403,
            -0.12327373772859573,
            -0.008576572872698307,
            -0.0706435889005661,
            -0.07311137765645981,
            -0.05909853056073189,
            -0.08888471871614456,
            0.035599738359451294,
            0.11331207305192947,
            0.08879690617322922,
            -0.08038749545812607,
            -0.13592645525932312,
            -0.0211323332041502,
            -0.06894627958536148,
            -0.06319459527730942,
            -0.08433519303798676,
            -0.1072809100151062,
            -0.0037520306650549173,
            -0.08853288739919662,
            0.18127836287021637,
            -0.09373712539672852,
            -0.13682691752910614,
            0.07544426620006561,
            -0.015574637800455093,
            0.02591743692755699,
            -0.12827499210834503,
            -0.12935732305049896,
            -0.10285492241382599,
            -0.012056335806846619,
            -0.01995043456554413,
            9.65223807725124e-05,
            -0.0931057333946228,
            -0.020942775532603264,
            -0.0724048987030983,
            0.04815125837922096,
            -0.15276536345481873,
            -0.020545748993754387,
            0.14633606374263763,
            0.07911290228366852,
            0.08824945986270905,
            0.03936011344194412,
            -0.1160743311047554,
            -0.004430812317878008,
            0.019430527463555336,
            -0.05126024782657623,
            0.09554066509008408,
            -0.018477367237210274,
            -0.14299345016479492,
            0.1797371208667755,
            -0.14629089832305908,
            0.09354723989963531,
            0.035552412271499634,
            0.0054739187471568584,
            0.11068844795227051,
            -0.1268215775489807,
            0.14047148823738098,
            -0.023104246705770493,
            -0.09493375569581985,
            0.060231272131204605,
            0.13587844371795654,
            -0.2555042803287506,
            -0.005957767833024263,
            -0.002160805044695735,
            -0.07077183574438095,
            0.06640902161598206,
        },
        {
            -0.1446627974510193,
            -0.13986758887767792,
            0.1258852779865265,
            -0.15982462465763092,
            0.09787464141845703,
            0.0025166156701743603,
            0.020424339920282364,
            0.033370643854141235,
            -0.04398449510335922,
            0.10683755576610565,
            -0.060976702719926834,
            -0.014539406634867191,
            -0.11378856003284454,
            0.14205661416053772,
            -0.06929351389408112,
            0.15792091190814972,
            0.07355989515781403,
            0.056581735610961914,
            0.0872679278254509,
            0.11135377734899521,
            0.012767988257110119,
            -0.17025306820869446,
            0.007228151895105839,
            0.05312271788716316,
            -0.001255573588423431,
            -0.07463962584733963,
            0.1427256017923355,
            0.017517531290650368,
            0.16269348561763763,
            -0.04274953901767731,
            -0.18382389843463898,
            0.03581376373767853,
            -0.13197574019432068,
            -0.00035785205545835197,
            -0.04254351556301117,
            0.09874752908945084,
            -0.10204631835222244,
            -0.005895858630537987,
            0.12323889136314392,
            0.09367937594652176,
            -0.022962160408496857,
            -0.11934388428926468,
            0.00106979685369879,
            -0.02983621507883072,
            -0.1190449595451355,
            -0.04861612245440483,
            0.10636535286903381,
            0.09384417533874512,
            0.19998794794082642,
            0.06035449355840683,
            -0.16237211227416992,
            0.05844252556562424,
            0.13719266653060913,
            0.10079798102378845,
            0.1428615152835846,
            0.026808656752109528,
            -0.06648249924182892,
            0.11824960261583328,
            -0.15406756103038788,
            0.0918135866522789,
            -0.20388518273830414,
            -0.10944078862667084,
            -0.08897185325622559,
            -0.10424724966287613,
            0.10677249729633331,
            -0.020188745111227036,
            0.13017526268959045,
            0.15822598338127136,
            0.09885643422603607,
            -0.05139573663473129,
            -0.004996223375201225,
            -0.027128132060170174,
            -0.04455583170056343,
            -0.04032495245337486,
            0.006302664987742901,
            -0.035591982305049896,
            0.18874622881412506,
            -0.058410223573446274,
            0.06742184609174728,
            -0.04839010536670685,
            0.11428907513618469,
            0.069586381316185,
            0.06236761435866356,
            -0.10267794132232666,
            0.0008154672104865313,
            0.05881209671497345,
            -0.10802780836820602,
            -0.12526658177375793,
            -0.10529345273971558,
            0.04473620280623436,
            0.12058798223733902,
            -0.020343070849776268,
            0.0671023353934288,
            0.0009518039296381176,
            0.11356932669878006,
            0.11177992075681686,
            -0.019795559346675873,
            0.0007226908346638083,
            -0.05000976473093033,
            0.033494412899017334,
            0.14521780610084534,
            -0.02249596081674099,
            0.04971753805875778,
            -0.025967679917812347,
            0.1806274652481079,
            0.17208482325077057,
            0.06457249075174332,
            -0.06643181294202805,
            -0.06463045626878738,
            0.007030520588159561,
            0.12661318480968475,
            -0.14322558045387268,
            0.04436185956001282,
            0.16161181032657623,
            -0.028314348310232162,
            0.0689501017332077,
            -0.054140836000442505,
            0.10395055264234543,
            -0.11889499425888062,
            -0.19176346063613892,
            -0.03494691476225853,
            -0.04367732256650925,
            0.17458678781986237,
            0.031212294474244118,
            0.13857440650463104,
            0.08444427698850632,
            -0.15640783309936523,
            0.10165128856897354,
        },
        {
            -0.06106898933649063,
            0.05420951172709465,
            0.14504538476467133,
            -0.07101457566022873,
            0.10133495926856995,
            -0.02363806962966919,
            0.028308412060141563,
            0.10458231717348099,
            -0.12377994507551193,
            -0.0908246785402298,
            -0.026141203939914703,
            -0.0929369181394577,
            -0.04914811626076698,
            0.09075275808572769,
            0.04847986623644829,
            0.018170034512877464,
            -0.14705106616020203,
            -0.09643600136041641,
            0.05829782411456108,
            -0.007947771809995174,
            -0.053319770842790604,
            0.1372610479593277,
            -0.13591966032981873,
            0.10891257971525192,
            0.11030872911214828,
            0.03542478010058403,
            -0.03781500831246376,
            -0.1116347536444664,
            -0.0963885486125946,
            -0.04731204733252525,
            0.022522078827023506,
            0.048690035939216614,
            -0.005233417265117168,
            -0.00022668448218610138,
            -0.09363462775945663,
            -0.08261279761791229,
            -0.10746221244335175,
            -0.059427641332149506,
            0.03549407422542572,
            0.06450258940458298,
            0.14445970952510834,
            -0.0026277804281562567,
            0.10333067923784256,
            0.07282649725675583,
            -0.09217049181461334,
            -0.08086489140987396,
            0.1324903964996338,
            -0.09015992283821106,
            0.010200505144894123,
            0.1160803809762001,
            -0.03660210594534874,
            -0.08455826342105865,
            0.05382329225540161,
            -0.1002214327454567,
            -0.09743732213973999,
            0.10832300037145615,
            -0.11093192547559738,
            0.05219508334994316,
            -0.056903254240751266,
            0.1309123933315277,
            0.06951240450143814,
            -0.10466204583644867,
            -0.12419505417346954,
            0.09052027016878128,
            -0.10675204545259476,
            -0.03245022892951965,
            -0.01933588832616806,
            0.10252179950475693,
            -0.09377887099981308,
            -0.14947663247585297,
            -0.13332781195640564,
            0.014179632999002934,
            -0.015007086098194122,
            -0.02491603046655655,
            -0.08697296679019928,
            -0.0055754962377250195,
            -0.04952099546790123,
            0.07819739729166031,
            -0.06475628912448883,
            -0.14758358895778656,
            0.030664697289466858,
            -0.007154450286179781,
            -0.03610125929117203,
            0.017082326114177704,
            0.1186874732375145,
            0.03947954624891281,
            -0.04616653546690941,
            -0.08628357201814651,
            -0.0010331531520932913,
            -0.014134006574749947,
            -0.08969537913799286,
            -0.1314702332019806,
            -0.009880918078124523,
            -0.04144967719912529,
            -0.026895884424448013,
            0.14291059970855713,
            0.11538472771644592,
            0.06785758584737778,
            -0.16228704154491425,
            0.05985988676548004,
            0.07836277782917023,
            -0.10177863389253616,
            0.027311673387885094,
            -0.04152297601103783,
            -0.0991034060716629,
            0.09595203399658203,
            0.0796264111995697,
            0.10681430995464325,
            -0.04909118637442589,
            -0.06315533071756363,
            0.030149083584547043,
            -0.08268095552921295,
            -0.043113309890031815,
            0.0407559834420681,
            -0.04549729824066162,
            -0.11657290160655975,
            -0.07773607969284058,
            0.004027410410344601,
            -0.04734090343117714,
            0.02019789069890976,
            -0.19918987154960632,
            -0.07048379629850388,
            0.10830715298652649,
            -0.03988097608089447,
            0.0025797265116125345,
            0.04436292499303818,
            -0.12697649002075195,
            0.11467102915048599,
        },
    },
    {
        {
            -0.13644902408123016,
            -0.12918363511562347,
            0.02227383852005005,
            0.05097312107682228,
            -0.12188832461833954,
            -0.025499554350972176,
            0.013353440910577774,
            0.028585799038410187,
            0.08076930046081543,
            0.11684485524892807,
            -0.02519296109676361,
            -0.09431847929954529,
            -0.08215362578630447,
            -0.04869619384407997,
            -0.0210772342979908,
            -0.05262233689427376,
            -0.07855521142482758,
            -0.15279686450958252,
            -0.14606696367263794,
            -0.013213073834776878,
            -0.10134745389223099,
            0.021901655942201614,
            0.02802717313170433,
            0.027443870902061462,
            0.08178452402353287,
            -0.04015033319592476,
            0.058737386018037796,
            -0.09191661328077316,
            0.13087446987628937,
            -0.058948054909706116,
            0.04949165880680084,
            -0.1308801770210266,
            -0.04632530361413956,
            -0.10571621358394623,
            -0.010086712427437305,
            0.059945687651634216,
            -0.13817450404167175,
            -0.1064644455909729,
            -0.04983734339475632,
            0.0918751135468483,
            -0.11297202855348587,
            0.09392908960580826,
            -0.01664365455508232,
            -0.14130309224128723,
            -0.041759103536605835,
            -0.08421847969293594,
            -0.14451894164085388,
            -0.034375209361314774,
            0.17966340482234955,
            -0.040521129965782166,
            -0.12431906163692474,
            -0.10791923850774765,
            0.09652965515851974,
            0.004828159231692553,
            0.1241479143500328,
            -0.06755582243204117,
            0.1384132206439972,
            -0.0732332393527031,
            -0.19104251265525818,
            0.10236361622810364,
            0.03508877381682396,
            -0.12235138565301895,
            -0.020893221721053123,
            -0.1298651248216629,
            -0.07545483857393265,
            -0.02718907967209816,
            -0.043109383434057236,
            -0.06851772964000702,
            0.05717013403773308,
            -0.09665841609239578,
            -0.06812557578086853,
            0.09842019528150558,
            0.06609492748975754,
            0.10824798047542572,
            -0.04847540333867073,
            0.09760043770074844,
            0.034553539007902145,
            -0.17888899147510529,
            -0.030553102493286133,
            0.12197886407375336,
            -0.0169401653110981,
            0.13654880225658417,
            -0.016327377408742905,
            -0.19575080275535583,
            -0.12405766546726227,
            0.05811886489391327,
            0.1392185091972351,
            0.16476792097091675,
            -0.20651863515377045,
            0.024042854085564613,
            -0.09780749678611755,
            0.050529371947050095,
            -0.0027937646955251694,
            -0.1198991909623146,
            0.06268300116062164,
            -0.13952039182186127,
            -0.14981894195079803,
            0.20910203456878662,
            -0.11773229390382767,
            0.06897281110286713,
            0.19047345221042633,
            0.06392645835876465,
            0.1456068605184555,
            0.04356285184621811,
            -0.01892968639731407,
            -0.04383118078112602,
            0.1572515368461609,
            -0.11617430299520493,
            0.0030410680919885635,
            0.07036779075860977,
            0.15569861233234406,
            -0.05525205284357071,
            -0.03848211467266083,
            -0.025634946301579475,
            -0.1563468724489212,
            0.07891524583101273,
            0.21057695150375366,
            -0.13402248919010162,
            -0.009753897786140442,
            -0.08535616844892502,
            0.015133293345570564,
            -0.18540985882282257,
            0.05847516655921936,
            -0.036181580275297165,
            0.015560673549771309,
            -0.09618577361106873,
            0.12581804394721985,
            0.025798562914133072,
        },
        {
            -0.1588219851255417,
            0.04152589663863182,
            -0.04001739248633385,
            0.133511021733284,
            -0.004409880843013525,
            -0.16716134548187256,
            0.1142464205622673,
            0.01221504621207714,
            -0.039769500494003296,
            -0.07978381216526031,
            0.11963091045618057,
            -0.025102155283093452,
            0.13751772046089172,
            0.07001839578151703,
            -0.023516962304711342,
            -0.0018977334257215261,
            0.03468521311879158,
            -0.17475304007530212,
            -0.1495165377855301,
            -0.07153716683387756,
            0.09641657024621964,
            -0.0625796839594841,
            0.18233664333820343,
            -0.014227816835045815,
            0.02206268534064293,
            -0.09172926843166351,
            -0.012617050670087337,
            -0.06899626553058624,
            0.04330214485526085,
            -0.11750166863203049,
            -0.07912655919790268,
            -0.17176984250545502,
            -0.10836644470691681,
            0.0064277066849172115,
            0.1342427283525467,
            0.05757253244519234,
            -0.002108599990606308,
            -0.10932950675487518,
            -0.11859465390443802,
            -0.05522764474153519,
            0.13864055275917053,
            0.04298590496182442,
            0.10612408816814423,
            -0.159250870347023,
            -0.1125476211309433,
            0.056333642452955246,
            0.12086424976587296,
            0.17839285731315613,
            -0.02482897788286209,
            -0.013669570907950401,
            -0.12751780450344086,
            -0.043259333819150925,
            0.09754205495119095,
            -0.06338470429182053,
            -0.15555056929588318,
            -0.011036553420126438,
            0.1280970275402069,
            0.11684393882751465,
            -0.1754406839609146,
            -0.06177598983049393,
            -0.003631813218817115,
            -0.010663873516023159,
            -0.008077138103544712,
            0.11939780414104462,
            -0.050652436912059784,
            -0.004300138913094997,
            -0.0999496728181839,
            0.012074208818376064,
            0.06883040815591812,
            0.03297899663448334,
            -0.033980272710323334,
            0.010138027369976044,
            0.0719967857003212,
            0.16116058826446533,
            0.19147580862045288,
            -0.16116999089717865,
            0.026555826887488365,
            -0.2129252701997757,
            0.1310117542743683,
            0.02261817269027233,
            -0.07266779243946075,
            -0.06851113587617874,
            0.1006239801645279,
            -0.01000454556196928,
            0.06108289211988449,
            0.14187495410442352,
            0.011015020310878754,
            -0.0698053315281868,
            -0.011300965212285519,
            0.0968625545501709,
            0.09256205707788467,
            0.04863530397415161,
            -0.11094833165407181,
            -0.07389180362224579,
            0.22689297795295715,
            0.06003788486123085,
            -0.06908304989337921,
            -0.08338959515094757,
            -0.10434067249298096,
            -0.1396329700946808,
            0.007370673585683107,
            0.09432318061590195,
            -0.09622807055711746,
            -0.03565269336104393,
            -0.07150194048881531,
            -0.05511469393968582,
            0.18673034012317657,
            -0.03546721860766411,
            0.05213252082467079,
            0.17970329523086548,
            -0.11559206992387772,
            0.0009594879811629653,
            0.04043939709663391,
            0.15923315286636353,
            -0.06338071078062057,
            -0.06875248998403549,
            0.03709416836500168,
            -0.14519910514354706,
            -0.15060728788375854,
            0.07235393673181534,
            0.07400312274694443,
            -0.03291240707039833,
            0.01727452129125595,
            0.009162173606455326,
            0.05685947835445404,
            -0.0024036765098571777,
            -0.002600125502794981,
            0.044318895787000656,
        },
        {
            0.007961983792483807,
            -0.12584756314754486,
            0.09561806172132492,
            0.1081995889544487,
            -0.04252072796225548,
            0.10084612667560577,
            0.05945931747555733,
            0.014718691818416119,
            0.14244723320007324,
            -0.012661688961088657,
            0.019129613414406776,
            -0.004974073264747858,
            0.0045174709521234035,
            0.04244038462638855,
            0.06289433687925339,
            -0.034238677471876144,
            -0.0017531028715893626,
            -0.11343363672494888,
            -0.08678413927555084,
            0.008979381993412971,
            -0.029612572863698006,
            0.06391089409589767,
            -0.1495000272989273,
            0.06408876925706863,
            0.003936172928661108,
            -0.05053536221385002,
            0.07875785231590271,
            0.10210783034563065,
            -0.11687406152486801,
            -0.06305442005395889,
            -0.10963927954435349,
            -0.04065830633044243,
            -0.007163172587752342,
            -0.06948010623455048,
            -0.018875550478696823,
            -0.10614551603794098,
            0.05334154888987541,
            0.10095664858818054,
            0.11333364993333817,
            -0.03116769902408123,
            0.023197559639811516,
            -0.021108699962496758,
            0.05241428688168526,
            0.01793808676302433,
            0.15142998099327087,
            0.03824770078063011,
            -0.030385460704565048,
            0.04126466065645218,
            0.06937200576066971,
            -0.11537683755159378,
            0.05476006492972374,
            0.04201560094952583,
            -0.02490954101085663,
            -0.031044142320752144,
            0.029834864661097527,
            0.005752241238951683,
            0.018306149169802666,
            0.10268998146057129,
            0.11645819991827011,
            0.028958626091480255,
            0.058989472687244415,
            0.02930859476327896,
            0.09146815538406372,
            -0.12006200850009918,
            -0.13940317928791046,
            -0.09226859360933304,
            0.013176673091948032,
            0.12404387444257736,
            0.04046459496021271,
            -0.05248603969812393,
            0.12458829581737518,
            -0.0772295817732811,
            -0.09972856193780899,
            0.034949567168951035,
            0.06992354989051819,
            0.1193755641579628,
            0.014952762983739376,
            -0.0446050725877285,
            0.07089534401893616,
            -0.03480897471308708,
            0.14678025245666504,
            0.07649686932563782,
            0.011141250841319561,
            0.1320393979549408,
            0.06493385881185532,
            -0.12575185298919678,
            -0.0037060119211673737,
            -0.05453699827194214,
            -0.01551281288266182,
            -0.016705837100744247,
            0.0377252921462059,
            0.09676901251077652,
            -0.06655695289373398,
            -0.04598776996135712,
            0.007735122460871935,
            -0.0018231121357530355,
            0.02948485128581524,
            0.038837138563394547,
            0.013880258426070213,
            0.061542317271232605,
            -0.0033405194990336895,
            0.07990040630102158,
            -0.04632509872317314,
            -0.11908891797065735,
            -0.0721774622797966,
            -0.05361378192901611,
            -0.014409867115318775,
            -0.03905557841062546,
            -0.1696196347475052,
            0.1199091225862503,
            -0.08874134719371796,
            0.020712561905384064,
            0.10681381821632385,
            -0.0699738934636116,
            -0.09445194900035858,
            0.11391820013523102,
            0.1127348467707634,
            0.009339634329080582,
            -0.06793928891420364,
            0.11400314420461655,
            0.04072489216923714,
            0.029425114393234253,
            -0.015607084147632122,
            -0.1042131707072258,
            0.1102575808763504,
            0.11183269321918488,
            0.007773426361382008,
            -0.09972372651100159,
        },
    },
    {
        {
            0.07682272046804428,
            0.10199500620365143,
            -0.04469820484519005,
            -0.07017911970615387,
            -0.0010210202308371663,
            -0.05993879213929176,
            -0.0052503058686852455,
            -0.16660189628601074,
            -0.10498296469449997,
            -0.04874985292553902,
            0.01934504136443138,
            0.14142194390296936,
            -0.022312482818961143,
            0.11276083439588547,
            -0.05672956258058548,
            -0.008269650861620903,
            -0.13246537744998932,
            0.14484839141368866,
            -0.0187241118401289,
            -0.04756397381424904,
            0.2144153118133545,
            0.02381177991628647,
            -0.036435678601264954,
            -0.05525074526667595,
            0.024637434631586075,
            0.08222542703151703,
            0.10192853212356567,
            0.05261591821908951,
            0.03456731513142586,
            0.003169118892401457,
            -0.030791763216257095,
            0.018803270533680916,
            0.00043419928988441825,
            -0.16785913705825806,
            0.04917383939027786,
            0.04966067150235176,
            0.01961665228009224,
            -0.06006155163049698,
            -0.10762243717908859,
            0.054245539009571075,
            -0.026620693504810333,
            0.004617366474121809,
            0.13699962198734283,
            0.03524637222290039,
            0.0017602544976398349,
            -0.05321706086397171,
            -0.1399451345205307,
            -0.17632059752941132,
            0.019908560439944267,
            -0.06421123445034027,
            0.05133488029241562,
            -0.10860767960548401,
            -0.0035124311689287424,
            -0.10683729499578476,
            -0.00045083719305694103,
            0.025843970477581024,
            -0.0364481583237648,
            -0.061461251229047775,
            -0.07724187523126602,
            -0.10122550278902054,
            -0.07885399460792542,
            0.19060789048671722,
            0.1997963786125183,
            -0.008294224739074707,
            0.12612168490886688,
            -0.10888516157865524,
            -0.10141598433256149,
            -0.07007025927305222,
            -0.1693030595779419,
            -0.09813961386680603,
            0.07152540236711502,
            -0.15338748693466187,
            0.08814442902803421,
            0.11181696504354477,
            -0.003091601887717843,
            0.10525106638669968,
            0.08741418272256851,
            0.014039207249879837,
            0.10841414332389832,
            -0.16360633075237274,
            0.13981442153453827,
            0.08793874084949493,
            -0.04773849993944168,
            -0.13207772374153137,
            0.10563889890909195,
            0.18676058948040009,
            -0.1651531457901001,
            0.2263868898153305,
            -0.15405094623565674,
            0.020426403731107712,
            -0.01868932880461216,
            -0.09929341822862625,
            -0.04174429178237915,
            0.10196177661418915,
            0.11191342025995255,
            0.13095243275165558,
            0.01956801302731037,
            0.15692217648029327,
            -0.06128380075097084,
            -0.084445059299469,
            0.11442968994379044,
            0.04790549725294113,
            0.16912539303302765,
            -0.028599413111805916,
            -0.1487533152103424,
            -0.09641504287719727,
            0.1413612812757492,
            -0.12794162333011627,
            -0.02891947701573372,
            -0.00531267374753952,
            0.055574920028448105,
            -0.0885050892829895,
            0.020182183012366295,
            -0.2136429101228714,
            0.010993474163115025,
            -0.057208724319934845,
            0.06491920351982117,
            -0.029229074716567993,
            0.1164407730102539,
            -0.04629635810852051,
            -0.04793041571974754,
            0.09366501122713089,
            0.10686292499303818,
            -0.07226288318634033,
            0.07705603539943695,
            -0.014884639531373978,
            0.02851351909339428,
            0.0025807481724768877,
        },
        {
            -0.04430638998746872,
            0.025017041712999344,
            0.14463840425014496,
            -0.008435624651610851,
            -0.11589989811182022,
            -0.10726458579301834,
            0.06265074014663696,
            0.07232127338647842,
            -0.16878269612789154,
            -0.03370712697505951,
            -0.05364507809281349,
            0.09788013994693756,
            -0.09982555359601974,
            0.05188397318124771,
            0.061870675534009933,
            0.11850849539041519,
            -0.07083790004253387,
            -0.005800193175673485,
            0.08752644062042236,
            -0.00657657440751791,
            -0.19504159688949585,
            -0.15940356254577637,
            0.09712612628936768,
            0.26653626561164856,
            -0.12367095053195953,
            -0.1339799165725708,
            0.0044416580349206924,
            0.1692490130662918,
            -0.08391200006008148,
            -0.1309714913368225,
            -0.11133194714784622,
            -0.1154012605547905,
            -0.11123436689376831,
            0.14485087990760803,
            0.006812524050474167,
            -0.022670915350317955,
            0.0029666342306882143,
            0.05332263559103012,
            0.10636071860790253,
            0.1459304690361023,
            -0.008725404739379883,
            -0.2117394357919693,
            0.045481860637664795,
            0.009256302379071712,
            0.06455805897712708,
            0.07205279171466827,
            0.14058829843997955,
            0.061471447348594666,
            0.06789258122444153,
            -0.09405658394098282,
            -0.12277060747146606,
            -0.0038538507651537657,
            0.015112361870706081,
            0.07592263072729111,
            -0.05309806764125824,
            -0.037814535200595856,
            -0.03471824899315834,
            0.18889406323432922,
            -0.0637403205037117,
            -0.1023850366473198,
            0.08867338299751282,
            0.046662867069244385,
            -0.1574416309595108,
            -0.1705332100391388,
            0.07450325787067413,
            0.07261477410793304,
            -0.08829258382320404,
            -0.058212101459503174,
            0.16847668588161469,
            -0.04443413391709328,
            -0.02649069018661976,
            0.01272553764283657,
            -0.09622563421726227,
            0.0013893009163439274,
            0.1017683669924736,
            0.042036768049001694,
            -0.01425523404031992,
            -0.06164080277085304,
            -0.007404573727399111,
            -0.06303469091653824,
            -0.03499051555991173,
            -0.08662410080432892,
            -0.10096316784620285,
            0.16243858635425568,
            0.09474487602710724,
            -0.1448233276605606,
            -0.1310044378042221,
            -0.162216916680336,
            0.04581780731678009,
            -0.06626682728528976,
            0.1305881291627884,
            -0.16096606850624084,
            -0.07289879024028778,
            -0.007246362045407295,
            -0.04548272117972374,
            0.14799024164676666,
            0.040050920099020004,
            -0.16573035717010498,
            -0.08206366002559662,
            0.0546782948076725,
            -0.09888193011283875,
            -0.010192034766077995,
            -0.1157781258225441,
            0.012454790063202381,
            0.16132496297359467,
            -0.04099615290760994,
            -0.12907704710960388,
            -0.0669550970196724,
            -0.16913582384586334,
            0.11098294705152512,
            -0.12506882846355438,
            -0.03455311432480812,
            0.14622250199317932,
            -0.09334782510995865,
            -0.056024614721536636,
            -0.01567692495882511,
            -0.04175649583339691,
            0.08916697651147842,
            -0.10275328159332275,
            -0.15596701204776764,
            0.3881009519100189,
            0.11592045426368713,
            0.16817085444927216,
            -0.09927856177091599,
            0.030367160215973854,
            0.023238468915224075,
            -0.1259426772594452,
            0.02336001768708229,
        },
        {
            0.10335130989551544,
            -0.08472691476345062,
            0.018522445112466812,
            0.038833264261484146,
            -0.033915165811777115,
            0.12534570693969727,
            0.01469128206372261,
            0.019650358706712723,
            0.03335905075073242,
            -0.11458852142095566,
