const float q_bidirectional_gru_backward_kernel[64][3][64] = {
    {
        {
            -0.06138663738965988,
            -0.14325852692127228,
            -0.1916685849428177,
            -0.08793580532073975,
            -0.013504686765372753,
            -0.081935815513134,
            0.026984067633748055,
            -0.16397374868392944,
            0.07271406054496765,
            -0.14543861150741577,
            0.03980257734656334,
            -0.07934466749429703,
            -0.13692502677440643,
            0.0705655887722969,
            0.021591031923890114,
            0.022316589951515198,
            -0.11333125829696655,
            0.12855695188045502,
            -0.05018121376633644,
            -0.04704555496573448,
            0.030513541772961617,
            -0.06403937935829163,
            0.007729227188974619,
            -0.14265573024749756,
            0.06838279217481613,
            -0.0023763116914778948,
            -0.017799336463212967,
            -0.007567892782390118,
            -0.012255803681910038,
            -0.026801256462931633,
            -0.035757243633270264,
            -0.20331279933452606,
            -0.1485653519630432,
            -0.1350892186164856,
            -0.10976286232471466,
            0.0034662613179534674,
            -0.033975813537836075,
            -0.14867134392261505,
            -0.03778558969497681,
            -0.10874654352664948,
            -0.08154807239770889,
            -0.12092714756727219,
            -0.016005055978894234,
            0.04095634073019028,
            -0.14180438220500946,
            0.045137498527765274,
            -0.10236164182424545,
            0.036777786910533905,
            -0.15129384398460388,
            0.06209612265229225,
            0.02292073704302311,
            0.1398088037967682,
            0.04696320742368698,
            -0.10767212510108948,
            0.03489038348197937,
            0.03339262306690216,
            -0.08570080250501633,
            -0.08196540921926498,
            0.10678726434707642,
            -0.1639418751001358,
            -0.06001508980989456,
            0.0745503231883049,
            0.029017701745033264,
            0.07400202006101608,
        },
        {
            -0.14125566184520721,
            -0.019668690860271454,
            -0.21896159648895264,
            0.04741886630654335,
            -0.09261259436607361,
            0.05013212189078331,
            0.13736267387866974,
            0.0005412911996245384,
            0.003852467518299818,
            -0.10593361407518387,
            -0.08342880010604858,
            0.045159947127103806,
            -0.09732521325349808,
            0.04754970595240593,
            0.09534706920385361,
            0.1839645504951477,
            0.08608774095773697,
            0.042767904698848724,
            -0.06542671471834183,
            -0.03632986918091774,
            0.06486460566520691,
            0.07043679803609848,
            -0.24492359161376953,
            -0.08924779295921326,
            -0.09455409646034241,
            -0.11687005311250687,
            0.14637473225593567,
            -0.04688870534300804,
            0.10802434384822845,
            -0.07384461909532547,
            0.0804608017206192,
            -0.031146077439188957,
            -0.03364028036594391,
            -0.04087093845009804,
            -0.08425747603178024,
            -0.18730932474136353,
            0.03479455038905144,
            -0.09195526689291,
            0.04529481381177902,
            -0.15602000057697296,
            -0.032710473984479904,
            0.04946586489677429,
            -0.05878894031047821,
            -0.04051058366894722,
            -0.05575539544224739,
            -0.09285054355859756,
            -0.021216217428445816,
            -0.11435174942016602,
            -0.0734580010175705,
            -0.028501303866505623,
            -0.10891120135784149,
            0.09593258798122406,
            0.12976469099521637,
            0.06206044927239418,
            -0.10606619715690613,
            -0.12803970277309418,
            0.08240856230258942,
            0.07011011242866516,
            0.16408324241638184,
            0.0010887454263865948,
            -0.06069967895746231,
            -0.11734858900308609,
            -0.06520253419876099,
            0.09676016122102737,
        },
        {
            -0.1175423189997673,
            -0.17370755970478058,
            -0.026757216081023216,
            -0.13952675461769104,
            -0.2094840109348297,
            0.1069115400314331,
            0.0007514881435781717,
            0.08929617702960968,
            0.04962116479873657,
            0.06087220460176468,
            0.0699511170387268,
            -0.10999241471290588,
            -0.0333542600274086,
            0.015880834311246872,
            -0.0007692776853218675,
            0.07211712747812271,
            0.02426174096763134,
            -0.01236630231142044,
            -0.09703287482261658,
            0.03463249281048775,
            0.13481251895427704,
            0.07317168265581131,
            -0.029959486797451973,
            -0.05443874001502991,
            -0.12951208651065826,
            0.041220128536224365,
            0.13920466601848602,
            -0.08079564571380615,
            0.030773764476180077,
            -0.0620151124894619,
            0.0040100677870213985,
            0.03545893728733063,
            0.008716482669115067,
            0.08580811321735382,
            0.008041265420615673,
            0.019481869414448738,
            -0.08720225840806961,
            -0.21324756741523743,
            -0.1181434690952301,
            -0.13956469297409058,
            -0.04649065062403679,
            -0.12877057492733002,
            -0.07818696647882462,
            0.13876596093177795,
            -0.15385232865810394,
            0.07561491429805756,
            0.07261285185813904,
            0.10427062213420868,
            -0.0518844835460186,
            0.16325643658638,
            0.08636273443698883,
            0.08339577913284302,
            -0.0198229793459177,
            -0.1109035387635231,
            0.07916255295276642,
            -0.137546107172966,
            0.02208894118666649,
            0.04644431546330452,
            -0.08820594847202301,
            -0.19102796912193298,
            0.044147416949272156,
            -0.14361555874347687,
            -0.03190445899963379,
            0.0734156146645546,
        },
    },
    {
        {
            -0.08169061690568924,
            0.16696590185165405,
            0.1684616655111313,
            -0.07118886709213257,
            0.18536439538002014,
            0.11231852322816849,
            0.2996571958065033,
            0.046842895448207855,
            0.012077279388904572,
            0.19927720725536346,
            0.0632358193397522,
            0.04004428908228874,
            0.022554364055395126,
            0.10987579077482224,
            0.2235318124294281,
            0.11023381352424622,
            0.05925891548395157,
            -0.055001165717840195,
            0.24809156358242035,
            -0.03089134953916073,
            -0.11317615211009979,
            -0.1821615844964981,
            -0.04667242616415024,
            -0.1391289383172989,
            0.1982567310333252,
            0.025735318660736084,
            0.07605763524770737,
            -0.2121533304452896,
            0.1384628266096115,
            0.06802472472190857,
            0.09402379393577576,
            0.1492668241262436,
            0.17743997275829315,
            0.18304337561130524,
            0.17995189130306244,
            0.21672090888023376,
            0.3356316387653351,
            0.13210247457027435,
            0.19050219655036926,
            0.015196000225841999,
            0.0658361092209816,
            -0.08017530292272568,
            0.21631880104541779,
            0.32287442684173584,
            0.29700061678886414,
            0.1713217794895172,
            0.15119774639606476,
            0.03865528851747513,
            0.1424645036458969,
            0.06456083059310913,
            0.008353793062269688,
            0.08652524650096893,
            0.16162101924419403,
            0.1823972463607788,
            0.02031346596777439,
            0.013946396298706532,
            0.06149847060441971,
            0.25060972571372986,
            0.16788765788078308,
            0.1231529489159584,
            0.09438882768154144,
            0.135116845369339,
            -0.06521569192409515,
            0.16694951057434082,
        },
        {
            0.09804186969995499,
            -0.033003050833940506,
            0.11124958842992783,
            0.1608174443244934,
            0.1228804960846901,
            0.2246711254119873,
            0.040849801152944565,
            0.1054074838757515,
            0.06579319387674332,
            0.12247669696807861,
            -0.012291387654840946,
            0.10040490329265594,
            0.04170827940106392,
            -0.0043568857945501804,
            0.16569405794143677,
            0.0067611560225486755,
            0.01241448987275362,
            0.05718839913606644,
            -0.04351595789194107,
            0.06825680285692215,
            0.06710613518953323,
            -0.08128446340560913,
            0.08066319674253464,
            0.1170540526509285,
            0.15139999985694885,
            0.022660790011286736,
            0.08828970044851303,
            0.1170351579785347,
            -0.08480868488550186,
            -0.02141348272562027,
            0.03308634087443352,
            0.1302133947610855,
            0.0921621173620224,
            0.14771084487438202,
            0.12478306889533997,
            0.12065641582012177,
            0.08954410254955292,
            -0.031931616365909576,
            -0.017023717984557152,
            0.007333352230489254,
            0.026237577199935913,
            -0.000958880758844316,
            0.18762223422527313,
            0.01831493340432644,
            -0.1291731745004654,
            -0.028315000236034393,
            0.06241069361567497,
            -0.03552782163023949,
            -0.06586213409900665,
            -0.032601602375507355,
            0.0597420409321785,
            -0.03661282733082771,
            0.14551317691802979,
            0.037971168756484985,
            -0.021266652271151543,
            -0.030410300940275192,
            0.10916846245527267,
            -0.01666487194597721,
            0.059995025396347046,
            0.014392596669495106,
            -0.06613454222679138,
            0.157769113779068,
            0.027408935129642487,
            -0.01493806391954422,
        },
        {
            -0.17791873216629028,
            0.0881950855255127,
            0.1914488822221756,
            -0.004044075030833483,
            0.09406477957963943,
            0.08317039161920547,
            -0.1946161538362503,
            -0.10508912056684494,
            0.13092413544654846,
            0.12451060861349106,
            -0.08396053314208984,
            0.08924789726734161,
            0.022805623710155487,
            -0.14862796664237976,
            -0.06781353801488876,
            -0.015183559618890285,
            -0.07133086770772934,
            0.17055447399616241,
            0.03916219621896744,
            -0.13138511776924133,
            -0.12516635656356812,
            -0.08131014555692673,
            0.05417442321777344,
            -0.04048559069633484,
            -0.1480293571949005,
            -0.17067787051200867,
            -0.13034887611865997,
            0.0728038027882576,
            0.035545773804187775,
            -0.016874263063073158,
            0.14418120682239532,
            0.16593307256698608,
            -0.16562826931476593,
            -0.03202711045742035,
            -0.13368767499923706,
            0.03405189514160156,
            0.0219003614038229,
            0.044848933815956116,
            -0.018415303900837898,
            -0.03193201497197151,
            0.06508029252290726,
            0.10670818388462067,
            -0.01847967691719532,
            -0.2185359001159668,
            -0.09259317815303802,
            -0.1027461439371109,
            -0.09004905074834824,
            0.1080741137266159,
            -0.13433131575584412,
            0.055651724338531494,
            -0.13304844498634338,
            -0.09965332597494125,
            0.038651976734399796,
            0.05624719336628914,
            0.036347467452287674,
            -0.09014382213354111,
            -0.020874906331300735,
            -0.13976462185382843,
            0.04572322964668274,
            0.04326774924993515,
            0.0939265638589859,
            0.16651463508605957,
            -0.08273816853761673,
            -0.04329835623502731,
        },
    },
    {
        {
            -0.12911555171012878,
            -0.1062658429145813,
            -0.07678915560245514,
            -0.034374017268419266,
            -0.1144290640950203,
            -0.013285450637340546,
            0.09698465466499329,
            -0.12284092605113983,
            -0.04826328530907631,
            -0.058391958475112915,
            -0.045210059732198715,
            -0.11101736128330231,
            -0.10833997279405594,
            0.0310471523553133,
            -0.040017593652009964,
            -0.0632697194814682,
            -0.17202173173427582,
            0.09928583353757858,
            -0.22338081896305084,
            -0.02235330641269684,
            0.06382148712873459,
            -0.0835663229227066,
            -0.1441401094198227,
            -0.0777948722243309,
            0.05472119525074959,
            0.021017730236053467,
            0.04448238015174866,
            -0.17568257451057434,
            -0.1612868756055832,
            0.027394643053412437,
            -0.1308467537164688,
            -0.11107726395130157,
            -0.05373769626021385,
            -0.2186206430196762,
            -0.12242516875267029,
            -0.22134310007095337,
            -0.11277177929878235,
            -0.06596112996339798,
            -0.027667077258229256,
            -0.1194002628326416,
            -0.09570428729057312,
            -0.09995319694280624,
            -0.1329534500837326,
            -0.10416018962860107,
            -0.012863866984844208,
            -0.13604506850242615,
            -0.11062917113304138,
            0.0299832746386528,
            -0.0880918800830841,
            -0.11626016348600388,
            0.039192091673612595,
            -0.11895228177309036,
            -0.19094817340373993,
            -0.02862551063299179,
            0.0358395054936409,
            -0.25692275166511536,
            0.07062839716672897,
            0.07337916642427444,
            -0.17968910932540894,
            0.10924366116523743,
            0.0496838241815567,
            0.04416881129145622,
            -0.13098567724227905,
            -0.0892551988363266,
        },
        {
            -0.1390000432729721,
            0.1802060902118683,
            0.19133058190345764,
            0.12357567995786667,
            -0.009779057465493679,
            -0.05236561968922615,
            0.1272576004266739,
            0.17432889342308044,
            -0.05246845632791519,
            0.04848995804786682,
            -0.006051993928849697,
            0.19114749133586884,
            -0.0707920640707016,
            0.017704376950860023,
            0.003056997200474143,
            0.1772594451904297,
            0.08135411888360977,
            0.07291913032531738,
            0.02895585261285305,
            0.2131098508834839,
            0.0005456193466670811,
            -0.006602277979254723,
            0.044718239456415176,
            0.0326460637152195,
            -0.016659578308463097,
            -0.07990851998329163,
            0.008160595782101154,
            -0.11765468120574951,
            0.10461807996034622,
            0.11453370749950409,
            0.1861455738544464,
            0.08140198886394501,
            -0.0296461321413517,
            -0.1321140080690384,
            -0.12331493198871613,
            -0.1870933175086975,
            0.06768909096717834,
            0.08705049753189087,
            0.06649389117956161,
            0.06901951134204865,
            0.2216043472290039,
            0.12649831175804138,
            -0.013162276707589626,
            -0.1496976613998413,
            0.11846064776182175,
            0.14159798622131348,
            -0.11378640681505203,
            0.057115282863378525,
            -0.07398029416799545,
            0.06820940226316452,
            -0.07865559309720993,
            -0.07041675597429276,
            0.13560202717781067,
            -0.04480655863881111,
            0.07776015996932983,
            0.05802982300519943,
            -0.0717633068561554,
            0.18052002787590027,
            -0.027493750676512718,
            -0.058682359755039215,
            -0.0682230144739151,
            0.12472586333751678,
            -0.04504228010773659,
            0.11725683510303497,
        },
        {
            -0.04254087060689926,
            0.15709248185157776,
            0.09868983179330826,
            0.12666428089141846,
            -0.05011278763413429,
            0.11320236325263977,
            -0.07683184742927551,
            0.12865552306175232,
            0.04502137005329132,
            0.09271251410245895,
            -0.11464822292327881,
            0.05716437101364136,
            -0.04937738925218582,
            -0.02424636110663414,
            0.15794846415519714,
            -0.0678720474243164,
            -0.08158979564905167,
            0.028087839484214783,
            0.12504208087921143,
            0.0528305247426033,
            0.1049158051609993,
            -0.07405886054039001,
            0.11001197248697281,
            0.0007429593242704868,
            -0.10313498228788376,
            -0.07164295017719269,
            0.122039295732975,
            -0.12712576985359192,
            0.013983480632305145,
            -0.04664396867156029,
            -0.0587010458111763,
            0.012520423159003258,
            0.041028402745723724,
            0.10213387757539749,
            0.1844957023859024,
            -0.09069913625717163,
            0.10590671747922897,
            -0.05603623017668724,
            0.05686896666884422,
            -0.052132755517959595,
            -0.01628912054002285,
            0.015962369740009308,
            0.10246248543262482,
            -0.08227208256721497,
            0.05346880480647087,
            -0.11505546420812607,
            -0.09478477388620377,
            -0.07665982842445374,
            0.033456724137067795,
            -0.03712179511785507,
            0.109695203602314,
            -0.0828540027141571,
            -0.08503968268632889,
            0.04380597174167633,
            -0.14486567676067352,
            0.06622754782438278,
            0.18849676847457886,
            0.10751886665821075,
            0.07515636086463928,
            0.03779793158173561,
            -0.07977629452943802,
            -0.04347885027527809,
            -0.08264195919036865,
            0.07592801004648209,
        },
    },
    {
        {
            0.11209316551685333,
            0.11330331861972809,
            0.04331612214446068,
            0.13968238234519958,
            -0.03711835667490959,
            -0.09360084682703018,
            -0.016025826334953308,
            -0.10465128719806671,
            0.0844375342130661,
            -0.14238835871219635,
            0.025401871651411057,
            -0.07083325833082199,
            0.08717920631170273,
            0.06026061251759529,
            -0.09934257715940475,
            0.06640046834945679,
            0.10170067101716995,
            0.13695530593395233,
            0.21971465647220612,
            -0.0990634337067604,
            0.044716283679008484,
            0.22632811963558197,
            -0.06691236048936844,
            0.10547025501728058,
            0.05667787417769432,
            -0.07181798666715622,
            -0.024261783808469772,
            -0.05621666833758354,
            -0.11148910224437714,
            0.05261113867163658,
            -0.0243244431912899,
            0.1350237876176834,
            -0.061828143894672394,
            -0.02652772143483162,
            0.15752801299095154,
            -0.011481006629765034,
            -0.056409094482660294,
            0.0024294964969158173,
            -0.09377941489219666,
            0.09424243867397308,
            0.014566435478627682,
            -0.09305954724550247,
            0.16381581127643585,
            0.0953032448887825,
            -0.1028229147195816,
            0.1772339642047882,
            0.20346063375473022,
            -0.1523587852716446,
            0.004861511290073395,
            0.05111341178417206,
            0.07406137138605118,
            0.04812055081129074,
            0.06880258768796921,
            -0.06185948848724365,
            0.13286897540092468,
            0.10169733315706253,
            -0.13022559881210327,
            0.1476486325263977,
            -0.1063995510339737,
            -0.13290104269981384,
            -0.05717582255601883,
            0.1443186104297638,
            0.08835940062999725,
            0.17088583111763,
        },
        {
            -0.03902984410524368,
            -0.10287228226661682,
            -0.006416391581296921,
            0.018776772543787956,
            0.19953647255897522,
            0.12387380003929138,
            0.05502709001302719,
            0.04733634367585182,
            -0.035751115530729294,
            -0.071005679666996,
            -0.011696167290210724,
            -0.010083114728331566,
            0.15287034213542938,
            0.07043438404798508,
            -0.034959107637405396,
            -0.06041564419865608,
            -0.11163637042045593,
            -0.091305211186409,
            0.09707999974489212,
            0.22370143234729767,
            0.14859484136104584,
            -0.13926473259925842,
            -0.11636625230312347,
            -0.0866885706782341,
            -0.07227038592100143,
            0.11163962632417679,
            -0.1469488888978958,
            0.09918015450239182,
            0.05654400959610939,
            -0.15466907620429993,
            0.007350929081439972,
            0.03611399233341217,
            -0.027913521975278854,
            0.1388065665960312,
            0.2924586236476898,
            -0.09815913438796997,
            0.09316737204790115,
            0.022712208330631256,
            -0.07490837574005127,
            0.05028104782104492,
            0.1667255461215973,
            -0.011989057064056396,
            0.14139117300510406,
            0.2655017077922821,
            0.04497109726071358,
            0.14056362211704254,
            -0.09654074162244797,
            0.07633628696203232,
            0.16683891415596008,
            0.0721847340464592,
            0.10440792888402939,
            -0.007973567582666874,
            -0.09870336204767227,
            0.1324230283498764,
            0.08227493613958359,
            0.07428040355443954,
            0.214901864528656,
            0.01595642976462841,
            0.06166098266839981,
            -0.11410220712423325,
            0.028683895245194435,
            -0.12480513751506805,
            -0.003428834490478039,
            0.20862698554992676,
        },
        {
            -0.16007103025913239,
            0.07890130579471588,
            -0.08956983685493469,
            0.03460602089762688,
            -0.028364945203065872,
            0.17516547441482544,
            -0.014646776020526886,
            -0.0526902936398983,
            -0.06566772609949112,
            -0.10654222220182419,
            -0.13111303746700287,
            0.1436997652053833,
            -0.046118102967739105,
            0.1929508000612259,
            -0.12312452495098114,
            -0.02305019088089466,
            -0.032178327441215515,
            -0.07979469746351242,
            -0.10358704626560211,
            -0.0863860622048378,
            0.01869681291282177,
            0.09998572617769241,
            -0.009465659968554974,
            -0.0203014574944973,
            -0.05515722557902336,
            -0.0736611932516098,
            -0.09357260167598724,
            -0.042175207287073135,
            0.021079394966363907,
            -0.03622988611459732,
            0.09079978615045547,
            -0.050769999623298645,
            0.11745608597993851,
            -0.07272487878799438,
            0.07166098058223724,
            -0.07025319337844849,
            -0.13387440145015717,
            0.09344830363988876,
            0.058316413313150406,
            -0.12929873168468475,
            0.00045462275738827884,
            -0.04867592081427574,
            0.002984582679346204,
            -0.13077282905578613,
            0.010111603885889053,
            0.043616849929094315,
            -0.039058394730091095,
            -0.09321325272321701,
            0.18275071680545807,
            -0.041778624057769775,
            -0.03314383327960968,
            0.07043074816465378,
            -0.011432916857302189,
            -0.010287848301231861,
            0.17366786301136017,
            0.11806149035692215,
            0.19683508574962616,
            0.1465349644422531,
            0.08970971405506134,
            -0.1253747045993805,
            0.11449695378541946,
            0.0009916611015796661,
            -0.08935607969760895,
            -0.11304860562086105,
        },
    },
    {
        {
            0.19064368307590485,
            0.2067311406135559,
            0.26624321937561035,
            -0.04056416451931,
            0.20398937165737152,
            0.06697580963373184,
            0.03183300793170929,
            0.18325446546077728,
            0.06785888969898224,
            0.11567459255456924,
            0.1295941025018692,
            0.23827959597110748,
            -0.03497858718037605,
            0.05704483389854431,
            0.19360823929309845,
            0.19071093201637268,
            -0.11812413483858109,
            0.1484595537185669,
            0.14160622656345367,
            0.014261038042604923,
            0.2355407029390335,
            0.013934672810137272,
            0.2080780565738678,
            -0.0657491460442543,
            0.1056557446718216,
            0.21987099945545197,
            0.09388164430856705,
            0.002290875418111682,
            0.09641103446483612,
            0.009405001066625118,
            0.20283672213554382,
            0.1540687084197998,
            0.1782872974872589,
            0.13119377195835114,
            0.109152652323246,
            0.005712252110242844,
            0.10651205480098724,
            0.04349067062139511,
            0.2646143436431885,
            0.1554860770702362,
            0.012901281006634235,
            0.07850246131420135,
            0.19744297862052917,
            0.22998426854610443,
            -0.017454294487833977,
            0.2684558928012848,
            0.28378474712371826,
            0.04886610433459282,
            -0.03461892530322075,
            0.1231607124209404,
            0.2432856261730194,
            -0.024958178400993347,
            -0.00614651245996356,
            0.0816960483789444,
            0.04229273647069931,
            -0.04183905944228172,
            0.19306665658950806,
            0.17479297518730164,
            0.07469194382429123,
            0.24204814434051514,
            0.19537153840065002,
            0.2662578821182251,
            0.17737343907356262,
            0.14154940843582153,
        },
        {
            -0.10738326609134674,
            -0.08394136279821396,
            -0.19072391092777252,
            -0.009014070965349674,
            0.09271134436130524,
            0.11945006251335144,
            0.05931321159005165,
            0.21453018486499786,
            -0.07442544400691986,
            -0.10853729397058487,
            -0.10463737696409225,
            0.03499089181423187,
            0.10232905298471451,
            -0.04843774810433388,
            -0.1518908590078354,
            0.16540899872779846,
            -0.11253117769956589,
            0.02836933173239231,
            -0.0027182968333363533,
            0.13966138660907745,
            -0.08368447422981262,
            -0.11656837910413742,
            0.03594239801168442,
            -0.09302294254302979,
            0.036975521594285965,
            -0.06923190504312515,
            0.04595208168029785,
            -0.07649372518062592,
            0.055488232523202896,
            -0.1449718177318573,
            -0.02166767232120037,
            0.00988776609301567,
            0.014999601058661938,
            0.019688816741108894,
            -0.0786299780011177,
            0.17514421045780182,
            -0.0607449933886528,
            -0.17878343164920807,
            0.040984295308589935,
            -0.10378801077604294,
            0.06770890951156616,
            0.037355802953243256,
            0.004518638364970684,
            0.1847892701625824,
            0.11895621567964554,
            -0.07760311663150787,
            -0.01858695037662983,
            -0.08866497129201889,
            -0.10279493778944016,
            0.01895591989159584,
            -0.03735162690281868,
            0.041006505489349365,
            0.1545352041721344,
            0.018566101789474487,
            -0.052025239914655685,
            0.1399998962879181,
            0.0373365618288517,
            -0.01760197803378105,
            0.06662916392087936,
            -0.05340215936303139,
            0.128065824508667,
            0.005389722529798746,
            0.01586885191500187,
            0.18088962137699127,
        },
        {
            -0.023672839626669884,
            0.06221725419163704,
            0.1320735663175583,
            -0.19169791042804718,
            -0.030524885281920433,
            -0.08003470301628113,
            0.03744649514555931,
            -0.11977323144674301,
            -0.12162043899297714,
            0.11825917661190033,
            0.06589331477880478,
            0.045945748686790466,
            -0.08618564158678055,
            0.09763151407241821,
            -0.07036354392766953,
            -0.1496407687664032,
            -0.1283521056175232,
            0.15879079699516296,
            -0.033659908920526505,
            0.03890806809067726,
            0.014945912174880505,
            -0.13761188089847565,
            0.06899238377809525,
            -0.1462337225675583,
            0.10447154194116592,
            -0.051476605236530304,
            -0.19498831033706665,
            -0.18665407598018646,
            0.06728819012641907,
            -0.04696159064769745,
            -0.10573307424783707,
            -0.10413242876529694,
            0.03131229430437088,
            0.013371448963880539,
            -0.11376795917749405,
            0.022286174818873405,
            -0.041818324476480484,
            -0.01180758886039257,
            -0.18727721273899078,
            0.1357160359621048,
            0.09541838616132736,
            -0.09091826528310776,
            -0.05772841349244118,
            -0.037388477474451065,
            -0.13183975219726562,
            -0.2005050629377365,
            -0.17991386353969574,
            -0.13199719786643982,
            -0.053629372268915176,
            -0.1115829199552536,
            -0.004825671669095755,
            0.0899922251701355,
            0.09710299223661423,
            -0.028434261679649353,
            0.05634612962603569,
            0.049550220370292664,
            0.0038404494989663363,
            0.08191226422786713,
            -0.07551521062850952,
            -0.008706212043762207,
            -0.08530610799789429,
            -0.01685977727174759,
            0.062260206788778305,
            -0.02333802916109562,
        },
    },
    {
        {
            0.0561506561934948,
            0.17312775552272797,
            0.15981322526931763,
            -0.24428637325763702,
            0.10698715597391129,
            -0.07900191843509674,
            0.15119768679141998,
            0.15384380519390106,
            -0.11650349944829941,
            0.20455414056777954,
            0.14436908066272736,
            0.21664650738239288,
            0.11028345674276352,
            0.3118384778499603,
            0.057526297867298126,
            -0.14305903017520905,
            -0.20938584208488464,
            -0.11350950598716736,
            -0.025536390021443367,
            0.0439705066382885,
            -0.1287592202425003,
            -0.08855631202459335,
            0.11027102172374725,
            -0.128151997923851,
            -0.011533532291650772,
            0.009244109503924847,
            -0.13117951154708862,
            -0.29274171590805054,
            0.30560576915740967,
            -0.10462401062250137,
            -0.20778557658195496,
            0.17295317351818085,
            0.20001262426376343,
            -0.1435489058494568,
            0.2664423882961273,
            -0.056652892380952835,
            0.24735330045223236,
            0.10115177929401398,
            -0.0969783142209053,
            0.11711408197879791,
            0.23072779178619385,
            -0.014385184273123741,
            -0.01269993744790554,
            0.002406611805781722,
            0.22308018803596497,
            -0.00873765628784895,
            0.10472004115581512,
            0.2196165770292282,
            0.05126252770423889,
            0.06199144572019577,
            -0.007761109620332718,
            0.2926798462867737,
            -0.15439572930335999,
            -0.008373833261430264,
            -0.015430115163326263,
            -0.05189675837755203,
            0.16073830425739288,
            0.19430145621299744,
            -0.06143390014767647,
            0.15181206166744232,
            0.18632499873638153,
            0.08895426988601685,
            0.17231068015098572,
            0.06578457355499268,
        },
        {
            0.21768495440483093,
            -0.06105980649590492,
            -0.022312086075544357,
            0.08307939022779465,
            0.009961606934666634,
            0.09845724701881409,
            0.07613816112279892,
            0.030644875019788742,
            -0.05432770028710365,
            -0.142593652009964,
            0.04849732667207718,
            0.19556376338005066,
            0.1526811420917511,
            0.21054434776306152,
            0.04674409702420235,
            -0.009821563959121704,
            0.13704563677310944,
            0.04503151401877403,
            0.22280438244342804,
            0.22055266797542572,
            0.06221362575888634,
            0.18236902356147766,
            0.007546786684542894,
            0.25665244460105896,
            0.14978952705860138,
            0.049621403217315674,
            0.03972643241286278,
            0.12285853922367096,
            -0.08666951209306717,
            0.17266827821731567,
            0.19918608665466309,
            -0.011800040490925312,
            0.12794581055641174,
            0.09983254969120026,
            0.1832909733057022,
            0.028285076841711998,
            0.06568567454814911,
            -0.02851776033639908,
            0.14591394364833832,
            -0.11713699251413345,
            0.05826201289892197,
            0.1253923922777176,
            0.19526147842407227,
            0.10700800269842148,
            0.1876690536737442,
            -0.07662966847419739,
            0.04534352198243141,
            -0.08553238213062286,
            -0.0195341594517231,
            0.01866038329899311,
            -0.0614418126642704,
            0.04757743328809738,
            -0.010957615450024605,
            0.1470962017774582,
            0.0738111361861229,
            0.15942126512527466,
            0.15509949624538422,
            -0.06359183043241501,
            -0.0729224905371666,
            0.20005057752132416,
            0.11518260091543198,
            -0.02132095955312252,
            -0.05587078258395195,
            -0.045767031610012054,
        },
        {
            -0.041584406048059464,
            0.0860496461391449,
            -0.02785344608128071,
            0.029198648408055305,
            0.19648098945617676,
            0.0025252639316022396,
            0.005555648356676102,
            -0.06144789233803749,
            0.06691714376211166,
            0.05139237642288208,
            -0.06558186560869217,
            0.04802972078323364,
            -0.04597288742661476,
            0.03630240634083748,
            0.11790753901004791,
            -0.1303028017282486,
            0.07518436014652252,
            0.15381836891174316,
            -0.07962935417890549,
            -0.009084279648959637,
            0.13802507519721985,
            -0.2220918983221054,
            0.1295413374900818,
            -0.0984480008482933,
            0.06293365359306335,
            -0.1551472544670105,
            -0.1032826155424118,
            0.0016514552989974618,
            -0.08416691422462463,
            0.032091639935970306,
            0.02490859292447567,
            -0.014830829575657845,
            0.019468912854790688,
            0.0429663211107254,
            -0.05158466100692749,
            0.114920973777771,
            0.03976401314139366,
            -0.1161045953631401,
            -0.06594774127006531,
            0.0002651281247381121,
            0.11628348380327225,
            0.05936034023761749,
            -0.037700049579143524,
            0.07172099500894547,
            -0.19066353142261505,
            0.0713626891374588,
            0.0788688212633133,
            -0.08766818046569824,
            -0.020274270325899124,
            -0.16876618564128876,
            -0.01965012215077877,
            0.04326871782541275,
            -0.1461239904165268,
            0.1374455839395523,
            0.1729450523853302,
            -0.1377205103635788,
            -0.1672975867986679,
            -0.09398545324802399,
            0.020917238667607307,
            -0.05218582600355148,
            -0.19148395955562592,
            0.13294878602027893,
            0.13980482518672943,
            -0.11225166916847229,
        },
    },
    {
        {
            0.0946517139673233,
            -0.11360596120357513,
            -0.14299240708351135,
            -0.03604628145694733,
            -0.20995764434337616,
            -0.008179470896720886,
            0.04649211838841438,
            -0.02003157138824463,
            0.0783773735165596,
            -0.19593527913093567,
            -0.022819269448518753,
            -0.09436602890491486,
            -0.14692345261573792,
            0.09903279691934586,
            -0.08718129992485046,
            -0.12905719876289368,
            -0.10448991507291794,
            -0.014590288512408733,
            -0.20772585272789001,
            -0.1305420994758606,
            0.12523320317268372,
            -0.13647931814193726,
            -0.22922387719154358,
            -0.030836723744869232,
            0.0826873704791069,
            -0.10443985462188721,
            -0.09197127819061279,
            0.06424029171466827,
            -0.11772216111421585,
            0.044494546949863434,
            0.006697675213217735,
            -0.0827624574303627,
            -0.1992982029914856,
            -0.11765000224113464,
            -0.13256746530532837,
            -0.1138233169913292,
            0.04185866191983223,
            -0.18593335151672363,
            0.09024108201265335,
            -0.0035859488416463137,
            -0.04951946809887886,
            -0.17511022090911865,
            0.02200651727616787,
            0.0689547136425972,
            -0.05915946513414383,
            0.010875935666263103,
            0.021077115088701248,
            0.08123892545700073,
            -0.06180485337972641,
            0.04604606330394745,
            -0.0822831317782402,
            0.028821978718042374,
            -0.15122166275978088,
            -0.11019250005483627,
            -0.17166103422641754,
            -0.1744258850812912,
            -0.009558012709021568,
            -0.19739359617233276,
            -0.006372785195708275,
            -0.12359055131673813,
            -0.0806407704949379,
            0.05150424689054489,
            -0.17928940057754517,
            -0.2379356473684311,
        },
        {
            0.12228379398584366,
            -0.01225881278514862,
            -0.12087716162204742,
            0.13127097487449646,
            0.03146510571241379,
            -0.06270287185907364,
            -0.03955943509936333,
            0.009907479397952557,
            -0.01822585053741932,
            -0.05535351485013962,
            -0.13377109169960022,
            -0.10267867892980576,
            0.02070326916873455,
            -0.012802348472177982,
            -0.16715869307518005,
            0.21045136451721191,
            -0.08821509778499603,
            -0.06799784302711487,
            -0.002215196378529072,
            0.07571758329868317,
            -0.03802568092942238,
            0.11226575076580048,
            0.07860380411148071,
            0.11059340834617615,
            -0.06414603441953659,
            -0.10379879176616669,
            -0.1224985122680664,
            0.029513869434595108,
            -0.023714493960142136,
            -0.08127326518297195,
            -0.0184033066034317,
            0.034065358340740204,
            0.14772647619247437,
            0.14088279008865356,
            -0.11992685496807098,
            -0.16032323241233826,
            -0.08615610748529434,
            -0.20559751987457275,
            -0.08002816885709763,
            0.08883979171514511,
            -0.0675482302904129,
            0.053348954766988754,
            -0.03311039134860039,
            0.03506140038371086,
            -0.07264567166566849,
            0.1437993347644806,
            -0.06383227556943893,
            -0.05282197892665863,
            0.028087511658668518,
            -0.07687576860189438,
            -0.028938058763742447,
            -0.22414079308509827,
            0.098227359354496,
            -0.1808323711156845,
            0.04254622757434845,
            0.12878338992595673,
            -0.053303852677345276,
            -0.12860257923603058,
            0.09692958742380142,
            -0.15126152336597443,
            0.12537389993667603,
            -0.10908862948417664,
            0.05049213021993637,
            -0.06383411586284637,
        },
        {
            -0.07959569990634918,
            -0.015733785927295685,
            0.16259486973285675,
            0.09406587481498718,
            -0.00562314223498106,
            0.03834546357393265,
            0.03688620403409004,
            0.06885231286287308,
            0.1651800125837326,
            0.06579361855983734,
            -0.07599757611751556,
            -0.15953879058361053,
            -0.08557619899511337,
            0.08241313695907593,
            0.12986908853054047,
            0.22804005444049835,
            0.10556637495756149,
            0.06645526736974716,
            0.1638067662715912,
            0.04674762487411499,
            0.12491486966609955,
            0.08890625834465027,
            0.05792174115777016,
            0.136247456073761,
            0.09068318456411362,
            -0.16573520004749298,
            0.0025295985396951437,
            -0.03748650848865509,
            -0.12772703170776367,
            0.07509654015302658,
            -0.02487962879240513,
            -0.14883722364902496,
            0.07197530567646027,
            0.021225664764642715,
            -0.09991563111543655,
            -0.04362531006336212,
            -0.09304077178239822,
            0.20224018394947052,
            -0.042618464678525925,
            -0.1880367249250412,
            0.006491396576166153,
            0.131508469581604,
            0.05328841879963875,
            0.009477552026510239,
            0.02998807281255722,
            -0.05785081535577774,
            0.012006602250039577,
            -0.02649882063269615,
            -0.0534784309566021,
            -0.03373725712299347,
            0.11341644823551178,
            -0.15105962753295898,
            0.06492079794406891,
            -0.1063729003071785,
            0.09678284078836441,
            -0.15162530541419983,
            -0.10123326629400253,
            0.04634634405374527,
            -0.07045628875494003,
            -0.18307848274707794,
            0.008045417256653309,
            0.13156887888908386,
            0.014325232245028019,
            -0.09737864136695862,
        },
    },
    {
        {
            -0.1325090527534485,
            0.0231207013130188,
            -0.05966630205512047,
            0.08279174566268921,
            0.07382241636514664,
            0.059572599828243256,
            0.24042263627052307,
            0.16772225499153137,
            0.18980009853839874,
            0.17719103395938873,
            0.09437821060419083,
            -0.17143820226192474,
            0.0659107118844986,
            0.15582536160945892,
            0.09339705109596252,
            0.3462265729904175,
            -0.09048687666654587,
            0.10189829766750336,
            0.21884684264659882,
            0.3142281472682953,
            0.23079709708690643,
            0.2915706932544708,
            -0.09635332226753235,
            0.15592271089553833,
            0.19214236736297607,
            0.22163979709148407,
            -0.05487983673810959,
            0.05361608415842056,
            0.1931924670934677,
            0.04578017815947533,
            0.12031647562980652,
            -0.007287163753062487,
            0.2854114770889282,
            0.2176981270313263,
            0.016002275049686432,
            0.014673866331577301,
            0.19612140953540802,
            -0.1068740114569664,
            0.029573004692792892,
            0.22171643376350403,
            -0.11580095440149307,
            -0.11927560716867447,
            0.08499462157487869,
            0.16390720009803772,
            0.09811275452375412,
            0.21391119062900543,
            -0.029785431921482086,
            0.004149173852056265,
            0.07916662096977234,
            0.04812126234173775,
            0.059229776263237,
            0.1765759140253067,
            0.22999179363250732,
            -0.005327768158167601,
            0.2576604187488556,
            0.022618088871240616,
            -0.05428202450275421,
            0.13663601875305176,
            -0.048340391367673874,
            -0.142352893948555,
            0.30000564455986023,
            -0.155217245221138,
            -0.16855938732624054,
            0.12043172121047974,
        },
        {
            0.03990469127893448,
            0.2431390881538391,
            0.04490557312965393,
            -0.030184950679540634,
            0.08971241116523743,
            0.0923263281583786,
            -0.02012840285897255,
            -0.04684116691350937,
            -0.08015640079975128,
            0.29131773114204407,
            -0.07345558702945709,
            0.16084975004196167,
            0.20255182683467865,
            0.15832194685935974,
            0.15708038210868835,
            0.030584635213017464,
            0.06828873604536057,
            0.19281138479709625,
            -0.02482517622411251,
            0.1698497235774994,
            0.05165630951523781,
            -0.18026100099086761,
            0.036554332822561264,
            0.01996392384171486,
            0.007506613153964281,
            -0.023658350110054016,
            -0.037760064005851746,
            -0.11996337026357651,
            0.20139309763908386,
            0.14685000479221344,
            -0.1001998782157898,
            0.05208223685622215,
            0.10685751587152481,
            -0.02438218519091606,
            0.10714308172464371,
            -0.07367665320634842,
            0.016592252999544144,
            0.06201151758432388,
            0.13649824261665344,
            0.0879322737455368,
            0.20405665040016174,
            -0.0059628598392009735,
            0.12352274358272552,
            -0.05183368921279907,
            0.03922591730952263,
            -0.10102978348731995,
            0.04515782371163368,
            0.02850588597357273,
            0.08259908854961395,
            0.1773858517408371,
            0.027028050273656845,
            0.08710069209337234,
            0.09684818238019943,
            -0.021344942972064018,
            0.048464588820934296,
            -0.08670497685670853,
            0.13457153737545013,
            0.18771612644195557,
            -0.05833718180656433,
            0.07454194128513336,
            0.032434381544589996,
            0.02543182671070099,
            0.13904646039009094,
            0.15021930634975433,
        },
        {
            -0.08699271082878113,
            -0.04816308617591858,
            -0.11705628037452698,
            0.11199533194303513,
            0.12628692388534546,
            0.17113417387008667,
            -0.00913233496248722,
            0.10518483072519302,
            0.10231421887874603,
            0.08474600315093994,
            0.0030151251703500748,
            0.10292577743530273,
            0.0703076422214508,
            -0.11858817934989929,
            -0.049890752881765366,
            0.1307089924812317,
            0.1472374051809311,
            -0.003570377128198743,
            0.2290191948413849,
            0.0441032238304615,
            0.12439686059951782,
            0.23870167136192322,
            -0.14190983772277832,
            0.05083451420068741,
            -0.10961008816957474,
            0.14562645554542542,
            -0.16845746338367462,
            0.07517077028751373,
            0.10642898827791214,
            -0.05728360265493393,
            0.019870268180966377,
            0.12563306093215942,
            -0.024979764595627785,
            0.06398006528615952,
            0.15771904587745667,
            -0.0864294171333313,
            0.0629505068063736,
            -0.12922325730323792,
            0.11380016803741455,
            0.03838254511356354,
            0.06179942935705185,
            -0.11906757205724716,
            0.09348700940608978,
            0.15240266919136047,
            -0.06256186217069626,
            0.1020100861787796,
            -0.044329218566417694,
            -0.08550998568534851,
            -0.038646284490823746,
            -0.08053971827030182,
            -0.04076530039310455,
            0.10338511317968369,
            -0.08042338490486145,
            -0.08518966287374496,
            -0.047169096767902374,
            -0.07637827843427658,
            0.12012334913015366,
            0.05584447458386421,
            -0.05749274045228958,
            -0.12294452637434006,
            0.207241028547287,
            0.0009462066227570176,
            -0.13446931540966034,
            0.06281408667564392,
        },
    },
    {
        {
            -0.008923610672354698,
            -0.13284170627593994,
            -0.21916703879833221,
            0.06397757679224014,
            -0.06422879546880722,
            -0.015650007873773575,
            0.01898704655468464,
            0.0183350071310997,
            0.10515835881233215,
            -0.10767149180173874,
            -0.18264923989772797,
            -0.2778937816619873,
            0.05378604680299759,
            -0.12232029438018799,
            -0.14711453020572662,
            0.11009957641363144,
            -0.29401034116744995,
            -0.07941041141748428,
            -0.15252381563186646,
            -0.004723724909126759,
            0.11938513815402985,
            0.02043769881129265,
            0.04445689544081688,
            -0.07723672688007355,
            0.0022367287892848253,
            -0.08478585630655289,
            0.08828621357679367,
            -0.14697445929050446,
            -0.23274777829647064,
            -0.13554884493350983,
            0.037545591592788696,
            0.07691793888807297,
            0.03108694963157177,
            0.1235973909497261,
            0.047127507627010345,
            0.014669113792479038,
            -0.05666094645857811,
            -0.13455161452293396,
            0.02288772165775299,
            -0.19660355150699615,
            -0.03030291013419628,
            -0.028041359037160873,
            -0.11883363127708435,
            -0.05027264356613159,
            -0.12477502226829529,
            0.037763118743896484,
            0.04004811868071556,
            0.10482607036828995,
            -0.12160520255565643,
            0.040717460215091705,
            0.020945772528648376,
            0.10295725613832474,
            -0.09544067084789276,
            -0.2294660061597824,
            0.008463375270366669,
            -0.13946621119976044,
            -0.21608059108257294,
            -0.09773725271224976,
            -0.039294611662626266,
            -0.08345905691385269,
            0.12236108630895615,
            -0.1491776555776596,
            -0.16377140581607819,
            -0.056114133447408676,
        },
        {
            -0.03794841840863228,
            -0.021246787160634995,
            -0.11291877180337906,
            -0.14401942491531372,
            0.05957062914967537,
            0.06924673914909363,
            0.04758735001087189,
            0.10306578874588013,
            0.029690803959965706,
            0.008376840502023697,
            0.12346694618463516,
            -0.11281644552946091,
            -0.02886764332652092,
            0.15494704246520996,
            -0.0673336386680603,
            -0.04672979936003685,
            -0.18937551975250244,
            0.054931845515966415,
            -0.005952619947493076,
            0.04414866492152214,
            0.00611802889034152,
            0.0336579829454422,
            -0.16193197667598724,
            0.02659999392926693,
            -0.0919029712677002,
            0.1200488731265068,
            0.027524041011929512,
            0.013944827020168304,
            -0.003887458238750696,
            0.027518102899193764,
            -0.12511414289474487,
            -0.2724352180957794,
            -0.0022258374374359846,
            -0.029168223962187767,
            0.03417719155550003,
            0.03379571810364723,
            0.14940118789672852,
            -0.013594563119113445,
            -0.031184043735265732,
            0.10333829373121262,
            -0.03500587120652199,
            0.07418869435787201,
            0.05417707934975624,
            -0.04417848587036133,
            -0.065450020134449,
            -0.08935149013996124,
            -0.0827316865324974,
            0.017668025568127632,
            0.15746653079986572,
            0.08238910138607025,
            -0.14670409262180328,
            0.18270078301429749,
            -0.07563211768865585,
            0.025562314316630363,
            -0.14536543190479279,
            -0.1153741329908371,
            0.06224336102604866,
            -0.0439755953848362,
            -0.12732794880867004,
            -0.07916471362113953,
            -0.1279640644788742,
            -0.02280258946120739,
            -0.11516502499580383,
            -0.022963551804423332,
        },
        {
            0.07873083651065826,
            -0.11604563891887665,
            -0.10967719554901123,
            -0.04650492966175079,
            -0.165951669216156,
            0.00015141797484830022,
            -0.12398099154233932,
            -0.07551071047782898,
            0.008954094722867012,
            -0.15936845541000366,
            -0.1074138805270195,
            -0.06344503909349442,
            0.05250190943479538,
            0.09185843914747238,
            -0.09546713531017303,
            0.2176734209060669,
            0.06972849369049072,
            0.11386310309171677,
            0.1658526510000229,
            0.21591925621032715,
            0.1457211822271347,
            0.21486589312553406,
            0.0025386118795722723,
            0.08350373059511185,
            0.04886864870786667,
            0.11722146719694138,
            0.11152925342321396,
            0.22106429934501648,
            0.058972712606191635,
            -0.0685029998421669,
            0.18502689898014069,
            0.06547950208187103,
            0.12789548933506012,
            0.18025770783424377,
            -0.13174350559711456,
            -0.12557265162467957,
            -0.10636810958385468,
            -0.1639174073934555,
            0.028665173798799515,
            -0.05989539250731468,
            -0.13184049725532532,
            0.016071908175945282,
            -0.1486417055130005,
            -0.09910579770803452,
            -0.016092566773295403,
            0.02744325064122677,
            -0.07809139788150787,
            0.061249058693647385,
            0.01701459102332592,
            -0.12295223027467728,
            0.03251655399799347,
            -0.16107740998268127,
            0.12655650079250336,
            -0.07370563596487045,
            0.1803898811340332,
            -0.01329147256910801,
            -0.0756249651312828,
            0.16005375981330872,
            0.05688469484448433,
            -0.12118161469697952,
            -0.09083739668130875,
            -0.19528692960739136,
            0.034820474684238434,
            -0.0901629701256752,
        },
    },
    {
        {
            -0.09680724889039993,
            -0.005067094229161739,
            0.06084296852350235,
            -0.07106009870767593,
            -0.11229495704174042,
            -0.1511232703924179,
            -0.015283376909792423,
            -0.13913728296756744,
            -0.004777473397552967,
            -0.12616069614887238,
            -0.05758420005440712,
            -0.06066165119409561,
            0.14021116495132446,
            0.12740419805049896,
            0.1185455471277237,
            -0.05416209623217583,
            -0.10499994456768036,
            0.14037534594535828,
            0.07642305642366409,
            -0.06134720519185066,
            -0.1478593647480011,
            -0.08665147423744202,
            -0.0004160591633990407,
            -0.08756501227617264,
            -0.08980149775743484,
            0.013310492038726807,
            0.028595102950930595,
            -0.1740519106388092,
            -0.056205786764621735,
            -0.06984743475914001,
            0.12387130409479141,
            -0.08258503675460815,
            0.11034863442182541,
            0.09845276176929474,
            -0.14806385338306427,
            0.017627710476517677,
            -0.11141883581876755,
            -0.11265968531370163,
            0.08299291878938675,
            0.09243304282426834,
            0.021676208823919296,
            0.08003707975149155,
            0.16557466983795166,
            0.021878497675061226,
            -0.05593281239271164,
            0.02340279519557953,
            0.1296994835138321,
            -0.162630096077919,
            0.010089262388646603,
            0.14737175405025482,
            -0.10219302773475647,
            -0.14486873149871826,
            -0.136434867978096,
            0.14903077483177185,
            0.11080212146043777,
            -0.05704700946807861,
            -0.07298186421394348,
            -0.10640128701925278,
            -0.017403747886419296,
            0.02738848328590393,
            -0.16219790279865265,
            0.12422291189432144,
            0.11258896440267563,
            0.08450474590063095,
        },
        {
            0.17324452102184296,
            0.1557619869709015,
            0.04451993480324745,
            0.22684159874916077,
            -0.058697860687971115,
            0.07695236057043076,
            0.12112145870923996,
            0.05854197219014168,
            0.1977469027042389,
            -0.08887138217687607,
            -0.020586421713232994,
            0.13481707870960236,
            -0.036649078130722046,
            0.026713866740465164,
            -0.004054934252053499,
            0.21741478145122528,
            -0.09495455771684647,
            0.0040803817100822926,
            0.062137141823768616,
            -0.008183744736015797,
            0.07952573895454407,
            0.19003276526927948,
            0.18235182762145996,
            0.20841559767723083,
            0.22088788449764252,
            -0.06358318775892258,
            0.04912663996219635,
            0.044670309871435165,
            -0.006001295056194067,
            0.14667895436286926,
            -0.003971033729612827,
            -0.10061687231063843,
            -0.01146185677498579,
            -0.00040641234954819083,
            0.0741516724228859,
            0.011768652126193047,
            -0.0035222142469137907,
            -0.06511219590902328,
            0.05963486433029175,
            -0.04404674097895622,
            -0.06251675635576248,
            -0.04438939690589905,
            0.1788940578699112,
            0.0206990297883749,
            0.14804568886756897,
            -0.0769973173737526,
            0.03909621015191078,
            0.1732732057571411,
            0.13066884875297546,
            0.19198191165924072,
            0.13838912546634674,
            -0.02218722179532051,
            0.02530555985867977,
            0.1204061359167099,
            0.10541162639856339,
            0.08267997205257416,
            0.17128050327301025,
            0.03804568201303482,
            0.19180595874786377,
            0.15915895998477936,
            0.025568455457687378,
            -0.05343189463019371,
            0.10358377546072006,
            0.1808028519153595,
        },
        {
            -0.023886436596512794,
            -0.2069006860256195,
            -0.028694549575448036,
            -0.09467843174934387,
            -0.15495412051677704,
            -0.05822973698377609,
            -0.09613516181707382,
            0.1167718917131424,
            -0.12406183779239655,
            -0.16193896532058716,
            -0.13223373889923096,
            0.06798943877220154,
            0.04350949451327324,
            -0.008650429546833038,
            -0.14604169130325317,
            0.0903114378452301,
            -0.14674091339111328,
            0.0645705983042717,
            0.07588282972574234,
            -0.00063511379994452,
            -0.003918407019227743,
            0.08119842410087585,
            -0.22073057293891907,
            -0.0241161547601223,
            0.09104544669389725,
            0.059408798813819885,
            -0.09805385768413544,
            -0.055008504539728165,
            0.0873059332370758,
            0.045801158994436264,
            0.05048854649066925,
            0.02749011293053627,
            0.05889694020152092,
            -0.02898021973669529,
            0.20423249900341034,
            0.009606401436030865,
            0.06206366792321205,
            -0.04245268180966377,
            0.058470603078603745,
            0.08374832570552826,
            -0.04950268194079399,
            0.10315290093421936,
            -0.07348058372735977,
            0.07801520824432373,
            -0.06167951598763466,
            -0.04099699854850769,
            0.11549786478281021,
            0.025555463507771492,
            0.0032672348897904158,
            0.08189090341329575,
            0.06587860733270645,
            0.15880154073238373,
            0.030105864629149437,
            -0.0948057621717453,
            0.09777317196130753,
            -0.11807774007320404,
            0.17102214694023132,
            0.10926744341850281,
            0.0005373809835873544,
            -0.02132556214928627,
            0.046723611652851105,
            -0.24939574301242828,
            -0.16342167556285858,
            -0.01907208375632763,
        },
    },
    {
        {
            0.05571754276752472,
            0.12100999057292938,
            0.005729478318244219,
            0.01483917236328125,
            0.07422760874032974,
            -0.02882542461156845,
            -0.06588657200336456,
            -0.11242186278104782,
            -0.13669352233409882,
            -0.08639498800039291,
            -0.03709612041711807,
            0.06355172395706177,
            -0.06196526065468788,
            0.06993116438388824,
            0.041529323905706406,
            -0.01913132332265377,
            0.02834753505885601,
            -0.11349045485258102,
            -0.09766270220279694,
            -0.11669868230819702,
            -0.1068253368139267,
            -0.12855298817157745,
            -0.14974328875541687,
            -0.1568307727575302,
            0.08551275730133057,
            0.07463333755731583,
            -0.1292998343706131,
            -0.11951124668121338,
            -0.1263667345046997,
            -0.06332971900701523,
            -0.08096534758806229,
            0.048902321606874466,
            -0.12539899349212646,
            0.07188758254051208,
            -0.19151541590690613,
            -0.0769159197807312,
            0.1322702318429947,
            -0.01684621162712574,
            -0.1663941890001297,
            -0.033376842737197876,
            -0.18897783756256104,
            0.07103041559457779,
            -0.0279279425740242,
            0.03071071207523346,
            -0.14201577007770538,
            0.11103726178407669,
            -0.12972696125507355,
            0.10663358867168427,
            0.06823042035102844,
            0.021511003375053406,
            -0.12396833300590515,
            0.13848263025283813,
            0.0640849694609642,
            -0.15990658104419708,
            -0.023486554622650146,
            0.07328630238771439,
            0.12478095293045044,
            -0.07141286879777908,
            -0.1586930751800537,
            -0.1203225702047348,
            -0.057470448315143585,
            0.12507498264312744,
            -0.09393951296806335,
            -0.016017422080039978,
        },
        {
            0.22801564633846283,
            0.11691328138113022,
            -0.021605590358376503,
            0.16778995096683502,
            0.054672375321388245,
            0.049343109130859375,
            -0.12094567716121674,
            0.12735559046268463,
            0.15156178176403046,
            0.1677621603012085,
            -0.031602643430233,
            0.19281849265098572,
            0.1292978674173355,
            0.026869598776102066,
            0.07149340212345123,
            -0.0153170982375741,
            -0.010825968347489834,
            0.1635296642780304,
            0.02728819102048874,
            0.15600049495697021,
            -0.06998470425605774,
            0.145509734749794,
            0.21108737587928772,
            0.046477511525154114,
            0.17102646827697754,
            0.03621522709727287,
            -0.003365586046129465,
            0.02040974237024784,
            0.10695406794548035,
            0.07696523517370224,
            0.19631677865982056,
            0.1396799236536026,
            -0.11576692759990692,
            -0.012021804228425026,
            0.11439428478479385,
            -0.045672908425331116,
            0.1429547220468521,
            0.1421927958726883,
            -0.0739302784204483,
            0.0037023238837718964,
            -0.07798159867525101,
            0.018728159368038177,
            0.18850241601467133,
            0.03795703873038292,
            -0.05564158037304878,
            -0.0687023177742958,
            0.0840669497847557,
            0.07681262493133545,
            -0.00495891273021698,
            0.07531356066465378,
            0.2343483865261078,
            -0.08959861844778061,
            0.21446381509304047,
            0.11053422093391418,
            0.11874880641698837,
            0.0036318583879619837,
            0.09501142054796219,
            -0.06047061085700989,
            0.07277064770460129,
            -0.04911499097943306,
            0.09296580404043198,
            0.17102311551570892,
            0.19578996300697327,
            -0.11967191100120544,
        },
        {
            -0.08714459091424942,
            0.11241137236356735,
            -0.11875419318675995,
            0.14975115656852722,
            0.11369538307189941,
            -0.037927236407995224,
            -0.08110887557268143,
            0.02367141656577587,
            0.018213480710983276,
            0.06752121448516846,
            -0.056497879326343536,
            -0.03317547217011452,
            -0.19257543981075287,
            -0.16460475325584412,
            0.00923691876232624,
            0.04475359618663788,
            0.06272679567337036,
            0.06372842937707901,
            0.053130391985177994,
            -0.08908508718013763,
            -0.01229970995336771,
            0.16760720312595367,
            -0.004844430834054947,
            -0.07955528795719147,
            0.021947462111711502,
            -0.03856142237782478,
            -0.012204409576952457,
            0.25504499673843384,
            0.026240386068820953,
            -0.11388807743787766,
            -0.12349951267242432,
            -0.07334797084331512,
            -0.1475171148777008,
            -0.09418486058712006,
            -0.15518589317798615,
            0.12197322398424149,
            0.02971964329481125,
            -0.05837290734052658,
            0.1580062210559845,
            -0.03104502521455288,
            0.07571759819984436,
            -0.03204859793186188,
            -0.10242354869842529,
            0.009440220892429352,
            -0.2435358464717865,
            -0.05513627082109451,
            -0.07524605095386505,
            -0.006822783499956131,
            0.10477109998464584,
            0.14774896204471588,
            0.10390490293502808,
            0.015631744638085365,
            0.10489726811647415,
            0.028486082330346107,
            -0.030741997063159943,
            0.12697988748550415,
            -0.1744871735572815,
            -0.10056091845035553,
            0.10424604266881943,
            -0.05469576641917229,
            0.0697384849190712,
            0.18035444617271423,
            -0.0349406823515892,
            -0.01335487887263298,
        },
    },
    {
        {
            0.09723133593797684,
            -0.0711531937122345,
            -0.005016470793634653,
            -0.21812666952610016,
            -0.11169298738241196,
            0.06927726417779922,
            -0.08092132955789566,
            -0.07758431881666183,
            0.09343153238296509,
            -0.17764244973659515,
            -0.023549210280179977,
            -0.11871445178985596,
            -0.1755683273077011,
            -0.0774204209446907,
            -0.17590859532356262,
            -0.03293709456920624,
            0.1049196720123291,
            -0.031081348657608032,
            -0.05434921383857727,
            0.0377802848815918,
            -0.1943138837814331,
            -0.045438945293426514,
            0.04828304797410965,
            0.023065641522407532,
            -0.14055755734443665,
            0.03344452381134033,
            0.13973471522331238,
            0.09720216691493988,
            -0.05864444375038147,
            -0.10609859228134155,
            0.05457324907183647,
            0.006052442826330662,
            0.0904809832572937,
            -0.11489913612604141,
            -0.12294195592403412,
            -0.05252917483448982,
            -0.2199484407901764,
            0.08889921009540558,
            -0.095238097012043,
            0.062257636338472366,
            -0.12334322929382324,
            -0.16018611192703247,
            -0.1666613221168518,
            -0.18590570986270905,
            -0.19898752868175507,
            0.07811493426561356,
            -0.1562267243862152,
            -0.05755338445305824,
            -0.12992344796657562,
            -0.13576874136924744,
            -0.0074156480841338634,
            -0.0443369522690773,
            -0.10337285697460175,
            -0.14745257794857025,
            -0.10895322263240814,
            0.01565065234899521,
            -0.20960699021816254,
            -0.08929143100976944,
            0.09527067840099335,
            0.010917432606220245,
            -0.12353604286909103,
            0.06951433420181274,
            0.02173059806227684,
            -0.12912146747112274,
        },
        {
            0.16271643340587616,
            -0.039162591099739075,
            0.17392779886722565,
            -0.09521105885505676,
            0.0640694722533226,
            0.021112438291311264,
            -0.22828859090805054,
            -0.011264191009104252,
            0.08861581981182098,
            0.19763247668743134,
            0.14455293118953705,
            0.06223210319876671,
            -0.1546255201101303,
            -0.3013284504413605,
            0.11460407823324203,
            0.06620524823665619,
            0.0954127162694931,
            0.11366242915391922,
            -0.054530080407857895,
            0.036291997879743576,
            0.19551461935043335,
            0.009566336870193481,
            -0.026414968073368073,
            0.10105424374341965,
            -0.050887320190668106,
            -0.1348663717508316,
            0.20182044804096222,
            -0.03119228407740593,
            -0.24958622455596924,
            0.14030618965625763,
            0.0645749494433403,
            0.14568501710891724,
            0.10016787797212601,
            -0.05578870698809624,
            -0.08413688093423843,
            0.06837599724531174,
            -0.24744871258735657,
            0.05771461874246597,
            -0.03499072790145874,
            -0.0006625797832384706,
            0.09017471969127655,
            0.07757449150085449,
            0.10186577588319778,
            0.08021500706672668,
            -0.26450008153915405,
            0.11957993358373642,
            0.02935226820409298,
            0.02504313364624977,
            0.03827133774757385,
            -0.11548904329538345,
            -0.05431453511118889,
            -0.14001025259494781,
            0.14320974051952362,
            0.03558405488729477,
            -0.06755518168210983,
            0.08812535554170609,
            -0.14750780165195465,
            -0.03942844271659851,
            0.07780717313289642,
            -0.13243331015110016,
            0.13881638646125793,
            -0.02232801727950573,
            -0.024881359189748764,
            -0.16764378547668457,
        },
        {
            0.03883639723062515,
            -0.09828391671180725,
            0.06606997549533844,
            -0.11987383663654327,
            -0.051611270755529404,
            -0.12386160343885422,
            0.11668983846902847,
            0.07994439452886581,
            0.12436705827713013,
            -0.09700271487236023,
            -0.03197561204433441,
            0.17644774913787842,
            0.17449472844600677,
            0.27210330963134766,
            0.0005463206907734275,
            -0.14491356909275055,
            0.016017792746424675,
            0.036588404327631,
            0.16212809085845947,
            -0.02502363920211792,
            -0.10215907543897629,
            -0.033680886030197144,
            0.007818040437996387,
            0.07002385705709457,
            0.1710422784090042,
            0.14009574055671692,
            -0.1373979151248932,
            -0.050633735954761505,
            -0.03765972703695297,
            -0.060503989458084106,
            -0.10475610941648483,
            -0.18312987685203552,
            -0.08405095338821411,
            0.08144091814756393,
            0.1391061246395111,
            0.11114185303449631,
            0.2888999879360199,
            -0.17524190247058868,
            0.0016910874983295798,
            0.10096222162246704,
            0.03169677406549454,
            -0.029532814398407936,
            -0.09892269223928452,
            0.14086301624774933,
            0.20195572078227997,
            -0.08152928948402405,
            -0.1279124766588211,
            -0.14836135506629944,
            0.19783112406730652,
            -0.12798942625522614,
            0.09536688029766083,
            0.10622268915176392,
            -0.10240544378757477,
            0.07134424895048141,
            -0.20343701541423798,
            0.13150712847709656,
            0.2295481562614441,
            -0.04535853862762451,
            0.07685808092355728,
            -0.10104380548000336,
            -0.001566290040500462,
            -0.1381860226392746,
            -0.07765970379114151,
            0.081233911216259,
        },
    },
    {
        {
            -0.05857320502400398,
            0.23346154391765594,
            0.2199941873550415,
            0.07554005831480026,
            0.1288994699716568,
            0.03090943582355976,
            0.0868811160326004,
            0.18494568765163422,
            -0.0030217417515814304,
            0.24837073683738708,
            0.18193666636943817,
            -0.04516831412911415,
            -0.16404974460601807,
            -0.09848424047231674,
            0.16167806088924408,
            0.11273147910833359,
            -0.1253615915775299,
            0.12820492684841156,
            0.14571040868759155,
            0.004305555019527674,
            0.024033790454268456,
            0.05336892604827881,
            0.12809348106384277,
            0.15557458996772766,
            0.07422513514757156,
            -0.0898246243596077,
            0.15213698148727417,
            -0.09711261838674545,
            -0.12450695037841797,
            0.14330275356769562,
            0.08749546110630035,
            0.1322145164012909,
            0.11694968491792679,
            0.23434732854366302,
            -0.01775280572474003,
            0.07634837925434113,
            0.028386227786540985,
            0.038289133459329605,
            -0.011381669901311398,
            0.20126654207706451,
            0.2159649282693863,
            -0.010081644169986248,
            0.15002770721912384,
            0.02083704248070717,
            -0.14512553811073303,
            0.17175306379795074,
            0.0798194631934166,
            0.13278520107269287,
            0.09302361309528351,
            0.055115509778261185,
            0.00032375528826378286,
            -0.18648336827754974,
            0.021647533401846886,
            -0.015784570947289467,
            0.11712043732404709,
            0.06030614674091339,
            -0.06929510831832886,
            -0.03440280631184578,
            -0.0008769662817940116,
            0.013786175288259983,
            0.03546183183789253,
            0.17557822167873383,
            0.11278017610311508,
            0.18652157485485077,
        },
        {
            0.09540676325559616,
            -0.02096746861934662,
            0.17019766569137573,
            0.11751048266887665,
            -0.04912490397691727,
            -0.010404283180832863,
            -0.06732475757598877,
            -0.0793687030673027,
            0.033518724143505096,
            0.17522692680358887,
            0.056076984852552414,
            -0.026409883052110672,
            0.015266870148479939,
            -0.0632064938545227,
            0.011392067186534405,
            0.17032667994499207,
            0.08785553276538849,
            0.046158771961927414,
            -0.00921214185655117,
            0.044486574828624725,
            -0.041321296244859695,
            -0.0874050036072731,
            0.051537442952394485,
            -0.03262069448828697,
            0.09052728116512299,
            0.07706490159034729,
            0.012529044412076473,
            0.029778897762298584,
            -0.04410853609442711,
            0.06854411214590073,
            -0.00860076118260622,
            0.1761041134595871,
            0.18414492905139923,
            0.03433014079928398,
            0.005010534543544054,
            0.08927414566278458,
            -0.1599121391773224,
            0.264374315738678,
            0.16954974830150604,
            0.1528794765472412,
            -0.036154914647340775,
            0.16507257521152496,
            0.19124673306941986,
            -0.0472712479531765,
            -0.03081567771732807,
            0.03262777626514435,
            -0.06994365900754929,
            0.07393638789653778,
            0.12313927710056305,
            -0.07465441524982452,
            0.009815312922000885,
            0.046051084995269775,
            -0.005741701927036047,
            0.013273922726511955,
            -0.039393190294504166,
            0.11199087649583817,
            -0.047564372420310974,
            -0.07697881758213043,
            0.15582077205181122,
            0.01967480406165123,
            -0.09370837360620499,
            -0.027027953416109085,
            0.06886935979127884,
            -0.09292488545179367,
        },
        {
            -0.07246972620487213,
            -0.1046837791800499,
            0.0319916307926178,
            0.04965498298406601,
            -0.13456249237060547,
            0.06926614046096802,
            0.03250868245959282,
            0.15915073454380035,
            -0.05391840264201164,
            0.13591353595256805,
            -0.10372386127710342,
            0.026670504361391068,
            0.0017302746418863535,
            0.13347923755645752,
            0.038442112505435944,
            0.16831465065479279,
            0.009919030591845512,
            -0.09814229607582092,
            -0.024721592664718628,
            0.0008803638629615307,
            0.009028878062963486,
            -0.13284483551979065,
            -0.03681188449263573,
            0.12097537517547607,
            0.08543993532657623,
            -0.09532960504293442,
            -0.09198407083749771,
            -0.169402614235878,
            -0.027453599497675896,
            0.018368810415267944,
            0.08130700886249542,
            -0.11211203038692474,
            -0.05816679075360298,
            0.08870422840118408,
            0.12158100306987762,
            -0.1337655633687973,
            0.09898800402879715,
            -0.059037946164608,
            -0.12311320006847382,
            0.1311822235584259,
            0.05819305032491684,
            0.09888707101345062,
            -0.029141690582036972,
            -0.01592426374554634,
            -0.10493208467960358,
            -0.11590547114610672,
            -0.10204141587018967,
            0.03970085829496384,
            0.008073310367763042,
            0.06954815238714218,
            -0.021353542804718018,
            -0.012752446345984936,
            0.08672920614480972,
            0.1551462858915329,
            0.17034733295440674,
            -0.13344712555408478,
            -0.01911892369389534,
            0.07977218180894852,
            -0.06940734386444092,
            0.09916399419307709,
            -0.03211692348122597,
            -0.045798759907484055,
            0.141260027885437,
            -0.08597906678915024,
        },
    },
    {
        {
            -0.03909129649400711,
            -0.0743514820933342,
            -0.09673131257295609,
            -0.06528480350971222,
            0.14559632539749146,
            -0.022957202047109604,
            0.32184767723083496,
            0.18222324550151825,
            0.18486595153808594,
            0.07900401949882507,
            0.20299455523490906,
            -0.008849600329995155,
            0.18853996694087982,
            0.24716533720493317,
            0.0023212176747620106,
            -0.002998071489855647,
            -0.13372986018657684,
            0.19034148752689362,
            0.1959528774023056,
            -0.022460946813225746,
            -0.10512803494930267,
            -0.1276199370622635,
            0.003115702187642455,
            -0.11591485887765884,
            0.20423030853271484,
            0.22058402001857758,
            -0.10396488755941391,
            -0.17029134929180145,
            0.2669801414012909,
            0.10422280430793762,
            -0.038928259164094925,
            -0.01836133562028408,
            0.29559195041656494,
            -0.030062763020396233,
            0.3507690131664276,
            0.2143312692642212,
            0.16475799679756165,
            -0.053809989243745804,
            0.17128612101078033,
            0.16154566407203674,
            0.03206038847565651,
            0.13299712538719177,
            -0.027503512799739838,
            0.2953185439109802,
            0.12455686181783676,
            0.2210841029882431,
            0.009697620756924152,
            0.21037521958351135,
            0.06515331566333771,
            0.11647700518369675,
            0.13492923974990845,
            0.07723435759544373,
            0.11905970424413681,
            0.11274676024913788,
            0.024362845346331596,
            0.10351186990737915,
            0.05912681296467781,
            0.1294022500514984,
            -0.06861543655395508,
            0.19424569606781006,
            -0.014963355846703053,
            -0.024234771728515625,
            0.1788051575422287,
            0.23055806756019592,
        },
        {
            0.11834092438220978,
            -0.014138756319880486,
            -0.06612454354763031,
            0.07844973355531693,
            0.011884662322700024,
            0.14182481169700623,
            -0.26347121596336365,
            0.022532688453793526,
            0.002430399414151907,
            0.14484244585037231,
            0.12320514023303986,
            -0.17562058568000793,
            -0.05827241390943527,
            -0.03977680951356888,
            0.06385839730501175,
            0.089842289686203,
            -0.03156756982207298,
            -0.1338268667459488,
            0.09649302065372467,
            0.06892755627632141,
            0.08492398262023926,
            -0.0739159807562828,
            0.08015640825033188,
            -0.17488902807235718,
            -0.0608680322766304,
            -0.09399191290140152,
            0.07017159461975098,
            -0.01969320885837078,
            0.07169946283102036,
            -0.0453774593770504,
            -0.02103378064930439,
            -0.02717626839876175,
            -0.04787096753716469,
            -0.12764036655426025,
            -0.12986429035663605,
            0.07803373783826828,
            -0.1507834941148758,
            -0.025218889117240906,
            0.08762215077877045,
            0.16298776865005493,
            -0.014530530199408531,
            -0.13530310988426208,
            0.1134268268942833,
            -0.22669677436351776,
            -0.22595511376857758,
            0.10152504593133926,
            0.1555422693490982,
            0.13904041051864624,
            -0.1292935013771057,
            -0.13784967362880707,
            0.06874396651983261,
            -0.0746816024184227,
            -0.09414948523044586,
            -0.028951462358236313,
            0.05213939771056175,
            -0.11895589530467987,
            0.031885892152786255,
            -0.059464167803525925,
            0.08917821198701859,
            0.09348207712173462,
            0.00503523601219058,
            -0.0670352578163147,
            -0.011150246486067772,
            0.014463783241808414,
        },
        {
            -0.0917268842458725,
            -0.10834002494812012,
            -0.05033178627490997,
            0.02411191165447235,
            0.10019272565841675,
            0.10647942870855331,
            -0.04498443007469177,
            0.0035227860789746046,
            0.06152031198143959,
            0.07799509167671204,
            0.007484700996428728,
            0.0260078813880682,
            -0.18267229199409485,
            -0.19480538368225098,
            -0.003851322690024972,
            0.00934248510748148,
            0.050116389989852905,
            0.11400626599788666,
            -0.11220955103635788,
            0.09788013994693756,
            0.11985651403665543,
            -0.09181852638721466,
            -0.031727708876132965,
            -0.11610233783721924,
            0.06824247539043427,
            -0.010855192318558693,
            0.04340073838829994,
            -0.11338341981172562,
            -0.1389414519071579,
            -0.17492561042308807,
            0.0367959700524807,
            0.015405148267745972,
            -0.15479964017868042,
            -0.05472781881690025,
            -0.17406688630580902,
            0.10085053741931915,
            -0.063016377389431,
            0.11385586857795715,
            0.0277800764888525,
            0.14100705087184906,
            -0.030796559527516365,
            -0.10930118709802628,
            -0.030411498621106148,
            -0.09987054020166397,
            -0.22524593770503998,
            -0.03083948604762554,
            0.03546649217605591,
            -0.16567879915237427,
            -0.16909995675086975,
            -0.17003166675567627,
            -0.1309015303850174,
            -0.16242319345474243,
            -0.027736347168684006,
            0.08869729936122894,
            0.10692253708839417,
            0.12877526879310608,
            -0.032769329845905304,
            0.02158312126994133,
            -0.1350785344839096,
            0.04525561258196831,
            -0.08694473654031754,
            0.09379768371582031,
            -0.11171647161245346,
            -0.02366836741566658,
        },
    },
    {
        {
            0.11440188437700272,
            0.10554572939872742,
            0.12150004506111145,
            -0.09241760522127151,
            -0.041799552738666534,
            -0.020668262615799904,
            0.09649398177862167,
            0.1234961673617363,
            0.0034965984523296356,
            -0.031326014548540115,
            0.04319838806986809,
            0.04916215315461159,
            -0.11382422596216202,
            0.12454977631568909,
            0.006219468079507351,
            -0.13648831844329834,
            0.03275718539953232,
            -0.13856488466262817,
            0.07464612275362015,
            -0.07328765094280243,
            0.08260602504014969,
            -0.009936870075762272,
            -0.07075859606266022,
            0.1311957687139511,
            -0.034715358167886734,
            0.09518252313137054,
            -0.08404567837715149,
            0.1416083425283432,
            0.06892802566289902,
            0.11517361551523209,
            0.07892870157957077,
            -0.09190674871206284,
            -0.12411174178123474,
            0.19016043841838837,
            -0.10754715651273727,
            0.09549927711486816,
            0.16217927634716034,
            0.023928409442305565,
            -0.03156698867678642,
            0.05289243906736374,
            0.013656411319971085,
            -0.010764077305793762,
            0.04116258770227432,
            -0.07432688027620316,
            0.12303858995437622,
            -0.09132344275712967,
            0.14821656048297882,
            0.12084997445344925,
            -0.0371878407895565,
            0.0948251262307167,
            0.05410391837358475,
            0.0006953584379516542,
            0.007730914745479822,
            0.18117940425872803,
            -0.13976137340068817,
            0.0030527208000421524,
            0.20087195932865143,
            -0.16300354897975922,
            0.03754344955086708,
            -0.016409961506724358,
            -0.09847777336835861,
            -0.13208431005477905,
            0.08861096203327179,
            0.14236418902873993,
        },
        {
            -0.14314858615398407,
            -0.09769365191459656,
            0.10855603963136673,
            -0.019506258890032768,
            -0.10789144784212112,
            -0.04503238573670387,
            0.2926091253757477,
            0.1139962449669838,
            0.08603014796972275,
            0.06025787442922592,
            0.11499898135662079,
            0.15045474469661713,
            0.1488700956106186,
            0.08080839365720749,
            0.08295836299657822,
            -0.03625792637467384,
            0.1273776888847351,
            0.09620870649814606,
            -0.004206667188555002,
            -0.0819045901298523,
            0.11019773036241531,
            0.01889476366341114,
            -0.025593450292944908,
            0.06831201910972595,
            0.06861163675785065,
            0.13422690331935883,
            0.04880332946777344,
            0.048107828944921494,
            0.10840649157762527,
            -0.032705336809158325,
            -0.0626329556107521,
            0.018038541078567505,
            0.02953873574733734,
            0.13010388612747192,
            0.12758184969425201,
            -0.05131876841187477,
            0.1915300041437149,
            0.11509597301483154,
            -0.06011933088302612,
            0.1832665205001831,
            -0.067631296813488,
            -0.040324535220861435,
            0.17850583791732788,
            0.2569219172000885,
            0.3072921931743622,
            0.12412301450967789,
            0.09938567876815796,
            0.13400135934352875,
            0.31921035051345825,
            0.06056683138012886,
            -0.16883786022663116,
            0.0038385784719139338,
            -0.06248236820101738,
            -0.05813784524798393,
            0.06618109345436096,
            -0.021791689097881317,
            0.10151233524084091,
            0.24227768182754517,
            0.005665762349963188,
            -0.06398037075996399,
            0.08047758787870407,
            -0.06757456064224243,
            -0.1546541005373001,
            0.21709167957305908,
        },
        {
            -0.14205726981163025,
            -0.14634408056735992,
            -0.20516929030418396,
            -0.004100593272596598,
            0.02763420343399048,
            0.08627022057771683,
            0.060574136674404144,
            0.08083155006170273,
            0.16648177802562714,
            -0.12278960645198822,
            0.07955415546894073,
            -0.12796635925769806,
            0.10930490493774414,
            0.10009802877902985,
            -0.02849891409277916,
            -0.0066276122815907,
            -0.04955008253455162,
            -0.007164414040744305,
            0.10045049339532852,
            0.1814524084329605,
            -0.12510845065116882,
            -0.09010400623083115,
            -0.10386667400598526,
            0.0467100627720356,
            0.09573393315076828,
            0.12306886166334152,
            -0.08812571316957474,
            0.11636465787887573,
            -0.09416007250547409,
            0.004497947171330452,
            0.06519514322280884,
            -0.047856882214546204,
            0.1506883203983307,
            0.07174035906791687,
            -0.06409680098295212,
            -0.1398269236087799,
            0.13265137374401093,
            -0.09932710230350494,
            0.09329694509506226,
            -0.15625092387199402,
            0.13085943460464478,
            0.028703417629003525,
            -0.026671450585126877,
            0.08831419795751572,
            0.15404081344604492,
            -0.051882777363061905,
            -0.027996715158224106,
            -0.0747656375169754,
            0.13994218409061432,
            -0.09990657866001129,
            0.01974254846572876,
            0.06523403525352478,
            -0.02221418358385563,
            -0.1403629034757614,
            0.1288864016532898,
            -0.19499731063842773,
            0.05613962188363075,
            0.13587796688079834,
            -0.09803371131420135,
            -0.15679757297039032,
            0.05721208080649376,
            -0.1370178908109665,
            -0.21282276511192322,
            -0.008358948864042759,
        },
    },
    {
        {
            -0.05590048059821129,
            -0.16089965403079987,
            -0.023590488359332085,
            -0.04266500473022461,
            -0.1942407190799713,
            -0.03373013064265251,
            0.08214644342660904,
            -0.1257137954235077,
            -0.1334579885005951,
            -0.06775999069213867,
            -0.15484830737113953,
            -0.013597847893834114,
            -0.17525047063827515,
            0.06259434670209885,
            -0.057681530714035034,
            0.125029057264328,
            -0.12993070483207703,
            0.12496856600046158,
            0.025767028331756592,
            -0.10423927754163742,
            -0.03374607861042023,
            -0.034166980534791946,
            0.09994760155677795,
            -0.10029995441436768,
            -0.1467175930738449,
            0.15060706436634064,
            0.10985330492258072,
            -0.015254493802785873,
            0.04682864993810654,
            -0.12248219549655914,
            0.14345940947532654,
            -0.15130169689655304,
            -0.015501365065574646,
            0.0401965007185936,
            -0.1968742460012436,
            0.10979816317558289,
            -0.047095611691474915,
            -0.032683759927749634,
            0.11038684099912643,
            -0.05418078601360321,
            -0.04470488429069519,
            -0.09542666375637054,
            0.053476471453905106,
            0.0011778738116845489,
            -0.1420845240354538,
            0.007171156350523233,
            -0.07637941092252731,
            -0.12046670913696289,
            -0.06620033085346222,
            -0.0023854700848460197,
            0.027629107236862183,
            -0.0800284817814827,
            -0.08348237723112106,
            -0.0542074590921402,
            -0.06456590443849564,
            0.10690830647945404,
            0.06119544804096222,
            -0.0895402729511261,
            -0.013263044878840446,
            0.11614663153886795,
            0.09571929275989532,
            -0.04469500482082367,
            -0.05998994782567024,
            0.025350039824843407,
        },
        {
            -0.14651736617088318,
            -0.040637776255607605,
            -0.20100943744182587,
