const float q_bidirectional_1_gru_forward_bias[64][3] = {
    {
        0.09030790627002716,
        0.044128354638814926,
        0.011135349050164223,
    },
    {
        0.0782981663942337,
        0.007048080675303936,
        0.031298406422138214,
    },
    {
        0.03367828577756882,
        0.016098609194159508,
        -0.019044561311602592,
    },
    {
        0.07909992337226868,
        0.04163303226232529,
        -0.029639411717653275,
    },
    {
        0.05516151338815689,
        -0.034901756793260574,
        0.02689647115767002,
    },
    {
        0.039961207658052444,
        -0.027003437280654907,
        -0.028712835162878036,
    },
    {
        0.1482967585325241,
        -0.00215809210203588,
        -0.034534044563770294,
    },
    {
        0.03321489691734314,
        -0.007710618432611227,
        -0.016575096175074577,
    },
    {
        -0.0031951877754181623,
        0.02928529679775238,
        0.00904320552945137,
    },
    {
        0.02665228210389614,
        0.021745728328824043,
        0.01994590274989605,
    },
    {
        0.022221701219677925,
        0.02387106418609619,
        0.021962346509099007,
    },
    {
        0.0924132838845253,
        -0.12628568708896637,
        -0.020503688603639603,
    },
    {
        0.14301195740699768,
        0.023199331015348434,
        -0.014742760919034481,
    },
    {
        0.15559443831443787,
        0.034495141357183456,
        0.04877929389476776,
    },
    {
        0.09821490943431854,
        0.0032765741925686598,
        0.02814544178545475,
    },
    {
        0.09162157028913498,
        0.018063237890601158,
        0.021265994757413864,
    },
    {
        0.039961520582437515,
        -0.021590040996670723,
        -0.025258636102080345,
    },
    {
        0.08365646749734879,
        -0.059707216918468475,
        -0.025502009317278862,
    },
    {
        -0.0059351627714931965,
        -0.011428825557231903,
        -0.016608186066150665,
    },
    {
        0.06915917992591858,
        -0.06721363216638565,
        -0.016707494854927063,
    },
    {
        0.11233898997306824,
        0.046085089445114136,
        0.03603862598538399,
    },
    {
        0.05565086007118225,
        0.03248945251107216,
        0.08410362899303436,
    },
    {
        0.2269916534423828,
        -0.07684379070997238,
        0.012915555387735367,
    },
    {
        0.11870382726192474,
        0.06449636071920395,
        0.020920298993587494,
    },
    {
        0.01317767146974802,
        -0.06560549139976501,
        -0.02807444892823696,
    },
    {
        0.07758583873510361,
        -0.0627288967370987,
        0.06039814651012421,
    },
    {
        0.11579601466655731,
        0.03571236878633499,
        -0.02987956441938877,
    },
    {
        0.07905841618776321,
        0.01568639650940895,
        -0.027578145265579224,
    },
    {
        0.02259628102183342,
        0.05089021474123001,
        -0.02112416923046112,
    },
    {
        0.16303348541259766,
        0.047422438859939575,
        -0.06352779269218445,
    },
    {
        0.038360487669706345,
        -0.0102182412520051,
        0.042537253350019455,
    },
    {
        0.15751385688781738,
        0.0031775436364114285,
        5.179628715268336e-05,
    },
    {
        0.06696432083845139,
        0.009613445959985256,
        -0.06488431245088577,
    },
    {
        0.09914034605026245,
        -0.020968589931726456,
        -0.024902721866965294,
    },
    {
        0.06327446550130844,
        0.02674940787255764,
        -0.05820094421505928,
    },
    {
        -0.005267470143735409,
        0.03170771151781082,
        -0.009348061867058277,
    },
    {
        0.04156813398003578,
        -0.05175081267952919,
        0.0151505833491683,
    },
    {
        0.12313183397054672,
        0.07987910509109497,
        -0.06517466902732849,
    },
    {
        0.1276172697544098,
        0.04124464839696884,
        0.0449514202773571,
    },
    {
        0.11009825021028519,
        0.03425242751836777,
        -0.040394771844148636,
    },
    {
        0.034577626734972,
        -0.043107327073812485,
        0.011663638986647129,
    },
    {
        0.10345090180635452,
        0.014683793298900127,
        0.046468645334243774,
    },
    {
        0.18730129301548004,
        0.016467349603772163,
        0.03844635561108589,
    },
    {
        0.15176913142204285,
        0.033406537026166916,
        0.01826203241944313,
    },
    {
        0.04452040418982506,
        0.004913239739835262,
        -0.00025153011665679514,
    },
    {
        0.2411852478981018,
        0.06163160875439644,
        -0.046792540699243546,
    },
    {
        0.03695597127079964,
        0.029379453510046005,
        0.027491159737110138,
    },
    {
        0.10688300430774689,
        0.029498474672436714,
        -0.013589422218501568,
    },
    {
        0.09228065609931946,
        0.021888721734285355,
        -0.04086624085903168,
    },
    {
        0.023326164111495018,
        0.021663092076778412,
        0.015830444172024727,
    },
    {
        0.10189401358366013,
        0.006078531499952078,
        0.026530826464295387,
    },
    {
        0.08889477699995041,
        -0.012680734507739544,
        -0.03489392623305321,
    },
    {
        0.0739474669098854,
        -0.00025900828768499196,
        0.023293131962418556,
    },
    {
        0.05784352868795395,
        -0.02033422328531742,
        -0.01625177636742592,
    },
    {
        0.0006578774773515761,
        -0.01718159019947052,
        0.013334827497601509,
    },
    {
        0.0966581404209137,
        0.01645721308887005,
        0.04276658222079277,
    },
    {
        0.018574178218841553,
        -0.015789799392223358,
        -0.017315898090600967,
    },
    {
        0.07473292946815491,
        0.00047543158871121705,
        -0.02001316286623478,
    },
    {
        0.053954266011714935,
        0.036859095096588135,
        0.038745805621147156,
    },
    {
        0.06935788691043854,
        -0.002607016358524561,
        -0.03539557754993439,
    },
    {
        0.02620837464928627,
        -0.024366803467273712,
        0.041629187762737274,
    },
    {
        0.10170965641736984,
        0.021444885060191154,
        -0.020758450031280518,
    },
    {
        0.04369588568806648,
        -0.05341431871056557,
        0.0374513640999794,
    },
    {
        0.12835478782653809,
        -0.006904271896928549,
        -0.004680586513131857,
    },
};
