const float q_bidirectional_1_gru_forward_bias_recurrent[64][3] = {
    {
        0.09030790627002716,
        0.044128354638814926,
        0.00730731338262558,
    },
    {
        0.0782981663942337,
        0.007048080675303936,
        0.030448302626609802,
    },
    {
        0.03367828577756882,
        0.016098609194159508,
        -0.02182598039507866,
    },
    {
        0.07909992337226868,
        0.04163303226232529,
        -0.030426543205976486,
    },
    {
        0.05516151338815689,
        -0.034901756793260574,
        0.030530832707881927,
    },
    {
        0.039961207658052444,
        -0.027003437280654907,
        -0.026002654805779457,
    },
    {
        0.1482967585325241,
        -0.00215809210203588,
        -0.011166882701218128,
    },
    {
        0.03321489691734314,
        -0.007710618432611227,
        -0.017309321090579033,
    },
    {
        -0.0031951877754181623,
        0.02928529679775238,
        0.009327273815870285,
    },
    {
        0.02665228210389614,
        0.021745728328824043,
        0.026851950213313103,
    },
    {
        0.022221701219677925,
        0.02387106418609619,
        0.022583166137337685,
    },
    {
        0.0924132838845253,
        -0.12628568708896637,
        -0.030666816979646683,
    },
    {
        0.14301195740699768,
        0.023199331015348434,
        -0.007812721654772758,
    },
    {
        0.15559443831443787,
        0.034495141357183456,
        0.05066537857055664,
    },
    {
        0.09821490943431854,
        0.0032765741925686598,
        0.02281143330037594,
    },
    {
        0.09162157028913498,
        0.018063237890601158,
        0.026292476803064346,
    },
    {
        0.039961520582437515,
        -0.021590040996670723,
        -0.019705360755324364,
    },
    {
        0.08365646749734879,
        -0.059707216918468475,
        -0.03357069566845894,
    },
    {
        -0.0059351627714931965,
        -0.011428825557231903,
        -0.021330129355192184,
    },
    {
        0.06915917992591858,
        -0.06721363216638565,
        -0.02469913847744465,
    },
    {
        0.11233898997306824,
        0.046085089445114136,
        0.026726290583610535,
    },
    {
        0.05565086007118225,
        0.03248945251107216,
        0.07824312895536423,
    },
    {
        0.2269916534423828,
        -0.07684379070997238,
        0.012523561716079712,
    },
    {
        0.11870382726192474,
        0.06449636071920395,
        0.016245054081082344,
    },
    {
        0.01317767146974802,
        -0.06560549139976501,
        -0.03114132396876812,
    },
    {
        0.07758583873510361,
        -0.0627288967370987,
        0.03255216032266617,
    },
    {
        0.11579601466655731,
        0.03571236878633499,
        -0.03716808184981346,
    },
    {
        0.07905841618776321,
        0.01568639650940895,
        -0.027871863916516304,
    },
    {
        0.02259628102183342,
        0.05089021474123001,
        -0.022915953770279884,
    },
    {
        0.16303348541259766,
        0.047422438859939575,
        -0.07193151861429214,
    },
    {
        0.038360487669706345,
        -0.0102182412520051,
        0.03572294861078262,
    },
    {
        0.15751385688781738,
        0.0031775436364114285,
        0.0035489178262650967,
    },
    {
        0.06696432083845139,
        0.009613445959985256,
        -0.07473224401473999,
    },
    {
        0.09914034605026245,
        -0.020968589931726456,
        -0.017690343782305717,
    },
    {
        0.06327446550130844,
        0.02674940787255764,
        -0.04393409192562103,
    },
    {
        -0.005267470143735409,
        0.03170771151781082,
        -0.01813170686364174,
    },
    {
        0.04156813398003578,
        -0.05175081267952919,
        0.0050186458975076675,
    },
    {
        0.12313183397054672,
        0.07987910509109497,
        -0.06165233254432678,
    },
    {
        0.1276172697544098,
        0.04124464839696884,
        0.040294576436281204,
    },
    {
        0.11009825021028519,
        0.03425242751836777,
        -0.047929368913173676,
    },
    {
        0.034577626734972,
        -0.043107327073812485,
        0.01378165278583765,
    },
    {
        0.10345090180635452,
        0.014683793298900127,
        0.05573102459311485,
    },
    {
        0.18730129301548004,
        0.016467349603772163,
        0.035311274230480194,
    },
    {
        0.15176913142204285,
        0.033406537026166916,
        0.007864058017730713,
    },
    {
        0.04452040418982506,
        0.004913239739835262,
        -0.004970339592546225,
    },
    {
        0.2411852478981018,
        0.06163160875439644,
        -0.036321066319942474,
    },
    {
        0.03695597127079964,
        0.029379453510046005,
        0.018357936292886734,
    },
    {
        0.10688300430774689,
        0.029498474672436714,
        -0.009727833792567253,
    },
    {
        0.09228065609931946,
        0.021888721734285355,
        -0.04131874814629555,
    },
    {
        0.023326164111495018,
        0.021663092076778412,
        0.0072994958609342575,
    },
    {
        0.10189401358366013,
        0.006078531499952078,
        0.03469705954194069,
    },
    {
        0.08889477699995041,
        -0.012680734507739544,
        -0.030759761109948158,
    },
    {
        0.0739474669098854,
        -0.00025900828768499196,
        0.023398693650960922,
    },
    {
        0.05784352868795395,
        -0.02033422328531742,
        -0.014069152995944023,
    },
    {
        0.0006578774773515761,
        -0.01718159019947052,
        0.01898258365690708,
    },
    {
        0.0966581404209137,
        0.01645721308887005,
        0.046793706715106964,
    },
    {
        0.018574178218841553,
        -0.015789799392223358,
        -0.004881709814071655,
    },
    {
        0.07473292946815491,
        0.00047543158871121705,
        -0.01483314111828804,
    },
    {
        0.053954266011714935,
        0.036859095096588135,
        0.0426473505795002,
    },
    {
        0.06935788691043854,
        -0.002607016358524561,
        -0.028880763798952103,
    },
    {
        0.02620837464928627,
        -0.024366803467273712,
        0.031038621440529823,
    },
    {
        0.10170965641736984,
        0.021444885060191154,
        -0.029125584289431572,
    },
    {
        0.04369588568806648,
        -0.05341431871056557,
        0.0312470942735672,
    },
    {
        0.12835478782653809,
        -0.006904271896928549,
        -0.006582876201719046,
    },
};
