const float q_bidirectional_gru_backward_bias[64][3] = {
    {
        0.021372748538851738,
        0.0517733097076416,
        0.051949430257081985,
    },
    {
        0.15101878345012665,
        0.055999401956796646,
        -0.0031697654630988836,
    },
    {
        -0.054648254066705704,
        0.045935895293951035,
        -0.006896534003317356,
    },
    {
        0.03886118158698082,
        0.03563246876001358,
        -0.013375499285757542,
    },
    {
        0.16905444860458374,
        0.043064504861831665,
        -0.04863070324063301,
    },
    {
        0.015620904974639416,
        0.04971148073673248,
        -0.019404703751206398,
    },
    {
        -0.05398762598633766,
        0.00335291656665504,
        -0.042898695915937424,
    },
    {
        0.06243078410625458,
        0.06893756985664368,
        -0.02271338738501072,
    },
    {
        0.0017973441863432527,
        -0.00722893700003624,
        0.017008531838655472,
    },
    {
        0.025796810165047646,
        0.06062658131122589,
        0.036246124655008316,
    },
    {
        -0.004982999991625547,
        0.021763499826192856,
        0.02170134149491787,
    },
    {
        -0.025759657844901085,
        0.03457849845290184,
        -0.04859553650021553,
    },
    {
        0.08563406765460968,
        0.08096455037593842,
        -0.03676734119653702,
    },
    {
        0.08498330414295197,
        -0.008632412180304527,
        -0.010201017372310162,
    },
    {
        0.017590275034308434,
        0.04246906936168671,
        0.034631479531526566,
    },
    {
        -0.004584589507430792,
        0.035445064306259155,
        -0.026304829865694046,
    },
    {
        0.027678189799189568,
        0.06682179123163223,
        -0.04021693021059036,
    },
    {
        -0.09895489364862442,
        0.0575980469584465,
        0.03364152833819389,
    },
    {
        -0.006715948693454266,
        -0.010444407351315022,
        -0.016295405104756355,
    },
    {
        0.15964974462985992,
        0.09482719004154205,
        -0.021382123231887817,
    },
    {
        -0.0009289918816648424,
        0.08378735184669495,
        0.05170724168419838,
    },
    {
        6.776992086088285e-05,
        0.08538203686475754,
        0.0550370030105114,
    },
    {
        -0.018493952229619026,
        -0.01079606544226408,
        -0.010101034305989742,
    },
    {
        0.011360404081642628,
        0.0680704414844513,
        0.0026844230014830828,
    },
    {
        -0.004246293567121029,
        0.12356320023536682,
        0.005022566765546799,
    },
    {
        -0.03061944805085659,
        0.01861024647951126,
        0.033012717962265015,
    },
    {
        0.039690736681222916,
        0.0815051794052124,
        0.009217103011906147,
    },
    {
        -0.015992704778909683,
        -0.010583645664155483,
        -0.05471808835864067,
    },
    {
        0.05684608221054077,
        0.11248230934143066,
        -0.011241644620895386,
    },
    {
        0.00874571967869997,
        0.05433126538991928,
        0.0040003773756325245,
    },
    {
        -0.03060172311961651,
        0.03326599672436714,
        0.04348563775420189,
    },
    {
        0.01884084939956665,
        0.06094888597726822,
        0.034408681094646454,
    },
    {
        -0.033233027905225754,
        0.09617907553911209,
        0.011156005784869194,
    },
    {
        0.1493479609489441,
        0.024662407115101814,
        0.06924740225076675,
    },
    {
        0.09943156689405441,
        0.07043053209781647,
        0.027186257764697075,
    },
    {
        -0.04885321110486984,
        0.04536372423171997,
        -0.006531262304633856,
    },
    {
        0.02276335284113884,
        -0.045214857906103134,
        -0.019738299772143364,
    },
    {
        0.030238177627325058,
        0.08955809473991394,
        0.03934430330991745,
    },
    {
        0.0038267341442406178,
        0.05088112875819206,
        0.013502374291419983,
    },
    {
        -0.07246232032775879,
        -0.010107302106916904,
        0.033179156482219696,
    },
    {
        0.0890970379114151,
        0.06495168805122375,
        -0.04441942647099495,
    },
    {
        0.00046110484981909394,
        0.06948019564151764,
        0.028219852596521378,
    },
    {
        -0.03818969801068306,
        -0.004572741221636534,
        0.02236175909638405,
    },
    {
        -0.01611078903079033,
        0.06454828381538391,
        -0.023771613836288452,
    },
    {
        -0.030259842053055763,
        -0.0026775572914630175,
        0.026186415925621986,
    },
    {
        0.034381620585918427,
        0.023938624188303947,
        0.0025252802297472954,
    },
    {
        0.1692032814025879,
        0.07988489419221878,
        -0.0014059599488973618,
    },
    {
        0.002723591635003686,
        0.023976055905222893,
        -0.055676139891147614,
    },
    {
        0.04314738139510155,
        0.09934519976377487,
        0.0545494370162487,
    },
    {
        0.0770627036690712,
        -0.004008724354207516,
        0.005848086439073086,
    },
    {
        0.08589141815900803,
        0.04523118585348129,
        0.01669645868241787,
    },
    {
        0.12209576368331909,
        0.10663506388664246,
        -0.006069597322493792,
    },
    {
        0.034129414707422256,
        0.09431395679712296,
        -0.015474928542971611,
    },
    {
        0.2156968116760254,
        0.10989169031381607,
        -0.03090670332312584,
    },
    {
        0.1233825534582138,
        0.10810156911611557,
        0.020984506234526634,
    },
    {
        0.0023878864012658596,
        0.0947863757610321,
        -0.04967285692691803,
    },
    {
        0.048314813524484634,
        0.04054195433855057,
        0.03072167932987213,
    },
    {
        -0.023363688960671425,
        0.044339779764413834,
        0.027202153578400612,
    },
    {
        0.013054480776190758,
        0.014676036313176155,
        -0.021390173584222794,
    },
    {
        -0.07182856649160385,
        0.1044394001364708,
        0.04197433590888977,
    },
    {
        -0.03897250071167946,
        -0.001893654465675354,
        -0.019771086052060127,
    },
    {
        -0.014296121895313263,
        0.05781925469636917,
        -0.05521981418132782,
    },
    {
        -0.07582072168588638,
        0.021144870668649673,
        0.01683918945491314,
    },
    {
        0.007152143865823746,
        -0.015304339118301868,
        -0.019288767129182816,
    },
};
