const float time_distributed_1_kernel[1][64] = {
    {
        0.13386170566082,
        0.05099547654390335,
        0.3204951584339142,
        0.11437756568193436,
        0.05611802265048027,
        0.2645954489707947,
        0.19771578907966614,
        -0.2410036027431488,
        -0.13042093813419342,
        -0.14830464124679565,
        -0.14102749526500702,
        -0.20758545398712158,
        0.16467081010341644,
        -0.0793645828962326,
        0.24554623663425446,
        0.09884648770093918,
        0.3094431757926941,
        0.18237866461277008,
        0.16901975870132446,
        0.04104393720626831,
        0.2872227430343628,
        -0.01229190081357956,
        -0.17016266286373138,
        -0.10376178473234177,
        -0.2824898362159729,
        0.22398801147937775,
        0.1403910517692566,
        0.04944333806633949,
        -0.10755166411399841,
        0.12207431346178055,
        -0.08094842731952667,
        0.3090347349643707,
        -0.03887993097305298,
        -0.11640733480453491,
        0.023255271837115288,
        -0.24461698532104492,
        0.047255538403987885,
        0.0884157195687294,
        -0.20932970941066742,
        0.21944594383239746,
        -0.10653350502252579,
        -0.1935451775789261,
        -0.30353114008903503,
        -0.035157572478055954,
        -0.1426948457956314,
        0.02178679034113884,
        0.24190349876880646,
        -0.21461300551891327,
        0.19223652780056,
        0.19324755668640137,
        0.13324876129627228,
        -0.26120278239250183,
        0.13560982048511505,
        -0.22132760286331177,
        -0.1512683629989624,
        -0.09509362280368805,
        -0.07858505845069885,
        -0.01691875234246254,
        -0.21981734037399292,
        -0.048403237015008926,
        0.19939181208610535,
        0.10592049360275269,
        0.0534110888838768,
        0.10771555453538895,
    },
};
