const float time_distributed_bias[64] = {
    -0.010548455640673637,
    -0.016497822478413582,
    -0.00837205071002245,
    -0.010544362477958202,
    -0.031150516122579575,
    -0.01006327848881483,
    -0.007731171790510416,
    -0.0004014917940367013,
    -0.0004774170811288059,
    0.0019233338534832,
    -0.0028451734688133,
    0.006260664667934179,
    -0.006414148025214672,
    -0.007767105009406805,
    -0.00963803380727768,
    -0.017187943682074547,
    -0.00010375167767051607,
    -0.007663174998015165,
    -0.014973210170865059,
    -0.02872815541923046,
    -0.006111285649240017,
    -0.05586690828204155,
    -0.0012763581471517682,
    0.0024876557290554047,
    0.00797849241644144,
    -0.014045440591871738,
    -0.003165548201650381,
    -0.03355000168085098,
    0.003333048662170768,
    -0.011314167641103268,
    0.0004927205154672265,
    0.002452082233503461,
    -0.02004459872841835,
    -0.007406256627291441,
    -0.10956625640392303,
    0.003471572417765856,
    -0.022029496729373932,
    -0.013127273879945278,
    0.006415680516511202,
    -0.015096460469067097,
    0.002265541348606348,
    0.004937085323035717,
    0.005610995460301638,
    -0.023581480607390404,
    -0.0031958401668816805,
    -0.22550226747989655,
    -0.014804700389504433,
    0.0005308716208674014,
    -0.009623405523598194,
    -0.021043237298727036,
    -0.015217670239508152,
    0.015708237886428833,
    -0.014696156606078148,
    0.004462090320885181,
    -0.003123644506558776,
    -0.009613270871341228,
    -0.010214864276349545,
    -0.05257529020309448,
    -0.0006467619678005576,
    -0.01982320472598076,
    -0.005298629403114319,
    -0.00385090010240674,
    -0.017596816644072533,
    -0.011309017427265644,
};
