const float time_distributed_1_kernel[1][64] = {
    {
        0.19914758205413818,
        0.14632558822631836,
        0.1540641486644745,
        -0.2879028022289276,
        0.1878824234008789,
        -0.12240363657474518,
        -0.04097428917884827,
        -0.19032707810401917,
        0.006139010190963745,
        0.1273294985294342,
        -0.13439902663230896,
        -0.10775113105773926,
        0.19348162412643433,
        0.2339966893196106,
        0.12652942538261414,
        -0.09990811347961426,
        -0.053843334317207336,
        0.2518996596336365,
        -0.17380346357822418,
        0.18967914581298828,
        0.03370720148086548,
        0.08446836471557617,
        -0.27891629934310913,
        -0.15608014166355133,
        0.21441316604614258,
        0.1818239390850067,
        0.11056733131408691,
        -0.2813986539840698,
        0.2380746603012085,
        0.27250850200653076,
        0.1921173632144928,
        0.07811081409454346,
        0.14450517296791077,
        -0.28354623913764954,
        0.17751455307006836,
        0.2324669361114502,
        0.2643033266067505,
        -0.15327641367912292,
        0.017420977354049683,
        0.0929257869720459,
        -0.2745380699634552,
        0.12075909972190857,
        -0.08436717092990875,
        -0.16626721620559692,
        -0.2662762999534607,
        -0.19524350762367249,
        -0.004103988409042358,
        -0.2984437346458435,
        -0.1499890834093094,
        0.11629396677017212,
        -0.2377047836780548,
        0.2014157772064209,
        -0.28848832845687866,
        -0.12230904400348663,
        -0.14594008028507233,
        0.019431740045547485,
        0.28951460123062134,
        -0.21488256752490997,
        -0.255077064037323,
        0.13565436005592346,
        -0.0377955436706543,
        -0.19315972924232483,
        -0.08679068088531494,
        -0.24540916085243225,
    },
};
