#pragma once

#ifndef GRU_1_B_H
#define GRU_1_B_H

#include "gru_1.h"

/**
 * @brief This was taken from "model_json__channel_last/dump_weights_bias.json". (Channels last)
*/
const gru_t kernel_gru1_b[GRU_1__KERNEL_LINES][GRU_1__KERNEL_COLS][GRU_SPLIT] = {
    {
        {
            -0.14731937646865845,
            0.07249249517917633,
            0.10595650970935822,
        },
        {
            -0.11518099159002304,
            0.12010498344898224,
            0.027819795534014702,
        },
        {
            0.06802322715520859,
            0.04215865582227707,
            -0.10371510684490204,
        },
        {
            -0.11820517480373383,
            -0.11151715368032455,
            -0.03204772248864174,
        },
        {
            -0.0059999520890414715,
            -0.09593790769577026,
            0.10948210954666138,
        },
        {
            -0.057926587760448456,
            -0.08646990358829498,
            -0.09373106807470322,
        },
        {
            -0.016246134415268898,
            -0.029229754582047462,
            -0.06844186782836914,
        },
        {
            0.042751818895339966,
            -0.10158925503492355,
            0.003278738586232066,
        },
        {
            0.11805073171854019,
            0.02803323231637478,
            0.14545838534832,
        },
        {
            0.07001637667417526,
            0.029058992862701416,
            -0.02860235795378685,
        },
        {
            0.05211582034826279,
            0.1345641165971756,
            0.013593348674476147,
        },
        {
            0.05335255339741707,
            0.0020685680210590363,
            -0.12691347301006317,
        },
        {
            -0.05666155368089676,
            0.09781674295663834,
            0.11815948784351349,
        },
        {
            0.09003975242376328,
            0.05923563241958618,
            -0.07443579286336899,
        },
        {
            0.0798504576086998,
            0.11549254506826401,
            -0.12101734429597855,
        },
        {
            -0.06416553258895874,
            -0.12810124456882477,
            0.09079258143901825,
        },
        {
            -0.053095899522304535,
            0.1517341136932373,
            -0.08604292571544647,
        },
        {
            -0.12756815552711487,
            -0.097727470099926,
            0.049200814217329025,
        },
        {
            0.0783989429473877,
            0.03651975095272064,
            -0.039156220853328705,
        },
        {
            -0.07618634402751923,
            -0.07206345349550247,
            0.06173650175333023,
        },
        {
            0.15546151995658875,
            -0.03132317587733269,
            -0.016195423901081085,
        },
        {
            -0.05193835124373436,
            -0.024731537327170372,
            -0.08910118788480759,
        },
        {
            0.07103634625673294,
            0.0784241259098053,
            -0.01930852420628071,
        },
        {
            -0.08724179863929749,
            -0.06518302857875824,
            0.045713167637586594,
        },
        {
            -0.15078094601631165,
            -0.02987443283200264,
            0.09228845685720444,
        },
        {
            0.1667652577161789,
            0.07518526166677475,
            -0.10728273540735245,
        },
        {
            -0.05396099388599396,
            0.08424633741378784,
            -0.12894636392593384,
        },
        {
            0.06886868178844452,
            0.013778839260339737,
            0.006305983290076256,
        },
        {
            -0.10261832177639008,
            0.05288100987672806,
            -0.10674195736646652,
        },
        {
            0.09771796315908432,
            0.11708219349384308,
            -0.03537372499704361,
        },
        {
            0.0026408452540636063,
            -0.06735752522945404,
            0.09315945208072662,
        },
        {
            -0.104092538356781,
            0.02132968045771122,
            -0.10189667344093323,
        },
        {
            -0.03127213567495346,
            0.07454691082239151,
            -0.007934214547276497,
        },
        {
            0.035552978515625,
            -0.07752932608127594,
            -0.14823129773139954,
        },
        {
            0.11447392404079437,
            0.038219671696424484,
            0.0363088995218277,
        },
        {
            0.020524999126791954,
            -0.029131896793842316,
            0.057706162333488464,
        },
        {
            0.05321231856942177,
            -0.0541754886507988,
            0.048605721443891525,
        },
        {
            0.018956482410430908,
            0.14107520878314972,
            0.11655960232019424,
        },
        {
            0.07268130779266357,
            -0.07795547693967819,
            0.05713919177651405,
        },
        {
            0.10113801807165146,
            0.12304750829935074,
            0.04190262034535408,
        },
        {
            0.1097334697842598,
            -0.006776536349207163,
            -0.10201992839574814,
        },
        {
            0.02565154805779457,
            -0.06865369528532028,
            -0.08012742549180984,
        },
        {
            0.005877154413610697,
            -0.018454918637871742,
            -0.07964610308408737,
        },
        {
            0.03090311400592327,
            -0.006917017046362162,
            -0.09135094285011292,
        },
        {
            -0.11382817476987839,
            -0.016940614208579063,
            -0.023415248841047287,
        },
        {
            -0.13266246020793915,
            0.15739426016807556,
            -0.036059148609638214,
        },
        {
            -0.09701447188854218,
            -0.02220967598259449,
            0.1054992824792862,
        },
        {
            0.052798449993133545,
            0.03285304084420204,
            0.02445174939930439,
        },
        {
            0.012702681124210358,
            0.011970273219048977,
            0.007912174798548222,
        },
        {
            -0.07149307429790497,
            0.002073577605187893,
            0.08632194995880127,
        },
        {
            -0.08001231402158737,
            0.12056086957454681,
            -0.06320489197969437,
        },
        {
            -0.07996354252099991,
            -0.03191933035850525,
            0.09384585171937943,
        },
        {
            0.0035094628110527992,
            0.09271453320980072,
            -0.03826495260000229,
        },
        {
            0.08462277799844742,
            -0.0410037562251091,
            0.0248598363250494,
        },
        {
            0.057839296758174896,
            0.031703636050224304,
            0.0005581525037996471,
        },
        {
            -0.09996367990970612,
            0.034101273864507675,
            0.12161336839199066,
        },
        {
            0.06826059520244598,
            0.1545514017343521,
            -0.09614048898220062,
        },
        {
            -0.15058396756649017,
            0.17788974940776825,
            -0.023588940501213074,
        },
        {
            -0.10537998378276825,
            0.15830537676811218,
            -0.08372557163238525,
        },
        {
            -0.18511880934238434,
            -0.020283861085772514,
            0.07993651926517487,
        },
        {
            -0.01852351613342762,
            0.07737741619348526,
            -0.0019276583334431052,
        },
        {
            -0.006671440787613392,
            0.09040987491607666,
            0.05255071073770523,
        },
        {
            0.03299497067928314,
            0.04613710194826126,
            0.01747743971645832,
        },
        {
            0.10703693330287933,
            -0.08241529017686844,
            -0.031229659914970398,
        },
    },
    {
        {
            0.04092945158481598,
            0.1576533168554306,
            0.0018978624138981104,
        },
        {
            -0.03370233625173569,
            0.0556911863386631,
            0.14114148914813995,
        },
        {
            0.03345349431037903,
            -0.03997473418712616,
            0.04491925239562988,
        },
        {
            -0.0841674655675888,
            0.03911721706390381,
            0.10534186661243439,
        },
        {
            -0.062405116856098175,
            0.05707109719514847,
            0.05777515843510628,
        },
        {
            -0.13882631063461304,
            -0.08843342214822769,
            0.04527360200881958,
        },
        {
            0.02248961478471756,
            -0.027329962700605392,
            -0.0023597690742462873,
        },
        {
            0.06786081194877625,
            -0.06569020450115204,
            -0.008761171251535416,
        },
        {
            -0.020693399012088776,
            -0.019813193008303642,
            0.11344228684902191,
        },
        {
            0.027751117944717407,
            -0.025227325037121773,
            -0.130385160446167,
        },
        {
            -0.10122863948345184,
            -0.11292120814323425,
            -0.013705150224268436,
        },
        {
            -0.0926879495382309,
            -0.11754126101732254,
            0.10361675918102264,
        },
        {
            0.05509757995605469,
            -0.1581689864397049,
            -0.06204859912395477,
        },
        {
            0.027813242748379707,
            0.06225993111729622,
            -0.14431917667388916,
        },
        {
            -0.13505405187606812,
            -0.08472105860710144,
            -0.09893649816513062,
        },
        {
            -0.062380220741033554,
            -0.09551114588975906,
            -0.08886322379112244,
        },
        {
            -0.08094150573015213,
            -0.17780321836471558,
            0.032139770686626434,
        },
        {
            0.09343768656253815,
            -0.14364002645015717,
            -0.061584942042827606,
        },
        {
            -0.12584958970546722,
            -0.1399228721857071,
            0.015649141743779182,
        },
        {
            -0.03639985993504524,
            0.05516238883137703,
            -0.010792674496769905,
        },
        {
            -0.008670318871736526,
            -0.04154760390520096,
            0.05124391242861748,
        },
        {
            -0.023531770333647728,
            -0.045319437980651855,
            -0.08920218050479889,
        },
        {
            0.12555253505706787,
            0.12251804769039154,
            0.131630539894104,
        },
        {
            0.02864781767129898,
            0.09160982072353363,
            -0.07987982779741287,
        },
        {
            -0.04914647713303566,
            -0.08256534487009048,
            -0.15406975150108337,
        },
        {
            0.0014390014111995697,
            0.13620616495609283,
            -0.10368358343839645,
        },
        {
            0.057608168572187424,
            0.06358490139245987,
            0.10180852562189102,
        },
        {
            0.05156971514225006,
            -0.08538807183504105,
            0.09261132031679153,
        },
        {
            -0.08272558450698853,
            0.007793511264026165,
            -0.06350960582494736,
        },
        {
            0.031011834740638733,
            -0.030388956889510155,
            0.05189523845911026,
        },
        {
            -0.0925612822175026,
            -0.0639134868979454,
            0.015524218790233135,
        },
        {
            0.0891895443201065,
            -0.07117963582277298,
            0.14825721085071564,
        },
        {
            -0.15456560254096985,
            0.014103511348366737,
            -0.13278953731060028,
        },
        {
            -0.07249989360570908,
            -0.058538682758808136,
            0.15624132752418518,
        },
        {
            -0.12978696823120117,
            0.07879967987537384,
            0.01912568509578705,
        },
        {
            -0.09805874526500702,
            -0.03231466934084892,
            -0.09659826755523682,
        },
        {
            0.13156384229660034,
            -0.02300625666975975,
            -0.1203896701335907,
        },
        {
            -0.018496638163924217,
            0.029337940737605095,
            -0.1464819610118866,
        },
        {
            0.1248629167675972,
            0.04867912083864212,
            0.0016205416759476066,
        },
        {
            -0.1423272043466568,
            -0.01836775802075863,
            0.08828575909137726,
        },
        {
            -0.088558129966259,
            -0.08613870292901993,
            0.08313009887933731,
        },
        {
            -0.03759070858359337,
            -0.10550253093242645,
            0.015136338770389557,
        },
        {
            -0.15952087938785553,
            0.1175156980752945,
            -0.1421549767255783,
        },
        {
            -0.009618458338081837,
            -0.06705266982316971,
            -0.08711788803339005,
        },
        {
            -0.0397881343960762,
            -0.03808926045894623,
            -0.11234964430332184,
        },
        {
            0.014046771451830864,
            0.009144146926701069,
            0.08856333047151566,
        },
        {
            -0.05254992097616196,
            -0.11276192963123322,
            -0.01787620782852173,
        },
        {
            -0.05735834315419197,
            -0.07267223298549652,
            -0.1458485871553421,
        },
        {
            -0.07246756553649902,
            0.01515424344688654,
            -0.024854635819792747,
        },
        {
            0.076933853328228,
            -0.008559644222259521,
            0.09862348437309265,
        },
        {
            -0.13761848211288452,
            0.03515441343188286,
            0.06252381205558777,
        },
        {
            -0.03780920058488846,
            -0.02544921450316906,
            0.008865220472216606,
        },
        {
            -0.036402247846126556,
            -0.052659694105386734,
            0.13310331106185913,
        },
        {
            -0.09942660480737686,
            -0.01856028102338314,
            -0.11431467533111572,
        },
        {
            0.120573028922081,
            0.18163587152957916,
            0.040238481014966965,
        },
        {
            0.050327640026807785,
            0.11417514830827713,
            -0.08434513211250305,
        },
        {
            0.18063150346279144,
            0.025288525968790054,
            0.043100979179143906,
        },
        {
            0.0605902373790741,
            -0.1862669289112091,
            -0.20468974113464355,
        },
        {
            0.05663609877228737,
            -0.11681418865919113,
            0.025851136073470116,
        },
        {
            0.09790947288274765,
            -0.08135350048542023,
            0.1436108499765396,
        },
        {
            0.041765037924051285,
            -0.07266585528850555,
            0.06002483889460564,
        },
        {
            0.11736802756786346,
            0.15173687040805817,
            -0.003004751866683364,
        },
        {
            0.09971754252910614,
            -0.0992816612124443,
            0.044275324791669846,
        },
        {
            -0.05327494069933891,
            0.14482805132865906,
            -0.050963036715984344,
        },
    },
    {
        {
            -0.0993947833776474,
            -0.060986246913671494,
            -0.0806562677025795,
        },
        {
            0.10861344635486603,
            -0.04517703130841255,
            0.046666163951158524,
        },
        {
            0.11107318103313446,
            0.028806818649172783,
            -0.10655546933412552,
        },
        {
            -0.11232613027095795,
            -0.08332604169845581,
            0.11045650392770767,
        },
        {
            -0.08245519548654556,
            0.07598963379859924,
            0.10911504924297333,
        },
        {
            0.04785322770476341,
            0.11188600957393646,
            0.04415048658847809,
        },
        {
            -0.1377754807472229,
            -0.077042356133461,
            -0.04340041056275368,
        },
        {
            -0.05932537466287613,
            0.017215421423316002,
            0.09479209780693054,
        },
        {
            -0.13705001771450043,
            0.053411342203617096,
            0.05279882997274399,
        },
        {
            0.02647837996482849,
            -0.032384082674980164,
            0.11431736499071121,
        },
        {
            0.10502488166093826,
            0.1281103491783142,
            0.1337355375289917,
        },
        {
            -0.11978278309106827,
            -0.03991721197962761,
            0.0888771340250969,
        },
        {
            -0.0963377058506012,
            0.14143863320350647,
            0.008372239768505096,
        },
        {
            0.07804644107818604,
            0.08115560561418533,
            0.009022755548357964,
        },
        {
            0.11778424680233002,
            -0.08256922662258148,
            0.10137046873569489,
        },
        {
            0.01633363589644432,
            -0.02892557717859745,
            0.07252608984708786,
        },
        {
            0.13902805745601654,
            -0.0584837943315506,
            -0.01590244099497795,
        },
        {
            0.06440586596727371,
            0.09633858501911163,
            -0.05761135742068291,
        },
        {
            -0.061693210154771805,
            0.1228310763835907,
            -0.10630952566862106,
        },
        {
            0.08128707855939865,
            0.03679998964071274,
            -0.03271658346056938,
        },
        {
            -0.014341816306114197,
            -0.10740967839956284,
            -0.00393114797770977,
        },
        {
            -0.03956739977002144,
            -0.1104235127568245,
            -0.013416185975074768,
        },
        {
            -0.008507260121405125,
            0.09689418226480484,
            0.037329334765672684,
        },
        {
            -0.1736512929201126,
            0.10041794925928116,
            -0.005374749191105366,
        },
        {
            -0.0027423412539064884,
            0.1441299468278885,
            -0.1155647411942482,
        },
        {
            -0.04712230712175369,
            0.13096685707569122,
            -0.05476309731602669,
        },
        {
            -0.05522504448890686,
            0.1660560518503189,
            0.07394126057624817,
        },
        {
            -0.04963464289903641,
            -0.004832971375435591,
            -0.12947408854961395,
        },
        {
            -0.10838568210601807,
            0.022480271756649017,
            -0.00920875184237957,
        },
        {
            0.12977945804595947,
            0.08646596968173981,
            0.06841617822647095,
        },
        {
            0.09131991118192673,
            -0.09929195046424866,
            -0.09241802990436554,
        },
        {
            -0.019643543288111687,
            0.08314362168312073,
            0.05334809422492981,
        },
        {
            0.005458632484078407,
            0.057243626564741135,
            -0.1024845540523529,
        },
        {
            0.03414490073919296,
            0.10832475125789642,
            0.07127954810857773,
        },
        {
            0.019772600382566452,
            -0.10969956964254379,
            0.06643619388341904,
        },
        {
            0.09603693336248398,
            0.1326950043439865,
            -0.06213681399822235,
        },
        {
            0.046362366527318954,
            0.026622405275702477,
            0.09011038392782211,
        },
        {
            -0.07489321380853653,
            -0.05230183154344559,
            -0.07759225368499756,
        },
        {
            0.1591729074716568,
            -0.00012942896864842623,
            0.041147634387016296,
        },
        {
            0.040875647217035294,
            -0.13428300619125366,
            0.10937196016311646,
        },
        {
            0.12707799673080444,
            -0.013378852047026157,
            -0.06869863718748093,
        },
        {
            -0.08966122567653656,
            0.04431920498609543,
            -0.08747581392526627,
        },
        {
            0.06495337188243866,
            0.05978698283433914,
            -0.11450681835412979,
        },
        {
            0.14293216168880463,
            -0.09956368803977966,
            -0.011485228314995766,
        },
        {
            0.002936403499916196,
            0.03491690382361412,
            0.02005482278764248,
        },
        {
            -0.06929654628038406,
            0.029489733278751373,
            -0.01766844093799591,
        },
        {
            0.11617717146873474,
            0.015318560414016247,
            -0.07437123358249664,
        },
        {
            0.06649455428123474,
            -0.08644654601812363,
            0.026887692511081696,
        },
        {
            -0.10864806920289993,
            0.11071434617042542,
            0.07158168405294418,
        },
        {
            0.09961926192045212,
            -0.05844198912382126,
            0.02020062319934368,
        },
        {
            -0.21493540704250336,
            0.04302714765071869,
            -0.13650937378406525,
        },
        {
            0.04835397005081177,
            -0.03777722641825676,
            -0.12879402935504913,
        },
        {
            0.15341491997241974,
            -0.03366288170218468,
            0.062364060431718826,
        },
        {
            -0.03839993104338646,
            -0.06777854263782501,
            0.03232153132557869,
        },
        {
            0.04023789241909981,
            0.07160830497741699,
            -0.0267723947763443,
        },
        {
            0.02120344154536724,
            -0.048970673233270645,
            -0.11014211177825928,
        },
        {
            -0.07434017211198807,
            0.039655715227127075,
            -0.09390148520469666,
        },
        {
            -0.14960020780563354,
            0.008998549543321133,
            0.06066449359059334,
        },
        {
            -0.11255234479904175,
            -0.04826654493808746,
            -0.06432884186506271,
        },
        {
            -0.022806985303759575,
            0.08419483155012131,
            -0.12167690694332123,
        },
        {
            -0.030281392857432365,
            -0.015263400971889496,
            -0.11107035726308823,
        },
        {
            0.12930810451507568,
            0.0011653932742774487,
            0.09240970760583878,
        },
        {
            0.06872789561748505,
            0.1327795684337616,
            0.05720015987753868,
        },
        {
            -0.036891404539346695,
            -0.06608650088310242,
            0.03294694051146507,
        },
    },
    {
        {
            0.05905526503920555,
            -0.08232640475034714,
            -0.09684617817401886,
        },
        {
            0.08613157272338867,
            -0.029224928468465805,
            0.02004704438149929,
        },
        {
            -0.07738638669252396,
            -0.04298136383295059,
            0.06815456598997116,
        },
        {
            -0.09869564324617386,
            0.08863595873117447,
            0.1112372949719429,
        },
        {
            -0.03153180703520775,
            0.06482788920402527,
            0.0692240446805954,
        },
        {
            0.07305224239826202,
            -0.06906736642122269,
            -0.07793259620666504,
        },
        {
            -0.04319187253713608,
            0.08090083301067352,
            0.060410309582948685,
        },
        {
            -0.1374887228012085,
            -0.024295955896377563,
            0.0956546887755394,
        },
        {
            0.09242842346429825,
            -0.1554258167743683,
            -0.03213392570614815,
        },
        {
            -0.12430287152528763,
            -0.13301914930343628,
            0.0972176045179367,
        },
        {
            0.16298280656337738,
            -0.053880929946899414,
            0.03241390734910965,
        },
        {
            -0.10054502636194229,
            -0.14757293462753296,
            -0.09848280996084213,
        },
        {
            0.06106080859899521,
            -0.05053078383207321,
            0.09463556855916977,
        },
        {
            0.16516231000423431,
            0.054023850709199905,
            -0.07870630919933319,
        },
        {
            -0.12416038662195206,
            -0.1556248664855957,
            -0.0776398554444313,
        },
        {
            -0.0616622194647789,
            0.11725043505430222,
            0.020965587347745895,
        },
        {
            -0.18709412217140198,
            -0.16632376611232758,
            -0.0063242497853934765,
        },
        {
            -0.167416512966156,
            -0.004101295489817858,
            0.025152044370770454,
        },
        {
            -0.15266506373882294,
            -0.03626115620136261,
            -0.015935827046632767,
        },
        {
            0.09720610827207565,
            -0.04054652154445648,
            -0.004442313686013222,
        },
        {
            -0.13450656831264496,
            -0.07407684624195099,
            -0.08897590637207031,
        },
        {
            -0.10410349071025848,
            -0.028589284047484398,
            0.07602152973413467,
        },
        {
            -0.1351970136165619,
            0.026676051318645477,
            -0.10747329145669937,
        },
        {
            -0.12284906953573227,
            -0.0935322716832161,
            0.02731979638338089,
        },
        {
            -0.09253774583339691,
            -0.031057190150022507,
            -0.08174508064985275,
        },
        {
            -0.10383318364620209,
            0.037309277802705765,
            0.10508044809103012,
        },
        {
            -0.005697876214981079,
            -0.02082212083041668,
            -0.030658064410090446,
        },
        {
            -0.04869954288005829,
            -0.12365738302469254,
            0.040620140731334686,
        },
        {
            0.029680907726287842,
            0.07169420272111893,
            0.08317729085683823,
        },
        {
            -0.01816422864794731,
            0.0873376652598381,
            0.06449265033006668,
        },
        {
            -0.007480627857148647,
            -0.11943525820970535,
            -0.08637527376413345,
        },
        {
            0.029439790174365044,
            0.09906371682882309,
            -0.09934559464454651,
        },
        {
            -0.01804633066058159,
            0.022859003394842148,
            0.02404342219233513,
        },
        {
            -0.12685513496398926,
            -0.14380694925785065,
            0.1251785159111023,
        },
        {
            -0.0943530946969986,
            0.0892755314707756,
            0.04832180589437485,
        },
        {
            0.12094942480325699,
            -0.0619705431163311,
            -0.1344425231218338,
        },
        {
            -0.05212262272834778,
            -0.0861869677901268,
            0.03206990286707878,
        },
        {
            0.043080221861600876,
            0.11129263788461685,
            0.07360485941171646,
        },
        {
            -0.04895356670022011,
            0.07425632327795029,
            0.1038672998547554,
        },
        {
            -0.03432542458176613,
            0.1126009076833725,
            0.04048524424433708,
        },
        {
            0.004187429323792458,
            -0.16142608225345612,
            -0.09199099987745285,
        },
        {
            -0.006603754125535488,
            0.012667734175920486,
            0.00358858285471797,
        },
        {
            -0.0008135486859828234,
            0.04993413761258125,
            -0.09885718673467636,
        },
        {
            -0.09297560155391693,
            0.08183449506759644,
            0.023100996389985085,
        },
        {
            -0.07294150441884995,
            -0.030855124816298485,
            0.029264286160469055,
        },
        {
            0.06406081467866898,
            0.03291277214884758,
            -0.09964742511510849,
        },
        {
            0.06775031238794327,
            -0.042828306555747986,
            -0.06803905218839645,
        },
        {
            -0.05751785635948181,
            0.12780550122261047,
            -0.002150904154404998,
        },
        {
            0.024951603263616562,
            0.05730920284986496,
            0.01401518750935793,
        },
        {
            -0.14848282933235168,
            0.041146449744701385,
            -0.14059889316558838,
        },
        {
            -0.10451566427946091,
            -0.0757027193903923,
            0.06384112685918808,
        },
        {
            0.05774228647351265,
            -0.02379356324672699,
            -0.09275906533002853,
        },
        {
            0.03211503475904465,
            -0.011055882088840008,
            0.10804888606071472,
        },
        {
            0.06642729043960571,
            -0.019243381917476654,
            0.08655974268913269,
        },
        {
            0.1002822145819664,
            0.13223741948604584,
            0.1301196664571762,
        },
        {
            0.03473101928830147,
            -0.1080869808793068,
            -0.015638023614883423,
        },
        {
            0.1667187213897705,
            0.11366864293813705,
            -0.006869960110634565,
        },
        {
            -0.14243961870670319,
            0.0676836222410202,
            0.08125218749046326,
        },
        {
            0.034071147441864014,
            -0.007471570745110512,
            -0.0753234326839447,
        },
        {
            0.06374593824148178,
            0.12488243728876114,
            0.14815279841423035,
        },
        {
            0.05282830074429512,
            -0.1429925262928009,
            -0.057775501161813736,
        },
        {
            -0.06487618386745453,
            -0.09861097484827042,
            0.052749913185834885,
        },
        {
            0.05269188806414604,
            -0.14242513477802277,
            -0.005775811616331339,
        },
        {
            -0.06884914636611938,
            0.00238285050727427,
            -0.07798071950674057,
        },
    },
    {
        {
            0.15629343688488007,
            0.05631372332572937,
            0.10041123628616333,
        },
        {
            -0.0076728384010493755,
            -0.15790706872940063,
            -0.05298053100705147,
        },
        {
            0.11325997859239578,
            -0.15383347868919373,
            -0.026541639119386673,
        },
        {
            0.10588587075471878,
            0.036716047674417496,
            0.111077219247818,
        },
        {
            -0.03147197514772415,
            0.056602831929922104,
            0.13267230987548828,
        },
        {
            0.01910414732992649,
            0.011385373771190643,
            -0.127908855676651,
        },
        {
            0.027987558394670486,
            -0.11063235253095627,
            -0.07290028780698776,
        },
        {
            0.050059180706739426,
            -0.10891087353229523,
            -0.001691577723249793,
        },
        {
            -0.1558821201324463,
            0.033877838402986526,
            0.13801559805870056,
        },
        {
            0.1482526808977127,
            0.013109122402966022,
            -0.07851879298686981,
        },
        {
            -0.05693189427256584,
            -0.07177384197711945,
            -0.12291540950536728,
        },
        {
            0.11894840747117996,
            -0.11306323856115341,
            -0.10970193892717361,
        },
        {
            0.18732640147209167,
            0.013491233810782433,
            -0.09264768660068512,
        },
        {
            -0.08219937235116959,
            -0.030934374779462814,
            -0.055241044610738754,
        },
        {
            -0.10455123335123062,
            0.07122666388750076,
            0.005130765028297901,
        },
        {
            0.009512245655059814,
            0.18698051571846008,
            -0.02407004125416279,
        },
        {
            -0.05827166885137558,
            0.02422787994146347,
            0.16448915004730225,
        },
        {
            -0.025492096319794655,
            -0.020880229771137238,
            0.12997473776340485,
        },
        {
            0.024967219680547714,
            -0.03823905065655708,
            -0.07234495133161545,
        },
        {
            -0.02429468184709549,
            -0.0019705614540725946,
            0.014207771047949791,
        },
        {
            0.06611393392086029,
            -0.031222347170114517,
            0.17483820021152496,
        },
        {
            0.06561606377363205,
            -0.017990661785006523,
            0.0078122541308403015,
        },
        {
            0.06464673578739166,
            0.04727034643292427,
            0.09233272075653076,
        },
        {
            -0.08740419149398804,
            -0.11151069402694702,
            -0.177091583609581,
        },
        {
            0.059629887342453,
            0.11837220937013626,
            -0.07516203820705414,
        },
        {
            -0.09169496595859528,
            0.0027650066185742617,
            -0.03166165202856064,
        },
        {
            0.1528174728155136,
            -0.07880263030529022,
            0.02913675643503666,
        },
        {
            -0.04717570170760155,
            -0.03206774592399597,
            0.05980084091424942,
        },
        {
            -0.011105993762612343,
            0.0335623174905777,
            -0.03605154529213905,
        },
        {
            0.053493596613407135,
            0.13932488858699799,
            -0.0784313753247261,
        },
        {
            -0.08878744393587112,
            0.13823749125003815,
            0.05032143369317055,
        },
        {
            0.04616205394268036,
            0.012613493017852306,
            0.16948693990707397,
        },
        {
            -0.14092892408370972,
            0.07193548232316971,
            -0.052235767245292664,
        },
        {
            -0.1204795241355896,
            -0.07827617973089218,
            0.0871405154466629,
        },
        {
            -0.08285415917634964,
            -0.02581123076379299,
            0.08363674581050873,
        },
        {
            -0.1689101904630661,
            -0.1174541488289833,
            0.03909791633486748,
        },
        {
            -0.05444003641605377,
            0.15448954701423645,
            -0.037061143666505814,
        },
        {
            -0.008700940757989883,
            -0.09780152887105942,
            0.00976982805877924,
        },
        {
            -0.1130344569683075,
            -0.050988808274269104,
            -0.09635181725025177,
        },
        {
            -0.08756233006715775,
            -0.0911657065153122,
            -0.05566851422190666,
        },
        {
            0.07263193279504776,
            -0.0002748344268184155,
            0.11380067467689514,
        },
        {
            -0.08609765768051147,
            -0.12084347754716873,
            0.12761400640010834,
        },
        {
            0.07367682456970215,
            0.06063822656869888,
            -0.0959702730178833,
        },
        {
            -0.06755232065916061,
            0.08500071614980698,
            0.06809450685977936,
        },
        {
            -0.009956968948245049,
            0.025625137612223625,
            0.13595756888389587,
        },
        {
            0.056059762835502625,
            0.043435730040073395,
            -0.07704101502895355,
        },
        {
            0.056579966098070145,
            -0.017518779262900352,
            0.005580652039498091,
        },
        {
            -0.04066317901015282,
            -0.0953529104590416,
            -0.07203217595815659,
        },
        {
            0.13343499600887299,
            -0.011989573948085308,
            -0.05476325750350952,
        },
        {
            -0.044878486543893814,
            -0.08466517925262451,
            0.10155221819877625,
        },
        {
            0.007725884206593037,
            -0.01980827935039997,
            -0.013823709450662136,
        },
        {
            0.1459466964006424,
            0.11430086195468903,
            -0.151670902967453,
        },
        {
            0.07537849247455597,
            -0.017117369920015335,
            -0.02546701580286026,
        },
        {
            0.08587636053562164,
            -0.13035474717617035,
            -0.10189047455787659,
        },
        {
            -0.06524045020341873,
            -0.08386139571666718,
            0.08374467492103577,
        },
        {
            0.029494715854525566,
            -0.013093487359583378,
            0.010007638484239578,
        },
        {
            0.09924975782632828,
            0.17193689942359924,
            0.06957060098648071,
        },
        {
            -0.0698360949754715,
            -0.0011110519990324974,
            0.008962851017713547,
        },
        {
            -0.07695012539625168,
            0.09891380369663239,
            0.09449522942304611,
        },
        {
            -0.1008199080824852,
            0.05760403349995613,
            0.1291642189025879,
        },
        {
            0.0723014697432518,
            0.011709538288414478,
            0.028573494404554367,
        },
        {
            0.06858080625534058,
            0.17354892194271088,
            0.10122103989124298,
        },
        {
            -0.1130405068397522,
            -0.08279676735401154,
            -0.09589593857526779,
        },
        {
            -0.009903790429234505,
            0.17369157075881958,
            -0.06030513718724251,
        },
    },
    {
        {
            -0.09858490526676178,
            0.0839262306690216,
            -0.053716931492090225,
        },
        {
            -0.19379307329654694,
            0.044206831604242325,
            -0.08243910223245621,
        },
        {
            0.14426511526107788,
            -0.009245549328625202,
            -0.1036342903971672,
        },
        {
            -0.171396866440773,
            -0.12343735247850418,
            -0.1077435240149498,
        },
        {
            -0.03193041309714317,
            0.07043992727994919,
            0.13465149700641632,
        },
        {
            -0.05911331996321678,
            0.08742962777614594,
            -0.004026755690574646,
        },
        {
            -0.08838195353746414,
            -0.0640738233923912,
            0.07890733331441879,
        },
        {
            -0.11530289053916931,
            0.10438752174377441,
            0.07648354023694992,
        },
        {
            -0.0755680724978447,
            0.04265959560871124,
            0.1265464425086975,
        },
        {
            0.037868939340114594,
            0.08492901176214218,
            -0.04811648651957512,
        },
        {
            -0.14388641715049744,
            0.06751836091279984,
            -0.1264459192752838,
        },
        {
            0.13328559696674347,
            0.07511696964502335,
            -0.007381195668131113,
        },
        {
            -0.13968150317668915,
            -0.025456180796027184,
            -0.1313721239566803,
        },
        {
            -0.10212104022502899,
            0.021497508510947227,
            -0.06613384187221527,
        },
        {
            -0.024169744923710823,
            -0.05498369410634041,
            -0.0016345216426998377,
        },
        {
            -0.026931636035442352,
            -0.07980314642190933,
            -0.09038131684064865,
        },
        {
            -0.0451425164937973,
            -0.11767639964818954,
            0.013712949119508266,
        },
        {
            0.0594630241394043,
            -0.04024430736899376,
            0.043209273368120193,
        },
        {
            -0.12280178815126419,
            0.07214134931564331,
            0.08031504601240158,
        },
        {
            -0.10385309159755707,
            0.1142207458615303,
            0.05642290785908699,
        },
        {
            -0.07791819423437119,
            -0.1204790249466896,
            0.14835785329341888,
        },
        {
            -0.16276513040065765,
            0.05057191476225853,
            -0.09740392863750458,
        },
        {
            0.08282677084207535,
            -0.022380074486136436,
            -0.023439085111021996,
        },
        {
            -0.16150274872779846,
            0.0368371345102787,
            -0.12935572862625122,
        },
        {
            0.0025449516251683235,
            0.05157408490777016,
            -0.022480657324194908,
        },
        {
            -0.05555437505245209,
            -0.11062432080507278,
            0.12315554171800613,
        },
        {
            0.04780964553356171,
            -0.11463987827301025,
            0.09184584021568298,
        },
        {
            0.008576584048569202,
            -0.08069844543933868,
            -0.10727295279502869,
        },
        {
            -0.041835591197013855,
            -0.05044596269726753,
            0.025367071852087975,
        },
        {
            -0.008111481554806232,
            -0.033319734036922455,
            -0.17838145792484283,
        },
        {
            -0.022066738456487656,
            0.0069727711379528046,
            0.05484111234545708,
        },
        {
            -0.002349787624552846,
            -0.09110648930072784,
            -0.08914124220609665,
        },
        {
            -0.06198374554514885,
            -0.05270075052976608,
            0.0748661682009697,
        },
        {
            0.04839451611042023,
            -0.05579974502325058,
            -0.054818153381347656,
        },
        {
            0.06002342700958252,
            -0.0076001049019396305,
            0.04404298961162567,
        },
        {
            -0.007902209646999836,
            -0.05622704327106476,
            0.055449698120355606,
        },
        {
            0.07510790973901749,
            0.033292628824710846,
            0.1167420893907547,
        },
        {
            -0.029068419709801674,
            0.1109972596168518,
            0.06533409655094147,
        },
        {
            0.012195085175335407,
            0.01669241487979889,
            0.08564037829637527,
        },
        {
            0.08269720524549484,
            -0.006065101362764835,
            -0.06597446650266647,
        },
        {
            0.04354429244995117,
            -0.08848696947097778,
            -0.003377252956852317,
        },
        {
            -8.837854693410918e-06,
            -0.12492921948432922,
            0.11194468289613724,
        },
        {
            -0.11883437633514404,
            -0.008793247863650322,
            0.09667620807886124,
        },
        {
            0.015926996245980263,
            0.05292364954948425,
            0.03720872104167938,
        },
        {
            -0.07099563628435135,
            0.042660731822252274,
            0.0609918013215065,
        },
        {
            0.06786128878593445,
            -0.0545094795525074,
            0.10989237576723099,
        },
        {
            -0.15823239088058472,
            -0.028537625446915627,
            0.05196499824523926,
        },
        {
            0.08396665006875992,
            -0.035245273262262344,
            0.059054821729660034,
        },
        {
            -0.051901429891586304,
            -0.09462467581033707,
            0.012783223763108253,
        },
        {
            -0.031976569443941116,
            0.11140842735767365,
            -0.019931618124246597,
        },
        {
            0.020582886412739754,
            -0.04180767014622688,
            -0.03591737151145935,
        },
        {
            0.024429237470030785,
            -0.09864576905965805,
            -0.0681651383638382,
        },
        {
            0.02379046566784382,
            -0.07028529047966003,
            0.029017357155680656,
        },
        {
            -0.1664365977048874,
            0.1020343154668808,
            0.14421240985393524,
        },
        {
            -0.05001068487763405,
            -0.13535372912883759,
            -0.012586139142513275,
        },
        {
            -0.15002620220184326,
            0.0017769329715520144,
            0.06735049933195114,
        },
        {
            0.06310468167066574,
            -0.060481876134872437,
            -0.1742940992116928,
        },
        {
            0.10221663117408752,
            0.01186935231089592,
            0.12353865057229996,
        },
        {
            0.1046614721417427,
            0.06159428134560585,
            0.16021838784217834,
        },
        {
            -0.1759490966796875,
            -0.0825275257229805,
            0.1727907657623291,
        },
        {
            0.11986227333545685,
            -0.07783275097608566,
            -0.010499440133571625,
        },
        {
            -0.04027077555656433,
            0.1293797641992569,
            -0.0322750061750412,
        },
        {
            -0.13352900743484497,
            -0.17679885029792786,
            -0.08653153479099274,
        },
        {
            0.07860565185546875,
            -0.05590672418475151,
            -0.06902484595775604,
        },
    },
    {
        {
            0.004982792306691408,
            -0.0968971997499466,
            -0.09133537113666534,
        },
        {
            -0.11707425862550735,
            0.03387036547064781,
            0.1473056524991989,
        },
        {
            0.09172698855400085,
            0.06838756799697876,
            -0.09851639717817307,
        },
        {
            0.1423509567975998,
            -0.07110454887151718,
            -0.1524551659822464,
        },
        {
            -0.07106082886457443,
            -0.11742927879095078,
            0.12590473890304565,
        },
        {
            -0.11554738879203796,
            0.05743814632296562,
            -0.15186133980751038,
        },
        {
            -0.08369676768779755,
            -0.033193059265613556,
            -0.0338931679725647,
        },
        {
            0.1071162149310112,
            0.054201167076826096,
            -0.13226155936717987,
        },
        {
            -0.13310930132865906,
            -0.07663414627313614,
            -0.046290162950754166,
        },
        {
            0.005023621022701263,
            0.10299621522426605,
            -0.08466219156980515,
        },
        {
            -0.12042807787656784,
            -0.006441317964345217,
            0.05950534716248512,
        },
        {
            -0.030887823551893234,
            0.07996118813753128,
            -0.047942619770765305,
        },
        {
            -0.03248252719640732,
            -0.09508834779262543,
            0.07968331128358841,
        },
        {
            -0.13020068407058716,
            0.022640343755483627,
            -0.1190900132060051,
        },
        {
            0.05255609378218651,
            -0.10524140298366547,
            0.1298661082983017,
        },
        {
            -0.08767126500606537,
            -0.08143123239278793,
            -0.1507485955953598,
        },
        {
            -0.0019898966420441866,
            -0.022073568776249886,
            0.14482322335243225,
        },
        {
            -0.020944945514202118,
            -0.07428572326898575,
            -0.077910415828228,
        },
        {
            0.017332691699266434,
            0.08717596530914307,
            0.08951663970947266,
        },
        {
            -0.0013733740197494626,
            -0.10293736308813095,
            -0.15602867305278778,
        },
        {
            0.08391261100769043,
            0.02218242548406124,
            -0.05522175878286362,
        },
        {
            -0.04681793227791786,
            -0.07866455614566803,
            0.015515509992837906,
        },
        {
            -0.046242859214544296,
            0.04110317304730415,
            0.016207154840230942,
        },
        {
            0.0069756172597408295,
            -0.02030170150101185,
            0.012907964177429676,
        },
        {
            -0.020173542201519012,
            -0.011765181086957455,
            -0.0755646824836731,
        },
        {
            0.02182476781308651,
            0.10139109939336777,
            0.036961693316698074,
        },
        {
            0.027063792571425438,
            -0.09302408248186111,
            -0.004692349582910538,
        },
        {
            -0.01692688651382923,
            -0.09712943434715271,
            0.11633821576833725,
        },
        {
            -0.000451568077551201,
            -0.11896567046642303,
            -0.010795717127621174,
        },
        {
            0.007586674764752388,
            0.016154807060956955,
            0.060944151133298874,
        },
        {
            -0.024423809722065926,
            -0.03299331292510033,
            -0.1383974552154541,
        },
        {
            -0.022902648895978928,
            0.023847546428442,
            -0.08925502002239227,
        },
        {
            -0.04372759908437729,
            -0.06143047660589218,
            -0.08738294243812561,
        },
        {
            0.10292845219373703,
            -0.011521445587277412,
            -0.004351647570729256,
        },
        {
            0.1733141988515854,
            -0.11148416996002197,
            0.07189589738845825,
        },
        {
            0.0066521549597382545,
            0.083378866314888,
            0.08194002509117126,
        },
        {
            -0.14957664906978607,
            0.14106228947639465,
            -0.011539574712514877,
        },
        {
            0.05035299062728882,
            -0.10489027947187424,
            -0.05610261112451553,
        },
        {
            0.12856943905353546,
            0.04477542266249657,
            0.060729581862688065,
        },
        {
            -0.0008394259493798018,
            0.10548227280378342,
            -0.13315235078334808,
        },
        {
            -0.061637286096811295,
            0.01276614423841238,
            0.1537998914718628,
        },
        {
            -0.11473431438207626,
            -0.06971927732229233,
            0.03984920307993889,
        },
        {
            -0.13721820712089539,
            -0.16617780923843384,
            0.11669450998306274,
        },
        {
            0.1412677764892578,
            -0.040253572165966034,
            -0.031218426302075386,
        },
        {
            0.06198108196258545,
            0.11429937928915024,
            -0.09863770753145218,
        },
        {
            -0.09942373633384705,
            -0.07082776725292206,
            -0.01768200285732746,
        },
        {
            0.09569776058197021,
            0.09241028130054474,
            0.0939912497997284,
        },
        {
            -0.06581618636846542,
            -0.0709647610783577,
            -0.014756860211491585,
        },
        {
            0.016561046242713928,
            0.03497651591897011,
            0.14827889204025269,
        },
        {
            0.14353564381599426,
            0.15761393308639526,
            0.12488015741109848,
        },
        {
            0.01464059017598629,
            -0.01847515068948269,
            0.08177889138460159,
        },
        {
            -0.13781359791755676,
            -0.19351500272750854,
            -0.006767386570572853,
        },
        {
            -0.1370169073343277,
            -0.0950712040066719,
            -0.06833954900503159,
        },
        {
            0.1125524640083313,
            0.030847854912281036,
            0.005673807580024004,
        },
        {
            -0.05645955726504326,
            0.01819782517850399,
            -0.013677019625902176,
        },
        {
            -0.0026485484559088945,
            -0.05090108886361122,
            -0.012026202864944935,
        },
        {
            0.11597627401351929,
            0.0369001142680645,
            -0.1375979632139206,
        },
        {
            0.12954847514629364,
            -0.09998822957277298,
            -0.10961716622114182,
        },
        {
            -0.10523580759763718,
            0.04235208034515381,
            -0.0959567278623581,
        },
        {
            0.015856672078371048,
            -0.11571075767278671,
            -0.045419324189424515,
        },
        {
            0.1443473994731903,
            0.06155349314212799,
            0.023218907415866852,
        },
        {
            0.09036992490291595,
            -0.06079564988613129,
            0.010147114284336567,
        },
        {
            0.06826423108577728,
            0.024497026577591896,
            0.13530108332633972,
        },
        {
            -0.09136014431715012,
            0.07589413225650787,
            -0.14787493646144867,
        },
    },
    {
        {
            0.11359737068414688,
            -0.04721292108297348,
            0.05161423236131668,
        },
        {
            -0.0015909685753285885,
            0.06198810040950775,
            -0.07290535420179367,
        },
        {
            -0.11284758150577545,
            0.11315310746431351,
            -0.13640139997005463,
        },
        {
            -0.05472438037395477,
            -0.15464772284030914,
            0.038890086114406586,
        },
        {
            0.02112957090139389,
            0.010426463559269905,
            0.14471633732318878,
        },
        {
            0.06337330490350723,
            0.09212469309568405,
            0.10662473738193512,
        },
        {
            0.044373732060194016,
            0.07718459516763687,
            0.005456684622913599,
        },
        {
            -0.028838567435741425,
            0.010810666717588902,
            -0.08935266733169556,
        },
        {
            0.15866394340991974,
            -0.1055191159248352,
            -0.014022965915501118,
        },
        {
            0.07587824016809464,
            0.0026420368812978268,
            0.010716625489294529,
        },
        {
            -0.056054964661598206,
            0.06702279299497604,
            0.088719442486763,
        },
        {
            -0.0105094900354743,
            0.07039884477853775,
            -0.1334114372730255,
        },
        {
            -0.0009456978878006339,
            0.049688804894685745,
            -0.04835441708564758,
        },
        {
            -0.09666315466165543,
            -0.027250677347183228,
            -0.13325317203998566,
        },
        {
            -0.05119418725371361,
            0.015968987718224525,
            -0.12853440642356873,
        },
        {
            0.03783244639635086,
            -0.10519655048847198,
            0.02967238612473011,
        },
        {
            -0.053924016654491425,
            -0.12092369794845581,
            -0.11113117635250092,
        },
        {
            -0.12708313763141632,
            0.03462684899568558,
            0.03413922339677811,
        },
        {
            -0.04595126211643219,
            0.10326624661684036,
            -0.1300654411315918,
        },
        {
            0.00866981502622366,
            -0.01783016324043274,
            0.09400703012943268,
        },
        {
            -0.13193121552467346,
            0.08822324872016907,
            -0.01563345454633236,
        },
        {
            -0.005365021992474794,
            -0.00388082186691463,
            0.025013480335474014,
        },
        {
            -0.06749442219734192,
            0.10845386981964111,
            0.0459572970867157,
        },
        {
            0.08826010674238205,
            0.09051457047462463,
            -0.054728228598833084,
        },
        {
            0.17959995567798615,
            -0.12225649505853653,
            0.04761708900332451,
        },
        {
            -0.16794709861278534,
            -0.07655447721481323,
            0.10255033522844315,
        },
        {
            -0.03989020362496376,
            0.08397682011127472,
            -0.057615164667367935,
        },
        {
            0.13195672631263733,
            0.07199757546186447,
            0.02883407659828663,
        },
        {
            -0.17582887411117554,
            0.07459583133459091,
            -0.044827595353126526,
        },
        {
            -0.11886786669492722,
            -0.0016443094937130809,
            0.07992140203714371,
        },
        {
            -0.006443344056606293,
            0.12065716087818146,
            -0.026707841083407402,
        },
        {
            0.04766327142715454,
            -0.15852627158164978,
            -0.06557998061180115,
        },
        {
            0.09090553224086761,
            0.023862328380346298,
            -0.01017743069678545,
        },
        {
            0.07005511224269867,
            -0.14943745732307434,
            0.058456894010305405,
        },
        {
            0.05901898443698883,
            -0.04675563424825668,
            -0.07197468727827072,
        },
        {
            0.07012514024972916,
            0.10641387850046158,
            0.08546800911426544,
        },
        {
            -0.024766262620687485,
            -0.10984038561582565,
            0.10653141885995865,
        },
        {
            0.13135060667991638,
            -0.14736025035381317,
            0.09736941009759903,
        },
        {
            -0.024283746257424355,
            0.13203415274620056,
            0.013198452070355415,
        },
        {
            0.1282128244638443,
            -0.03648582100868225,
            0.05835625156760216,
        },
        {
            -0.09037008136510849,
            0.040547437965869904,
            -0.1438591480255127,
        },
        {
            0.07211589813232422,
            0.1354312002658844,
            -0.04143716022372246,
        },
        {
            0.09500901401042938,
            -0.07972855120897293,
            0.10064622759819031,
        },
        {
            -0.14190949499607086,
            -0.09820464253425598,
            -0.11426813900470734,
        },
        {
            -0.005980922840535641,
            0.06559938192367554,
            0.12232847511768341,
        },
        {
            0.04055820405483246,
            -0.09086474776268005,
            -0.08479488641023636,
        },
        {
            -0.057221729308366776,
            -0.10153314471244812,
            -0.07882651686668396,
        },
        {
            0.013681931421160698,
            -0.0003461423038970679,
            0.06014895811676979,
        },
        {
            -0.16326528787612915,
            -0.010085681453347206,
            -0.10593347251415253,
        },
        {
            -0.051173385232686996,
            0.011465520597994328,
            0.10282249748706818,
        },
        {
            -0.11342518776655197,
            0.09376560151576996,
            -0.05794283747673035,
        },
        {
            0.05767504870891571,
            0.0985432043671608,
            0.06908690184354782,
        },
        {
            0.12196209281682968,
            -0.030731502920389175,
            -0.13528579473495483,
        },
        {
            -0.09558140486478806,
            0.01562551222741604,
            0.042437758296728134,
        },
        {
            -0.1819571852684021,
            -0.08005275577306747,
            -0.0060201468877494335,
        },
        {
            -0.003005744656547904,
            0.10023954510688782,
            0.09496749937534332,
        },
        {
            -0.03345664218068123,
            0.05984990671277046,
            0.08396069705486298,
        },
        {
            0.02445288375020027,
            -0.13372288644313812,
            0.02389194816350937,
        },
        {
            0.032625600695610046,
            0.05940394103527069,
            -0.02468203939497471,
        },
        {
            -0.03340777009725571,
            -0.043646130710840225,
            -0.11255630105733871,
        },
        {
            -0.01752883568406105,
            -0.04637690261006355,
            0.12094715982675552,
        },
        {
            -0.06467140465974808,
            -0.061153654009103775,
            -0.010929042473435402,
        },
        {
            -0.058133404701948166,
            -0.012409999966621399,
            -0.046540189534425735,
        },
        {
            -0.11309485137462616,
            -0.16199377179145813,
            -0.08152049779891968,
        },
    },
    {
        {
            0.006554008461534977,
            -0.09707668423652649,
            -0.00023209092614706606,
        },
        {
            -0.019003530964255333,
            -0.15865984559059143,
            0.050589609891176224,
        },
        {
            0.08306242525577545,
            0.06447744369506836,
            -0.03302547708153725,
        },
        {
            0.1532435417175293,
            -0.033367615193128586,
            -0.059671733528375626,
        },
        {
            -0.12269783765077591,
            0.01879015937447548,
            -0.019189808517694473,
        },
        {
            -0.07637491077184677,
            -0.009780342690646648,
            -0.03182673081755638,
        },
        {
            0.08699898421764374,
            -0.09291435778141022,
            0.02672199346125126,
        },
        {
            0.10916583240032196,
            0.03800053149461746,
            -0.10246417671442032,
        },
        {
            0.009519316256046295,
            0.03710684925317764,
            -0.09681247919797897,
        },
        {
            -0.10177934914827347,
            0.05216345563530922,
            0.03800290450453758,
        },
        {
            0.011076157912611961,
            -0.14267891645431519,
            -0.08394967019557953,
        },
        {
            -0.0061377608217298985,
            -0.01618906855583191,
            0.0623871311545372,
        },
        {
            -0.024611664935946465,
            -0.13122901320457458,
            0.008939940482378006,
        },
        {
            -0.09463418275117874,
            -0.02429438941180706,
            -0.04979812726378441,
        },
        {
            -0.12267276644706726,
            -0.02071082964539528,
            -0.06274598091840744,
        },
        {
            -0.046589016914367676,
            -0.032867997884750366,
            0.12172585725784302,
        },
        {
            -0.16112828254699707,
            -0.06926946341991425,
            0.018233206123113632,
        },
        {
            0.13881459832191467,
            -0.12872253358364105,
            -0.06478754431009293,
        },
        {
            0.010538949631154537,
            0.021241415292024612,
            -0.059183888137340546,
        },
        {
            0.14658772945404053,
            -0.07117204368114471,
            0.13185498118400574,
        },
        {
            0.0954512506723404,
            0.05629624426364899,
            -0.07161835581064224,
        },
        {
            0.03703312203288078,
            0.09987986087799072,
            0.13265201449394226,
        },
        {
            -0.04614901915192604,
            -0.052705634385347366,
            -0.12056884169578552,
        },
        {
            0.18620352447032928,
            -0.01556587964296341,
            -0.008042161352932453,
        },
        {
            -0.01138316374272108,
            -0.0737156867980957,
            0.07150362432003021,
        },
        {
            -0.009117040783166885,
            -0.054968927055597305,
            0.04719321057200432,
        },
        {
            0.10400684177875519,
            -0.005997541826218367,
            0.05987541377544403,
        },
        {
            -0.14431056380271912,
            -0.14339663088321686,
            -0.07356511056423187,
        },
        {
            0.15705518424510956,
            0.08505380898714066,
            -0.04008376970887184,
        },
        {
            0.046074941754341125,
            -0.006317664869129658,
            0.08327393978834152,
        },
        {
            0.08565513044595718,
            -0.07475706189870834,
            0.06933240592479706,
        },
        {
            0.05609532445669174,
            -0.162976935505867,
            -0.1212870180606842,
        },
        {
            -0.06962879002094269,
            -0.07288870215415955,
            0.074919693171978,
        },
        {
            0.007872872985899448,
            0.08833961188793182,
            0.10391665250062943,
        },
        {
            0.06729508936405182,
            -0.17797553539276123,
            -0.10309552401304245,
        },
        {
            -0.1103249341249466,
            -0.1517132818698883,
            -0.04553382098674774,
        },
        {
            -0.03379913046956062,
            0.08680839836597443,
            0.12161517143249512,
        },
        {
            0.11689072102308273,
            -0.09037132561206818,
            0.037060339003801346,
        },
        {
            0.011547370813786983,
            -0.05951421335339546,
            -0.00034330980270169675,
        },
        {
            0.1832728385925293,
            0.0937061682343483,
            0.1062207818031311,
        },
        {
            0.001639959984458983,
            -0.09358827769756317,
            -0.11823516339063644,
        },
        {
            0.025533726438879967,
            0.008939426392316818,
            -0.08562792837619781,
        },
        {
            -0.061273179948329926,
            0.06463346630334854,
            -0.044791001826524734,
        },
        {
            -0.1630624383687973,
            -0.12071473896503448,
            -0.02989097125828266,
        },
        {
            -0.0016019518952816725,
            -0.07265067100524902,
            0.015176516026258469,
        },
        {
            0.11686267703771591,
            -0.01648084819316864,
            0.12930138409137726,
        },
        {
            0.07221458852291107,
            -0.030982401221990585,
            0.03975437581539154,
        },
        {
            -0.16408099234104156,
            0.007430467288941145,
            0.09412926435470581,
        },
        {
            0.05065969005227089,
            0.11409451067447662,
            0.05145404115319252,
        },
        {
            -0.07338781654834747,
            0.012589673511683941,
            0.060413528233766556,
        },
        {
            0.00028708259924314916,
            -0.03842318803071976,
            0.07264381647109985,
        },
        {
            0.1292279064655304,
            0.03847263380885124,
            -0.04647030681371689,
        },
        {
            0.0019803561735898256,
            0.00847396906465292,
            -0.12732276320457458,
        },
        {
            0.05695381015539169,
            0.09325552731752396,
            0.053630273789167404,
        },
        {
            0.12430620938539505,
            0.08923998475074768,
            -0.08025216311216354,
        },
        {
            0.10180644690990448,
            0.0449126660823822,
            -0.14025703072547913,
        },
        {
            0.04146156460046768,
            0.03427419438958168,
            0.1297002136707306,
        },
        {
            0.059210292994976044,
            -0.002346072578802705,
            0.055207084864377975,
        },
        {
            0.07227949053049088,
            -0.011235878802835941,
            0.10307300835847855,
        },
        {
            0.00921178050339222,
            0.15642112493515015,
            0.10605572164058685,
        },
        {
            0.19847223162651062,
            0.027492204681038857,
            -0.13553573191165924,
        },
        {
            -0.03942839801311493,
            0.10387924313545227,
            -0.1129055842757225,
        },
        {
            0.02709289826452732,
            -0.09740766137838364,
            0.10119937360286713,
        },
        {
            -0.08729086816310883,
            -0.029956912621855736,
            -0.03613315895199776,
        },
    },
    {
        {
            -0.04787854105234146,
            -0.03834747523069382,
            -0.04866568371653557,
        },
        {
            0.01833743415772915,
            0.07600688189268112,
            -0.07263001054525375,
        },
        {
            -0.1844237595796585,
            -0.008806210942566395,
            -0.1725916713476181,
        },
        {
            -0.0667085275053978,
            -0.06655553728342056,
            0.07065270841121674,
        },
        {
            0.04606415331363678,
            -0.13651348650455475,
            -0.14353212714195251,
        },
        {
            -0.12252746522426605,
            0.09236624836921692,
            -0.05760487914085388,
        },
        {
            -0.009824372828006744,
            -0.14853277802467346,
            -0.11251478642225266,
        },
        {
            -0.0033786955755203962,
            0.08732427656650543,
            -0.09396612644195557,
        },
        {
            0.03536289185285568,
            -0.13960576057434082,
            -0.07473064213991165,
        },
        {
            -0.07320896536111832,
            -0.13691705465316772,
            -0.08808299154043198,
        },
        {
            0.07899588346481323,
            0.08491507917642593,
            -0.00569262495264411,
        },
        {
            -0.13438664376735687,
            -0.10320232063531876,
            0.07367628067731857,
        },
        {
            -0.07564900815486908,
            -0.07881634682416916,
            -0.03784104436635971,
        },
        {
            -0.049237921833992004,
            -0.14328338205814362,
            -0.1263679713010788,
        },
        {
            -0.13377206027507782,
            0.05906079337000847,
            0.029252024367451668,
        },
        {
            0.13166366517543793,
            0.057456403970718384,
            -0.006172397173941135,
        },
        {
            0.04902888834476471,
            -0.004189890809357166,
            -0.08455315977334976,
        },
        {
            -0.13797171413898468,
            -0.018547656014561653,
            0.0019800816662609577,
        },
        {
            0.013976854272186756,
            0.07667464017868042,
            0.06175358593463898,
        },
        {
            0.06979798525571823,
            -0.04776220768690109,
            0.06742547452449799,
        },
        {
            -0.019778992980718613,
            0.08969147503376007,
            -0.12262487411499023,
        },
        {
            -0.12348278611898422,
            -0.07788778841495514,
            -0.07660876214504242,
        },
        {
            -0.021888229995965958,
            -0.10093043744564056,
            0.08935070782899857,
        },
        {
            -0.052817173302173615,
            -0.07742070406675339,
            0.02146267518401146,
        },
        {
            0.05124778673052788,
            0.14143060147762299,
            -0.044414225965738297,
        },
        {
            -0.09875985980033875,
            -0.037226006388664246,
            0.008877803571522236,
        },
        {
            0.09114646166563034,
            -0.09431922435760498,
            -0.15336905419826508,
        },
        {
            -0.06292939186096191,
            -0.0053807892836630344,
            0.07694482803344727,
        },
        {
            -0.020950887352228165,
            0.146087184548378,
            -0.11299488693475723,
        },
        {
            0.09006371349096298,
            -0.08731162548065186,
            0.038079142570495605,
        },
        {
            0.07760293036699295,
            0.14840492606163025,
            0.12700407207012177,
        },
        {
            0.03508564829826355,
            0.14932845532894135,
            -0.11101312190294266,
        },
        {
            0.048087429255247116,
            0.07392758876085281,
            0.0700158029794693,
        },
        {
            -0.18874603509902954,
            0.05761412903666496,
            0.12859223783016205,
        },
        {
            -0.1453803926706314,
            0.11367520689964294,
            -0.00674545019865036,
        },
        {
            0.048653341829776764,
            0.03930234536528587,
            0.12261799722909927,
        },
        {
            -0.059100378304719925,
            -0.061558570712804794,
            0.10358210653066635,
        },
        {
            0.07193828374147415,
            0.08356434106826782,
            -0.16546303033828735,
        },
        {
            0.10633265227079391,
            0.022392846643924713,
            0.1382245272397995,
        },
        {
            -0.09832385182380676,
            0.11857860535383224,
            0.025258295238018036,
        },
        {
            -0.09523997455835342,
            -0.034169767051935196,
            0.0776783674955368,
        },
        {
            -0.10465648770332336,
            -0.0980987474322319,
            -0.11941048502922058,
        },
        {
            -0.014421343803405762,
            -0.03384349122643471,
            0.022750433534383774,
        },
        {
            -0.05362888425588608,
            0.1177525669336319,
            0.01356428861618042,
        },
        {
            -0.1002933606505394,
            0.12304240465164185,
            -0.09622994810342789,
        },
        {
            -0.16192574799060822,
            0.08904881775379181,
            -0.016252389177680016,
        },
        {
            0.016282936558127403,
            0.08548806607723236,
            0.027140865102410316,
        },
        {
            -0.11815034598112106,
            0.07763869315385818,
            -0.04327793046832085,
        },
        {
            0.1642281860113144,
            -0.11552964895963669,
            -0.05062582716345787,
        },
        {
            0.0646507740020752,
            -0.09082140028476715,
            0.05119200050830841,
        },
        {
            -0.021405423060059547,
            -0.06483076512813568,
            -0.039280712604522705,
        },
        {
            -0.10914164781570435,
            0.016146760433912277,
            -0.058501165360212326,
        },
        {
            -0.058299411088228226,
            0.009731926955282688,
            -0.15160314738750458,
        },
        {
            0.015358171425759792,
            0.03928261995315552,
            -0.04588603228330612,
        },
        {
            0.08713346719741821,
            0.033178649842739105,
            0.04599984362721443,
        },
        {
            -0.07954799383878708,
            0.049412570893764496,
            -0.13287684321403503,
        },
        {
            0.10816046595573425,
            -0.11811845004558563,
            0.08914356678724289,
        },
        {
            -0.1478610336780548,
            0.01980317011475563,
            0.0024480291176587343,
        },
        {
            0.11811085045337677,
            -0.13342109322547913,
            0.10225894302129745,
        },
        {
            0.1682535856962204,
            -0.06798600405454636,
            0.09754789620637894,
        },
        {
            0.07619188725948334,
            -0.02299673855304718,
            0.14883168041706085,
        },
        {
            -0.006031059194356203,
            -0.0377969853579998,
            0.022974489256739616,
        },
        {
            0.08118461072444916,
            -0.06331000477075577,
            -0.10067586600780487,
        },
        {
            0.03379110246896744,
            -0.11678463965654373,
            -0.00984194129705429,
        },
    },
    {
        {
            0.08254005014896393,
            0.08641515672206879,
            -0.04954945668578148,
        },
        {
            -0.06975966691970825,
            0.16695475578308105,
            0.10291846096515656,
        },
        {
            0.1755238175392151,
            0.1074720248579979,
            0.0038607288151979446,
        },
        {
            0.015587171539664268,
            0.03787916153669357,
            0.1259213536977768,
        },
        {
            0.03177645429968834,
            -0.08876466751098633,
            0.08873540908098221,
        },
        {
            -0.15217149257659912,
            0.07420368492603302,
            0.1166190430521965,
        },
        {
            0.09654007852077484,
            0.1727086752653122,
            0.023597590625286102,
        },
        {
            -0.0608813613653183,
            0.05849885195493698,
            0.022525642067193985,
        },
        {
            -0.24490797519683838,
            0.10038827359676361,
            -0.0744730532169342,
        },
        {
            0.10274077951908112,
            0.08580388873815536,
            0.05420246347784996,
        },
        {
            -0.027827266603708267,
            0.13543517887592316,
            -0.10103108733892441,
        },
        {
            -0.05531276762485504,
            0.08977647125720978,
            0.03175009414553642,
        },
        {
            -0.04979921504855156,
            0.08218858391046524,
            -0.04751991108059883,
        },
        {
            -0.07903577387332916,
            0.12655799090862274,
            0.05958694592118263,
        },
        {
            0.11713404953479767,
            -0.060084979981184006,
            -0.06258642673492432,
        },
        {
            0.12287434190511703,
            0.09184864163398743,
            -0.08104917407035828,
        },
        {
            0.1618475615978241,
            0.13815921545028687,
            -0.09064573794603348,
        },
        {
            -0.1477436125278473,
            -0.016896843910217285,
            0.056805986911058426,
        },
        {
            -0.06546491384506226,
            0.03290505334734917,
            -0.09329564869403839,
        },
        {
            0.05230610445141792,
            0.003474620170891285,
            -0.011288209818303585,
        },
        {
            0.006411284673959017,
            0.0884518176317215,
            -0.024239132180809975,
        },
        {
            -0.04125621169805527,
            0.04251713678240776,
            -0.025884952396154404,
        },
        {
            -0.07622727006673813,
            -0.0847615972161293,
            -0.06293583661317825,
        },
        {
            -0.01794719137251377,
            0.024771079421043396,
            -0.008640832267701626,
        },
        {
            0.06368838995695114,
            0.09323936700820923,
            -0.14043958485126495,
        },
        {
            0.14983630180358887,
            -0.05968405306339264,
            -0.14714983105659485,
        },
        {
            0.08752978593111038,
            0.05140280723571777,
            0.03663498908281326,
        },
        {
            -0.0447404645383358,
            -0.05813566595315933,
            -0.110566645860672,
        },
        {
            -0.1876092553138733,
            -0.06764189153909683,
            0.04858661815524101,
        },
        {
            -0.06736228615045547,
            -0.009393538348376751,
            -0.057036105543375015,
        },
        {
            -0.036167751997709274,
            -0.03970419242978096,
            -0.0753827914595604,
        },
        {
            0.07819513976573944,
            0.16214127838611603,
            0.014835650101304054,
        },
        {
            -0.058884039521217346,
            -0.016607467085123062,
            0.023069389164447784,
        },
        {
            -0.10073280334472656,
            0.08422452956438065,
            0.04265926033258438,
        },
        {
            0.08951285481452942,
            -0.06099781394004822,
            0.105778768658638,
        },
        {
            0.08253882080316544,
            0.130292147397995,
            -0.14092399179935455,
        },
        {
            0.0431232750415802,
            0.09358169883489609,
            0.048440463840961456,
        },
        {
            -0.18099893629550934,
            0.011886050924658775,
            -0.1161024421453476,
        },
        {
            -0.04040011391043663,
            -0.0981045812368393,
            -0.03071189671754837,
        },
        {
            0.06010373681783676,
            0.04897705093026161,
            0.03611621633172035,
        },
        {
            0.07989677041769028,
            -0.09492719173431396,
            -0.0177838783711195,
        },
        {
            -0.11134465783834457,
            0.09303804486989975,
            -0.03762352094054222,
        },
        {
            0.18787598609924316,
            -0.1505337357521057,
            0.1077343299984932,
        },
        {
            0.08564797043800354,
            0.10987672209739685,
            0.13889619708061218,
        },
        {
            -0.08290252834558487,
            -0.14141686260700226,
            0.043793074786663055,
        },
        {
            -0.041154686361551285,
            0.09163209795951843,
            0.055708594620227814,
        },
        {
            -0.10722175985574722,
            0.04139488935470581,
            -0.11198237538337708,
        },
        {
            0.14703421294689178,
            -0.10220697522163391,
            0.019388437271118164,
        },
        {
            -0.041541099548339844,
            -0.024068336933851242,
            0.02239823155105114,
        },
        {
            0.12958282232284546,
            0.14175903797149658,
            0.0327850840985775,
        },
        {
            -0.11499190330505371,
            -0.12684163451194763,
            0.054330646991729736,
        },
        {
            -0.09202845394611359,
            0.017841828987002373,
            -0.007378610782325268,
        },
        {
            0.02844703011214733,
            0.008959087543189526,
            0.02532416582107544,
        },
        {
            0.010854137130081654,
            0.129866823554039,
            0.0428256057202816,
        },
        {
            0.0702856034040451,
            -0.058866750448942184,
            0.02791108563542366,
        },
        {
            0.10903692245483398,
            0.05477183684706688,
            0.00781515147536993,
        },
        {
            0.039434969425201416,
            0.13473579287528992,
            0.08536520600318909,
        },
        {
            -0.1260053515434265,
            0.15355822443962097,
            -0.12094764411449432,
        },
        {
            -0.055603280663490295,
            -0.08259162306785583,
            -0.020422572270035744,
        },
        {
            -0.1602317988872528,
            0.030081547796726227,
            -0.01869256980717182,
        },
        {
            -0.20504608750343323,
            0.043519526720047,
            -0.10172870010137558,
        },
        {
            0.09737507253885269,
            -0.07801861315965652,
            -0.02346094883978367,
        },
        {
            -0.20421506464481354,
            -0.1252075731754303,
            -0.10850829631090164,
        },
        {
            -0.14112447202205658,
            0.04742368310689926,
            -0.12884841859340668,
        },
    },
    {
        {
            0.05819728970527649,
            0.06931183487176895,
            0.0989345833659172,
        },
        {
            0.06486330181360245,
            0.0631914734840393,
            -0.019063586369156837,
        },
        {
            0.04405558854341507,
            0.0702301412820816,
            -0.07684542238712311,
        },
        {
            -0.10306908190250397,
            -0.08354638516902924,
            0.04040975123643875,
        },
        {
            0.11250729858875275,
            0.10125401616096497,
            -0.16768023371696472,
        },
        {
            -0.05283521115779877,
            -0.11267383396625519,
            -0.059183575212955475,
        },
        {
            -0.04404439777135849,
            0.13481761515140533,
            -0.09527301788330078,
        },
        {
            0.07540150731801987,
            0.08217159658670425,
            -0.004296829923987389,
        },
        {
            0.07297433167695999,
            -0.1004721149802208,
            0.01328505203127861,
        },
        {
            0.062073852866888046,
            -2.24491668632254e-05,
            0.011128298006951809,
        },
        {
            -0.10578782856464386,
            0.05702878162264824,
            -0.11952686309814453,
        },
        {
            -0.07320049405097961,
            -0.0633210688829422,
            0.04132726788520813,
        },
        {
            0.03572770953178406,
            -0.03100554645061493,
            0.05775174871087074,
        },
        {
            0.11785942316055298,
            -0.07927850633859634,
            -0.09906666725873947,
        },
        {
            0.09428008645772934,
            0.09111939370632172,
            -0.054265812039375305,
        },
        {
            0.107260562479496,
            -0.056474726647138596,
            0.12983457744121552,
        },
        {
            -0.08591490238904953,
            0.07517307996749878,
            0.03656776249408722,
        },
        {
            0.08090277761220932,
            -0.05493655800819397,
            0.06729509681463242,
        },
        {
            0.0334857702255249,
            0.1007169634103775,
            -0.07614714652299881,
        },
        {
            -0.12048755586147308,
            -0.02351854182779789,
            0.0436633862555027,
        },
        {
            0.10393960773944855,
            0.086487777531147,
            -0.0711580216884613,
        },
        {
            -0.06557421386241913,
            0.039722926914691925,
            0.10500583797693253,
        },
        {
            0.015552472323179245,
            0.056774113327264786,
            -0.08004298806190491,
        },
        {
            0.17284753918647766,
            -0.051208093762397766,
            -0.10805834084749222,
        },
        {
            -0.05804039165377617,
            -0.1657439023256302,
            -0.06614213436841965,
        },
        {
            -0.04543030261993408,
            0.03341875970363617,
            -0.10769372433423996,
        },
        {
            -0.004254242870956659,
            0.06456644088029861,
            -0.05772571638226509,
        },
        {
            -0.05206563323736191,
            0.046454910188913345,
            0.04952168092131615,
        },
        {
            6.969121022848412e-05,
            0.023850159719586372,
            0.04905671998858452,
        },
        {
            -0.06772448122501373,
            -0.044893670827150345,
            -0.08242262154817581,
        },
        {
            -0.07325359433889389,
            -0.029989538714289665,
            -0.08472760766744614,
        },
        {
            -0.05870961770415306,
            -0.02808305062353611,
            -0.09469335526227951,
        },
        {
            0.14031431078910828,
            -0.002443592296913266,
            -0.06811992079019547,
        },
        {
            -0.09215308725833893,
            0.029645385220646858,
            0.09008452296257019,
        },
        {
            0.15232354402542114,
            -0.012078083120286465,
            0.04836428165435791,
        },
        {
            0.1299632489681244,
            -0.03474891558289528,
            -0.023556997999548912,
        },
        {
            -0.08572889119386673,
            0.011790880002081394,
            0.03735986724495888,
        },
        {
            0.07300634682178497,
            -0.1065397560596466,
            -0.03674636036157608,
        },
        {
            -0.10743342339992523,
            -0.07166867703199387,
            0.09383860230445862,
        },
        {
            0.07237738370895386,
            0.08609960228204727,
            -0.10334733128547668,
        },
        {
            0.02620868571102619,
            -0.07861252874135971,
            0.08377135545015335,
        },
        {
            -0.1042625904083252,
            0.08267231285572052,
            -0.06428323686122894,
        },
        {
            -0.039893947541713715,
            0.10441040247678757,
            0.10199831426143646,
        },
        {
            0.008142724633216858,
            0.02845337986946106,
            -0.08483220636844635,
        },
        {
            -0.06668489426374435,
            0.01014262717217207,
            -0.016438182443380356,
        },
        {
            0.11045610904693604,
            0.14779721200466156,
            -0.15685468912124634,
        },
        {
            0.10846129804849625,
            0.1346474438905716,
            -0.09618177264928818,
        },
        {
            0.04370328038930893,
            0.0978226512670517,
            0.06447988003492355,
        },
        {
            -0.120841383934021,
            0.06936397403478622,
            0.0653933733701706,
        },
        {
            0.07078209519386292,
            0.11320190876722336,
            -0.06150859594345093,
        },
        {
            0.0351291187107563,
            -0.09771815687417984,
            0.03596686199307442,
        },
        {
            0.0729442611336708,
            -0.0408947691321373,
            -0.09208247065544128,
        },
        {
            0.13816623389720917,
            -0.003921413794159889,
            -0.069629967212677,
        },
        {
            -0.05183650180697441,
            -0.10197944194078445,
            -0.07363419979810715,
        },
        {
            0.08033512532711029,
            -0.0429500937461853,
            -0.060695797204971313,
        },
        {
            0.05560341849923134,
            -0.08603309839963913,
            -0.12576603889465332,
        },
        {
            -0.028761718422174454,
            0.052646588534116745,
            -0.006672354880720377,
        },
        {
            0.03970980644226074,
            -0.09332378953695297,
            -0.06802543997764587,
        },
        {
            -0.08784209936857224,
            0.09780209511518478,
            -0.10611096769571304,
        },
        {
            -0.07751324027776718,
            0.030954750254750252,
            -0.026400310918688774,
        },
        {
            -0.11996559053659439,
            -0.020044956356287003,
            -0.10497695952653885,
        },
        {
            -0.052999529987573624,
            0.12168552726507187,
            -0.04031573235988617,
        },
        {
            0.037519555538892746,
            0.11341693252325058,
            0.06026635691523552,
        },
        {
            0.11570021510124207,
            0.16808825731277466,
            0.08134183287620544,
        },
    },
    {
        {
            -0.1566200852394104,
            -0.155482217669487,
            0.01700928993523121,
        },
        {
            -0.05778506398200989,
            0.1648111194372177,
            -0.028483755886554718,
        },
        {
            0.11053726077079773,
            0.16905531287193298,
            0.07616536319255829,
        },
        {
            0.057741258293390274,
            0.036263950169086456,
            -0.12230414897203445,
        },
        {
            -0.11396241933107376,
            -0.08607509732246399,
            -0.0336715467274189,
        },
        {
            -0.08336076885461807,
            -0.16324079036712646,
            0.11984887719154358,
        },
        {
            -0.09807661175727844,
            0.08670974522829056,
            -0.03378872200846672,
        },
        {
            -0.09283554553985596,
            0.018612844869494438,
            0.026002397760748863,
        },
        {
            0.17848186194896698,
            0.06951147317886353,
            -0.07627233862876892,
        },
        {
            -0.1115385964512825,
            -0.04086706414818764,
            0.023790676146745682,
        },
        {
            -0.16041649878025055,
            0.01566070131957531,
            -0.009467994794249535,
        },
        {
            0.09273067861795425,
            0.09511355310678482,
            -0.022547606378793716,
        },
        {
            0.08429213613271713,
            -0.0093911774456501,
            0.1474456489086151,
        },
        {
            0.10264021158218384,
            0.08219878375530243,
            -0.10545217245817184,
        },
        {
            -0.14894285798072815,
            -0.09427900612354279,
            -0.11863064765930176,
        },
        {
            -0.15847168862819672,
            0.03886681795120239,
            0.06726985424757004,
        },
        {
            -0.027088701725006104,
            -0.017255043610930443,
            -0.032382432371377945,
        },
        {
            0.02386949397623539,
            0.1317710131406784,
            -0.06497199088335037,
        },
        {
            0.0032613903749734163,
            -0.0006035916740074754,
            -0.06714323163032532,
        },
        {
            -0.11012710630893707,
            -0.03843395784497261,
            -0.04692237451672554,
        },
        {
            -0.09837651252746582,
            -0.12107755243778229,
            -0.14568963646888733,
        },
        {
            0.04991483315825462,
            0.03646284341812134,
            0.13523906469345093,
        },
        {
            0.09189460426568985,
            -0.13067559897899628,
            -0.016231024637818336,
        },
        {
            -0.05683228000998497,
            -0.05819978564977646,
            -0.11964312195777893,
        },
        {
            -0.02032659389078617,
            -0.03976210206747055,
            -0.05837368592619896,
        },
        {
            0.0029231980443000793,
            0.020690513774752617,
            0.03556036576628685,
        },
        {
            0.09362611174583435,
            -0.047287121415138245,
            0.06520132720470428,
        },
        {
            0.09262461960315704,
            -0.06432314217090607,
            0.008737833239138126,
        },
        {
            -0.011240554042160511,
            -0.03588898479938507,
            -0.06942011415958405,
        },
        {
            -0.08813931792974472,
            -0.10153145343065262,
            0.005070940125733614,
        },
        {
            -0.117581307888031,
            -0.07800468802452087,
            0.028020543977618217,
        },
        {
            0.10517378151416779,
            -0.0760866031050682,
            -0.13357339799404144,
        },
        {
            0.024956287816166878,
            0.019801465794444084,
            -0.04769805818796158,
        },
        {
            0.19121670722961426,
            -0.16245275735855103,
            -0.007736369036138058,
        },
        {
            -0.02506427839398384,
            -0.046812836080789566,
            0.06790921837091446,
        },
        {
            -0.07900504022836685,
            -0.1780097335577011,
            0.012662465684115887,
        },
        {
            -0.008633935824036598,
            -0.016577856615185738,
            -0.13206389546394348,
        },
        {
            -0.08517871797084808,
            0.02442493475973606,
            0.04866265505552292,
        },
        {
            0.08940964192152023,
            -0.08245128393173218,
            0.09723133593797684,
        },
        {
            0.17003241181373596,
            0.09776047617197037,
            -0.04688304290175438,
        },
        {
            -0.15045395493507385,
            0.01912432722747326,
            -0.0985579565167427,
        },
        {
            0.020039599388837814,
            -0.049932535737752914,
            -0.02660200372338295,
        },
        {
            -0.06064968556165695,
            0.015505192801356316,
            -0.06640218198299408,
        },
        {
            -0.1125994399189949,
            -0.15156413614749908,
            0.039105940610170364,
        },
        {
            0.13655851781368256,
            0.040985796600580215,
            0.13422326743602753,
        },
        {
            -0.0845828726887703,
            0.11751320958137512,
            -0.17967671155929565,
        },
        {
            0.01799355261027813,
            -0.10997859388589859,
            0.05093224346637726,
        },
        {
            0.01439718622714281,
            0.05907759442925453,
            0.12189234048128128,
        },
        {
            -0.03939111530780792,
