#pragma once

#ifndef GRU_0_B_H
#define GRU_0_B_H

#include "gru_0.h"

/**
 * @brief This was taken from "model_json__channel_last/dump_weights_bias.json". (Channels last)
*/
const gru_t kernel_gru0_b[GRU_0__KERNEL_LINES][GRU_0__KERNEL_COLS] = {
    {
        -0.17397594451904297,
        0.03712698817253113,
        -0.030412163585424423,
        -0.008117357268929482,
        -0.010770038701593876,
        -0.12873530387878418,
        0.022767789661884308,
        0.0078087677247822285,
        -0.07423009723424911,
        -0.13574400544166565,
        0.07719030231237411,
        0.09905968606472015,
        0.11228854954242706,
        0.018619917333126068,
        -0.06405158340930939,
        0.038948848843574524,
        -0.021780086681246758,
        -0.1590755730867386,
        -0.05855955928564072,
        -0.08009566366672516,
        0.07502003014087677,
        -0.041822463274002075,
        0.1242629811167717,
        -0.09876936674118042,
        0.01156820822507143,
        -0.14630530774593353,
        0.05698864161968231,
        0.06225252524018288,
        -0.00016869997489266098,
        -0.02556086704134941,
        -0.08433153480291367,
        0.040617022663354874,
        -0.17761348187923431,
        -0.09370428323745728,
        -0.021146735176444054,
        -0.16208168864250183,
        0.10475786030292511,
        0.09900616854429245,
        0.1325804740190506,
        0.024351948872208595,
        0.0811411440372467,
        0.072324737906456,
        -0.06578917801380157,
        0.11476872861385345,
        0.07314371317625046,
        -0.015511950477957726,
        0.06409408152103424,
        0.039629820734262466,
        0.023674486204981804,
        0.05246995389461517,
        0.07722736895084381,
        -0.008272180333733559,
        -0.0017271795077249408,
        0.018354473635554314,
        -0.026005616411566734,
        -0.19493468105793,
        -0.03487104922533035,
        0.03985832259058952,
        0.05569000169634819,
        0.02573416382074356,
        -0.19307442009449005,
        -0.06720062345266342,
        -0.11185790598392487,
        -0.09689375013113022,
        0.03995976969599724,
        0.07809078693389893,
        0.08423296362161636,
        -0.17035642266273499,
        -0.002507336437702179,
        -0.0029357646126300097,
        -0.09366822242736816,
        0.02171170525252819,
        0.11557833105325699,
        0.06961045414209366,
        0.010726121254265308,
        0.1488628387451172,
        -0.08038776367902756,
        0.02125590108335018,
        -0.08062631636857986,
        -0.049943406134843826,
        0.07012816518545151,
        -0.10516911000013351,
        -0.08186551928520203,
        -0.10332352668046951,
        -0.1530713587999344,
        -0.08733949065208435,
        0.03873186558485031,
        0.026180822402238846,
        0.07819671183824539,
        0.03921795263886452,
        0.05244353041052818,
        -0.0793587937951088,
        0.15506355464458466,
        -0.17084647715091705,
        -0.025720909237861633,
        0.05345875769853592,
        -0.1373641937971115,
        -0.11966951191425323,
        -0.16452135145664215,
        -0.139634907245636,
        0.12301623076200485,
        0.021753406152129173,
        0.09553009271621704,
        0.16706806421279907,
        -0.07295554876327515,
        -0.040310777723789215,
        0.15905006229877472,
        0.050117600709199905,
        0.12898223102092743,
        -0.03499846160411835,
        -0.05827993527054787,
        0.024268487468361855,
        -0.029124358668923378,
        -0.006195944733917713,
        0.10545673966407776,
        -0.03180549293756485,
        -0.11491752415895462,
        0.06564963608980179,
        0.0760657861828804,
        -0.10394392162561417,
        -0.0617176778614521,
        0.08552753925323486,
        0.04700324311852455,
        0.14627410471439362,
        -0.05803387984633446,
        0.13542714715003967,
        -0.09790892899036407,
        0.12407176941633224,
        0.08215830475091934,
        -0.03547973558306694,
        -0.08146122843027115,
        0.13162486255168915,
        -0.08091514557600021,
        0.056758981198072433,
        -0.09096377342939377,
        0.09832099825143814,
        0.046268947422504425,
        0.10883469879627228,
        -0.12864287197589874,
        -0.03791261836886406,
        -0.021361147984862328,
        0.08723849058151245,
        -0.1349770873785019,
        -0.00848236121237278,
        -0.09779324382543564,
        -0.14241257309913635,
        0.11978872865438461,
        -0.025644777342677116,
        0.13510443270206451,
        -0.013443099334836006,
        -0.08684785664081573,
        0.010856584645807743,
        -0.016215898096561432,
        -0.019862482324242592,
        0.029383376240730286,
        0.019524196162819862,
        0.019761063158512115,
        0.023558206856250763,
        0.07801324129104614,
        -0.12348590791225433,
        0.07279814034700394,
        -0.17216110229492188,
        -9.94932561297901e-05,
        0.005835406947880983,
        0.10646040737628937,
        0.017054591327905655,
        -0.03855770826339722,
        0.12402630597352982,
        -0.007207761984318495,
        0.11031611263751984,
        0.11275295168161392,
        0.0336095355451107,
        0.14184220135211945,
        -0.02384011633694172,
        0.10050706565380096,
        0.09849868714809418,
        0.04376205429434776,
        -0.10876214504241943,
        0.0741455927491188,
        0.13788756728172302,
        0.16344913840293884,
        -0.16234424710273743,
        -0.0443466417491436,
        -0.015412809327244759,
        0.1386784166097641,
        0.12792545557022095,
        0.04281085729598999,
        0.06264497339725494,
        0.006559436675161123,
        0.050532326102256775,
        0.06709207594394684,
        -0.08887656778097153
    },
    {
        -0.13456326723098755,
        0.06404100358486176,
        -0.05107878893613815,
        -0.027105430141091347,
        0.1108308881521225,
        0.11481574922800064,
        0.09877534955739975,
        0.078299380838871,
        0.10622671991586685,
        0.18536628782749176,
        -0.03142721951007843,
        0.08471059799194336,
        -0.03245813772082329,
        0.15186986327171326,
        -0.13789686560630798,
        0.11188217252492905,
        -0.08831822872161865,
        -0.0005367100238800049,
        -0.10537117719650269,
        -0.08593358099460602,
        0.03859694302082062,
        -0.04212597385048866,
        0.009741279296576977,
        0.04782120883464813,
        0.03128288313746452,
        -0.08939680457115173,
        0.03395341336727142,
        -0.023875076323747635,
        0.1340201050043106,
        -0.026753611862659454,
        -0.17127490043640137,
        0.23857678472995758,
        0.05815156176686287,
        -0.04032271355390549,
        0.046923886984586716,
        0.18086737394332886,
        0.04213722422719002,
        0.11280784010887146,
        0.1216692253947258,
        0.16346900165081024,
        0.09577217698097229,
        0.00037439336301758885,
        0.07593939453363419,
        -0.04174024984240532,
        0.050087690353393555,
        -0.11978056281805038,
        -0.21082569658756256,
        0.05850447341799736,
        -0.025169018656015396,
        0.05423950403928757,
        -0.002028659451752901,
        -0.11740466952323914,
        -0.00305261742323637,
        -0.016472527757287025,
        -0.0961289033293724,
        -0.10809405893087387,
        0.15653350949287415,
        0.0318792425096035,
        0.12060621380805969,
        0.09677720069885254,
        -0.04085424542427063,
        -0.08902990072965622,
        0.13105949759483337,
        0.01172712817788124,
        0.008953277952969074,
        0.11705641448497772,
        -0.06401050835847855,
        -0.08840098977088928,
        -0.00490563316270709,
        0.013518708758056164,
        -0.00013951641449239105,
        0.19615614414215088,
        0.012462293729186058,
        -0.014256192371249199,
        -0.08704815059900284,
        0.04310356453061104,
        0.008781461045145988,
        0.04404110461473465,
        0.04744139686226845,
        -0.06967395544052124,
        0.08862188458442688,
        0.017025023698806763,
        0.09109626710414886,
        -0.05336535722017288,
        -0.11504700779914856,
        0.0949045941233635,
        0.07072422653436661,
        -0.039633575826883316,
        -0.1234382912516594,
        0.17970561981201172,
        0.17611292004585266,
        0.11586092412471771,
        0.008168686181306839,
        0.11272110044956207,
        0.16252990067005157,
        0.18702001869678497,
        0.1543150693178177,
        -0.048514798283576965,
        -0.007232656702399254,
        0.01632581651210785,
        -0.0728912428021431,
        0.08398467302322388,
        -0.04611498489975929,
        -0.06596735119819641,
        -0.11034244298934937,
        -0.11448551714420319,
        0.05871971324086189,
        0.1149669960141182,
        0.09312701970338821,
        -0.1304447203874588,
        0.11303430795669556,
        0.08271358907222748,
        0.1455467939376831,
        -0.06885170936584473,
        0.12702319025993347,
        -0.05205158144235611,
        0.027377689257264137,
        -0.006527152843773365,
        -0.10739163309335709,
        0.09235337376594543,
        -0.05188580974936485,
        0.09360278397798538,
        -0.09601319581270218,
        -0.07499625533819199,
        -0.06767570227384567,
        0.13147589564323425,
        0.09793652594089508,
        0.03683919459581375,
        -0.027308719232678413,
        0.010207588784396648,
        0.024523993954062462,
        -0.04695618897676468,
        0.076537124812603,
        -0.13604292273521423,
        -0.11351006478071213,
        -0.12597185373306274,
        0.04324505478143692,
        0.12253900617361069,
        -0.13641108572483063,
        0.16875287890434265,
        0.01005849801003933,
        0.19739709794521332,
        -0.10047785192728043,
        0.16165193915367126,
        0.05854782462120056,
        0.021161207929253578,
        0.056728895753622055,
        0.05592242255806923,
        -0.1996622383594513,
        -0.07753346860408783,
        0.08803257346153259,
        0.12562121450901031,
        -0.035029273480176926,
        -0.22011743485927582,
        -0.037390194833278656,
        0.09897022694349289,
        -0.1208546832203865,
        0.03909444063901901,
        -0.020692238584160805,
        0.06905733048915863,
        0.05275876075029373,
        -0.13831159472465515,
        -0.027983179315924644,
        0.05033457651734352,
        -0.12880396842956543,
        -0.009933510795235634,
        -0.08995521813631058,
        0.022270414978265762,
        0.06558798998594284,
        -0.02732074074447155,
        0.11583913117647171,
        -0.0005645234487019479,
        -0.06887881457805634,
        0.09982947260141373,
        0.04930814355611801,
        -0.17515785992145538,
        -0.014061693102121353,
        -0.08300367742776871,
        -0.021878305822610855,
        -0.05323624610900879,
        -0.021060865372419357,
        -0.14122523367404938,
        0.13726367056369781,
        0.05295982584357262,
        -0.12820591032505035,
        0.05718955397605896,
        -0.02842707559466362,
        -0.10982915759086609,
        0.010758806951344013,
        -0.031198736280202866,
        -0.025888988748192787,
        0.09791982173919678
    },
    {
        0.010932656936347485,
        0.017928948625922203,
        0.00819729920476675,
        0.03161861374974251,
        -0.023616576567292213,
        -0.018821418285369873,
        0.1810818910598755,
        0.03975149989128113,
        -0.04581642523407936,
        0.027173152193427086,
        0.09850019216537476,
        0.021645398810505867,
        0.13545554876327515,
        -0.08860564231872559,
        0.024587482213974,
        -0.025297190994024277,
        -0.14346051216125488,
        -0.09251927584409714,
        0.09365896135568619,
        -0.051174674183130264,
        0.07098132371902466,
        -0.1309768110513687,
        0.11961206048727036,
        0.026853002607822418,
        -0.05204937607049942,
        -0.11241277307271957,
        0.10941295325756073,
        -0.10234618186950684,
        -0.1620570421218872,
        -0.02270485647022724,
        -0.04781180992722511,
        0.05194910243153572,
        0.08148795366287231,
        0.08670569211244583,
        0.02553202211856842,
        -0.09110336005687714,
        -0.0953189805150032,
        0.12055409699678421,
        -0.015326840803027153,
        -0.08651532232761383,
        0.08028241246938705,
        -0.07827737182378769,
        -0.0031920219771564007,
        0.05592663958668709,
        0.006773690693080425,
        0.00842403993010521,
        -0.01141392346471548,
        -0.10991305112838745,
        0.0970836952328682,
        0.09709681570529938,
        0.06079600006341934,
        0.07031094282865524,
        -0.029754135757684708,
        -0.052201930433511734,
        0.04381575062870979,
        -0.05833161994814873,
        -0.040741726756095886,
        0.04802578315138817,
        0.08283744752407074,
        0.10810355842113495,
        -0.0193826612085104,
        -0.15900900959968567,
        0.03977307677268982,
        -0.11757148057222366,
        -0.08396336436271667,
        -0.16262373328208923,
        -0.024617960676550865,
        0.03891954571008682,
        -0.04485373944044113,
        -0.05624568834900856,
        0.15338437259197235,
        0.1609126478433609,
        -0.10704629868268967,
        0.07500872761011124,
        0.13392800092697144,
        -0.08579248934984207,
        0.059997882694005966,
        0.13210579752922058,
        -0.04230406507849693,
        -0.021695416420698166,
        0.09492725133895874,
        0.05044441297650337,
        -0.09795273095369339,
        0.14284488558769226,
        0.0013988837599754333,
        -0.032764285802841187,
        0.10740220546722412,
        0.01795288920402527,
        -0.05900484323501587,
        0.12143756449222565,
        -0.033537980169057846,
        -0.019000831991434097,
        -0.06840310990810394,
        -0.13250550627708435,
        0.1010611280798912,
        -0.10706514120101929,
        0.05630219355225563,
        -0.04551366716623306,
        0.07936448603868484,
        -0.08802851289510727,
        0.07040787488222122,
        0.04075513780117035,
        -0.1094832494854927,
        -0.016700182110071182,
        -0.0885789766907692,
        -0.10495533049106598,
        -0.09654096513986588,
        0.043820980936288834,
        -0.050891466438770294,
        0.04886559024453163,
        0.09747599810361862,
        -0.12149886786937714,
        0.07584214210510254,
        0.09515935182571411,
        0.06475019454956055,
        0.08025141060352325,
        0.0211675763130188,
        0.01842481456696987,
        0.10789685696363449,
        -0.02989039197564125,
        -0.06585629284381866,
        0.06445641070604324,
        0.10525991022586823,
        -0.10170192271471024,
        -0.0930219292640686,
        0.09863003343343735,
        -0.017582718282938004,
        0.07167914509773254,
        0.07194000482559204,
        0.07123084366321564,
        0.1344551295042038,
        0.06811752170324326,
        -0.10024196654558182,
        -0.07961007207632065,
        0.06264415383338928,
        0.10504842549562454,
        -0.10002359002828598,
        0.046232108026742935,
        -0.12332071363925934,
        -0.13151217997074127,
        -0.01836060918867588,
        0.05068016052246094,
        0.12488125264644623,
        -0.02689668908715248,
        0.00717223109677434,
        0.11944318562746048,
        -0.02614031732082367,
        0.12919862568378448,
        -0.14740166068077087,
        -0.06770811229944229,
        -0.14230099320411682,
        -0.03823048993945122,
        0.11906582117080688,
        -0.08737129718065262,
        0.06804482638835907,
        -0.05580104514956474,
        -0.049502305686473846,
        0.038696300238370895,
        -0.11463023722171783,
        0.08566952496767044,
        0.038897186517715454,
        -0.09528972953557968,
        -0.02934068627655506,
        -0.15019768476486206,
        -0.09600008279085159,
        -0.06880156695842743,
        -0.040119681507349014,
        0.08543555438518524,
        0.016404321417212486,
        -0.00836053118109703,
        -0.0485369972884655,
        -0.12106507271528244,
        -0.06326739490032196,
        -0.04847964644432068,
        -0.04185142740607262,
        0.036951661109924316,
        -0.03167475387454033,
        -0.1052377000451088,
        0.043531496077775955,
        -0.12286841124296188,
        0.05187736824154854,
        -0.13398221135139465,
        0.08899026364088058,
        -0.06654311716556549,
        -0.13075684010982513,
        0.018541406840085983,
        0.06501886248588562,
        -0.11723560839891434,
        -0.03744981810450554,
        0.11164700239896774,
        0.04023896902799606,
        0.16137385368347168
    },
    {
        -0.11648506671190262,
        0.010588735342025757,
        0.03193056583404541,
        0.03200366720557213,
        0.1787511706352234,
        -0.07753365486860275,
        0.17086395621299744,
        0.0918499007821083,
        0.055433180183172226,
        -0.059558019042015076,
        -0.1101168766617775,
        -0.008155551739037037,
        -0.011695291846990585,
        0.049635786563158035,
        -0.030697306618094444,
        -0.023609794676303864,
        0.006988965906202793,
        -0.05467658489942551,
        -0.08714151382446289,
        0.18990813195705414,
        0.033704038709402084,
        -0.0011899721575900912,
        -0.1193065196275711,
        -0.10831555724143982,
        0.018681516870856285,
        0.026611018925905228,
        0.036916159093379974,
        -0.17314967513084412,
        -0.024086173623800278,
        -0.032743118703365326,
        0.1134549155831337,
        -0.013545220717787743,
        -0.01852157711982727,
        -0.021989766508340836,
        -0.06032726168632507,
        0.01625092886388302,
        -0.0409768708050251,
        -0.08009078353643417,
        -0.1351470947265625,
        -0.04406408220529556,
        -0.14647044241428375,
        -0.1565839648246765,
        -0.10213828086853027,
        0.1000201404094696,
        -0.09080246090888977,
        -0.013327210210263729,
        0.1111050695180893,
        -0.019865289330482483,
        -0.020745228976011276,
        -0.11967084556818008,
        -0.08781204372644424,
        -0.09210138022899628,
        0.18765249848365784,
        0.11532486975193024,
        -0.12294603139162064,
        0.11163332313299179,
        0.02187255769968033,
        0.12711988389492035,
        -0.04768091067671776,
        0.020488200709223747,
        -8.099979459075257e-05,
        -0.14855067431926727,
        0.007839145138859749,
        -0.0990045890212059,
        0.02691154181957245,
        -0.09711109101772308,
        0.09071430563926697,
        -0.029235515743494034,
        -0.042080845683813095,
        -0.05367102101445198,
        -0.0634644404053688,
        0.0179660152643919,
        -0.10599338263273239,
        0.02078370377421379,
        0.13128112256526947,
        0.12692713737487793,
        -0.15662643313407898,
        0.016131645068526268,
        -0.10379543900489807,
        -0.054190006107091904,
        0.03574351966381073,
        -0.10339660197496414,
        0.02044452726840973,
        0.02302408218383789,
        -0.12114565819501877,
        -0.05505114793777466,
        -0.13984541594982147,
        -0.1776108294725418,
        0.030063677579164505,
        -0.11169330030679703,
        -0.04562271386384964,
        0.14417405426502228,
        0.0912303626537323,
        -0.000244121954892762,
        0.11442732065916061,
        -0.010948325507342815,
        0.14383487403392792,
        0.06376297771930695,
        0.12567895650863647,
        -0.05545280501246452,
        -0.06731032580137253,
        -0.11863906681537628,
        0.012124018743634224,
        0.18098296225070953,
        0.028298253193497658,
        -0.023260166868567467,
        -0.07115483283996582,
        -0.1062941923737526,
        0.07598544657230377,
        0.1543237566947937,
        0.013964282348752022,
        0.028497278690338135,
        0.09080449491739273,
        0.050815992057323456,
        0.10400012135505676,
        -0.050356533378362656,
        -0.026236362755298615,
        -0.0795181393623352,
        0.09945403784513474,
        0.0852033868432045,
        -0.03909531608223915,
        0.14332382380962372,
        0.11768903583288193,
        -0.11418607085943222,
        -0.13504716753959656,
        0.022343065589666367,
        0.02878713235259056,
        -0.026564788073301315,
        -0.07182014733552933,
        -0.08524902909994125,
        0.05303855985403061,
        -0.055818382650613785,
        -0.02303633652627468,
        0.05569283291697502,
        -0.07576458156108856,
        -0.14547276496887207,
        0.03630470484495163,
        -0.0028097277972847223,
        -0.010054529644548893,
        0.08235663920640945,
        0.025059083476662636,
        -0.0935453251004219,
        -0.065653957426548,
        0.09633149951696396,
        -0.12495670467615128,
        0.07577122747898102,
        -0.016696736216545105,
        0.0038450220599770546,
        0.054744474589824677,
        0.05869361013174057,
        0.12172239273786545,
        0.01876053586602211,
        -0.046688128262758255,
        -0.07596968114376068,
        -0.07891572266817093,
        -0.027875853702425957,
        0.09781802445650101,
        0.09638520330190659,
        0.014178271405398846,
        -0.09310037642717361,
        0.07827585935592651,
        0.1948571801185608,
        0.022732920944690704,
        0.07428032904863358,
        0.1473129838705063,
        -0.12105686217546463,
        -0.0071714106015861034,
        -0.028645560145378113,
        0.11443425714969635,
        0.052739739418029785,
        0.14379006624221802,
        0.12228129804134369,
        0.13211195170879364,
        0.06626176089048386,
        0.10242099314928055,
        -0.020591869950294495,
        0.06694091856479645,
        0.16255857050418854,
        0.15118026733398438,
        0.005706374533474445,
        -0.054035961627960205,
        -0.038019679486751556,
        0.004148905631154776,
        0.0238566342741251,
        0.1255435347557068,
        -0.046834446489810944,
        -0.03299298882484436,
        -0.051146481186151505,
        0.10555160790681839,
        0.09716922044754028,
        0.16260913014411926,
        0.12408097088336945
    },
    {
        0.112457275390625,
        0.13342158496379852,
        0.06915462762117386,
        -0.16056117415428162,
        -0.009883233346045017,
        -0.048517435789108276,
        0.08398379385471344,
        0.1933557093143463,
        0.03962099179625511,
        -0.15227286517620087,
        -0.153077632188797,
        -0.1412408947944641,
        0.0688919648528099,
        0.14231546223163605,
        0.10208280384540558,
        -0.029740668833255768,
        0.08750268071889877,
        -0.16082388162612915,
        -0.1533678025007248,
        -0.10151582211256027,
        -0.11689396947622299,
        0.0011369525454938412,
        -0.11177041381597519,
        -0.09661191701889038,
        0.09352456033229828,
        0.12225869297981262,
        0.018847111612558365,
        -0.09473592787981033,
        -0.08960774540901184,
        -0.07562772929668427,
        -0.09153790771961212,
        0.03193382918834686,
        0.06827995181083679,
        0.0791391059756279,
        0.16991597414016724,
        -0.04712020978331566,
        0.13219256699085236,
        0.09878844022750854,
        0.04978233948349953,
        0.12240730971097946,
        -0.10859504342079163,
        0.06846600770950317,
        -0.11466396600008011,
        0.05735312029719353,
        -0.04791698232293129,
        0.07196204364299774,
        -0.0026831577997654676,
        -0.11748979240655899,
        -0.084841787815094,
        -0.011724190786480904,
        -0.07264348864555359,
        -0.11576959490776062,
        0.20339660346508026,
        -0.11889507621526718,
        -0.1399478316307068,
        -0.009620333090424538,
        0.08672380447387695,
        0.05664604902267456,
        -0.15247537195682526,
        0.15743517875671387,
        0.005587107036262751,
        -0.09651590138673782,
        -0.032875631004571915,
        0.09857933223247528,
        0.03719530627131462,
        0.06571408361196518,
        0.015894072130322456,
        -0.1006401851773262,
        0.1447632610797882,
        0.13932745158672333,
        -0.008144288323819637,
        0.009739607572555542,
        -0.004785426426678896,
        -0.11259257048368454,
        -0.10227932780981064,
        0.04652479663491249,
        -0.036078840494155884,
        0.08895498514175415,
        0.1320836991071701,
        0.004340192303061485,
        0.13019488751888275,
        -0.08103106170892715,
        -0.10156314820051193,
        -0.08693075180053711,
        -0.12037740647792816,
        0.09186391532421112,
        0.06526277959346771,
        -0.12468991428613663,
        -0.12237964570522308,
        0.11734293401241302,
        -0.06504020094871521,
        -0.047832343727350235,
        0.028960423544049263,
        0.05596698820590973,
        -0.1145419254899025,
        0.182086780667305,
        0.14094409346580505,
        -0.12915991246700287,
        -0.11149235814809799,
        0.09818950295448303,
        0.1302749663591385,
        0.048613205552101135,
        0.005077589303255081,
        -0.10968203842639923,
        0.03911080211400986,
        0.11396714299917221,
        -0.09015432000160217,
        0.1178755834698677,
        0.1310027688741684,
        -0.061826154589653015,
        -0.14149358868598938,
        -0.14410579204559326,
        -0.0779593363404274,
        -0.12725915014743805,
        -0.08696357160806656,
        0.06893602758646011,
        0.10511946678161621,
        0.10386905819177628,
        0.14523158967494965,
        0.10198336839675903,
        -0.053422316908836365,
        0.12504729628562927,
        0.11796417832374573,
        0.10989895462989807,
        -0.12122860550880432,
        0.1808629333972931,
        0.012791359797120094,
        -0.058503150939941406,
        0.0428563691675663,
        -0.12858934700489044,
        0.05509009212255478,
        -0.1404840499162674,
        0.08278877288103104,
        0.01722193881869316,
        0.16820009052753448,
        -0.013148540630936623,
        0.004390534479171038,
        -0.00031309647602029145,
        0.02638310007750988,
        0.07774128764867783,
        0.08361237496137619,
        0.0240012314170599,
        -0.04482230916619301,
        0.14239192008972168,
        -0.11642239987850189,
        -0.08374489098787308,
        0.128703773021698,
        -0.054612405598163605,
        0.08611418306827545,
        -0.04292435571551323,
        0.013742485083639622,
        0.023340867832303047,
        -0.11931975185871124,
        -0.1546025276184082,
        0.07929324358701706,
        -0.061980586498975754,
        -0.051727306097745895,
        -0.03442753478884697,
        -0.12207785993814468,
        0.08589960634708405,
        -0.07720104604959488,
        0.09985815733671188,
        0.016750602051615715,
        0.0813320130109787,
        -0.04064471274614334,
        0.1085708886384964,
        -0.14233674108982086,
        0.0326765701174736,
        0.10825024545192719,
        -0.019525667652487755,
        -0.006481306627392769,
        0.03403252363204956,
        0.08734039217233658,
        -0.16187351942062378,
        -0.0883767232298851,
        -0.046263158321380615,
        -0.02524333819746971,
        -0.06759046018123627,
        0.12461205571889877,
        0.10398003458976746,
        -0.08148524165153503,
        -0.09779138118028641,
        -0.06561648845672607,
        0.05985325574874878,
        -0.1509479433298111,
        0.11898089945316315,
        0.006998376455157995,
        -0.009890965186059475,
        0.018033983185887337,
        -0.02667982317507267,
        -0.1695318967103958,
        -0.08501894026994705
    },
    {
        0.10175858438014984,
        0.17511053383350372,
        0.043194256722927094,
        -0.016865279525518417,
        0.017169995233416557,
        -0.006489686667919159,
        -0.05133844166994095,
        -4.56769475931651e-06,
        0.07790297269821167,
        -0.05649153143167496,
        -0.1659592092037201,
        -0.07035448402166367,
        0.04617679864168167,
        0.005801737774163485,
        -0.012701751664280891,
        -0.05090437829494476,
        0.026783626526594162,
        0.07643201947212219,
        -0.028313133865594864,
        0.04278514161705971,
        -0.12221311032772064,
        0.024387318640947342,
        -0.12139933556318283,
        -0.07795773446559906,
        0.07313984632492065,
        -0.07070004194974899,
        0.012032552622258663,
        0.003851560177281499,
        0.012429660186171532,
        -0.09780644625425339,
        -0.010642902925610542,
        0.1813897341489792,
        0.042603179812431335,
        0.011921198107302189,
        -0.07461362332105637,
        0.057962678372859955,
        -0.02037394791841507,
        0.13191114366054535,
        0.09967223554849625,
        0.20440496504306793,
        -0.13390612602233887,
        -0.1495988368988037,
        -0.13877412676811218,
        0.01711660623550415,
        -0.08245214819908142,
        0.0585203692317009,
        0.06821060925722122,
        -0.03799058869481087,
        -0.06834252178668976,
        -0.08118490129709244,
        -0.06723205745220184,
        -0.005109704565256834,
        0.13975811004638672,
        -0.06232239305973053,
        0.009711275808513165,
        -0.016620075330138206,
        0.1354598104953766,
        -0.1408575177192688,
        -0.14267197251319885,
        0.032325562089681625,
        0.027117770165205002,
        -0.007694744039326906,
        0.07659977674484253,
        -0.13047511875629425,
        0.07598128914833069,
        -0.08719564974308014,
        0.04723044112324715,
        -0.03599196672439575,
        -0.061835769563913345,
        -0.06869707256555557,
        0.19181492924690247,
        -0.04495762288570404,
        0.05910686403512955,
        -0.03165154531598091,
        0.1381259262561798,
        0.040670640766620636,
        0.09455069154500961,
        -0.07769573479890823,
        -0.10800841450691223,
        -0.09543555974960327,
        0.05084905028343201,
        -0.09475057572126389,
        0.09080928564071655,
        0.07449297606945038,
        -0.09003423899412155,
        0.12969744205474854,
        0.11624103784561157,
        -0.06849735230207443,
        0.05509994924068451,
        -0.07608155161142349,
        0.027919184416532516,
        -0.03952104598283768,
        0.12670214474201202,
        0.10729119181632996,
        0.077534019947052,
        -0.13209857046604156,
        0.11821034550666809,
        -0.036185599863529205,
        -0.07975861430168152,
        -0.15058737993240356,
        0.05561588332056999,
        -0.09078238159418106,
        -0.0682465136051178,
        0.15292666852474213,
        -0.02492467686533928,
        0.15047799050807953,
        -0.04237360879778862,
        0.03334640711545944,
        0.04364411532878876,
        -0.07686332613229752,
        -0.18343254923820496,
        0.03281548246741295,
        -0.07511411607265472,
        -0.0812680721282959,
        0.1400536447763443,
        -0.15505412220954895,
        -0.09420879930257797,
        -0.004775457549840212,
        -0.13117541372776031,
        0.10869269073009491,
        0.11670313775539398,
        0.06036542356014252,
        -0.027857381850481033,
        -0.0609358586370945,
        0.08866249024868011,
        0.021475574001669884,
        -0.10006674379110336,
        -0.09501136839389801,
        -0.047842178493738174,
        -0.013904524967074394,
        0.0684337243437767,
        0.07922864705324173,
        -0.030693555250763893,
        -0.06437169760465622,
        -0.10370118170976639,
        -0.11485275626182556,
        0.02481609210371971,
        -0.08935552090406418,
        0.1464235633611679,
        -0.01351406704634428,
        0.1490369737148285,
        -0.12754561007022858,
        -0.011309132911264896,
        0.14403919875621796,
        0.01417767908424139,
        0.16166791319847107,
        -0.09902027994394302,
        -0.14395910501480103,
        0.08398167043924332,
        -0.1119905412197113,
        -0.10431774705648422,
        -0.06741185486316681,
        0.03628581762313843,
        0.031067263334989548,
        -0.06245850771665573,
        0.13837479054927826,
        -0.13928726315498352,
        0.03144131228327751,
        0.007244084496051073,
        0.10017161071300507,
        0.041381075978279114,
        -0.08527261018753052,
        -0.0034633870236575603,
        0.07732854783535004,
        -0.0798960030078888,
        -0.0665956437587738,
        0.12642934918403625,
        -0.13550043106079102,
        0.16065584123134613,
        0.12483307719230652,
        -0.10220416635274887,
        0.01881680265069008,
        0.10122097283601761,
        0.02700032666325569,
        -0.018545011058449745,
        -0.06642665714025497,
        0.12287113070487976,
        0.11861993372440338,
        0.05964753404259682,
        0.08274643868207932,
        0.05210820212960243,
        -0.027888739481568336,
        -0.09932027757167816,
        0.030333707109093666,
        0.14006124436855316,
        0.06263766437768936,
        0.1522822231054306,
        -0.05474933236837387,
        0.145441934466362,
        0.01655445620417595,
        0.09681166708469391,
        0.05908941105008125
    },
    {
        -0.1060652881860733,
        -0.00029130739858374,
        0.08700370788574219,
        0.00850547756999731,
        0.03202081844210625,
        -0.07463908940553665,
        0.12388181686401367,
        -0.05765112116932869,
        -0.021964503452181816,
        0.0699605792760849,
        0.021853875368833542,
        -0.023470161482691765,
        -0.010769273154437542,
        -0.03885716199874878,
        0.008458955213427544,
        0.056783080101013184,
        -0.08432921022176743,
        0.016681833192706108,
        -0.028266489505767822,
        -0.08532343059778214,
        -0.1274762600660324,
        0.06176181510090828,
        0.04153871536254883,
        -0.01836313307285309,
        -0.05491766706109047,
        0.019673772156238556,
        -0.00887902919203043,
        -0.02758336439728737,
        -0.17842833697795868,
        -0.08979833871126175,
        -0.046229053288698196,
        0.06138237565755844,
        -0.061339281499385834,
        -0.04681980609893799,
        -0.14848418533802032,
        -0.0327562615275383,
        0.1591898798942566,
        -0.09369080513715744,
        0.060129109770059586,
        -0.014534058049321175,
        -0.15782222151756287,
        0.05302288010716438,
        0.1085442304611206,
        -0.07356797158718109,
        -0.05564337968826294,
        0.10073823481798172,
        0.154913529753685,
        -0.05264696851372719,
        0.09412264823913574,
        0.13234446942806244,
        0.05344145745038986,
        -0.009077525697648525,
        0.09280577301979065,
        0.12566812336444855,
        -0.15570996701717377,
        0.07279746234416962,
        0.21774142980575562,
        -0.08545973896980286,
        -0.09122342616319656,
        0.12762120366096497,
        0.06907601654529572,
        0.06543625146150589,
        -0.03630620613694191,
        0.09941151738166809,
        0.13973447680473328,
        0.08254033327102661,
        0.1123756617307663,
        -0.13177314400672913,
        -0.13398823142051697,
        0.012108500115573406,
        0.10901754349470139,
        0.05378079414367676,
        -0.04204205796122551,
        0.11876443773508072,
        -0.15270160138607025,
        -0.10958316177129745,
        -0.002122557023540139,
        -0.12158225476741791,
        -0.14044541120529175,
        0.13030695915222168,
        0.10122377425432205,
        0.1099359393119812,
        -0.01805472932755947,
        0.11791189014911652,
        0.002851176541298628,
        -0.012795855291187763,
        -0.14235948026180267,
        -0.05237022787332535,
        0.05422751605510712,
        0.0679832473397255,
        -0.010673691518604755,
        -0.10124169290065765,
        0.09891758859157562,
        0.04480873420834541,
        0.14543965458869934,
        0.06563965231180191,
        -0.1006615087389946,
        0.018591351807117462,
        0.08005719631910324,
        -0.14165908098220825,
        -0.012370353564620018,
        -0.0678204745054245,
        -0.10553264617919922,
        0.056187644600868225,
        0.046265408396720886,
        0.12354571372270584,
        0.11571304500102997,
        -0.035442154854536057,
        0.06841108947992325,
        0.14008475840091705,
        0.002597398590296507,
        0.1405106782913208,
        -0.0037567049730569124,
        0.10317167639732361,
        -0.08820988982915878,
        0.06342814117670059,
        -0.014563147909939289,
        -0.1334160417318344,
        -0.011812944896519184,
        -0.13285930454730988,
        0.11516818404197693,
        0.061953362077474594,
        0.02941480092704296,
        0.022297648712992668,
        -0.17197155952453613,
        0.06368578225374222,
        0.11562158912420273,
        0.011447422206401825,
        -0.005897790193557739,
        -0.13453809916973114,
        0.044387590140104294,
        -0.05588085949420929,
        0.11060099303722382,
        0.09808485209941864,
        0.05491040647029877,
        -0.07902142405509949,
        0.029833661392331123,
        -0.11197901517152786,
        0.05320780724287033,
        0.05555448681116104,
        0.046966440975666046,
        -0.07867009937763214,
        -0.026003196835517883,
        -0.05475471168756485,
        0.14839136600494385,
        0.05334840342402458,
        -0.16948945820331573,
        0.0696897879242897,
        0.09988410025835037,
        -0.18453942239284515,
        -0.08785182237625122,
        -0.03647825866937637,
        0.09589345008134842,
        -0.12479075789451599,
        0.15934035181999207,
        -0.07878611236810684,
        0.1433321088552475,
        0.12696553766727448,
        0.1154240220785141,
        0.03587951511144638,
        0.004817540757358074,
        0.11660964041948318,
        -0.01214662566781044,
        0.14368465542793274,
        -0.07170838117599487,
        0.13696883618831635,
        0.06739507615566254,
        -0.08251740783452988,
        -0.040821973234415054,
        0.1284753531217575,
        -0.08528631180524826,
        0.11750134080648422,
        0.03943132981657982,
        -0.06521574407815933,
        -0.06537275016307831,
        0.0266743004322052,
        -0.0008705338696017861,
        -0.03577432781457901,
        -0.025264885276556015,
        -0.03043937496840954,
        -0.027553003281354904,
        0.12409478425979614,
        -0.11083918809890747,
        0.0751403346657753,
        0.12435881048440933,
        -0.1328512579202652,
        0.05905907228589058,
        0.1267061084508896,
        -0.026948435232043266,
        -0.07837755978107452,
        0.052886735647916794,
        0.1422652006149292
    },
    {
        0.007423377130180597,
        0.001638611312955618,
        0.011267971247434616,
        -0.066010020673275,
        -0.039465323090553284,
        -0.09664619714021683,
        0.012234624475240707,
        -0.023374419659376144,
        0.1513180434703827,
        0.15295124053955078,
        -0.15015679597854614,
        -0.14244826138019562,
        0.007533056195825338,
        -0.0915827751159668,
        0.07142429798841476,
        0.01022131834179163,
        -0.05736096203327179,
        -0.12030036747455597,
        0.1013307273387909,
        0.04741628095507622,
        0.12973646819591522,
        -0.010134989395737648,
        0.1428985297679901,
        -0.021526703611016273,
        0.1389467567205429,
        0.10927058756351471,
        -0.12265857309103012,
        -0.07797848433256149,
        -0.05899360403418541,
        -0.1071157306432724,
        0.11659447848796844,
        -0.11797785013914108,
        -0.10698217153549194,
        -0.17092719674110413,
        0.038924429565668106,
        -0.08479483425617218,
        -0.032844848930835724,
        -0.1252291351556778,
        -0.07731889933347702,
        0.10566972196102142,
        0.06494443118572235,
        -0.035061758011579514,
        -0.0669557973742485,
        0.15020707249641418,
        0.06770581752061844,
        0.08565226197242737,
        0.052038852125406265,
        0.04888376593589783,
        0.12158425897359848,
        0.07263122498989105,
        0.00863240472972393,
        -0.18327388167381287,
        0.12957856059074402,
        -0.10507136583328247,
        -0.060557521879673004,
        -0.05857423320412636,
        -0.10796969383955002,
        -0.2023717612028122,
        0.13827288150787354,
        0.07388109713792801,
        0.11450719833374023,
        0.0648454949259758,
        0.09899953752756119,
        0.042528875172138214,
        0.11214371025562286,
        -0.12350626289844513,
        -0.11403387784957886,
        0.0014149134512990713,
        -0.008070616982877254,
        -0.10458152741193771,
        -0.00727300439029932,
        0.17358295619487762,
        0.00981172826141119,
        0.00039788754656910896,
        0.0037386331241577864,
        -0.029619546607136726,
        0.10544909536838531,
        0.0014487577136605978,
        -0.11394558101892471,
        0.03787269815802574,
        0.011058848351240158,
        0.06349402666091919,
        0.10882550477981567,
        0.10205819457769394,
        -0.07158862799406052,
        0.07743164896965027,
        -0.16226889193058014,
        0.02342076040804386,
        0.14743226766586304,
        0.14103125035762787,
        0.08874792605638504,
        0.053895920515060425,
        -0.1367824375629425,
        -0.1611219346523285,
        0.04563673585653305,
        0.11628110706806183,
        -0.13846933841705322,
        -0.012013155966997147,
        -0.09444814920425415,
        -0.1220610961318016,
        0.13592571020126343,
        0.05141986533999443,
        0.11447926610708237,
        -0.027369355782866478,
        6.338184448395623e-06,
        -0.09272553026676178,
        -0.10519314557313919,
        -0.10806781053543091,
        -0.06265754997730255,
        0.08364290744066238,
        0.11007807403802872,
        -0.11069139838218689,
        -0.10725732147693634,
        0.05574890226125717,
        0.15039347112178802,
        0.11756321042776108,
        -0.019627761095762253,
        0.0008331043645739555,
        -0.09164567291736603,
        -0.011467043310403824,
        0.08170711249113083,
        -0.1575443297624588,
        0.1588771790266037,
        0.0795847475528717,
        0.0005584440077655017,
        0.11440519243478775,
        0.06533946096897125,
        0.018299521878361702,
        -0.12237895280122757,
        -0.0885721892118454,
        -0.11469074338674545,
        0.10660910606384277,
        -0.00259637669660151,
        0.04969277232885361,
        -0.023806659504771233,
        -0.013311930932104588,
        -0.0993264764547348,
        -0.09513597190380096,
        0.04432356357574463,
        0.03815509378910065,
        -0.01591012068092823,
        0.14280039072036743,
        0.000504112453199923,
        -0.0884900689125061,
        0.04219329357147217,
        0.047604385763406754,
        0.05980980023741722,
        0.024939632043242455,
        -0.04459735378623009,
        -0.15607604384422302,
        0.11052905768156052,
        0.09281162172555923,
        0.07344931364059448,
        -0.10694527626037598,
        0.00338202272541821,
        0.163881316781044,
        0.017108462750911713,
        -0.08536570519208908,
        -0.04751039296388626,
        0.11938662827014923,
        0.08917371183633804,
        -0.01150814164429903,
        -0.03751968964934349,
        0.11742441356182098,
        0.04398361220955849,
        0.14995917677879333,
        0.025613272562623024,
        0.019016064703464508,
        -0.12846054136753082,
        -0.04004114121198654,
        0.018882539123296738,
        0.009747584350407124,
        -0.1016666367650032,
        -0.15395615994930267,
        0.1088973805308342,
        0.09569988399744034,
        0.021711960434913635,
        0.12080296128988266,
        -0.1076677218079567,
        0.1436619609594345,
        0.10965359956026077,
        0.07126603275537491,
        -0.01603991538286209,
        0.09967657178640366,
        -0.15257889032363892,
        0.15932904183864594,
        -0.02458176016807556,
        0.029013872146606445,
        -0.1269700825214386,
        -0.04979248717427254,
        0.08533220738172531,
        0.11267775297164917
    },
    {
        0.0960451066493988,
        0.17133735120296478,
        -0.04750308394432068,
        0.007286015432327986,
        0.1487063467502594,
        -0.1091325655579567,
        -0.03392970561981201,
        0.061793599277734756,
        -0.1193951889872551,
        -0.008554265834391117,
        -0.07463342696428299,
        -0.11336831748485565,
        -0.06754501163959503,
        -0.03688718378543854,
        0.11084326356649399,
        -0.1222144141793251,
        0.0821799710392952,
        0.038556311279535294,
        0.09080220758914948,
        0.12581737339496613,
        0.04134301096200943,
        0.011402927339076996,
        -0.06154992803931236,
        -0.167607381939888,
        0.11514601856470108,
        0.009898863732814789,
        0.03416572883725166,
        -0.13243605196475983,
        0.08917585760354996,
        0.05672934278845787,
        -0.16845309734344482,
        -0.13297925889492035,
        0.13252153992652893,
        0.03563982620835304,
        0.08228509873151779,
        -0.08148203045129776,
        -0.10751567035913467,
        0.05015232041478157,
        0.13342998921871185,
        0.1741865575313568,
        -0.1516089141368866,
        -0.10649747401475906,
        0.10055878758430481,
        0.1420714259147644,
        0.08484775573015213,
        -0.13314025104045868,
        0.03271378576755524,
        0.059114329516887665,
        0.04277634248137474,
        0.15410365164279938,
        0.0108996806666255,
        -0.0727429911494255,
        -0.017155436798930168,
        0.12318206578493118,
        0.02650406025350094,
        0.10802008211612701,
        0.14738908410072327,
        -0.00982483197003603,
        -0.07494169473648071,
        0.20310130715370178,
        -0.1631377637386322,
        -0.1561063975095749,
        0.12472907453775406,
        0.1448427438735962,
        0.1420726329088211,
        0.0011777785839512944,
        0.023552600294351578,
        -0.06913401931524277,
        0.11737921088933945,
        0.009973578155040741,
        0.03991534560918808,
        -0.1095728725194931,
        -0.12079954147338867,
        -0.01020613219588995,
        -0.027290863916277885,
        -0.05768994241952896,
        0.04471645504236221,
        0.06387633830308914,
        -0.13294443488121033,
        0.054769113659858704,
        -0.05705223232507706,
        0.04207951948046684,
        -0.01752474531531334,
        -0.13543184101581573,
        0.02455122023820877,
        0.08012740314006805,
        -0.02838663011789322,
        0.04446803405880928,
        0.1271219551563263,
        0.10108134150505066,
        0.13389967381954193,
        -0.013590952381491661,
        0.07711339741945267,
        0.0629495307803154,
        0.07590167969465256,
        0.06580113619565964,
        0.06370221078395844,
        0.0928099974989891,
        0.11935734003782272,
        -0.015162051655352116,
        -0.07788544148206711,
        -0.03367489576339722,
        0.04146108403801918,
        0.16514267027378082,
        0.04096710681915283,
        0.005673669278621674,
        0.10962628573179245,
        -0.16548830270767212,
        0.019627120345830917,
        0.09998414665460587,
        -0.10038607567548752,
        -0.093445785343647,
        0.08085089921951294,
        0.023962318897247314,
        0.08432412147521973,
        0.07450547814369202,
        0.15401127934455872,
        0.030616331845521927,
        -0.10609995573759079,
        0.04318223148584366,
        -0.10146139562129974,
        -0.11455465853214264,
        0.04790192469954491,
        0.08065350353717804,
        0.018942078575491905,
        0.12001315504312515,
        -0.16829019784927368,
        -0.12237706780433655,
        0.12761883437633514,
        0.08670167624950409,
        -0.1294231116771698,
        -0.03360718861222267,
        -0.04420837014913559,
        0.10040657222270966,
        0.1208743080496788,
        0.10985106229782104,
        0.11915082484483719,
        -0.025647206231951714,
        0.027260463684797287,
        0.04336634278297424,
        0.06608252227306366,
        -0.024618258699774742,
        -0.09785241633653641,
        -0.039177071303129196,
        0.12931574881076813,
        -0.16830527782440186,
        -0.013277297839522362,
        -0.14034022390842438,
        -0.01130262203514576,
        -0.12767554819583893,
        0.052107419818639755,
        -0.06485479325056076,
        0.09335240721702576,
        0.016810782253742218,
        -0.06850006431341171,
        -0.0243344958871603,
        -0.032273244112730026,
        0.10115946829319,
        -0.14517246186733246,
        0.044766705483198166,
        0.10260909050703049,
        0.10336098074913025,
        0.05849862098693848,
        0.12766768038272858,
        0.14839057624340057,
        0.09848719835281372,
        0.06002187728881836,
        -0.06524010747671127,
        0.1210436001420021,
        -0.10923757404088974,
        -0.079491525888443,
        -0.04058206453919411,
        -0.11877822130918503,
        0.14631934463977814,
        0.12036554515361786,
        0.08522680401802063,
        0.04822077229619026,
        -0.0951474979519844,
        0.02707304060459137,
        -0.14649634063243866,
        -0.11294291913509369,
        0.11068709939718246,
        0.09407377988100052,
        0.13698717951774597,
        -0.14221800863742828,
        -0.05191314220428467,
        0.07712303847074509,
        0.04976032301783562,
        -0.03206813335418701,
        0.13293933868408203,
        0.01616506651043892,
        -0.11855398863554001
    },
    {
        -0.09615126997232437,
        0.04134959354996681,
        0.003731141798198223,
        -0.02463170513510704,
        0.0003502027248032391,
        0.005208365153521299,
        0.1896740049123764,
        -0.087798573076725,
        -0.03884631022810936,
        -0.02206108719110489,
        -0.09291169047355652,
        -0.05187074840068817,
        -0.1389317512512207,
        0.067796990275383,
        0.10006462782621384,
        0.0017962958663702011,
        0.09875931590795517,
        -0.1562841832637787,
        -0.09219709038734436,
        0.18334290385246277,
        0.05216211453080177,
        -0.15725389122962952,
        0.08533179759979248,
        -0.07656017690896988,
        -0.008825164288282394,
        -0.09943430870771408,
        0.042532265186309814,
        -0.08077337592840195,
        0.05401517078280449,
        -0.06977801024913788,
        0.10016627609729767,
        0.09868867695331573,
        0.026753850281238556,
        -0.06507035344839096,
        0.14697451889514923,
        0.033516500145196915,
        -0.09308402985334396,
        0.11092571914196014,
        -0.048424314707517624,
        0.11243137717247009,
        -0.009091992862522602,
        0.04166711866855621,
        0.08033197373151779,
        0.22062402963638306,
        0.12176165729761124,
        -0.10334887355566025,
        -0.10622456669807434,
        0.030420156195759773,
        0.08779920637607574,
        -0.04108494147658348,
        -0.01672361046075821,
        -0.12201505154371262,
        -0.05609713867306709,
        0.11396641284227371,
        -0.11379806697368622,
        0.044027604162693024,
        -0.14646872878074646,
        -0.06765234470367432,
        0.12419794499874115,
        -0.0710701122879982,
        -0.09199927747249603,
        0.0473458357155323,
        0.1079547107219696,
        -0.0642654150724411,
        0.06230124086141586,
        0.03479187190532684,
        -0.08512090146541595,
        0.10094907134771347,
        0.08346918970346451,
        -0.06369102746248245,
        0.15559285879135132,
        -0.05653311684727669,
        -0.06932228058576584,
        0.004145624116063118,
        -0.05532356724143028,
        -0.009021534584462643,
        0.07240936160087585,
        -0.019520247355103493,
        -0.020378217101097107,
        0.031090080738067627,
        -0.012099865823984146,
        0.08989037573337555,
        -0.03596585988998413,
        -0.07156422734260559,
        -0.14074133336544037,
        0.08198986947536469,
        -0.12140149623155594,
        -0.057853393256664276,
        -0.031127046793699265,
        -0.07848920673131943,
        -0.10476712882518768,
        0.04660923033952713,
        0.014876595698297024,
        -0.1614348441362381,
        -0.07917806506156921,
        0.16688445210456848,
        -0.1057986468076706,
        -0.13590377569198608,
        -0.09886670112609863,
        -0.04393037036061287,
        0.043371252715587616,
        -0.03206394612789154,
        -0.0952838584780693,
        0.049860209226608276,
        -0.11205694079399109,
        -0.11211854219436646,
        0.1425797939300537,
        0.06388197094202042,
        0.11485806852579117,
        0.08908825367689133,
        -0.13732512295246124,
        -0.15190164744853973,
        -0.1570919007062912,
        0.10272960364818573,
        0.03689107671380043,
        -0.07300534099340439,
        0.03210236877202988,
        -0.09760665893554688,
        0.08959271013736725,
        -0.10390785336494446,
        -0.0744524747133255,
        -0.09569186717271805,
        -0.04091028869152069,
        0.12037288397550583,
        -0.031471218913793564,
        0.16205333173274994,
        -0.0893394872546196,
        0.12331541627645493,
        -0.14841797947883606,
        0.06949777901172638,
        0.09410161525011063,
        -0.06773524731397629,
        0.08743824064731598,
        -0.03134451061487198,
        -0.045583322644233704,
        0.141447052359581,
        0.030265772715210915,
        0.08990573137998581,
        0.0398557148873806,
        -0.027874471619725227,
        -0.14668384194374084,
        -0.09691403806209564,
        -0.1548311710357666,
        0.11006869375705719,
        0.06297536939382553,
        -0.04676499962806702,
        0.04470732435584068,
        -0.12821505963802338,
        -0.17106683552265167,
        0.06041891500353813,
        -0.043803904205560684,
        -0.11517922580242157,
        -0.02863955870270729,
        0.0409189872443676,
        -0.061176933348178864,
        0.07459288090467453,
        -0.17561309039592743,
        0.029485004022717476,
        -0.007618286646902561,
        -0.0644679144024849,
        -0.008885829709470272,
        -0.1520625799894333,
        -0.09575681388378143,
        -0.018597204238176346,
        -0.052486345171928406,
        -0.14349962770938873,
        0.024000732228159904,
        -0.06078534945845604,
        0.12286290526390076,
        -0.003955637104809284,
        0.054037779569625854,
        0.05891318991780281,
        0.08740152418613434,
        -0.12976966798305511,
        -0.03875473514199257,
        0.042765140533447266,
        0.05903705209493637,
        -0.027097171172499657,
        0.06804915517568588,
        -0.04229085147380829,
        0.14994582533836365,
        0.040932223200798035,
        0.16421063244342804,
        0.092875637114048,
        -0.06632611900568008,
        0.038353584706783295,
        -0.013319718651473522,
        0.06385793536901474,
        -0.14350691437721252,
        -0.16083911061286926,
        -0.16799595952033997,
        0.11419665813446045
    },
    {
        0.12157532572746277,
        -0.14252619445323944,
        -0.012360965833067894,
        0.07199651002883911,
        -0.06521178781986237,
        -0.1409972459077835,
        -0.007516164798289537,
        0.09276889264583588,
        0.03089080937206745,
        0.09235110878944397,
        -0.13177751004695892,
        -0.09777979552745819,
        -0.11536038666963577,
        0.041328079998493195,
        -0.09444823116064072,
        0.07045964896678925,
        -0.06146618351340294,
        0.023781295865774155,
        -0.03318130597472191,
        0.19017797708511353,
        -0.05300428345799446,
        -0.042072053998708725,
        0.10525280982255936,
        -0.1420443058013916,
        -0.03700946271419525,
        0.12275157868862152,
        0.014290937222540379,
        0.08716801553964615,
        -0.14106501638889313,
        -0.1608993262052536,
        -0.041945818811655045,
        0.1303013414144516,
        -0.011187121272087097,
        -0.01108208205550909,
        0.03709591180086136,
        -0.03147144615650177,
        -0.047214407473802567,
        0.054691094905138016,
        0.16440081596374512,
        -0.03141067177057266,
        0.09926609694957733,
        0.006481118034571409,
        0.03691168874502182,
        0.00777784176170826,
        -0.014800665900111198,
        -0.0377049520611763,
        -0.09257391095161438,
        0.01912883296608925,
        -0.13739536702632904,
        0.08029404282569885,
        -0.16238756477832794,
        0.033186692744493484,
        0.10360249131917953,
        -0.09991762042045593,
        -0.06846343725919724,
        -0.02412276156246662,
        0.05487770214676857,
        0.13255615532398224,
        -0.14784033596515656,
        0.015104583464562893,
        -0.023177582770586014,
        -0.05773128196597099,
        0.03599027544260025,
        0.024517245590686798,
        0.10622652620077133,
        0.029878834262490273,
        0.06753014028072357,
        -0.09236739575862885,
        0.0209199171513319,
        -0.04089412838220596,
        -0.04133140295743942,
        0.029052503407001495,
        0.01843217760324478,
        -0.06170438602566719,
        -0.15091705322265625,
        0.10165566205978394,
        0.06177749112248421,
        -0.10521149635314941,
        -0.10099765658378601,
        0.011614006944000721,
        0.0045183561742305756,
        0.05216827616095543,
        -0.16216282546520233,
        -0.02087712474167347,
        -0.10013778507709503,
        0.03138177469372749,
        -0.07888239622116089,
        0.03380611166357994,
        0.09785380214452744,
        0.08354156464338303,
        -0.05860366299748421,
        0.12601453065872192,
        0.1645089089870453,
        0.13149048388004303,
        -0.01807199977338314,
        -0.09150087088346481,
        -0.0066954283975064754,
        -0.167445570230484,
        0.0002474794746376574,
        -0.16270531713962555,
        0.08322672545909882,
        0.05312619358301163,
        -0.05550266057252884,
        0.04408590868115425,
        -0.06378720700740814,
        0.10951195657253265,
        -0.10848502069711685,
        -0.07582675665616989,
        0.012016505002975464,
        -0.022158050909638405,
        0.07498263567686081,
        0.045844390988349915,
        -0.18186789751052856,
        0.016228189691901207,
        0.11879377067089081,
        -0.08083339035511017,
        -0.10825277864933014,
        -0.08472170680761337,
        0.0652807354927063,
        -0.14949485659599304,
        0.15416058897972107,
        -0.028070511296391487,
        0.11562377214431763,
        0.02561884932219982,
        -0.1581982523202896,
        -0.0029026127886027098,
        -0.05377162992954254,
        0.11485300958156586,
        0.09328946471214294,
        -0.04778105765581131,
        0.014307557605206966,
        -0.09137026220560074,
        -0.08771530538797379,
        0.0900319293141365,
        0.16271889209747314,
        -0.12493911385536194,
        0.057533327490091324,
        0.1146354079246521,
        0.07919134944677353,
        0.10930556803941727,
        -0.081029511988163,
        0.0776975005865097,
        -0.11569633334875107,
        -0.11032053083181381,
        0.08493226766586304,
        -0.026978597044944763,
        -0.04034151881933212,
        -0.13026006519794464,
        -0.06417284905910492,
        0.021846536546945572,
        -0.1404205560684204,
        -0.020579827949404716,
        0.08201874792575836,
        0.05847179889678955,
        0.12274406850337982,
        -0.09415527433156967,
        -0.14868664741516113,
        -0.0906604677438736,
        0.02222670614719391,
        0.07074916362762451,
        0.04450250416994095,
        -0.02575921081006527,
        -0.11844068765640259,
        -0.07921843975782394,
        -0.11717952787876129,
        -0.11455202102661133,
        0.10981166362762451,
        -0.08097885549068451,
        -0.13808035850524902,
        0.10859788954257965,
        0.18644271790981293,
        0.00893416628241539,
        -0.005830187816172838,
        -0.05573302134871483,
        -0.08801178634166718,
        -0.04298672825098038,
        -0.08769898861646652,
        -0.01417471282184124,
        -0.026191288605332375,
        -0.005608984734863043,
        0.015246877446770668,
        -0.169337660074234,
        0.1515190601348877,
        0.0698467493057251,
        -0.04208437353372574,
        -0.04235721379518509,
        0.03295694664120674,
        0.08528870344161987,
        -0.01703476719558239,
        -0.18067079782485962,
        -0.07879121601581573,
        0.15820538997650146
    },
    {
        -0.1606329381465912,
        0.12472336739301682,
        0.1461685299873352,
        -0.05932999029755592,
        0.01971268653869629,
        0.06024479493498802,
        -0.024208344519138336,
        0.10057830065488815,
        0.03424644097685814,
        -0.13808715343475342,
        -0.07286746054887772,
        -0.04137797653675079,
        0.07536754757165909,
        -0.07474516332149506,
        -0.13194093108177185,
        -0.08064275979995728,
        -0.15717145800590515,
        -0.09280454367399216,
        0.04754210636019707,
        0.011727087199687958,
        -0.0025135844480246305,
        0.09911242872476578,
        0.17468473315238953,
        -0.09500093758106232,
        0.12142103910446167,
        -0.017090726643800735,
        0.03376350179314613,
        0.013509300537407398,
        -0.06805495917797089,
        -0.09913522750139236,
        0.02304253913462162,
        0.057747747749090195,
        -0.009435753338038921,
        -0.04486088454723358,
        0.16348841786384583,
        -0.04422060772776604,
        -0.05584428831934929,
        0.07119462639093399,
        0.1068062037229538,
        0.01866087131202221,
        -0.0723501667380333,
        -0.10302596539258957,
        -0.15119799971580505,
        0.10066419094800949,
        -0.08858638256788254,
        -0.08894748240709305,
        0.012987337075173855,
        -0.0634855255484581,
        -0.12023535370826721,
        -0.08150342851877213,
        0.11251331865787506,
        -0.03653290495276451,
        -0.017866225913167,
        0.05590539053082466,
        -0.026275504380464554,
        -0.13149689137935638,
        -0.0272587388753891,
        -0.07626188546419144,
        -0.0836651548743248,
        0.15974365174770355,
        -0.02613965980708599,
        0.09882035851478577,
        -0.049785465002059937,
        -0.13752381503582,
        0.04682650789618492,
        -0.11674638092517853,
        0.13961006700992584,
        -0.014710703864693642,
        -0.14781153202056885,
        -0.05956166610121727,
        0.16803576052188873,
        0.19175711274147034,
        0.06470131874084473,
        0.06371821463108063,
        -0.12235749512910843,
        -0.04093916341662407,
        -0.18863645195960999,
        -0.0015130097744986415,
        0.05876518413424492,
        0.07279612123966217,
        0.005556453485041857,
        0.06351654976606369,
        0.06185537204146385,
        -0.1077575758099556,
        0.027236398309469223,
        -0.07032456994056702,
        0.04480660706758499,
        -0.06763624399900436,
        -0.025828517973423004,
        0.12431468069553375,
        0.15455865859985352,
        0.03347775340080261,
        0.05999324098229408,
        0.032942745834589005,
        0.054367803037166595,
        0.004786481149494648,
        -0.015174353495240211,
        -0.179067000746727,
        0.016318535432219505,
        0.05574238672852516,
        0.08480560034513474,
        -0.06851346045732498,
        0.11395159363746643,
        -0.07968287914991379,
        0.14001250267028809,
        0.1597604900598526,
        -0.08482545614242554,
        -0.03206193447113037,
        0.0808650329709053,
        0.04615308344364166,
        0.08775190263986588,
        -0.02767977863550186,
        -0.08693744987249374,
        -0.08736708760261536,
        0.017305778339505196,
        -0.09294475615024567,
        0.004592976067215204,
        0.11301013082265854,
        0.036245353519916534,
        0.12410275638103485,
        0.11654803901910782,
        -0.08584713935852051,
        0.18285739421844482,
        0.0377163328230381,
        -0.08051601052284241,
        -0.10752950608730316,
        0.11996251344680786,
        -0.1276025027036667,
        0.02908918634057045,
        0.12507030367851257,
        0.15807785093784332,
        0.06715881824493408,
        -0.10487174242734909,
        -0.15481418371200562,
        0.06546231359243393,
        0.09214209020137787,
        -0.039389342069625854,
        -0.015519760549068451,
        -0.15936823189258575,
        -0.11861478537321091,
        0.010139447636902332,
        0.01364600844681263,
        -0.052910249680280685,
        0.07024884968996048,
        0.0659366250038147,
        -0.09919195622205734,
        0.11521594226360321,
        -0.144677996635437,
        -0.10663190484046936,
        -0.10311391204595566,
        0.09501170367002487,
        -0.047882840037345886,
        -0.051845982670784,
        -0.13320200145244598,
        0.06083143129944801,
        0.0046301851980388165,
        -0.023095952346920967,
        -0.16712819039821625,
        -0.03255077823996544,
        -0.03597892448306084,
        -0.04670966416597366,
        -0.037777647376060486,
        -0.10032583773136139,
        0.1395304948091507,
        -0.027387710288167,
        -0.06345945596694946,
        0.081180140376091,
        -0.14984501898288727,
        0.020409395918250084,
        0.001804114319384098,
        0.03989070653915405,
        0.12097198516130447,
        -0.031000671908259392,
        0.03603913262486458,
        0.06137095391750336,
        -0.148512601852417,
        -0.021326817572116852,
        0.0999123752117157,
        0.0758267194032669,
        0.03960375860333443,
        -0.10176800191402435,
        0.01742248795926571,
        0.1660536527633667,
        0.1285954713821411,
        0.10759023576974869,
        -0.004209632985293865,
        0.13207799196243286,
        0.14258338510990143,
        0.043150778859853745,
        -0.031240250915288925,
        0.0015625866362825036,
        0.09325720369815826
    },
    {
        -0.129192516207695,
        -0.018318992108106613,
        0.1533602625131607,
        -0.13142427802085876,
        0.19639122486114502,
        -0.06243860349059105,
        -0.000776643049903214,
        -0.11102758347988129,
        -0.1195412203669548,
        0.067857526242733,
        -0.1101713478565216,
        -0.07998757809400558,
        0.07186956703662872,
        0.0763406753540039,
        -0.13708120584487915,
        0.07416637986898422,
        0.053035616874694824,
        0.09903768450021744,
        0.10245222598314285,
        -0.057392966002225876,
        -0.09999897330999374,
        0.04955963417887688,
        0.1622573286294937,
        -0.17536431550979614,
        -0.08809322863817215,
        -0.11875937134027481,
        0.10555435717105865,
        -0.12203927338123322,
        0.04393024370074272,
        -0.18266792595386505,
        0.096894770860672,
        -0.0942855030298233,
        -0.007021805737167597,
        -0.10916145145893097,
        0.09576042741537094,
        0.040609393268823624,
        0.018813105300068855,
        0.09198244661092758,
        -0.16937752068042755,
        -0.14858406782150269,
        -0.03135528042912483,
        -0.14703384041786194,
        0.0805363729596138,
        -0.03251836821436882,
        -0.1551537662744522,
        -0.06202061474323273,
        -0.15163907408714294,
        -0.09203594923019409,
        0.03180033713579178,
        0.07193097472190857,
        0.06294950842857361,
        -0.02070961520075798,
        0.21796289086341858,
        0.0658857524394989,
        0.01543759647756815,
        -0.08692606538534164,
        -0.08767188340425491,
        -0.04357834905385971,
        -0.1404264122247696,
        0.11152193695306778,
        -0.20840929448604584,
        -0.09477712959051132,
        -0.015879826620221138,
        -0.028534404933452606,
        -0.007662319112569094,
        -0.13382846117019653,
        0.054625846445560455,
        -0.19594450294971466,
        -0.018737278878688812,
        0.1734466552734375,
        0.14145831763744354,
        0.009590456262230873,
        0.1967872679233551,
        0.0643201470375061,
        -0.060471270233392715,
        -0.05304263159632683,
        -0.18395648896694183,
        0.17116020619869232,
        -0.08463627099990845,
        -0.17093972861766815,
        -0.08416317403316498,
        0.051007822155952454,
        -0.1371115893125534,
        0.08073646575212479,
        0.07606992870569229,
        0.11147037148475647,
        -0.09462135285139084,
        -0.14393679797649384,
        0.138861745595932,
        0.17935697734355927,
        0.09164770692586899,
        0.17708753049373627,
        0.010977950878441334,
        0.017956005409359932,
        0.08284104615449905,
        0.02487548440694809,
        0.057372018694877625,
        -0.12607619166374207,
        -0.10128211975097656,
        0.08149663358926773,
        -0.08749689161777496,
        0.08103831112384796,
        0.047246918082237244,
        0.20413784682750702,
        0.019892150536179543,
        -0.024503514170646667,
        -0.10231161117553711,
        -0.0954427570104599,
        -0.15721642971038818,
        0.1498011350631714,
        0.007653519976884127,
        -0.10030444711446762,
        0.12070675939321518,
        0.11056358367204666,
        -0.0442478284239769,
        -0.12948669493198395,
        0.07459661364555359,
        0.10978179425001144,
        -0.10028848797082901,
        -0.002565073547884822,
        -0.11622312664985657,
        0.13120710849761963,
        0.15597152709960938,
        0.09502388536930084,
        -0.003256928874179721,
        -0.04320584610104561,
        0.08205247670412064,
        0.1276492327451706,
        -0.03826579079031944,
        -0.05267934501171112,
        -0.0027576470747590065,
        0.041069116443395615,
        0.07360024750232697,
        -0.09778538346290588,
        0.021117668598890305,
        0.10695639252662659,
        -0.05428103357553482,
        0.0673072338104248,
        -0.07156486809253693,
        0.1044798493385315,
        -0.126349538564682,
        -0.05178160220384598,
        0.01800001785159111,
        -0.06486646085977554,
        0.14337289333343506,
        -0.13298746943473816,
        0.014569448307156563,
        -0.027398252859711647,
        -0.11711404472589493,
        0.11150380969047546,
        -0.04855221137404442,
        -0.14369933307170868,
        0.08891159296035767,
        0.023501988500356674,
        -0.1218370869755745,
        -0.09959304332733154,
        0.11097963154315948,
        0.12888005375862122,
        -0.08278060704469681,
        -0.14831461012363434,
        -0.07989971339702606,
        -0.16035595536231995,
        -0.06175277754664421,
        -0.030041713267564774,
        -0.1619635969400406,
        -0.03936603665351868,
        -0.07980974018573761,
        -0.056606508791446686,
        -0.02318418212234974,
        0.012721970677375793,
        -0.012369462288916111,
        0.131577730178833,
        0.1384081095457077,
        -0.045029956847429276,
        -0.008617224171757698,
        -0.04327322542667389,
        0.053125835955142975,
        -0.07299937307834625,
        -0.1408068686723709,
        0.07048828899860382,
        0.06716965138912201,
        0.10380154103040695,
        0.043891243636608124,
        -0.011564750224351883,
        -0.08193202316761017,
        0.08954496681690216,
        -0.01697101816534996,
        0.03973940759897232,
        -0.18729503452777863,
        -0.014408300630748272,
        0.08421909809112549,
        0.09878876060247421
    },
    {
        -0.1772526353597641,
        0.03691944479942322,
        0.057579588145017624,
        0.03455562889575958,
        -0.04380987212061882,
        -0.16541264951229095,
        0.1384236216545105,
        -0.13634590804576874,
        0.01873798482120037,
        0.09007571637630463,
        -0.038812749087810516,
        -0.08494064956903458,
        -0.04832756891846657,
        -0.1167767122387886,
        -0.06963406503200531,
        0.0955699011683464,
        0.02979804389178753,
        0.05644006282091141,
        -0.12014594674110413,
        0.16617625951766968,
        -0.09829288721084595,
        0.1074877604842186,
        0.037965044379234314,
        -0.0613056905567646,
        -0.051343321800231934,
        -0.027849510312080383,
        -0.024290384724736214,
        -0.014672684483230114,
        -0.039848145097494125,
        0.061129871755838394,
        -0.02721088007092476,
        -0.06325361877679825,
        -0.05028058588504791,
        -0.08639809489250183,
        -0.01624692976474762,
        0.01845407858490944,
        -0.0614805668592453,
        0.001084775198251009,
        -0.11289536952972412,
        -0.0364634208381176,
        -0.05385180935263634,
        0.046978309750556946,
        -0.0033912023063749075,
        0.09626542776823044,
        0.09814450144767761,
        0.07385534793138504,
        -0.06370509415864944,
        -0.058355242013931274,
        0.12301378697156906,
        0.028976617380976677,
        -0.12148134410381317,
        -0.13267257809638977,
        -0.06288368254899979,
        -0.14834246039390564,
        -0.03214460611343384,
        0.07784058898687363,
        0.06299838423728943,
        -0.17633502185344696,
        -0.029957115650177002,
        0.19319330155849457,
        -0.08371569961309433,
        0.022256383672356606,
        -0.1564374715089798,
        0.09566938877105713,
        0.15825910866260529,
        0.029999909922480583,
        -0.04385225102305412,
        0.0958889052271843,
        0.01787571609020233,
        0.00462764035910368,
        -0.09326016902923584,
        -0.0632234513759613,
        0.07726197689771652,
        0.028749361634254456,
        -0.17681504786014557,
        0.10000841319561005,
        0.030213309451937675,
        0.06841402500867844,
        -0.13443681597709656,
        -0.1416264921426773,
        -0.1370571255683899,
        0.03559692203998566,
        -0.027961332350969315,
        -0.12199761718511581,
        -0.11729339510202408,
        0.017254479229450226,
        0.107143335044384,
        0.006286652758717537,
        -0.1164865791797638,
        0.004543382674455643,
        -0.10928886383771896,
        0.14446240663528442,
        0.07700983434915543,
        0.010277293622493744,
        -0.09338342398405075,
        0.16888023912906647,
        -0.15656599402427673,
        -0.020943529903888702,
        -0.030489252880215645,
        -0.15566590428352356,
        -0.008992941118776798,
        0.06843516230583191,
        -0.030913909897208214,
        -0.07141201943159103,
        0.015017037279903889,
        0.11113230139017105,
        0.12561380863189697,
        -0.020090993493795395,
        0.13433954119682312,
        -0.04286659136414528,
        0.09954046458005905,
        -0.07059510797262192,
        0.008220048621296883,
        -0.0691605657339096,
        0.1057833582162857,
        -0.08766984939575195,
        -0.07979751378297806,
        -0.0018578788731247187,
        -0.047661829739809036,
        -0.008722620084881783,
        0.027219559997320175,
        -0.10378531366586685,
        -0.08076740801334381,
        0.14644624292850494,
        0.07591167837381363,
        0.09832732379436493,
        0.033280473202466965,
        -0.10675527155399323,
        -0.16869130730628967,
        0.033000461757183075,
        -0.029027625918388367,
        0.05514947324991226,
        0.022384721785783768,
        0.07486727088689804,
        -0.061139218509197235,
        0.054826799780130386,
        0.15718097984790802,
        -0.03690314665436745,
        -0.004847084637731314,
        -0.14243538677692413,
        0.13599947094917297,
        0.05270874872803688,
        0.07528660446405411,
        -0.11331727355718613,
        -0.05134275183081627,
        0.05381344258785248,
        0.11179705709218979,
        0.11713540554046631,
        -0.03432292118668556,
        -0.17235015332698822,
        0.11546508222818375,
        -0.11952125281095505,
        0.10320376604795456,
        -0.1625821590423584,
        0.1584615707397461,
        -0.012481818906962872,
        0.11576913297176361,
        0.11848001927137375,
        -0.12681439518928528,
        -0.03917115181684494,
        0.07955526560544968,
        -0.07806342840194702,
        -0.11258381605148315,
        0.1083240956068039,
        -0.14547260105609894,
        -0.05406250059604645,
        0.09177140146493912,
        0.13943877816200256,
        0.06091197580099106,
        0.07020354270935059,
        -0.09212082624435425,
        -0.09326964616775513,
        -0.14804741740226746,
        0.024017902091145515,
        0.07656830549240112,
        0.1417248249053955,
        -0.13309651613235474,
        0.04734896495938301,
        -0.14162708818912506,
        0.05156257748603821,
        0.0269971564412117,
        -0.13509567081928253,
        -0.050618793815374374,
        0.04697675257921219,
        -0.0002733916917350143,
        0.13111373782157898,
        -0.08340819180011749,
        -0.1266159564256668,
        0.017497561872005463,
        -0.12255512177944183,
        0.008469833061099052,
        -0.0352800153195858
    },
    {
        -0.11218021810054779,
        0.008931923657655716,
        0.11118265986442566,
        0.04579436779022217,
        -0.029283933341503143,
        -0.07265506684780121,
        0.07304150611162186,
        0.1098054051399231,
        0.09646590054035187,
        -0.12676964700222015,
        -0.008690308779478073,
        0.0222641471773386,
        0.06263384222984314,
        -0.11877268552780151,
        -0.13509035110473633,
        0.052484702318906784,
        0.08848419040441513,
        -0.03016166388988495,
        -0.12419760227203369,
        0.02313435636460781,
        0.13422802090644836,
        -0.07420003414154053,
        0.13012821972370148,
        -0.14788201451301575,
        -0.17881305515766144,
        -0.17468230426311493,
        -0.1342610865831375,
        0.058743152767419815,
        0.04734789580106735,
        0.00819228496402502,
        -0.13293680548667908,
        0.005623284727334976,
        -0.14946876466274261,
        -0.08689054101705551,
        -0.16420035064220428,
        0.10194230079650879,
        0.08079564571380615,
        -0.06640565395355225,
        0.08648034185171127,
        -0.09531205892562866,
        -0.12924131751060486,
        -0.05720364674925804,
        -0.16337057948112488,
        0.19507890939712524,
        -0.011177118867635727,
        0.05200354754924774,
        0.002863766625523567,
        -0.11940674483776093,
        -0.025013761594891548,
        -0.049365218728780746,
        -0.12815722823143005,
        -0.13331164419651031,
        0.18018242716789246,
        -0.11989250034093857,
        0.0066122030839324,
        0.004879111424088478,
        -0.1839970201253891,
        -0.11872544139623642,
        0.11000992357730865,
        0.06270202994346619,
        0.08163309842348099,
        0.0920395478606224,
        0.09119334071874619,
        0.05275701358914375,
        0.0711996778845787,
        -0.033392805606126785,
        0.07524429261684418,
        0.10294008255004883,
        0.043621230870485306,
        -0.008652429096400738,
        0.044456131756305695,
        -0.025546075776219368,
        -0.08376814424991608,
        -0.15945830941200256,
        0.13019631803035736,
        0.06476297974586487,
        -0.11450198292732239,
        0.020800931379199028,
        -0.12296697497367859,
        0.10538626462221146,
        -0.08431821316480637,
        -0.0028736935928463936,
        0.1287282258272171,
        0.09188637882471085,
        -0.10352566838264465,
        -0.03672702983021736,
        -0.13310733437538147,
        0.08650199323892593,
        0.17745660245418549,
        -0.027365006506443024,
        0.07359857112169266,
        0.1558430790901184,
        -0.07617354393005371,
        -0.1324741393327713,
        0.09079523384571075,
        -0.06603304296731949,
        -0.10245895385742188,
        -0.16636380553245544,
        0.11064047366380692,
        0.0209975466132164,
        0.08047693967819214,
        -0.0013564664404839277,
        0.07511787116527557,
        0.08050940185785294,
        -0.09570451080799103,
        -0.06626786291599274,
        -0.09464632719755173,
        0.019012760370969772,
        0.1313251405954361,
        -0.06315164268016815,
        0.07773485034704208,
        0.013345107436180115,
        0.08818934112787247,
        0.06064080819487572,
        -0.03642335161566734,
        -0.14970338344573975,
        0.12353689968585968,
        -0.10967431217432022,
        -0.14921876788139343,
        0.004940130282193422,
        0.07242217659950256,
        -0.07588174939155579,
        0.11912205070257187,
        -0.04916410520672798,
        -0.04550549387931824,
        0.04586479812860489,
        -0.005416324362158775,
        -0.041194308549165726,
        -0.10744066536426544,
        -0.03290107846260071,
        -0.04260312393307686,
        0.11098339408636093,
        0.12924940884113312,
        -0.03188813105225563,
        -0.04931354522705078,
        -0.15549366176128387,
        -0.10289991647005081,
        -0.08618386089801788,
        0.04283891245722771,
        -0.07832754403352737,
        0.12527179718017578,
        -0.08621744066476822,
        0.008996820077300072,
        -0.13135841488838196,
        0.03464587405323982,
        0.012338811531662941,
        0.10321128368377686,
        0.1311313360929489,
        0.05851580575108528,
        -0.09626986086368561,
        -0.060305021703243256,
        0.029633903875947,
        0.09884150326251984,
        -0.15186773240566254,
        0.06439605355262756,
        0.10372410714626312,
        0.13156506419181824,
        0.03441368788480759,
        -0.05034974589943886,
        -0.07791837304830551,
        -0.025238754227757454,
        -0.07036290317773819,
        -0.062311843037605286,
        0.005863009952008724,
        0.02746850810945034,
        -0.031583841890096664,
        -0.010939838364720345,
        -0.09651876240968704,
        -0.058227576315402985,
        0.1521787941455841,
        -0.119183249771595,
        -0.11622770130634308,
        0.13914382457733154,
        -0.034190088510513306,
        -0.0901356041431427,
        0.12970677018165588,
        0.008374683558940887,
        -0.09637399017810822,
        -0.11942078173160553,
        0.14157724380493164,
        0.1437177062034607,
        -0.0015652126166969538,
        -0.12187883257865906,
        -0.09536184370517731,
        -0.14613713324069977,
        0.04178028181195259,
        -0.031243203207850456,
        0.02643517777323723,
        0.05924421176314354,
        -0.03910071775317192,
        0.06983954459428787,
        -0.062427036464214325
    },
    {
        -0.04260510578751564,
        0.14827962219715118,
        0.08224862813949585,
        -0.011597288772463799,
        0.10886435955762863,
        0.09462840110063553,
        -0.055732812732458115,
        0.0699656754732132,
        -0.021709227934479713,
        0.08416211605072021,
        0.023944294080138206,
        0.04189639538526535,
        0.05268236994743347,
        -0.01117330975830555,
        -0.16550827026367188,
        0.038717206567525864,
        -0.03115799091756344,
        0.004367008339613676,
        0.13346192240715027,
        0.06391019374132156,
        0.13815198838710785,
        -0.047506075352430344,
        0.05161145329475403,
        0.002893889555707574,
        -0.046687204390764236,
        0.04465620219707489,
        -0.07289857417345047,
        -0.11940893530845642,
        0.027571160346269608,
        -0.09809975326061249,
        -0.0077910032123327255,
        -0.12699095904827118,
        -0.13148316740989685,
        -0.15269847214221954,
        0.07897862792015076,
        -0.1678021103143692,
        0.10671036690473557,
        0.0007111854501999915,
        0.017604529857635498,
        -0.041643038392066956,
        -0.07975414395332336,
        -0.02742505818605423,
        -0.04160842299461365,
        0.042155660688877106,
        -0.09297949075698853,
        -0.08756861090660095,
        -0.10202273726463318,
        0.05090895667672157,
        -0.079219751060009,
        0.177968367934227,
        -0.15220151841640472,
        -0.03836391121149063,
        0.16723419725894928,
        -0.08056484162807465,
        -0.015767570585012436,
        -0.06829416751861572,
        0.17859520018100739,
        -0.025021100416779518,
        -0.07819586992263794,
        0.11506904661655426,
        -0.16421563923358917,
        -0.13990682363510132,
        0.07684284448623657,
        -0.012087134644389153,
        -0.10955023765563965,
        -0.1216195672750473,
        -0.03399701416492462,
        -0.14431416988372803,
        0.022929029539227486,
        -0.060077961534261703,
        0.1440453678369522,
        0.1539537012577057,
        0.1122833639383316,
        0.04326855018734932,
        -0.13628548383712769,
        0.042225684970617294,
        -0.04565763846039772,
        -0.12551136314868927,
        -0.1301664412021637,
        -0.09660232812166214,
        0.029851805418729782,
        0.089723601937294,
        0.10503921657800674,
        -0.014479260891675949,
        -0.10606945306062698,
        0.1408119797706604,
        0.11518977582454681,
        -0.07886501401662827,
        0.010927862487733364,
        0.16820135712623596,
        -0.04283500462770462,
        0.08516672998666763,
        -0.07187624275684357,
        -0.10683794319629669,
        -0.10559817403554916,
        0.10111824423074722,
        0.09678690135478973,
        0.09780538082122803,
        0.1258692890405655,
        0.05544440075755119,
        -0.13689710199832916,
        0.11131137609481812,
        -0.11557673662900925,
        0.01965167000889778,
        -0.06765218824148178,
        0.09601839631795883,
        -0.047069206833839417,
        -0.006512908730655909,
        0.09571598470211029,
        0.057282548397779465,
        -0.0814509242773056,
        -0.08303794264793396,
        -0.17100673913955688,
        -0.014802544377744198,
        0.04346919059753418,
        0.08098721504211426,
        0.035081371665000916,
        0.09466033428907394,
        0.05800822004675865,
        -0.07490836083889008,
        -0.025838790461421013,
        -0.1493719518184662,
        0.051862508058547974,
        0.02777465619146824,
        -0.05423109978437424,
        0.15146374702453613,
        0.10554514080286026,
        0.035153213888406754,
        0.06422042101621628,
        -0.0077378470450639725,
        -0.1650664508342743,
        -0.1662193387746811,
        -0.04504325985908508,
        0.12778224050998688,
        0.036178313195705414,
        -0.011837569065392017,
        -0.025937911123037338,
        0.01469398569315672,
        0.07964777201414108,
        0.03195859119296074,
        -0.14457078278064728,
        -0.15265288949012756,
        0.11527286469936371,
        -0.0719343051314354,
        0.08295932412147522,
        -0.15557461977005005,
        -0.08319711685180664,
        0.06548706442117691,
        0.023387959226965904,
        -0.13772563636302948,
        -0.0907120406627655,
        -0.15279193222522736,
        -0.06203503906726837,
        0.15938220918178558,
        0.019488688558340073,
        0.14343255758285522,
        0.04696125164628029,
        -0.0895279124379158,
        -0.18302568793296814,
        0.16205865144729614,
        0.108583964407444,
        0.1280909776687622,
        0.04436799883842468,
        -0.09251699596643448,
        0.13772228360176086,
        0.0036194955464452505,
        0.11916533857584,
        0.17041777074337006,
        -0.018766440451145172,
        -0.14421622455120087,
        0.03604507818818092,
        -0.16154414415359497,
        0.035070519894361496,
        0.001419094274751842,
        -0.1407655030488968,
        -0.13639351725578308,
        -0.1675558090209961,
        0.0051629673689603806,
        -0.10854247212409973,
        -0.1479201763868332,
        0.1603425145149231,
        0.04144921153783798,
        -0.05249809846282005,
        0.06674642115831375,
        0.05628976598381996,
        -0.11902561783790588,
        -0.10525726526975632,
        0.05181654542684555,
        0.0818697065114975,
        0.15346655249595642,
        -0.09011239558458328,
        0.09346627444028854
    },
    {
        0.037806104868650436,
        0.12803860008716583,
        0.03535326197743416,
        -0.02842237986624241,
        0.14261098206043243,
        -0.07518073916435242,
        0.10922970622777939,
        0.059907350689172745,
        -0.03965114802122116,
        0.061150260269641876,
        0.0005541362916119397,
        -0.16806459426879883,
        -0.108309805393219,
        -0.15376891195774078,
        -0.17671535909175873,
        0.04545838013291359,
        -0.08612040430307388,
        0.21803268790245056,
        -0.0012089794036000967,
        0.033515769988298416,
        -0.0845165029168129,
        -0.03065175563097,
        0.1461138129234314,
        -0.15833750367164612,
        0.11815386265516281,
        -0.032845638692379,
        -0.08642526715993881,
        -0.07223359495401382,
        0.02321798913180828,
        0.026206325739622116,
        -0.07493958622217178,
        0.07891209423542023,
        -0.09740740060806274,
        -0.1718704104423523,
        -0.07283604890108109,
        0.06502092629671097,
        -0.148040771484375,
        0.23596569895744324,
        0.04219420999288559,
        -0.051635291427373886,
        0.0916222557425499,
        -0.052527640014886856,
        -0.06417260318994522,
        0.17831704020500183,
        0.12135031074285507,
        -0.12175247818231583,
        -0.012611382640898228,
        -0.1464807540178299,
        0.05264292284846306,
        0.15713916718959808,
        0.05981099233031273,
        0.11208771914243698,
        0.20640428364276886,
        0.08043462038040161,
        0.034491557627916336,
        0.11558521538972855,
        0.06709267944097519,
        -0.04412951320409775,
        -0.12750598788261414,
        -0.031102100387215614,
        0.08038400113582611,
        -0.08952553570270538,
        -0.06767968088388443,
        0.1110096350312233,
        0.03299691155552864,
        -0.0005434863269329071,
        0.08432497829198837,
        -0.1250418871641159,
        0.0008077219827100635,
        -0.009837024845182896,
        -0.09624583274126053,
        0.024102525785565376,
        0.03116379678249359,
        0.07204987853765488,
        -0.04454972967505455,
        -0.1409125179052353,
        0.04099198803305626,
        -0.002335873432457447,
        -0.01159624382853508,
        0.046624861657619476,
        -0.11229106038808823,
        -0.07479619979858398,
        -0.007478244602680206,
        -0.10202087461948395,
        -0.01719743199646473,
        -0.08402231335639954,
        0.12453488260507584,
        -0.03608264401555061,
        0.057505931705236435,
        -0.10242235660552979,
        0.08829300850629807,
        -0.19050587713718414,
        -0.16995565593242645,
        -0.15946894884109497,
        0.07818400114774704,
        -0.029564816504716873,
        -0.1382911652326584,
        0.02248464524745941,
        -0.01900164596736431,
        -0.16492411494255066,
        -0.015350235626101494,
        0.05292600020766258,
        -0.07512282580137253,
        0.13664983212947845,
        0.06415681540966034,
        -0.06815158575773239,
        0.05793328210711479,
        -0.08102831244468689,
        0.054666370153427124,
        0.1411866843700409,
        0.010997052304446697,
        0.051685087382793427,
        0.008159746415913105,
        0.015667978674173355,
        -0.04681725427508354,
        -0.07369283586740494,
        0.10704269260168076,
        0.05481639876961708,
        -0.04906069487333298,
        0.07913834601640701,
        0.03814798220992088,
        -0.03892779350280762,
        -0.10208000242710114,
        0.08475922048091888,
        -0.08816064894199371,
        0.16389593482017517,
        -0.05811921879649162,
        -0.07012481987476349,
        -0.1249806359410286,
        0.08984308689832687,
        -0.14496958255767822,
        -0.1430714875459671,
        0.13611803948879242,
        0.031920552253723145,
        0.11992314457893372,
        0.02948286384344101,
        -0.02554900199174881,
        -0.18624213337898254,
        -0.08606787025928497,
        0.057789698243141174,
        0.019509853795170784,
        -0.018087778240442276,
        0.1274132877588272,
        -0.055879171937704086,
        -0.11364790797233582,
        0.10727258771657944,
        -0.17985676229000092,
        -0.006348229944705963,
        -0.08835216611623764,
        -0.13239234685897827,
        -0.015100328251719475,
        -0.13346987962722778,
        -0.0448702909052372,
        -0.10924537479877472,
        -0.07820804417133331,
        0.01898539811372757,
        0.09869790822267532,
        -0.1591125875711441,
        0.008563831448554993,
        0.0958331972360611,
        0.17432212829589844,
        0.16243205964565277,
        -0.08023971319198608,
        0.03839065507054329,
        -0.035362470895051956,
        0.005993954837322235,
        -0.044358108192682266,
        -0.09937694668769836,
        -0.06176948919892311,
        -0.09323965758085251,
        0.010646109469234943,
        0.0658700093626976,
        -0.04362830892205238,
        0.06051779165863991,
        -0.007318852469325066,
        0.01261831820011139,
        -0.10214200615882874,
        -0.07733628153800964,
        -0.10319164395332336,
        0.020826976746320724,
        0.09761563688516617,
        0.12333580106496811,
        0.09635059535503387,
        0.017900506034493446,
        0.12198613584041595,
        -0.07945472747087479,
        0.16040174663066864,
        0.07373561710119247,
        0.12021119147539139,
        0.1248154267668724,
        0.06942249089479446,
        0.02925475314259529
    },
    {
        -0.016492793336510658,
        -0.0754404291510582,
        0.06505484133958817,
        -0.13771432638168335,
        0.14584654569625854,
        0.1084829568862915,
        -0.017641959711909294,
        0.055795006453990936,
        0.11270201206207275,
        -0.06373967230319977,
        -0.11313521862030029,
        -0.12648890912532806,
        0.09216464310884476,
        0.17134113609790802,
        0.032236382365226746,
        -0.1419917792081833,
        0.09685026109218597,
        -0.11769174039363861,
        0.03335747867822647,
        0.08095169812440872,
        0.10517637431621552,
        -0.07306468486785889,
        0.14417247474193573,
        -0.043178729712963104,
        0.06134175509214401,
        -0.009980917908251286,
        -0.1401420682668686,
        -0.044759783893823624,
        -0.13148386776447296,
        -0.09025594592094421,
        -0.11733967065811157,
        -0.07839018851518631,
        -0.03327706456184387,
        -0.1177091971039772,
        0.10600434988737106,
        -0.007642149925231934,
        -0.011706949211657047,
        0.1504184901714325,
        -0.029162107035517693,
        0.1758766621351242,
        0.00921024102717638,
        -0.13812178373336792,
        0.022014737129211426,
        0.15077874064445496,
        0.1498725563287735,
        -0.04002290964126587,
        -0.11839386820793152,
        0.01745767518877983,
        -0.07730503380298615,
        -0.009578961879014969,
        0.0703277513384819,
        0.05877115577459335,
        0.006275139283388853,
        -0.02070212922990322,
        0.10530560463666916,
        0.0676671713590622,
        0.13359995186328888,
        0.0861327052116394,
        -0.03677007555961609,
        0.03009064309298992,
        -0.053149256855249405,
        0.11753552407026291,
        0.1103014349937439,
        -0.17040513455867767,
        0.08615513890981674,
        -0.02330358885228634,
        0.036019667983055115,
        -0.15513011813163757,
        0.020617185160517693,
        0.0316123366355896,
        -0.09601397812366486,
        0.04744569957256317,
        -0.02921801619231701,
        -0.16977384686470032,
        0.06539348512887955,
        -0.08812963217496872,
        -0.15466630458831787,
        -0.0825720801949501,
        0.006938145961612463,
        -0.12928108870983124,
        -0.09869357943534851,
        -0.1295490562915802,
        -0.10570840537548065,
        -0.13634614646434784,
        0.021726451814174652,
        -0.023570023477077484,
        0.12191011756658554,
        0.13690894842147827,
        -0.08449947088956833,
        0.1548769176006317,
        0.011184700764715672,
        0.010799714364111423,
        0.13906536996364594,
        -0.12695199251174927,
        0.1596253514289856,
        0.05327250435948372,
        -0.10420481860637665,
        -0.08962725102901459,
        0.10152316838502884,
