#ifndef TD_0_BIAS_H
#define TD_0_BIAS_H

#include "../global_settings.h"

// Taken from: time_distributed_bias.h
const float td0_bias[FILTERS] = {
    -0.0017259232699871063,
    -0.016384026035666466,
    0.0018957097781822085,
    0.0007495380705222487,
    -0.006181792356073856,
    0.006068157963454723,
    0.003048543119803071,
    -0.018528591841459274,
    -0.012651818804442883,
    -0.017010174691677094,
    -0.01249175239354372,
    -0.012117589823901653,
    -0.005161359906196594,
    -0.026221469044685364,
    -0.00031422715983353555,
    0.0004028487019240856,
    0.010737139731645584,
    0.0012270173756405711,
    0.006399794481694698,
    0.0007102267118170857,
    0.01059704925864935,
    -0.03418170288205147,
    -0.02112937532365322,
    -0.020508212968707085,
    -0.0068251630291342735,
    -0.005509940441697836,
    0.0008273120038211346,
    -0.0003785167937166989,
    -0.01137065701186657,
    -0.0044138445518910885,
    -0.017913220450282097,
    0.001577597577124834,
    -0.030751805752515793,
    -0.021203575655817986,
    -0.04184642806649208,
    -0.007889417931437492,
    -0.0077370512299239635,
    -0.0012081163004040718,
    -0.01480809599161148,
    -0.0035425282549113035,
    -0.020931392908096313,
    -0.008202677592635155,
    -0.009950362145900726,
    -0.024501638486981392,
    -0.020708372816443443,
    -0.014608044177293777,
    0.010193722322583199,
    -0.02038479410111904,
    -0.0021240615751594305,
    0.0069398414343595505,
    0.00820073764771223,
    -0.009475176222622395,
    -0.006495064590126276,
    -0.014326026663184166,
    -0.010642752051353455,
    -0.023437272757291794,
    -0.024604639038443565,
    -0.030175307765603065,
    -0.011046485044062138,
    -0.01883925125002861,
    -0.004856455139815807,
    -0.00517062284052372,
    -0.006269524805247784,
    -0.009919330477714539,
};

#endif // TD_0_BIAS_H
