#ifndef TD_0_KERNEL_H
#define TD_0_KERNEL_H

#include "../global_settings.h"

// Taken from: time_distributed_kernel.h
const float td0_kernel[FILTERS*2] = {
    -0.6508742570877075,
    -0.7669867873191833,
    -0.5249029397964478,
    -0.909524142742157,
    -0.6550949215888977,
    -0.5425108075141907,
    -0.7236831784248352,
    -1.0616611242294312,
    -0.8512527346611023,
    -0.7811344265937805,
    -0.8141562342643738,
    -0.5735757946968079,
    -0.7701783776283264,
    -0.552944004535675,
    0.8719830513000488,
    1.0338796377182007,
    0.47746530175209045,
    0.7264775633811951,
    0.7574694156646729,
    1.0737959146499634,
    0.5308960676193237,
    0.707960307598114,
    0.6371164917945862,
    0.6528781652450562,
    -0.44548866152763367,
    -0.8613497018814087,
    0.8412282466888428,
    0.5287671685218811,
    -0.5577490329742432,
    -0.9953282475471497,
    -0.7820355296134949,
    -0.8563969135284424,
    -0.8861239552497864,
    -0.8485686779022217,
    -0.6594029664993286,
    -0.8989055156707764,
    -0.9155477285385132,
    -0.5116812586784363,
    -0.9436151385307312,
    -0.8565928339958191,
    -0.8854358792304993,
    -0.8866353631019592,
    0.5749923586845398,
    0.9531330466270447,
    0.8947280049324036,
    1.0257867574691772,
    0.7685897350311279,
    0.9218094348907471,
    0.47351324558258057,
    0.9733914136886597,
    -0.3684917092323303,
    -0.6003496050834656,
    -0.7162736654281616,
    -0.7912014126777649,
    -0.8709914088249207,
    -1.0753843784332275,
    0.4537830650806427,
    1.0338536500930786,
    -0.5469948649406433,
    -1.0614601373672485,
    0.6325947046279907,
    0.9919112324714661,
    -0.5956380367279053,
    -0.9839558005332947,
    0.8106785416603088,
    0.8563070297241211,
    0.8453421592712402,
    0.6630685925483704,
    -0.991058349609375,
    -0.9837081432342529,
    0.4626120328903198,
    0.5968641638755798,
    -0.6297301650047302,
    -1.165613055229187,
    -0.7286702394485474,
    -0.9235445261001587,
    0.738329291343689,
    0.6685346364974976,
    -0.4895651936531067,
    -0.5963969826698303,
    0.7940831184387207,
    1.0082906484603882,
    0.4457070231437683,
    0.9549612998962402,
    0.6188892126083374,
    0.9509134292602539,
    0.5517693161964417,
    1.0812610387802124,
    0.8547271490097046,
    1.0257830619812012,
    -0.9959444403648376,
    -1.2002190351486206,
    -0.8878390192985535,
    -0.90278559923172,
    0.8993788361549377,
    1.0138415098190308,
    -0.5293195843696594,
    -0.9971631169319153,
    -0.8264560103416443,
    -0.8865354061126709,
    -0.9345835447311401,
    -0.7309977412223816,
    0.5795546174049377,
    1.0375162363052368,
    -0.4712787866592407,
    -0.9297950863838196,
    0.7250586152076721,
    0.690282940864563,
    0.4586718678474426,
    0.5187284350395203,
    0.8486849665641785,
    0.8244242668151855,
    0.8644086122512817,
    1.0382097959518433,
    0.5913796424865723,
    1.100548505783081,
    0.6171572208404541,
    0.9943146705627441,
    0.37551772594451904,
    1.004972219467163,
    -0.39972686767578125,
    -1.0906401872634888,
    -0.6543782949447632,
    -0.6446870565414429,
    -0.6994761824607849,
    -1.1671050786972046,
    -0.41865161061286926,
    -0.9068347811698914,
};

#endif // TD_0_KERNEL_H
