const float time_distributed_1_kernel[1][64] = {
    {
        0.21660758554935455,
        0.1338217556476593,
        0.35850584506988525,
        0.23414717614650726,
        0.1416054517030716,
        0.33397701382637024,
        0.26025816798210144,
        -0.4037971496582031,
        -0.19223782420158386,
        -0.2982288897037506,
        -0.21257667243480682,
        -0.2836700677871704,
        0.24303363263607025,
        -0.1473812609910965,
        0.34979546070098877,
        0.19548927247524261,
        0.4347054064273834,
        0.29038679599761963,
        0.22852759063243866,
        0.16295944154262543,
        0.4095330536365509,
        -0.12452797591686249,
        -0.32538679242134094,
        -0.22310702502727509,
        -0.3880902826786041,
        0.24704287946224213,
        0.23186691105365753,
        0.18410633504390717,
        -0.2233329713344574,
        0.23138873279094696,
        -0.20350006222724915,
        0.41832831501960754,
        -0.15492762625217438,
        -0.22024928033351898,
        0.14626026153564453,
        -0.29222798347473145,
        0.18600988388061523,
        0.19868221879005432,
        -0.2926214337348938,
        0.2550981044769287,
        -0.23999959230422974,
        -0.29015299677848816,
        -0.41834431886672974,
        -0.1554294377565384,
        -0.29181569814682007,
        0.18573446571826935,
        0.3626871705055237,
        -0.3591649830341339,
        0.2961403727531433,
        0.30670157074928284,
        0.23375892639160156,
        -0.3792528510093689,
        0.2123667597770691,
        -0.30031096935272217,
        -0.1985579878091812,
        -0.21350735425949097,
        -0.23246414959430695,
        -0.14737015962600708,
        -0.34794142842292786,
        -0.1464373767375946,
        0.3079359531402588,
        0.16586558520793915,
        0.18552206456661224,
        0.177810937166214,
    },
};
