#ifndef GRU_0_BACKWARD_KERNEL_H
#define GRU_0_BACKWARD_KERNEL_H
#include "../types.h"
#include "../size_bgru.h"

// Taken from: q_bidirectional_gru_backward_kernel.h
const gru_weigth_t g_0_backward_kernel[GRU0_KERNEL_SIZE] = {
    -0.012936092913150787,
    0.23723104596138,
    0.1717289537191391,
    -0.2265632450580597,
    -0.09260761737823486,
    0.013727555982768536,
    -0.05503480136394501,
    0.4774901568889618,
    -0.07341170310974121,
    0.4093626141548157,
    0.1604769229888916,
    -0.222185418009758,
    -0.490041583776474,
    0.5125765204429626,
    0.18756060302257538,
    0.15196235477924347,
    -0.32052361965179443,
    0.11609917879104614,
    0.32392024993896484,
    0.5668216347694397,
    0.2208939492702484,
    0.16977590322494507,
    -0.4074123501777649,
    0.21358494460582733,
    0.2026759833097458,
    0.33607879281044006,
    -0.19035078585147858,
    0.21762892603874207,
    -0.16622783243656158,
    0.6676687002182007,
    -0.027069073170423508,
    0.32192033529281616,
    0.5243078470230103,
    0.5146262645721436,
    0.29821673035621643,
    -0.02285623550415039,
    0.4147050082683563,
    0.24187688529491425,
    0.36157748103141785,
    0.06558633595705032,
    0.44045302271842957,
    -0.15746842324733734,
    0.4998522400856018,
    -0.4163739085197449,
    0.3947153389453888,
    -0.14294445514678955,
    -0.3432857096195221,
    -0.06885644793510437,
    -0.12004823237657547,
    0.21510198712348938,
    0.366533100605011,
    -0.03831014782190323,
    -0.31094449758529663,
    0.1353495717048645,
    0.41343221068382263,
    0.04319527745246887,
    0.5227168798446655,
    -0.2622162103652954,
    0.25475403666496277,
    -0.03270191326737404,
    -0.3634568750858307,
    0.08509679138660431,
    0.20439451932907104,
    -0.08882629871368408,
    -0.12445579469203949,
    0.21032686531543732,
    -0.21910452842712402,
    0.382865846157074,
    0.08608607202768326,
    -0.18482698500156403,
    -0.0717770904302597,
    0.20078778266906738,
    -0.04737409949302673,
    0.44019147753715515,
    -0.19355283677577972,
    0.04273001104593277,
    -0.04933147132396698,
    0.27713754773139954,
    -0.043301697820425034,
    0.33336499333381653,
    -0.20603099465370178,
    -0.11329586058855057,
    0.3349316418170929,
    0.20792698860168457,
    0.0564451739192009,
    -0.13209538161754608,
    0.07552247494459152,
    0.3134371042251587,
    0.29567286372184753,
    0.15714572370052338,
    -0.17570240795612335,
    -0.07796160876750946,
    0.2166673094034195,
    0.13997092843055725,
    0.01178558636456728,
    -0.29264867305755615,
    0.23438265919685364,
    0.21110504865646362,
    -0.1407918632030487,
    0.09427400678396225,
    -0.07536309212446213,
    0.4970974326133728,
    -0.1458320915699005,
    0.2826102077960968,
    0.2867109179496765,
    0.22921687364578247,
    0.06586898118257523,
    -0.0066930451430380344,
    0.1448485553264618,
    0.2962808907032013,
    0.19296573102474213,
    -0.19225920736789703,
    0.1387404352426529,
    0.07231906801462173,
    0.30676648020744324,
    -0.10337202996015549,
    -0.20486800372600555,
    0.02996818535029888,
    0.19984965026378632,
    -0.08095721900463104,
    0.056111276149749756,
    0.40546131134033203,
    0.40387552976608276,
    0.27704721689224243,
    0.07573041319847107,
    0.38347339630126953,
    0.3782200813293457,
    0.07652679830789566,
    -0.27410629391670227,
    0.07528030872344971,
    0.18596602976322174,
    0.2983436584472656,
    0.06369820982217789,
    0.29475706815719604,
    0.34584060311317444,
    -0.35152843594551086,
    0.27807286381721497,
    0.011199891567230225,
    0.365303635597229,
    0.1531500369310379,
    0.1183638647198677,
    -0.0019860335160046816,
    -0.3044452667236328,
    0.15073904395103455,
    -0.1948937177658081,
    0.28378015756607056,
    -0.14386360347270966,
    -0.3581923544406891,
    -0.02199416607618332,
    0.18186746537685394,
    -0.22110991179943085,
    0.06932547688484192,
    0.2490367591381073,
    0.3308671712875366,
    0.17133642733097076,
    -0.16909201443195343,
    0.2828863561153412,
    0.012160709127783775,
    -0.1469597965478897,
    -0.2732110023498535,
    -0.3893159031867981,
    -0.23768819868564606,
    0.16362343728542328,
    0.07605202496051788,
    0.17443378269672394,
    -0.010868588462471962,
    0.32794293761253357,
    0.12803764641284943,
    -0.024526838213205338,
    -0.14601631462574005,
    -0.1611851304769516,
    -0.16532519459724426,
    -0.1105588898062706,
    -0.017981326207518578,
    -0.11615803092718124,
    -0.33073505759239197,
    -0.08655678480863571,
    -0.23998968303203583,
    -0.12055551260709763,
    0.1323644518852234,
    -0.2339888960123062,
    -0.18692556023597717,
    0.061246518045663834,
    -0.2885652482509613,
    -0.2926434576511383,
    -0.05549371615052223,
    0.18667487800121307,
    0.24965034425258636,
    -0.13963410258293152,
    0.30456268787384033,
    -0.2394798994064331,
    -0.13146670162677765,
};

#endif // GRU_0_BACKWARD_KERNEL_H